0,1,2,3,4,5,6,7,8,9,10,11,12,13,14,15,16,17,18,19,20,21,22,23,24,25,26,27,28,29,30,31,32,33,34,35,36,37,38,39,40,41,42,43,44,45,46,47,48,49,50,51,52,53,54,55,56,57,58,59,60,61,62,63
-0.011473196,-0.10184448,0.08995137,0.10660365,-0.024358325,-0.059376027,-0.05422019,0.06253994,0.11433517,-0.07544411,-0.09997166,-0.02507909,0.032058384,-0.09084925,-0.10917314,0.05387015,-0.035552286,-0.014224651,-0.02792503,-0.023535917,-0.099270985,-0.013681902,-0.03944813,-0.108188696,-0.038958993,0.060370907,-0.2244442,0.0027733669,0.010939125,0.0072214524,-0.059476435,-0.03214774,0.012162883,0.002730749,-0.05332926,-0.003694775,0.09047658,-0.10852124,0.060681842,-0.122535124,0.13972618,-0.09549804,0.07107153,-0.3585195,0.024906944,-0.09782091,0.100714825,-0.011937714,0.012480265,0.023689942,-0.056172974,-0.1874399,-0.0049718358,0.10389588,0.09707978,-0.102211066,-0.14958371,-0.042069,-0.16441797,0.16841102,-0.10637431,-0.007765086,-0.03010819,0.10970928
0.024344688,0.009028695,0.06341578,0.05201994,-8.1984745e-06,-0.013790212,0.063161016,-0.14938971,-0.016465774,-0.061847337,0.057458702,-0.0077425614,0.032982245,-0.04972756,-0.01650503,0.056183286,-0.036283292,-0.025963418,0.052405063,0.12471037,-0.0674489,0.020508388,0.06937317,-0.020546807,0.055585667,0.054497365,-0.027278459,-0.011125952,-0.00848998,0.14754423,0.033740852,0.06677241,-0.014833181,-0.045977585,0.02771002,0.03569291,-0.0044880286,0.00218606,0.016860852,-0.034577683,0.024689883,0.086273156,-0.014860935,-0.0043299138,-0.053729832,-0.050850265,0.08239864,-0.07665033,0.061500568,-0.06427314,-0.0418685,0.040515967,-0.006779112,-0.02513701,0.051209304,0.055239007,0.05361805,-0.008107215,0.0013685866,0.13373683,0.035057355,0.07085805,-0.045487877,0.00187959
-0.033405088,0.07916337,0.05935931,0.091053136,0.13228458,-0.001929014,0.03441196,0.13805299,-0.0632202,0.09789259,-0.06772093,-0.034544196,-0.110892974,0.13848779,0.0028708458,0.004727107,0.03463232,0.054301087,0.09453991,0.022285856,-0.042082302,0.00028616688,2.09614e-05,-0.0533147,-0.027994541,0.075718194,0.019623436,0.002993141,0.12077109,-0.09550834,-0.12761872,0.107143424,0.16286519,0.13581644,0.022567281,-0.05371291,0.002466396,-0.004494178,0.049465653,-0.11303329,0.065848246,0.11551231,-0.0054147593,-0.15949033,0.14622086,0.12967443,-0.08910527,0.0066842074,0.04841254,0.031060128,0.013868058,-0.010126645,-0.032699164,0.21658182,-0.100878425,-0.04134881,0.105409116,0.021526637,-0.05681303,0.20686601,0.09527222,0.074391894,0.035355464,-0.029119825
-0.082932934,-0.16389936,-0.0895716,0.03747371,-0.0056318883,-0.039340906,0.044807844,-0.005815295,0.08673936,-0.104685634,-0.12472128,-0.23585132,0.03818591,-0.12519838,-0.089341745,0.03552569,-0.19758926,-0.08992744,-0.1451664,-0.020924794,-0.047038365,0.017955296,-0.049595196,0.03940151,-0.028828556,0.037204806,-0.10717365,-0.04511626,0.12253873,-0.007852989,-0.1415695,-0.035230547,-0.05826889,-0.08414556,-0.015720306,0.028415708,-0.09438094,0.03793374,0.10851181,-0.11351146,0.022664746,-0.024490764,-0.01725519,-0.08664463,-0.17057505,-0.023304088,-0.17857079,0.024362242,-0.095795915,0.0556996,-0.10176731,0.053788442,0.012240042,-0.08303726,-0.10158552,0.101645105,-0.02895522,-0.053010296,0.027667925,-0.025654707,0.03694524,-0.14178814,-0.081125475,0.009397354
-0.07147684,0.007317627,-0.02691313,0.07632673,-0.05435484,0.01915042,-0.081181385,0.03733731,0.078731544,-0.06653989,-0.03070599,0.02095907,0.093504004,-0.09777214,0.042266242,-0.105950266,0.10362594,-0.14272958,-0.0075545846,0.036421653,0.0077648745,-0.009501992,-0.044304047,-0.0375547,-0.09361089,-0.01118081,-0.019854516,-0.034144975,0.07519292,0.084654145,-0.13268057,-0.018487321,0.13328482,-0.02553695,-0.08537263,-0.048754994,-0.15295716,-0.123430856,-0.08588166,-0.007647736,-0.026824024,-0.015681729,-0.1594442,0.027356457,-0.00642969,-0.21994425,0.12228527,-0.050492268,0.09608492,-0.04019252,0.021824185,-0.04840365,0.0026795785,-0.039713893,-0.016188504,-0.080777295,0.029778624,0.15389533,-0.0665329,0.01739298,-0.02179981,-0.049882773,-0.03463165,-0.03876358
0.0561543,-0.11710013,0.049393587,0.020277815,0.13055512,-0.019206293,-0.06724166,0.03315642,0.05485253,-0.14163856,-0.15388775,0.0026328168,0.039890215,-0.10052837,-0.11719093,-0.14588168,-0.073455736,-0.123179846,-0.023055973,-0.04030103,-0.09952979,-0.032049317,0.01587577,0.028337972,-0.040807307,0.0036273573,-0.0144638745,-0.010688039,0.003043182,-0.038665216,-0.029247565,-0.033037785,0.016427541,-0.13541003,-0.07357109,-0.12799074,0.028113578,0.013292792,-0.029603744,-0.19197115,-0.04959299,0.013663818,-0.06620353,0.054156043,-0.0691253,-0.059392337,-0.10666534,-0.10855378,0.11936351,0.19553857,-0.027008021,-0.050787088,-0.12177827,-0.06437126,-0.09292915,-0.023942241,-0.02936171,-0.010737908,-0.08400127,-0.04138611,0.16629188,-0.0696345,-0.008448834,-0.0966221
-0.03426689,-0.06273428,0.0022925502,-0.033425283,0.08595689,0.004379168,0.031149609,0.037735716,-0.09257464,-0.013176381,-0.072437905,-0.10911481,0.053646985,-0.019247165,0.016347975,0.044733617,0.034870286,0.07335697,0.090563804,0.06642564,-0.058550123,-0.018930575,0.059982326,-0.04616088,-0.08817835,0.13092574,-0.078643724,0.026479991,0.014562594,0.02625476,0.061782263,-0.10060255,0.014096609,-0.09465398,0.0064620427,-0.013673788,-0.10352817,0.063024916,0.072627835,0.1050232,0.024046758,-0.07385504,-0.045018237,-0.028005118,0.016719399,0.048763342,0.097623274,0.028906438,0.027504535,-0.0069467123,-0.057809263,0.062944084,0.019308977,-0.08007471,-0.014268489,-0.10424921,0.08870943,-0.024550594,-0.10495614,-0.115665026,-0.023954928,0.04509584,-0.024354648,0.14285555
0.04681801,-0.036586504,0.00010680593,0.11982172,-0.010105773,0.050089285,0.073336184,0.06230896,0.0005944466,-0.02983606,0.01003345,-0.043321546,-0.053143367,-0.0060354136,0.0005603128,0.02924389,0.14499114,0.004178245,-0.031033078,-0.017519094,0.058713596,-0.031638846,0.033257853,0.119663835,-0.057135165,-0.15194273,-0.08215815,-0.10643667,-0.052721143,0.25041884,0.054737628,0.030546118,0.016878664,0.008537798,-0.02546191,-0.055020686,-0.023544213,0.010069427,0.00841903,0.016010255,-0.12535605,0.061929148,-0.0051494385,0.089753106,0.01744647,-0.026393076,-0.04198363,-0.07648517,0.065259494,0.039756257,-0.07363728,0.0128100375,0.04036172,0.18250799,0.085916154,-0.061396554,-0.03603251,-0.066764,-0.022411834,0.08657818,0.06652771,0.0657842,0.028847402,0.037338167
-0.15990403,-0.11728488,0.041703537,-0.009548226,0.006335407,-0.09267805,-0.05115918,-0.00055315625,-0.15901683,0.03678594,-0.10347335,-0.07851503,0.024118377,-0.14030555,0.049244586,0.032470066,0.07873414,-0.27343228,0.117802896,0.13528138,-0.1502251,-0.023428109,-0.12902081,-0.014543604,-0.21072516,0.0051527163,-0.23885791,-0.055340715,-0.10925167,-0.031133201,0.0009894902,0.107177354,0.05945707,-0.11626936,0.002298999,-0.044448286,-0.21162081,-0.17646791,-0.051526487,-0.07123044,-0.048118804,-0.12128878,0.022868153,0.002668959,-0.0055595157,-0.18488468,-0.11784858,-0.1735541,-0.07827045,0.025495924,-0.0017647052,-0.1973433,-0.0995349,0.11682993,-0.023759844,-0.063351095,-0.08316813,-0.0054247277,-0.05858354,-0.102323905,-0.05857092,-0.19196413,0.016400976,0.03554518
-0.022611752,0.07353287,0.06974985,-0.0014592573,0.006915545,-0.03173174,0.054123815,-0.11216187,0.055903047,0.033694766,-0.064607754,-0.061025087,0.042798985,-0.04801154,-0.03834421,0.041962393,0.12350391,0.016949164,-0.029508214,-0.007056701,-0.037480634,-0.0688493,0.03982959,0.13838612,-0.062173646,0.01141495,-0.1119552,-0.08127834,0.078526095,-0.1468236,-0.13585123,0.06748937,-0.1573566,-0.0045491797,0.07175555,0.048004776,-0.0689369,0.014776619,0.040229928,0.050668236,0.07874279,-0.0012243935,-0.0059888344,0.024417348,0.06608928,-0.043512546,-0.034872256,-0.04911499,0.08292995,0.124681465,0.0016879071,-0.07811986,0.03298203,0.013426444,-0.033498067,-0.023328409,-0.022204334,-0.0056539676,0.21096098,-0.0242651,-0.0905216,0.062218223,0.00815758,-0.08934883
0.07322611,-0.11733482,-0.12966785,0.0077909054,-0.017458417,-0.15300067,0.1810095,0.07215733,0.026563212,-0.061359078,0.07845813,-0.15054184,-0.26155844,-0.037189573,-0.06505682,-0.06700091,0.029935993,0.0015595695,-0.06379124,-0.075856015,-0.021751797,0.033589356,0.040953033,-0.03651555,0.023746725,0.010822693,0.11338642,-0.074015446,-0.09198117,-0.14927019,0.18939433,0.1245285,0.02974989,0.024869578,0.031044178,-0.032863945,0.033600938,-0.051717438,0.11664962,0.018754108,0.10671573,-0.03435336,0.11291982,0.03890067,-0.06689987,0.03399952,0.055213485,-0.059347942,0.07887278,-0.112528175,-0.015263124,0.09198496,-0.08797386,-0.038283262,-0.0022878288,0.22046125,-0.07067361,0.077472456,0.060356304,0.042866953,-0.011357414,0.10640365,-0.0484007,0.18969737
-0.08443457,-0.0738072,0.10005474,-0.08434141,-0.07797322,0.082182445,-0.10070285,-0.038559496,0.10664555,0.045242853,-0.057987433,-0.3135129,-0.041650917,-0.05821574,0.048262928,-0.14261611,0.027091352,0.059833255,-0.10636839,-0.12679972,-0.10653277,-0.024303166,-0.11964111,-0.03132753,-0.0181522,-0.018484373,-0.05045812,-0.18195295,0.09332636,0.11258261,0.07510517,-0.038353223,-0.13556765,-0.044277217,-0.0839926,0.012263485,-0.052946154,-0.10177365,-0.2563868,0.18290399,0.06991168,-0.025381608,-0.0056663915,-0.0695404,-0.09835364,-0.038251325,0.047637444,-0.017215634,0.024873063,-0.013433572,0.036782335,0.01960608,0.09527815,0.053376153,0.022750339,0.05914336,-0.09292193,-0.057833515,0.034852415,0.092608996,-0.02712852,0.044289242,0.0033862542,-0.012585181
-0.0038666253,-0.011559574,-0.118260264,-0.05876426,1.3533139e-05,-0.0479099,0.012999813,0.062670566,0.016874677,0.098078765,-0.01483353,-0.11440861,0.014308784,0.029387595,0.04291372,-0.019301625,-0.110841475,-0.06571996,-0.030603005,-0.008623097,-0.08878232,0.006751238,0.061278705,-0.10016643,0.0081925895,-0.10496346,0.006292023,-0.09140194,0.05486024,0.07447545,0.12739395,-0.02095449,0.0398467,-0.0964632,0.11949287,0.049216032,0.091149695,-0.07392438,0.09340682,0.012416615,0.043787353,-0.00097350014,0.08105311,-0.01919689,-0.14292017,-0.07700457,0.124491096,-0.14158425,-0.059127435,-0.04380035,-0.064760506,-0.15366967,0.059031997,-0.005768344,-0.10212929,0.11012231,-0.13101994,-0.09368483,-0.13161649,-0.144342,-0.06852138,0.005063814,-0.07958058,0.063670844
-0.14762466,-0.21251759,0.020658055,-0.21033394,-0.0135413455,-0.11177366,-0.17124291,-0.061533734,-0.11583124,0.06815095,-0.08910499,0.06487788,0.05540247,-0.08688512,0.034353305,-0.0053125345,-0.030660123,-0.05286066,-0.11772509,-0.043194607,-0.10234753,-0.01642058,0.10762109,0.053551972,-0.03762417,0.05406299,-0.091250226,0.094031595,0.09171809,0.14442083,-0.06974254,0.030229952,-0.15927546,-0.19517125,-0.16084868,0.043566816,-0.04995058,0.029283797,-0.18213323,-0.13572071,-0.055161983,0.05086653,0.007963997,0.092102945,-0.15003085,-0.16443399,-0.076087765,-0.06420426,-0.16187765,-0.004455832,0.02633178,-0.10016988,-0.04251046,-0.06003252,1.75026e-05,-0.11524296,-0.15117049,0.10465549,0.07901339,0.0033948398,0.006466614,-0.09838324,-0.13421448,0.15336443
0.018478172,-0.025778387,0.009004402,-0.082830764,-0.066468365,0.16830857,0.0144098345,0.10719432,-0.0017253989,-0.048062094,0.100509495,0.046127174,-0.10295134,-0.05012648,-0.14374748,-0.023774603,0.064306125,0.103396766,0.012362437,0.040608305,0.06655484,-0.06879007,0.054549415,-0.12545894,0.12874702,-0.05085017,0.06760885,-0.052807853,-0.13139926,-0.09758017,0.016250415,-0.0409178,-0.0038008175,0.00017446763,0.11726249,-0.039385904,0.035942033,-0.052340448,0.03702766,0.09030985,0.016129626,-0.09117684,-0.04675156,-0.0800543,-0.07988149,-0.061053813,0.09994616,0.06511747,0.039426956,0.0154258115,0.043203134,0.068709664,0.01452821,-0.086085156,-0.0627839,-0.0056405445,-0.06558332,0.08892459,-0.07202524,0.061393317,-0.009101829,-0.0374749,-0.05075219,-0.16921183
0.056905933,-0.20595823,-0.04316942,0.121138975,0.1078893,-0.05641748,0.011355417,0.042187434,0.07390543,0.08907074,-0.16444682,0.030359577,-0.005389619,-0.020504018,-0.11005704,-0.030001907,-0.0034409945,-0.03129736,0.029199127,-0.09340532,-0.034283828,0.028224641,0.03100325,0.15926407,1.6092241e-05,-0.05264855,0.025090585,0.035042357,-0.02037428,0.1402037,0.1837929,-0.086452045,-0.19300286,-0.0824576,0.0059487033,-0.025805216,-0.00056232844,-0.06491578,0.14945124,0.04103522,-0.087826885,-0.049843606,0.09254876,-0.09542141,0.043544486,0.116463944,-0.08790762,0.058939103,-0.25679263,-0.12027759,0.07187702,0.08352398,0.030028118,0.12252946,0.045461927,-0.04062817,-0.015488923,0.011694149,0.010599229,0.22034724,0.041959982,0.13773772,0.08664081,-0.082369745
0.045957197,0.041885573,0.040649552,-0.13291252,-0.043210596,-0.04369179,0.09625011,-0.0302175,-0.044377755,0.027403627,-0.12361523,-0.05072467,0.06938671,-0.083886646,0.17487243,-0.117947556,-0.1304207,-0.13282661,-0.03871842,0.046190865,0.019490104,-0.029279571,0.0047697173,-0.14732869,-0.13833171,-0.03495525,0.08991899,0.031233568,-0.083135895,0.07127741,0.090628974,-0.12508926,0.18591811,-0.07828455,-0.12261952,-0.1278079,-0.1606785,-0.1268027,-0.075557075,0.038314156,0.040975273,-0.25560492,-0.3068133,0.037907034,-0.01334956,-0.09186,-0.032957226,-0.10390333,0.027404225,0.009187931,-0.13169003,-0.0031382397,-0.016563874,0.08255686,-0.046999216,0.0772942,-0.28918156,0.111108445,-0.18649895,0.06834633,-0.13548295,-0.11395363,-0.04663633,0.1436719
0.03819743,0.008524677,-0.02228323,0.06990914,0.19867082,0.070654854,0.015402565,0.20522416,0.09096024,-0.058770277,0.13229659,0.057537246,0.0068346797,0.07938961,-0.10316282,0.013165458,-0.021306023,-0.069063194,0.08577758,-0.037182443,-0.029561942,-0.07382717,0.07440032,0.07641925,-0.04526015,-0.03142258,0.09810486,0.020728528,0.0732197,0.07932033,0.0925905,0.004477365,-0.097028725,0.009169811,-0.018445203,0.02465318,-0.07696104,0.037466545,-0.06753909,0.052222013,-0.087545976,-0.098633446,-0.041233484,0.13665259,-0.15099263,0.02186305,0.10012742,0.05850475,0.0015348279,0.054339558,-0.05330008,-0.102410056,-0.028600879,-0.12321339,-0.049699426,-0.048052374,-0.01951599,0.017800186,0.08760339,0.012799346,-0.15872273,-0.0069008796,0.056028478,-0.01430731
0.08446117,0.05650247,-0.07516631,0.09340587,-0.03020057,-0.04611243,-0.036468707,-0.0005174838,-0.05436724,-0.06817805,-0.03177118,0.07660817,-0.0022602845,-0.012770581,0.06296501,0.0049843877,-0.06462521,0.04793473,0.0026054266,-0.013891078,-0.027662693,-0.0798909,0.0041683726,0.053986356,-0.021595487,-0.07816226,0.022713166,-0.061404336,-0.007049898,0.085228875,0.014569254,-0.018747196,-0.053655673,-0.0653766,0.0005234486,0.0020979054,-0.03218468,0.04245206,0.013835867,-0.032355554,-0.11481157,-0.02222198,-0.11458525,-0.12953539,0.17052501,-0.03887008,-0.13994367,-0.07672464,-0.12715963,0.05925876,-0.008048671,-0.21410519,0.04644942,-0.03731362,0.060380694,0.070479386,0.104801506,-0.08634352,0.017986258,0.045799542,-0.04043658,-0.089019865,-0.046786167,-0.12204292
-0.19907238,-0.11041806,0.04859538,0.09002542,0.0009439609,-0.05512666,0.022045441,0.091094345,0.03025517,0.07701353,-0.15360183,-0.15529032,0.07888904,0.12489183,-0.12768878,0.0017173954,0.13332872,0.01733963,-0.040917072,-0.0012392745,-0.053752072,-0.09441938,0.110958114,-0.06415435,0.09195396,0.08914079,-0.026029233,0.0076409276,0.093559,-0.008410502,-0.0039109406,-0.11258603,-0.19350855,0.060372543,-0.031579547,0.022137549,-0.06376145,0.07575519,0.15049078,-0.09101587,-0.05464262,0.030273728,0.10493379,0.029224938,-0.12914097,-0.040003296,-0.030189676,0.13074885,0.04826079,0.27986905,-0.13976647,-0.03268965,-0.16774802,-0.09124723,0.11863287,-0.0899233,0.00071417424,-0.08806461,0.06033274,0.11140353,-0.11282064,0.14436433,-0.121847436,-0.07845639
-0.051968582,0.004791519,-0.07626146,0.024302663,-0.07053495,-0.047896836,0.09831007,-0.07979925,0.009013214,-0.059824433,0.035693232,0.005404051,0.020028625,0.018368695,0.004756629,0.031782888,-0.024420798,-0.037589956,-0.020250868,0.0083487015,0.05196656,0.030549765,0.029744372,0.13012594,-0.079476275,0.012284962,0.04146729,0.015135616,-0.014102128,0.059481524,0.02829959,0.043815874,0.010248898,-0.036211517,-0.032436747,-0.0030231986,0.070213795,-0.012523811,0.07552832,0.03204219,0.20365003,-0.0799748,-0.0022601509,-0.052342594,-0.21386926,0.025062144,0.06061589,0.003889249,0.13844109,-0.023486292,-0.04211003,-0.087122984,-0.13174777,0.06996309,-0.06977784,-0.01548117,-0.07113926,-0.05301578,-0.053561714,-0.06295092,0.08087481,0.059149362,-0.019240128,0.05900498
0.0048995665,0.09371542,-0.039722357,-0.04124393,0.044185434,-0.086910725,-0.16895612,0.018701753,0.036315113,-0.013365204,0.054343212,-0.2845593,0.050716344,-0.107423685,0.026175987,-0.16468282,-0.0608142,0.0046405494,0.114970796,-0.041252404,-0.0050801733,-0.053829063,0.03590483,0.016192755,-0.10577814,0.012450992,-0.05613282,0.060010336,0.02846769,-0.022679547,0.004601721,-0.0643643,0.016947083,-0.11037954,0.006239681,-0.15993199,-0.011729455,-0.07089315,0.11950744,0.007777989,0.040735923,-0.2570982,-0.1210139,0.0033518,0.020695465,-0.21592268,0.05205245,-0.034700967,0.10947222,-0.13106932,-0.06746474,-0.22733234,-0.13431327,0.13823505,-0.028192108,0.02668167,-0.086135656,-0.08254915,-0.033712726,0.052562542,-0.12948526,-0.10333117,-0.06913109,0.06785506
-0.038312517,-0.043638933,0.08622632,0.019706355,-0.059177678,-0.03088117,0.081611015,-0.028055184,-0.0027984914,0.015921978,0.025649115,-0.012961398,0.07585617,0.034137618,-0.042142756,-0.05905941,0.048539966,-0.015221522,0.06352628,0.025529867,0.058633123,-0.015716791,-0.008266595,0.08113504,-0.054774895,-0.030497253,-0.018114034,-0.031294715,0.003472454,-0.012857193,-0.031268984,0.035777986,-0.036650177,0.025755474,0.013108512,0.06405499,-0.027816782,-0.10089088,-0.019177115,0.053899918,0.09456097,-0.05195947,0.020042324,-0.05615241,-0.1442344,-0.06795942,-0.075588845,-0.06963823,0.11567325,0.07665107,0.018522698,-0.035517845,-0.0042050444,0.055376727,-0.115957625,0.019507052,-0.040068172,-0.03207844,0.052804288,0.031395424,-0.039191056,0.03004411,0.016715541,-0.09607205
-0.04312951,-0.15185376,-0.15888548,0.039305184,-0.13479261,0.0005802018,-0.26116875,0.03344859,-0.09637602,0.009686908,-0.041776486,-0.18700305,-0.1002703,-0.04513293,-0.033186752,-0.049466837,0.06138924,0.09606915,-0.26976046,0.029367775,-0.056279644,-0.06540179,-0.011255731,0.05269917,-0.024573889,-0.057667974,-0.07941426,-0.034515966,-0.16638578,-0.119644225,0.02346075,-0.12084585,-0.009836983,-0.09530791,-0.18385883,-0.18277514,-0.22082768,-0.20859036,-0.13240568,-0.05115304,-0.091163516,0.075764835,0.02732267,0.059645552,-0.048219558,0.0527379,0.036396287,-0.09401559,-0.098010786,0.15314144,0.09411807,-0.036590453,-0.1475605,-0.113163084,0.068914175,0.041745003,-0.15112084,-0.14761502,0.067746356,0.043867163,-0.14583807,-0.060182083,-0.06526888,-0.0020713303
-0.06006423,-0.11092455,-0.11851976,-0.06900954,-0.06327027,-0.083384,-0.11635329,-0.12052766,-0.061828326,0.04545189,0.071162775,0.026495418,-0.100146785,-0.019972743,-0.19256072,0.06607238,-0.09165529,0.0068370383,-0.026665851,-0.059567098,0.021801222,-0.0007786891,-0.14303908,-0.04596671,-0.06825861,0.09396134,-0.015113716,-0.04060431,-0.08681104,0.11427723,-0.033047035,-0.06393363,-0.006413507,0.062478773,-0.1228292,0.18152262,-0.17809007,-0.1844824,0.074176915,-0.055779625,0.09684976,-0.115749754,0.03775658,-0.06777162,0.11675296,0.08019679,0.07087621,-0.049334463,-0.01976974,-0.07749577,-0.19097945,0.072997704,-0.10832717,0.14280516,-0.07718108,-0.0002743366,0.1589141,-0.111350775,-0.08364343,0.047682513,-0.13088515,-0.07733354,0.014521169,-0.059862364
0.095904775,-0.023297453,-0.058267694,0.0975433,0.10641418,0.06435321,0.004538958,0.011482648,-0.14356293,0.10603771,0.062265337,-0.02094694,0.00883374,-0.06513816,0.044218056,-0.0110612735,-0.0028315112,-0.012937771,0.024168173,0.040228933,-0.004658684,-0.0021935394,0.019009998,-0.13632731,0.046252526,0.018162565,-0.03619117,-0.00605719,-0.025131501,0.012763563,-0.011846265,-0.03492723,0.034161575,-0.031239817,0.08502096,0.09025087,-0.10120113,0.059407447,-0.08350343,-0.12258849,-0.063603155,-0.074728966,0.022371514,-0.0067562447,-0.17375259,0.069935374,-0.1435268,-0.066650756,-0.018988464,0.07006515,-0.016287152,0.09820458,0.04375202,-0.06315758,0.049183197,-0.17139398,0.0030442164,-0.11433117,-0.17621796,0.0030124388,-0.096521035,-0.048049524,-0.020693911,-0.06720287
-0.017834043,-0.16340274,-0.049189612,-0.04393478,-0.15740752,0.03221049,0.11889198,0.05513154,-0.117812075,0.06655361,0.0073527005,0.032618627,-0.0979199,4.072928e-05,-0.057839584,-0.06697064,-0.06753577,0.0962321,-0.04335261,-0.017640803,0.08526143,-0.028101442,0.11938924,-0.20055005,-0.067101,0.030037243,-0.040476087,0.04318938,0.09022617,0.011924994,-0.014518426,-0.052527845,0.005120286,0.007277288,-0.060933787,-0.0019486067,-0.10426954,0.081968926,0.030401869,0.0056191613,0.088515736,-0.1617447,-0.10127902,-0.07131998,0.0456902,0.014490687,0.1743989,-0.0153861465,0.18179004,0.0647372,0.022964152,0.15883203,-0.0069210664,-0.08038853,-0.044148054,-0.039761186,-0.06403238,0.056136545,0.097724244,0.062112916,0.024268882,0.05258976,-0.0048851743,0.045760747
0.12175129,-0.064282574,0.12830842,0.03876958,-0.062201157,-0.07353939,-0.068171665,-0.10129251,-0.074477725,-0.10603516,-0.0669887,-0.026772048,0.069957405,0.069067195,0.11582021,-0.097911425,-0.08071886,-0.03608904,-0.1164252,-0.06629889,-0.063682884,-0.082363665,-0.166178,-0.032693874,-0.090880156,-0.095559314,-0.1811011,0.16264728,-0.0012979155,-0.034366217,0.07032708,-0.14401752,-0.027192906,-0.18265395,-0.19848812,0.052892577,-0.031963505,-0.25656867,0.017349258,0.020874793,0.120493956,-0.12883091,-0.1966037,-0.03942351,0.105437785,-0.11517467,-0.15677217,-0.19990356,0.06612379,0.014891279,-0.16212669,-0.09700552,-0.0075334427,0.03733367,0.004202606,-0.07828224,-0.1820969,-0.014567441,0.015157452,0.047095444,0.003434595,-0.13867413,-0.0003906282,0.080683395
-0.18976249,0.16061813,-0.0063034995,0.045268074,0.13908964,0.09214573,0.0062413714,0.16365543,0.02813058,-0.19399115,0.14832087,-0.145335,0.044111937,-0.1104509,0.1303668,-0.11579171,0.01182827,0.1474762,-0.10669084,-0.036112048,-0.017450893,-0.11608776,-0.13711706,0.10633472,-0.032819234,0.07839242,-0.033265572,0.14337122,0.017722918,-0.15295774,0.11304298,0.024085857,0.0024512724,-0.17018993,-0.07512067,-0.058497213,-0.0690608,-0.13972509,-0.15961795,0.050670728,0.093539864,0.017004749,-0.12281365,-0.046844963,0.069467925,0.17264798,0.14499089,0.03823468,0.13343088,0.053752966,0.050278474,0.10308869,-0.14650507,0.121661805,-0.015259019,-0.071305744,0.0050593857,-0.09933893,-0.03330386,0.17329276,0.07565337,0.058109287,-0.049378317,0.04731541
-0.027762335,-0.051137034,-0.030883828,-0.01815198,0.13486552,0.0074502835,-0.083597,0.17233068,0.023004718,0.06315988,0.06431977,0.040275853,-0.14958628,-0.039934695,-0.06669029,-0.014438892,-0.010605557,0.009037853,0.031223284,0.01696181,0.025732664,0.07175595,0.024855873,-0.09255436,-0.05675402,0.06278587,0.00971378,-0.1409788,0.10568821,0.0098064765,-0.057915192,0.07608695,-0.015210481,0.10965426,-0.07937576,0.05368145,0.10946294,0.049138665,-0.03605035,0.014623175,-0.0912724,0.038253337,-0.07043561,-0.04980335,0.032650713,0.031048378,0.013642002,-0.007428604,0.14086303,0.06063351,0.03654922,0.009878499,-0.03222663,0.04651913,0.03578382,0.040265888,0.011542881,-0.002797981,-0.046041075,-0.026953015,0.042303845,0.012104735,-0.057600133,0.17202263
0.019535402,0.15404405,0.028496763,-0.035127744,-0.017723022,-0.1295619,0.0029642794,0.092041,-0.014815086,0.053728428,-0.013098556,0.034249306,0.032299485,-0.021581799,0.02510299,0.054252144,0.08205535,0.092573114,0.01196129,-0.14927423,-0.07890571,-0.024662381,0.17259553,-0.059556574,-0.045927707,-0.11101408,-0.06455924,0.057582084,0.058950536,-0.02124663,0.084120914,-0.077035494,0.14000905,0.013710793,0.0028528883,0.0021803381,-0.11141605,0.049540084,0.07164586,0.020753909,0.118458174,-0.1820102,-0.085301876,-0.073021516,-0.15973084,0.1032194,0.027123148,-0.01590893,-0.14757676,0.07775994,0.10376349,-0.07551078,-0.0009530339,-0.072960496,-0.009735617,0.0806024,0.08530948,-0.13854727,-0.154725,-0.000580764,-0.0635037,-0.1437943,-0.04910706,0.14316493
0.07077576,-0.111047894,-0.08874248,-0.01801843,-0.013019896,-0.008943404,-0.07428717,-0.14022493,-0.13116433,-0.058111943,-0.114150286,-0.0313744,-0.29888654,-0.06439806,-0.03574498,0.14931728,0.057393927,0.24329779,0.0706526,0.06478939,-0.05610219,0.05155683,-0.028212309,-0.061512556,-0.0914486,-0.006351619,0.031781785,-0.055232987,0.12532686,0.072438374,0.05953595,0.09541776,-0.22652403,-0.11231733,0.049652487,0.019691944,-0.011565197,-0.092732705,0.058555037,0.13150045,0.08613792,-0.07057714,-0.021288238,0.09207708,-0.07037581,-0.13803142,-0.08709714,-0.005843419,0.05101423,-0.05279137,0.005625728,0.018362748,-0.0020947093,0.10101498,0.11427698,-0.0067987796,-0.13020456,-0.1667355,-0.18485992,-0.058001015,-0.17459306,-0.039105516,0.09321739,0.049545255
-0.19984287,-0.22757456,-0.059158344,0.17754954,0.028557992,-0.045039956,-0.1185608,0.05477784,-0.012726488,0.06036993,-0.099547185,-0.062446762,0.07548639,-0.08212003,-0.050657243,0.019931588,-0.14548127,-0.032344967,-0.12581761,-0.011951809,-0.0046034735,0.030920742,0.003999057,-0.05333269,0.025433453,-0.039757363,0.035627984,0.073689714,-0.05024626,0.056253944,-0.06267039,-0.15487246,-0.04030454,0.09121186,-0.057584997,0.091198474,-0.02408075,-0.047680136,-0.07627695,0.015183703,-0.09623441,-0.0017838292,0.0011748722,-0.08500576,0.06047682,-0.07645357,-0.074604645,0.005015865,-0.056419656,-0.09502332,0.047885787,0.036008846,-0.034699805,-0.1282108,-0.105268955,0.12125251,0.04231068,-0.06641493,0.10004615,-0.05681551,0.019353917,0.0016785845,-0.07371107,0.03604259
0.031759225,-0.040399823,-0.065474235,0.038983688,-0.08846816,0.007923465,0.026020851,-0.072075374,-0.035463896,-0.089281395,0.07355437,-0.042982284,0.08910471,0.005607176,-0.028471401,0.043714147,0.059250485,0.056753043,-0.019189933,-0.029899577,-0.05258273,0.032642547,0.09253951,0.033961535,0.07459384,0.03130191,0.069278926,-0.070186384,-0.03369327,-0.118381426,0.010707925,-0.08511891,0.031990606,0.066423655,-0.00046029952,0.022194747,-0.0072127357,-0.07512401,0.0016847018,-0.0665358,-0.047613744,0.055635273,-0.08097925,0.06508241,-0.09892261,0.035933584,0.009750063,-0.009337754,0.086520724,0.022897642,-0.01764034,-0.0368951,-0.100442566,-0.044858385,0.05700097,-0.0029510255,0.012745574,-0.07448819,0.11438434,0.009835345,-0.077168,-0.042952374,0.075358875,0.03980247
-0.10701897,0.060983807,-0.12724088,0.00012974098,0.118104115,-0.0854736,0.14341828,-0.04428853,-0.04274875,0.01720683,0.015536269,0.03240813,-0.049903218,0.033360556,-0.0899922,-0.07239289,-0.0781314,0.02857887,0.11669256,0.022251107,-0.054876298,-0.059689596,-0.043445297,0.15539965,-0.022258028,0.009318725,0.017170727,0.044616245,-0.029168231,-0.047990557,0.0102869,0.08539954,-0.09902651,-0.23598231,-0.031765345,0.04933465,0.08801643,-0.024425754,0.0391892,-0.10210734,-0.14496231,-0.042687304,0.0027497592,0.08375794,0.106627926,0.017878497,-0.014856877,-0.06893316,0.054965507,-0.015133002,0.1778299,0.15669216,0.0015241299,0.056741133,-0.17507015,0.0059213936,0.03267202,0.02955624,0.12649123,0.09111352,-0.1330034,0.10399651,-0.058051895,0.0964696
-0.29956272,-0.09184956,0.03314963,-0.13917986,2.4770454e-05,0.03812662,-0.090498775,-0.044137884,-0.00095475104,-0.26735896,-0.1319484,-0.028663965,-0.20974669,-0.06398732,-0.050280802,0.034535747,-0.24788576,-0.18354808,0.05616872,0.08985974,-0.046079352,0.030494282,-0.17137958,-0.17430599,-0.107129715,0.06690964,-0.07692593,-0.19691166,0.036271416,-0.052646004,-0.20599604,0.025561692,-0.029921785,0.100782625,-0.010602777,-0.046654303,-0.15832631,-0.07694232,0.16415837,-0.13226455,0.021314831,-0.09854195,0.03903202,-0.23594418,-0.12087568,0.022058291,-0.041926395,0.13835637,-0.3132597,-0.1551901,-0.1240837,-0.016816655,-0.08540937,-0.09654803,0.045691986,-0.0023348168,-0.028470036,-0.041661736,0.0010712569,0.010758841,-0.056161195,-0.015438767,0.056004543,-0.014477207
-0.21359712,-0.01614888,0.01929612,0.05246462,-0.09053016,-0.114810094,0.02199761,-0.0036076955,-0.04680064,-0.028961167,-0.089285254,0.08679038,-0.105598636,0.026503514,0.03363402,-0.10660527,-0.009839849,0.013053163,0.039498795,-0.06761489,-0.0011524678,0.048941925,0.043519754,-0.046345837,-0.03493395,-0.03464075,-0.11475147,-0.078361325,0.0072855274,0.060561996,-0.13790181,-0.050586525,-0.10406716,0.13571963,-0.11552818,-0.07380092,-0.053486962,-0.09343704,-0.124073856,0.028790547,-0.10340291,-0.06681852,-0.13087176,-0.09227128,0.04307765,-0.17123048,-0.017487543,0.050184548,0.13809721,0.04535287,-0.14777508,0.051233515,0.11556267,0.021016855,0.109210745,-0.18424964,0.007996761,0.028258387,0.09993337,-0.03437149,0.012421239,-0.11521018,0.007978979,-0.0024935
0.08802561,-0.011959355,0.10507311,0.04199244,0.033588827,-0.025715435,-0.028472329,-0.043434918,-0.005021564,-0.1799301,0.05906769,-0.08415836,0.029089049,-0.15242921,-0.07212776,-0.21408342,-0.09107888,-0.1260072,-0.20828572,-0.0068286406,-0.063369654,0.061751254,-0.03241265,-0.059421357,-0.07083395,-0.12611619,-0.053230613,-0.087794065,-0.083438054,-0.004008469,-0.101042084,-0.14423402,0.11803255,-0.19710246,-0.087373905,0.03781007,-0.013710465,-0.18439046,-0.0056643244,-0.16161908,-0.017849572,-0.09000122,0.03013462,-0.22620127,0.02705379,-0.10788007,-0.027988236,0.068782374,-0.019568052,0.0006825363,-0.19012764,0.16551454,-0.052380048,-0.05512025,-0.022636905,0.059756804,0.030038731,-0.05425057,-0.063605055,0.0899723,-0.05114167,-0.04350708,-0.10271084,0.0414474
-0.03144217,-0.09170233,-0.094660826,0.06918905,0.04176752,0.012645556,-0.019058365,0.060141493,0.08084797,0.06437432,0.001996337,-0.05193082,0.13586634,0.1117927,0.02442016,0.08183132,0.09971956,0.029594058,0.055458166,0.0077055623,0.051658157,-0.03753642,-0.007974888,0.055481985,0.07566292,-0.087993786,-0.0321355,-0.020993939,0.062221926,0.06802668,0.047333907,0.074922845,0.07330984,0.032195818,0.019584464,0.0064877043,-0.01904228,-0.08363917,-0.043151528,-0.06937131,-0.023988748,-0.05367701,0.02003008,-0.024119701,-0.0105448635,0.053550217,-0.016991932,-0.086842686,-0.035701655,0.06992671,0.05351769,0.044613026,0.08469638,-0.09723496,0.011167729,0.05684306,0.019858852,0.023062212,0.013789198,-0.0078711,0.105616175,-0.14624824,0.0028673252,0.033452187
-0.02919471,0.013620175,0.0030215967,0.08187237,-0.08571823,0.038932353,0.0126763545,-0.014245128,0.04705077,-0.09376624,-0.07484501,-0.07590886,-0.112056985,-0.029641049,-0.008950433,-0.041352514,0.031219479,0.09490964,-0.071820155,0.062393732,-0.069219075,-0.026972696,0.0305588,0.04329058,-0.08401936,-0.08092781,0.02872283,0.05061969,0.018238544,0.070692934,-0.0014314965,-0.08307091,0.07214045,0.0126107475,0.023766054,0.028398206,-0.009263066,-0.06252716,-0.051380806,0.08407552,-0.089774676,-0.045328487,-0.100246824,0.09669033,0.06396994,0.012855491,0.02756361,-0.08720862,-0.0913091,-0.114144586,0.00930188,0.037815545,-0.13349979,-0.054507297,-0.11876436,-0.023851821,0.032774903,-0.05768556,-0.17743677,0.039942708,0.03905901,-0.031737216,0.004101177,0.072388
-0.22900592,-0.17674764,0.05064933,-0.121791914,0.048559483,0.09199857,-0.15778673,0.013942471,-0.041232463,0.12321234,0.040786456,-0.22227053,0.08265464,-0.15753186,0.071120314,-0.05921302,0.096396066,-0.010844842,0.07652567,-0.11148742,-0.08055971,-0.14316972,-0.088366665,-0.079273626,-0.13799652,-0.13386372,0.0051362608,0.061031457,0.09827302,-0.17006299,0.07766143,-0.18387894,0.081539564,0.038058583,-0.049838495,-0.047998253,-0.1788827,0.11598897,-0.012671281,-0.077262975,-0.060719896,-0.22035545,-0.16285911,-0.011456125,-0.09221154,0.0941288,-0.042627368,-0.069706045,0.016596857,-0.068580195,-0.011421516,0.054779287,0.035893302,-0.0566919,-0.05413749,0.041333307,0.09581227,-0.1501338,0.085435405,-0.11328761,-0.007385297,-0.118485466,-0.08598845,-0.13967697
-0.087245435,-0.04187314,0.059208,-0.030493043,0.00023934263,0.03763428,0.078575596,0.073689654,-0.109287016,-0.06710461,-0.08864027,0.0630695,0.02881416,0.013980993,0.024697129,0.030802403,-0.05124092,0.011403966,0.039595183,0.02542086,-0.015326024,-0.0036773975,0.04346236,0.06486639,-0.049655735,-0.069103435,0.08056619,-0.06799276,-0.010578093,-0.029250458,-0.054784983,0.061113626,0.0060309977,0.01051658,-0.045612544,-0.003853766,-0.07009862,-0.025855541,0.06588456,-0.036595866,0.08297883,-0.0032016477,-0.061338443,0.0014299859,-0.13725829,0.04730511,-0.070717745,0.008912084,-0.04835364,-0.010666166,0.033818316,0.11377427,-0.08046231,0.09550062,-0.032947905,-0.08340632,-0.045655064,0.020896211,-0.046329662,-4.7843456e-05,-0.13796565,-0.015734859,0.08801059,-0.05814478
0.023180267,-0.124032125,-0.093448855,0.12334863,0.113307364,-0.099251695,0.21372181,-0.01050751,0.011200441,0.15961954,-0.022032255,-0.034915213,-0.12427521,-0.007557745,0.025382329,0.038949072,-0.17594004,0.0016847281,-0.023019454,0.058419846,-0.06104523,0.0010247381,0.050238397,0.049948122,-0.006276927,0.031824958,0.009681404,0.049202945,-0.078965746,0.024971202,0.017975666,-0.078594826,-0.013064159,-0.12571508,-0.0377069,0.055859886,-0.06725485,-0.038646076,0.020455154,0.060044203,0.16346502,0.10614173,0.100958325,0.08721121,0.07423746,0.08056731,0.10453733,0.090545766,-0.16596927,-0.14259726,0.08438348,-0.086859204,0.0076387203,-0.16859081,0.056131773,0.1834849,-0.04708689,0.040467087,0.068848915,0.069804184,-0.1100827,0.088527955,-0.06722526,0.09152492
-0.27336717,-0.16695435,0.051808007,-0.1859154,0.041553672,0.02547923,-0.1977238,-0.13021907,-0.079461925,-0.049826823,-0.13130137,-0.095996365,0.024386635,0.0071538794,-0.12307196,-0.039505955,-0.06333565,-0.06573494,-0.1364373,0.05035581,-0.09220304,-0.07993707,-0.31884295,0.01983558,0.008593633,-0.046144206,-0.110130295,0.12456615,-0.017279834,-0.255012,0.07518751,0.058895532,0.057984214,-0.12581491,0.0145125855,0.0069172746,-0.062453788,-0.068929575,-0.17206602,-0.22698015,-0.10454008,0.015814308,0.052995425,-0.13363557,-0.10718095,-0.03921947,-0.0515687,-0.039567262,0.0067967945,-0.0569545,0.15844774,-0.02982109,-0.033814,-0.1112651,0.065782554,-0.04479259,0.016206505,-0.099939145,0.084046744,-0.15142545,-0.020043222,0.03722254,0.047938004,0.009144016
-0.09738769,-0.024434917,-0.07859755,-0.039463356,-0.044217236,0.04935501,-0.046869665,0.011420814,-0.08763612,-0.11548306,0.036553837,-0.0030099615,0.046081424,-0.05744111,0.05153535,-0.02307143,-0.08939583,0.012029482,0.0016227072,-0.0073772054,-0.10312358,0.01746376,0.07976346,0.013693777,-0.07391422,-0.014446298,-0.12291514,0.05889697,0.13390794,-0.062311478,-0.056740098,-0.12843288,0.027821312,0.17637181,0.13013136,-0.09387011,-0.103090584,0.02843284,-0.08543324,-0.144509,0.06123971,0.011452985,0.02125503,0.090449,0.0426908,-0.018583033,-0.045771964,-0.088939875,0.034770895,-0.14731209,0.06851851,-0.09902171,-0.11115128,0.040491614,0.019692533,-0.060508773,-0.046219017,-0.1387104,-0.11258934,-0.10371679,0.0108448,0.033410467,0.029588155,0.03588646
-0.058072336,-0.040813934,-0.017216118,-0.250152,0.22078742,-0.025126172,0.033924177,-0.10708611,-0.17298342,0.07386105,0.04151105,-0.028991276,-0.09417605,-0.01658983,-0.09558098,-0.19064312,0.064987876,-0.19849814,0.021694431,-0.05418551,-0.03470975,-0.12690358,-0.07463325,-0.06126898,-0.12127586,-0.04770457,-0.060274795,-0.084383324,-0.08124598,-0.22739188,-0.0374089,-0.24064723,-0.055317394,-0.105739325,-0.0041415943,-0.018023714,-0.12813632,-0.11718442,-0.032569326,-0.16017294,-0.09877451,0.008463645,0.012536518,0.1574594,-0.20897585,-0.16567823,-0.09391949,0.028032608,0.0054412256,-0.057081424,-0.02426358,-0.29511598,-0.23423344,-0.086868,-0.16935039,-0.07191408,-0.030864317,0.046674076,-0.13000332,0.08637809,-0.13243653,-0.07641206,-0.031723633,-0.021191625
-0.0111558605,-0.09217692,-0.038412392,0.00076292414,0.05727194,0.08806852,-0.053374864,0.054058924,-0.08597516,-0.06027521,0.05035069,0.07643461,-0.08287784,-0.0073119807,-0.052200243,0.047123194,-0.050632972,0.14928277,0.015805006,0.08537064,-0.07750473,0.08962872,0.035436794,-0.082976095,-0.016362961,-0.098503426,0.08349881,-0.07005756,-0.06463341,-0.027578425,0.06374883,0.035987854,-0.063738585,-0.022728411,0.13774762,0.12270543,-0.052664183,0.04972502,0.026790416,-0.05752074,-0.099474385,0.009272474,-0.004924791,-0.045536056,-0.016632553,-0.01748027,0.052486654,-0.047460128,-0.080367684,-0.089999855,-0.02189188,0.10502362,-0.0464159,0.04805112,-0.042391837,-0.04286488,-0.044537168,-0.0047779903,0.013550643,-0.012327354,0.07532955,-0.08280335,-0.06772426,-0.07883592
0.04490838,0.21133533,-0.0661963,-0.022298003,-0.00037427846,0.024347471,0.06529535,0.09014304,0.08037224,-0.10458892,-0.050998658,-0.15799761,-0.112069994,0.028501607,-0.09753229,0.03183066,0.034727637,-0.037781585,0.013403787,0.037409548,-0.08040542,-0.13235725,-0.025139604,-0.018186511,-0.053400513,-0.10873486,-0.030925466,-0.010026688,0.062132932,-0.033250708,-0.06951128,-0.016035488,-0.13358177,-0.053650856,-0.054464705,0.021941917,-0.09821398,-0.07683921,-0.0076101883,0.08798249,0.022099778,-0.06942479,-0.0012250945,0.09716757,-0.07029749,-0.020099284,-0.14524302,-0.006046089,0.09155811,-0.12602314,0.01502138,0.076697476,-0.072295964,0.047532547,-0.057190206,0.14480297,-0.022508984,0.100603186,0.123611696,0.015936542,-0.006401082,0.18911079,0.047126822,-0.0120000085
0.075055234,-0.032008562,-0.07384239,0.105217256,-0.049542405,-0.14217895,0.14879465,0.039236713,0.03354696,-0.0816765,-0.13401389,-0.0323278,-0.15186435,-0.06417143,0.062535174,0.011385681,-0.103411615,0.06217651,0.032901824,0.06050982,-0.06162886,-0.012963121,-0.020518502,-0.12163096,0.010694233,0.1060941,-0.003893634,-0.18686195,0.015798962,0.09842494,-0.063119635,-0.11473347,-0.068099335,0.067861944,-0.19549087,-0.09743166,-0.09757478,-0.07560864,-0.0777257,-0.068099715,0.0012724607,-0.12306728,-0.25872648,-0.01204391,0.008005759,-0.11788086,-0.18031114,0.009121755,0.1307435,-0.03963037,-0.3370726,-0.007177442,0.06402226,-0.045147836,0.07811203,-0.055402018,-0.18162659,-0.018126387,-0.14720625,0.03958682,-0.05587015,-0.031372696,-0.08713419,-0.004993313
-0.11628856,-0.014300441,-0.048534337,-0.020302335,0.016857387,-0.017121682,-0.018735595,-0.0350682,-0.025825063,0.07336668,-0.057979196,-0.0377099,-0.0058695804,-0.0876399,-0.020259991,0.01570071,-0.12317049,-0.07121972,-0.07615449,0.02297904,0.01074633,0.033605576,0.17680936,0.056772966,-0.027049782,0.113768294,-0.045256782,0.18786567,0.13731712,-0.059350777,0.016735373,0.060467966,-0.016645554,-0.00739155,-0.03191912,-0.0036995679,0.017070647,-0.020033464,0.10175165,0.05986052,0.12408558,0.06165774,-0.13314006,-0.006308211,0.095064476,0.04021887,0.101376586,0.13129315,-0.018856823,-0.02249155,-0.015809713,0.039258126,-0.04215162,-0.16637431,-0.070695,-0.042693935,0.07342608,-0.04042149,-0.039746918,0.09930158,-0.064382896,0.03559935,-0.06464902,0.13166113
-0.038413893,-0.013638679,-0.08427476,-0.09245608,-0.102054335,-0.048379667,0.08709269,0.0480321,-0.026245723,0.0033404634,0.01130281,0.026169168,0.14442115,0.09072479,-0.039849766,0.07257057,0.104751624,0.025393425,-0.05482545,-0.1011905,-0.04825774,0.05710196,-0.04566553,-0.077976525,-0.008836453,-0.10352171,0.020925138,-0.0030710148,-0.084896,-0.16223834,0.09579733,0.030943716,0.14491068,0.010788847,0.04120144,-0.01091128,-0.06632415,-0.09222432,-0.0136420475,0.10729121,-0.03841688,0.0061821314,0.053142507,-0.12555881,0.075078994,-0.037968863,0.1445082,-0.031819228,-0.00051190384,0.0010950788,0.052009813,-0.059871044,0.01853169,-0.11326314,0.0034785487,0.06688858,0.04660454,-0.08089782,0.18570766,0.17666811,-0.0410781,-0.018368067,0.018757813,-0.10926835
-0.22676402,0.0013520861,-0.0057206457,-0.06702668,0.11890569,-0.13050736,0.08771158,-0.06985639,-0.06245303,0.057292324,-0.0786887,-0.0373461,0.062022466,0.07656989,0.074468255,-0.049245514,0.0051895767,0.040254254,0.1306409,-0.10291851,-0.009286139,-0.09874846,-0.018227363,-0.0635683,0.039271615,0.08538018,-0.080338106,-0.006923158,-0.06201196,-0.043393347,-0.116762295,-0.039772984,0.07465261,0.12677737,-0.012357602,-0.14271297,-0.23354883,-0.052066118,0.00024031487,-0.06564847,0.12699346,0.10646506,0.11102022,-0.028451031,0.07439387,0.0014165496,-0.0667785,0.06531653,-0.063610375,0.03962755,0.14331494,0.019735042,-0.18454742,-0.161485,-0.11157056,-0.08932338,0.034889456,-0.065818004,-0.05839812,-0.12329419,0.02699887,0.23450458,0.012666543,-0.06915292
-0.025669433,-0.062998235,0.048780516,-0.109836325,-0.10170746,-0.055153407,0.13034967,-0.03151108,0.007398901,-0.07854987,0.061483156,0.07346118,0.061853413,-0.08072282,-0.03385574,0.008212859,0.09949517,0.019519757,-0.07599684,-0.071894184,-0.07239868,0.014903217,0.008709975,0.06173024,0.048857193,0.007533416,0.06786015,-0.0074341614,-0.06068263,0.052411575,0.054041326,-0.012639123,0.013823003,-0.115987375,-0.0374985,0.036397476,-0.05437365,0.07017805,0.05285072,-0.0869724,0.1610396,-0.049883094,0.073317364,-0.012744246,0.032639716,-0.019807355,0.017766414,-0.03688753,-0.08401741,-0.05285855,-0.027252518,-0.019601133,-0.060159408,0.018451113,0.018179264,-0.03335811,0.04378926,0.00070234266,0.01713635,-0.008709473,-0.008446092,-0.0053790878,-0.029715203,0.041515645
0.0064649163,0.09052762,-0.1834283,0.14108595,-0.16999657,-0.09362862,-0.04521465,0.02074918,0.0034411943,-0.22127381,-0.1409086,-0.23071203,-0.07031336,0.0049100607,0.034107868,-0.101822086,-0.0057009514,-0.18214431,0.025233362,-0.005017106,-0.080443926,-0.12222029,0.10268339,-0.10627613,-0.115057915,0.060220856,-0.010846241,-0.0003366131,-0.011977653,-0.08048911,-0.0030254528,-0.19868085,0.08303806,-0.010445996,-0.17546056,0.012011712,0.016484424,-0.22125313,-0.06075018,0.1311863,-0.021945707,-0.07589854,-0.03978916,-0.04975545,-0.059949912,-0.21248578,0.001287211,-0.010285606,0.0723549,0.025740875,-0.13367777,-0.041123755,0.058081973,0.027006164,-0.031543527,0.00860827,-0.028830508,0.035080794,-0.15744072,-0.0094801,-0.08586761,-0.13280833,-0.104086675,-0.07420384
-0.0062076664,0.022669652,0.06524152,-0.14501122,-0.035978068,0.019169578,-0.041737877,-0.13490304,-0.045595933,-0.039787374,0.0644256,0.1330755,0.06858838,-0.010056818,-0.043204673,-0.0024634586,-0.016295826,-0.011115461,0.02229112,0.09471926,0.0621169,0.001198064,-0.02468398,0.058910187,0.062166832,-0.15662947,-0.056507953,-0.047646333,0.03318795,0.07918499,0.021355473,0.002461128,-0.007582966,-0.07773772,0.024192687,0.034227796,0.003984444,0.07978366,-0.05398007,0.04286623,-0.107722454,-0.0033361989,0.03185474,0.041564845,-0.0033902887,0.05307203,0.0016639417,0.044088632,-0.014346693,0.004010085,-0.057550844,-0.059396986,0.043881834,-0.13685095,-0.093255825,0.035734862,0.024329403,-0.024721194,0.0002770779,-0.011525971,0.02667778,-0.06367408,-0.075406894,-0.032556385
-0.11483273,-0.1370774,-0.02605996,-0.10439793,-0.11964541,-0.05640965,-0.12840341,-0.04183099,-0.17431809,-0.027806211,-0.18689446,-0.07816107,-0.15398088,-0.07390214,-0.006828768,-0.1635046,0.041954268,0.014686433,0.07116268,-0.014508022,-0.065626666,-0.027212517,-0.10672368,0.06913723,-0.0016107468,-0.034028016,0.07985539,-0.05256332,-0.14007074,-0.14785106,-0.0032584567,0.06275451,0.13132134,-0.10533656,-0.0639421,-0.00993858,-0.058733262,-0.026251324,-0.1313193,0.025084488,-0.028984677,-0.12021641,0.0516763,-0.042103097,-0.07597005,-0.07764929,0.029579818,-0.031392075,-0.055896807,-0.14179859,0.14301457,-0.113891385,0.00942523,-0.07295742,-0.1486651,-0.05689302,-0.15431865,-0.026838847,0.0005366722,0.0033881038,-0.066294506,-0.05527962,-0.06598594,-0.17220972
0.0975135,-0.023735242,0.018095436,0.023690244,0.007517909,-0.023999933,-0.07688996,-0.10658212,-0.07528004,0.059848595,-0.05126703,-0.062345825,-0.28478637,-0.031163557,-0.019706547,0.061386347,-0.08076852,0.08304916,0.0126242405,0.012997366,0.057886057,0.009018272,-0.08901186,0.10828,-0.015221343,0.015897272,0.056306247,-0.12905148,-0.11457539,0.076425806,0.031813975,0.01956594,-0.014776185,0.076737545,0.009802488,0.05525876,-0.13092078,-0.063099414,0.014519942,-0.15923928,-0.0068654018,-0.0035598928,0.097057275,0.12804425,0.08151764,-0.026273074,-0.024634542,-0.0006459637,-0.04684699,-0.060981326,-0.11648968,0.0034903875,0.028300611,-0.056833956,0.047878414,-0.076777264,0.041582827,0.030025668,-0.17169572,0.015875908,0.08712318,-0.0055647017,0.06119349,0.021839522
0.14670499,0.031272206,-0.13683729,-0.16751333,0.07712171,0.02726493,0.0093424665,-0.011225278,-0.06317523,0.008455163,0.024062216,-0.16323903,0.17229201,-0.027187698,-0.08132676,-0.11004701,0.035151742,0.089642525,-0.041732997,0.14068265,0.022762751,-0.076308675,0.007187946,0.088293724,0.026320413,-0.2663496,-0.07260568,0.10242986,-0.043282446,0.042699054,0.119203955,0.11162462,0.078924455,0.16598733,-0.02156686,0.038749583,-0.04052636,-0.036227494,0.01189716,-0.10305628,0.03189647,-0.055672728,0.09960716,-0.11329865,-0.0020027999,-0.00089438027,-0.17645204,-0.019679174,-0.071868524,-0.06536578,0.01670801,0.19796476,-0.1499042,0.053590197,0.003473319,0.025672466,0.04274211,0.016682956,-0.15658416,0.022789918,-0.0035701406,0.029597435,0.057625476,0.13203993
-0.03695956,-0.15039442,0.08151431,0.0734823,0.06986039,-0.04743769,0.08225663,-0.19857688,-0.076642066,-0.006940525,0.11618067,-0.004211737,-0.11132686,0.08212917,-0.042086806,0.103107244,-0.029000364,-0.015178012,-0.06851398,-0.045920342,0.00040987213,0.04992584,0.004049984,0.05823527,0.06389317,0.07140225,-0.062643535,-0.036322657,0.01979784,-0.15964332,-0.061009914,0.08671477,-0.0524546,0.03112205,0.06477232,-0.01634752,0.0023262503,-0.055913508,-0.066092364,0.16349493,-0.01749484,-0.12878019,0.017192349,-0.03368077,0.051468138,-0.11055442,0.027194561,-0.07320515,0.13224322,0.043237854,0.12732054,0.09237012,0.0023406227,0.004739739,0.053329535,-0.06698514,-0.01565556,-0.053388238,0.0623524,-0.06514481,0.07296707,-0.026525445,0.064375184,0.03521523
-0.048505805,-0.16657253,-0.026336547,-0.0056684283,0.10644173,-0.1300994,-0.054472677,-0.18701582,-0.101537555,-0.044209976,-0.09731258,-0.0210618,-0.046699237,0.047357302,0.004308493,-0.040043768,-0.16006692,-0.036446672,-0.072964035,-0.05237738,0.10820236,0.033560812,-0.056093663,-0.09882,-0.013390343,0.0760193,-0.22360817,0.043042965,-0.029577604,-0.047367997,-0.08955443,-0.12953585,-0.006786996,-0.021726517,-0.1303813,0.05213093,-0.13495095,0.03751043,-0.15370905,-0.044771757,0.009705247,-0.029453762,-0.12451476,-0.13225694,-0.014551551,-0.15052606,-0.16430074,-0.12353274,-0.042425513,0.10111116,-0.2483954,0.0017612162,-0.041688297,-0.017452432,-0.022356417,-0.07413745,-0.0041177715,-0.13142987,-0.12755974,-0.011616481,-0.07782274,0.0011563516,-0.068797566,0.13337462
0.088625066,0.0085222265,-0.14340292,-0.09995165,-0.15539964,0.0038729052,-0.05587794,-0.08578207,0.048256584,-0.3454174,-0.0044267015,-0.14065303,0.0058170636,-0.14241968,-0.05842248,0.035517942,-0.16315001,0.00089940464,-0.08590643,-0.06559919,0.01529844,0.010944235,-0.11164331,-0.09519462,-0.1303107,-0.05503918,-0.0030649337,-0.099351205,-0.13188985,-0.24389976,-0.18149872,0.0067477594,-0.10797946,-0.02451643,0.06868962,-0.09917644,-0.05744722,-0.044822387,-0.14261594,-0.06362454,-0.12098042,-0.03172351,-0.12962748,-0.14209762,-0.108690746,-0.100048155,-0.08997855,-0.121934615,-0.13481909,-0.234101,-0.043425567,0.0081539145,-0.13292693,-0.00822097,-0.010511521,-0.13415754,-0.10307793,-0.11998311,-0.106552586,-0.13049272,-0.16619633,0.027044354,-0.08822055,-0.24705905
-0.044726714,-0.12229018,-0.028084187,-0.097756565,-0.024210658,0.0072956705,0.07530277,0.10207744,0.07836261,0.029501341,0.037448462,0.047619406,0.0727037,0.0064133494,0.047949586,0.042659882,-0.09553297,-0.008688415,-0.007261488,-0.068876795,0.036826506,-0.028200064,-0.089533925,-0.06667231,-0.07558794,-0.17927366,0.07804802,0.014738423,0.009941515,-0.041422643,-0.070771456,-0.04588317,-0.07695778,0.037857544,-0.057815995,0.009019287,0.091585904,0.043947347,0.024615642,-0.09566753,0.05811126,-0.060174532,-0.0066481577,-0.052178178,0.041792084,-0.08466558,-0.08368139,-0.045429245,0.07362345,-0.030911254,0.004860522,0.04377184,-0.02708421,0.09427475,-0.014681461,-0.012407648,0.040842406,0.00053498417,0.01840746,-0.060067154,0.07371801,-0.061199818,-0.084814705,-0.010801421
-0.08419698,0.05888941,0.11854811,0.04593621,-0.13067015,-0.005818646,-0.10379978,0.062335774,-0.062293373,-0.12267754,-0.098269194,-0.004694393,-0.0822654,0.0033312866,-0.1106718,-0.002175426,0.15430827,0.009793254,-0.051008444,-0.08107901,0.014782652,0.038057435,0.103869885,0.067795746,-0.040140823,-0.101365864,0.012689805,-0.15287027,0.015632635,-0.089743614,-0.2216997,0.18447898,0.1047323,-0.09596554,0.07256083,-0.074589916,-0.038282674,0.06087578,-0.057553265,0.097832605,-0.033105228,-0.14659667,-0.09048256,-0.024859017,-0.09571726,0.046039723,0.0016515625,-0.07754267,0.10009573,-0.21899319,0.021181101,0.07565939,-0.065169185,-0.058399674,0.09419759,-0.022512933,-0.04289007,0.0028773586,0.098944664,-0.12295234,0.12331064,-0.098558076,-0.09348912,-0.053627245
-0.14507861,-0.15390484,-0.10661197,0.04206632,0.04592402,-0.05330748,-0.27334106,-0.16829507,-0.2340048,0.13254906,-0.03037984,-0.025162969,-0.15096319,-0.028144399,0.07391865,0.23855841,-0.07940042,-0.13895904,-0.10008535,0.011251116,0.0034596734,-0.033736523,0.006174164,-0.12723292,-0.09532227,0.13765982,0.023630202,-0.017271297,0.1281046,0.053106695,-0.095342666,-0.030809235,-0.17067416,0.11566303,-0.015416434,-0.037417363,0.02780081,-0.14627421,0.016153842,-0.07724537,0.08357438,0.07422434,0.12714729,-0.07613006,-0.36449602,-0.1418441,-0.04168501,0.045161057,-0.021130322,-0.0132709155,-0.06753389,-0.069323435,-0.049330443,0.0007697047,-0.06720751,0.0844405,-0.049860254,-0.082819566,0.01950417,0.13042988,-0.16701241,0.041873045,-0.05810497,0.054907106
-0.05741945,-0.018071791,0.036615517,0.030662352,0.055276293,-0.009598613,0.12340773,-0.07172289,-0.108166635,-0.07684354,-0.04780464,-0.14743067,0.09281896,0.040303916,-0.14914325,0.024085933,0.09930769,0.14819607,0.034229893,-0.1130204,-0.017873457,-0.025726499,0.04526019,-0.025438307,-0.08229266,-0.059876844,-9.068311e-05,-0.089891545,-0.038661767,-0.16773327,-0.17621793,-0.030848539,-0.0046196803,-0.10694984,0.03699704,0.0683193,-0.0416099,-0.0829391,-0.011129158,0.14885898,-0.004483094,0.1135272,0.0587269,0.1365855,-0.068671614,-0.0057296143,0.0464974,-0.051278815,0.103166446,0.012464673,0.21799928,0.012010433,-0.039470088,0.16734469,-0.056475934,-0.008912673,0.13792498,0.05401197,0.07917991,-0.0010598355,0.038238704,-0.034394093,0.013885322,0.0007372169
-0.008896787,0.012447796,0.036693126,0.030123452,-0.06241121,0.06834873,0.008514983,-0.10490989,0.011509991,-0.0859689,0.051923074,0.056845464,0.07596092,0.023130575,0.11490416,0.059375174,-0.012316996,-0.0127578005,0.052796606,0.03495175,-0.050015885,-0.07089135,0.046115432,0.062152695,0.07575368,-0.009836636,0.06625784,-0.023958532,0.049639486,0.035827335,0.05846713,-0.021629944,-0.03785097,-0.03928578,-0.023305774,0.022812277,0.024408318,-0.01017046,0.029170783,-0.07572225,0.10724647,0.009478862,0.021311613,0.13725789,-0.012871385,0.012216958,0.059726182,-0.03489062,0.088097475,-0.02500838,0.08704834,0.09001993,-0.0036971248,0.029358245,-0.09182721,0.058039475,-0.05844515,-0.03719045,0.058094174,-0.04826736,0.047611535,0.042698164,-0.08174382,0.11325149
0.069334455,0.12092363,-0.07561976,-0.08471969,0.14320317,0.07351238,0.16855854,-0.14606062,0.010592204,0.003936437,-0.04751818,0.052783236,-0.07571031,0.03530546,0.048182636,-0.045690473,-0.019477589,-0.107516825,-0.07332237,0.1173884,0.012105588,-0.028562048,-0.023871541,0.16734724,-0.007975578,-0.011022686,0.0093719615,0.021636026,-0.061729405,0.0047866055,-0.05685671,0.07753943,0.05658054,-0.09669756,0.09185702,0.02185916,0.07746912,-0.0435082,-0.22994761,-0.003260405,-0.07261394,-0.09368164,0.11900617,0.10168114,0.19947334,0.070073985,-0.071458034,0.016580943,0.21642013,-0.061140776,0.17332833,-0.00392752,-0.14437775,0.0030974809,0.058652695,-0.005623985,-0.013122005,0.12509671,-0.048475817,-0.0024573146,-0.15307617,-0.10704881,-0.034342177,0.068764724
-0.099011734,-0.020026838,-0.13011631,0.036821216,-0.08303194,0.0431782,-0.21303138,-0.117162615,0.13890453,-0.11897202,-0.09041637,-0.12837465,-0.19090153,-0.03162189,0.11607246,-0.13216671,-0.12266045,-0.14584778,0.090706,-0.05562227,-0.062928304,0.042955734,-0.2510507,0.054417644,-0.0010092389,-0.07286578,-0.14846689,0.14839463,-0.10287026,-0.11581075,-0.089405745,-0.045609795,0.07355801,-0.046236753,-0.056344435,0.028982576,-0.09441424,0.0012754065,-0.10484508,-0.025541583,-0.18217517,-0.15847842,-0.02875092,-0.005522935,-0.040381145,-0.031757362,-0.07908637,0.0046400246,-0.07182176,-0.13950779,-0.06084932,-0.12208763,-0.174238,-0.103838235,0.19367136,0.07363017,-0.2047635,-0.046330206,0.074873246,0.069671355,-0.17173882,-0.010890706,-0.07804456,0.03595201
-0.05100489,-0.31848994,-0.17858826,-0.08603737,0.07126794,0.011633056,0.055291597,-0.10193901,0.0013885414,0.03315471,-0.13076812,-0.10996489,0.00920364,0.084579036,-0.00971886,-0.07018438,-0.0961587,0.09651766,-0.07253553,0.04577815,-0.13510732,0.02205985,-0.08908798,0.020021092,-0.06789479,-0.0069863475,-0.15597998,0.09642646,0.10990186,-0.13052143,-0.19777797,-0.21389514,-0.05551863,-0.009408083,-0.07612803,-0.019423343,0.02563471,0.007847267,-0.162806,0.032352127,0.021789758,-0.021223703,-0.19859399,-0.14374556,0.050817113,-0.171754,-0.34488025,-0.05695062,-0.029025476,-0.10264868,-0.012245759,-0.06597756,0.004037241,-0.024017036,0.14350058,-0.04311147,0.029691193,-0.06732943,0.06857713,0.00877921,0.069383115,-0.0276628,-0.10608039,0.116634175
0.042102203,-0.005215964,0.020962318,-0.037669715,-0.11155113,0.078301504,0.017893644,0.013646228,-0.105813086,-0.021066163,0.017599111,0.029261697,-0.09668645,-0.122364536,-0.026167218,-0.034051903,-0.043400433,-0.037653852,0.09241671,0.033859197,0.053565968,0.04935628,-0.1444819,-0.011264829,0.0047023455,0.0011126783,0.032597307,-0.032712806,0.0064226976,-0.05885077,-0.051273778,-0.038662657,0.13073532,-0.13286586,0.06411789,0.0113572255,-0.0005103442,-0.040724743,-0.076366805,0.04724439,-0.07962933,0.1765191,-0.053039253,0.038089767,-0.043188915,-0.18572788,-0.09959838,0.16256003,-0.10153987,-0.12908943,0.12117145,0.121636584,-0.08498079,0.016062036,-0.0017731332,-0.046480145,-0.113685206,-0.041845918,0.039916966,0.038129807,0.09911506,0.033913236,-0.10507201,0.0057540806
0.02872577,-0.08597888,0.088228926,0.079949,-0.08675886,-0.010567014,-0.051237516,-0.0015692115,-0.01902056,0.07622411,0.030041054,-0.044161905,0.08542836,-0.03179219,-0.032699108,0.027889764,0.018783022,-0.014317225,0.049731087,0.16747987,0.03105918,-0.03224021,-0.043017153,0.05747605,0.013138619,0.016984113,0.013687614,-0.0796552,-0.019101055,0.020822924,-0.11626906,-0.040795982,0.06954717,-0.0672974,0.044143695,-0.005895217,-0.08858063,0.08588219,-0.01171371,0.111404076,0.01680957,-0.014234946,-0.025510918,0.15051043,0.015043953,0.023317445,0.06799485,-0.018715471,-0.008405807,0.007562285,-0.016929487,0.008680148,0.004829844,0.003718896,-0.078368366,-0.05839417,-0.0038591824,0.041913178,0.076258376,0.028436972,-0.04942107,0.021419158,-0.07939117,0.0013475055
0.03910093,-0.047561426,-0.016484132,-0.05089965,0.04847064,-0.045991592,0.09284922,-0.16548374,-0.041011807,-0.058179814,-0.07069294,-0.020351166,-0.10789089,-0.05800118,0.06576785,0.021814477,0.07467228,0.07717536,-0.0049274205,0.039886072,-0.015498404,0.008782366,-0.030516,-0.003945029,0.05762936,0.030404508,-0.045156244,0.026444677,0.031727895,-0.017094815,0.08342979,0.049564015,0.14646338,0.047817744,-0.02624384,0.010912488,-0.08117966,-0.033318672,0.051312506,0.12857424,-0.14345592,-0.076415725,0.029919725,0.018555202,0.14983687,-0.076176755,0.12166766,-0.0076385373,-0.07207452,0.021830583,-0.025864085,-0.03800802,-0.025702488,0.19586371,-0.023493428,0.08943357,-0.0064551625,-0.057992034,-0.09075401,-0.043697055,-0.0073197302,-0.12336625,-0.06615219,0.052287996
0.04654003,0.10996259,-0.030070027,-0.058483537,-0.09319133,-0.08939011,0.06517979,-0.124830574,-0.16544086,-0.20666233,-0.020436555,-0.12379783,-0.03382361,-0.245121,0.020684928,-0.07615148,0.014447423,-0.16006199,-0.058267426,0.019070277,-0.056708347,-0.14848965,0.08646385,-0.07887867,-0.08887098,-0.20448829,0.052388374,-0.15106581,-0.11618462,-0.22530358,-0.075036995,-0.12515904,0.06790236,-0.15847354,-0.006508867,-0.08498181,-0.091961585,-0.09584983,0.0724559,0.05042154,0.09647466,-0.011779186,0.04827199,-0.017829623,0.102784395,0.09010288,0.036797117,-0.040662616,0.12566686,0.13081853,-0.09956769,-0.11328517,0.1040928,0.16033362,0.020204661,-0.16215257,0.037680008,0.022075359,-0.17293501,-0.09911049,0.030955488,0.006842114,0.0059751654,-0.16238384
-0.05106911,0.08793864,-0.03568855,0.071103424,0.073803164,0.026077095,-0.0030936564,-0.06337358,-0.07154974,0.052298274,-0.019139858,0.030509928,0.1678703,-0.015240822,0.025477784,-0.024650617,0.0012597245,0.017831976,0.14883184,-0.07407238,0.06202023,0.01279747,-0.11035734,0.04323168,-0.05691357,-0.10412503,0.05622372,-0.013946702,0.03822123,0.00017957074,0.049756758,0.052425914,-0.032907072,0.10499356,-0.0056025144,-0.03164323,-0.037808247,0.030733468,0.08197838,-0.123419836,-0.07547312,-0.10400981,-0.00193612,-0.031322334,0.04573355,0.08265139,-0.12123189,0.0067512905,-0.047061272,0.015717363,-0.0009981119,0.028527204,0.023327358,-0.07101807,0.07943638,-0.04531364,-0.07401873,-0.057958897,0.10068636,-0.12528987,0.023035772,-0.026143156,-0.06799058,0.17503217
-0.029622477,-0.15520181,-0.042372458,0.11415576,0.13582304,-0.025137853,0.07939642,0.04795413,0.06440992,0.09696277,-0.11223876,0.01703205,-0.06514051,0.034865085,-0.018982157,-0.09265159,-0.093033865,-0.08432259,-0.09609681,-0.08375043,0.047143895,0.07824966,-0.03932768,0.13647465,-0.004827762,0.1071974,0.033631697,-0.007868912,0.04302093,0.21068898,-0.18071297,-0.11927887,0.11384136,0.108316876,-0.1758142,-0.057822827,-0.05165469,-0.052903615,-0.11021773,-0.08061219,0.32918125,0.089738704,0.10236,-0.000971092,0.08860656,0.13856494,-0.08009556,-0.13149168,-0.13907339,-0.092728384,-0.17944077,-0.14820364,-0.19138719,0.04491296,-0.03639427,0.052791048,-0.096105,-0.0029221063,-0.00868211,-0.031075843,-0.10134053,0.027834242,0.009572484,-0.16244604
0.021827538,0.0053988798,-0.115914665,-0.03037768,-0.011298017,-0.12257482,0.109706566,0.039581794,-0.07988171,0.032897968,-0.25197035,-0.14892493,-0.39448965,0.00862777,-0.12496277,-0.08724607,0.018698106,0.03685974,0.16444816,0.12444163,0.037453093,0.0035147292,-0.0885462,0.05185834,-0.040658794,0.090374775,-0.0898635,-0.036024,-0.045616213,-0.10234434,-0.23967977,0.06258624,-0.026377989,-0.12001649,-0.06311078,0.091655694,-0.08520007,0.025372345,-0.1007346,-0.069108956,-0.027705444,0.030351175,0.020932844,0.019977348,0.07432892,0.013195355,-0.012223936,-0.08083552,0.05834707,-0.114515476,-0.07951774,-0.008255217,-0.034886163,0.0031476603,0.16382709,0.05116102,-0.025300121,0.0026956142,-0.044389445,0.09717278,-0.13680023,0.039427854,0.03323059,0.0073654302
-0.052576326,-0.0009803278,-0.014865014,0.09597205,-0.01736629,0.10216195,0.0058654617,0.01907689,-0.105459236,0.05792738,-0.084591635,-0.11303511,-0.051365096,0.00046525526,0.022383891,0.12064299,-0.042638503,-0.080169134,0.06193281,-0.0969173,0.04509413,-0.00070475065,0.0181862,0.11037049,0.018522337,0.084307894,-0.19942798,-0.0054181553,-0.02209277,-0.02792267,0.046550445,-0.06515255,0.039739043,0.12054586,-0.027972935,-0.09509002,-0.13036045,-0.12744227,-0.06334479,-0.015216878,-0.038827557,0.115294226,-0.015496781,0.053010937,0.063645706,-0.11432763,0.03341223,-0.13307692,0.15438353,-0.015488753,0.170911,-0.027155578,0.0083226655,0.038007334,0.02342404,0.047079165,0.015531022,-0.19452368,-0.08034963,-0.10191836,-0.08568243,0.0120701585,-0.06229555,0.0045222645
0.007300771,-0.025673563,-0.2928379,0.13746698,0.11391589,-0.06926293,-0.03950382,0.0719833,-0.26548684,0.042156495,0.051633522,-0.34437537,0.06221258,-0.03453997,0.03612652,-0.114268586,-0.05444507,0.036528297,0.117357135,0.021865366,-0.102744125,-0.10501123,0.00018716749,0.011559969,-0.12922285,0.104752876,-0.10445217,-0.17379047,0.019417379,-0.16330966,-0.24346201,-0.026067398,0.1342029,-0.070618585,-0.08276284,-0.053393506,-0.12141827,-0.14398642,0.014509168,0.016009623,-0.11802692,-0.08418715,-0.13961038,-0.068540536,-0.012538855,-0.11691745,-0.31499124,0.028751506,-0.021778317,-0.06591095,-0.05950602,-0.07050989,-0.099336624,0.04884951,0.13550858,0.008789685,-0.10778931,0.07484517,-0.05877837,0.087877035,-0.1331913,-0.13218665,-0.055776503,0.15719177
0.046547588,-0.015520339,-0.037231058,-0.019634092,0.04828775,0.012460578,0.027584888,-0.013169391,-0.034098357,0.040885277,-0.015031396,-0.06797091,-0.16558024,0.1205826,0.059188657,-0.021687295,-0.010354976,0.10066982,0.035594556,0.08138585,0.026069218,0.063566886,0.07984736,-0.11310442,-0.06481424,-0.07493375,-0.083165705,0.0028227621,0.029179588,-0.019505108,0.146004,0.13971502,-0.14359233,0.04654625,-0.04571798,0.031380415,0.0006409901,-0.08886777,0.021208214,0.042608533,-0.08823092,-0.0741623,-0.12309508,-0.00025105252,-0.014398762,0.023008421,-0.084772795,-0.07296059,-0.014543172,0.06436115,0.19187516,0.0508968,-0.093364745,0.101426065,0.045224488,0.05603538,0.09155762,-0.045127705,-0.039487626,-0.016226692,0.022549337,0.046921987,0.06394364,-0.029436866
0.058193315,0.10252172,-0.09471508,-0.044634543,-0.0024939927,-0.06273603,0.01679991,0.09033828,0.09923044,0.07139649,-0.035906166,-0.08789279,0.0063335854,0.07386287,-0.020353511,-0.05737136,0.06545071,-0.042979427,-0.07481795,-0.0043201004,-0.05936072,0.0015391939,-0.05558963,0.031512886,-0.0069073667,0.06620789,0.00029343006,0.15587312,0.116090074,0.023677243,0.030112427,-0.010847204,0.041122515,0.0395651,-0.091176964,-0.07676179,0.060699597,-0.009998829,0.0703577,0.14846168,0.15610322,-0.065476485,-0.01865686,-0.04081771,0.077515,-0.0018512527,-0.13991305,-0.041715328,0.13686904,0.044671357,-0.058632646,-0.09714003,-0.038809646,-0.017398722,-0.05631314,0.16840796,-0.115053706,0.019095954,-0.046813354,0.06369894,-0.04120354,-0.024451306,-0.032849737,0.0073373574
-0.20246346,-0.11845354,-0.024754813,-0.024527121,0.02094937,0.07323023,-0.12929319,-0.019771846,-0.14746273,-0.11664582,-0.073316164,0.104710594,-0.13151188,-0.10506596,0.0015421573,0.025075026,-0.12101598,0.07412539,-0.11356164,0.02170017,-0.14650765,-0.09525969,-0.15422443,0.008585919,-0.1322916,0.0006972824,-0.014476099,-0.0020655002,-0.017707903,-0.022496229,-0.07102681,-0.095978886,-0.10993042,-0.013665464,-0.17416012,0.10366658,-0.12609813,-0.015580269,-0.26946,-0.12228261,-0.02935164,-0.011209711,-0.157376,-0.059876196,0.034724016,-0.054937452,-0.034031432,-0.1509,-0.026951727,-0.1336835,-0.15142886,0.0887666,0.09230204,0.024967361,0.14253391,-0.0038619856,-0.087143324,-0.24080475,-0.06609871,0.01889165,-0.020871244,-0.20180264,-0.064224884,-0.0371497
0.012064702,-0.16073225,-0.01590524,-0.1598567,-0.001185588,0.0009167694,0.19130781,-0.1007075,0.0692853,0.0015688699,-0.067467764,-0.09275051,0.0029771265,0.036363684,-0.04897288,-0.022196794,-0.18024562,-0.106473416,-0.13825677,0.14828794,0.04631863,-0.061806854,0.14823653,-0.07719262,-0.017447429,0.037279043,0.053217553,-0.07805432,0.12223546,-0.084284455,-0.048305098,0.15354188,0.080025285,0.05510709,0.0484991,0.030966874,-0.049535744,0.021807017,0.111388326,-0.12882268,0.045065526,-0.063859105,-0.13779557,0.057636995,-0.1275104,0.04244555,0.05729363,-0.0031622928,-0.034647435,-0.06138906,-0.062081102,0.016261416,0.113825396,-0.068445094,-0.0030492307,0.035974,-0.081924714,-0.15961784,-0.029172247,0.04698712,0.08614482,0.032163307,0.015105467,0.082209915
-0.058394965,0.11240011,-0.02740517,-0.04375002,-0.04878094,-0.051498707,0.019685712,0.027890256,-0.039585046,0.0031172028,-0.06731582,0.0058524907,0.085571006,0.02242665,0.0668012,-0.056695644,-0.1150213,-0.029300625,-0.03519159,0.04161525,0.023999196,-0.040450234,-0.06743943,-0.058445916,0.030910807,0.025629206,0.06741963,0.013342076,-0.01851763,-0.026942333,0.04355103,0.07455418,0.046460506,0.00824705,-0.072823666,0.06682818,0.04417302,-0.07645892,0.038323574,-0.01365184,-0.08168405,0.037394688,0.053168304,0.054803032,0.09595236,-0.022747522,0.14912881,-0.030036636,0.024412937,0.061580002,0.047882967,0.11613424,0.042534087,-0.08570843,0.029509336,0.102206156,-0.022691652,-0.011553656,0.081312306,0.05755867,-0.06637781,0.025134377,-0.06273511,0.00037104593
-0.0487113,-0.08184829,-0.009568862,0.109250024,0.06283431,0.08986063,-0.018299514,-0.135959,-0.0966873,0.008489895,-0.09729966,0.002192349,0.08924275,0.053539928,0.064619854,-0.12745418,0.024717888,0.057814423,0.19641472,0.03525128,-0.022688927,0.0061708107,0.0063427994,0.002211369,-0.04568211,0.1054201,-0.105859295,0.008164169,-0.0868637,0.09992711,-0.06634938,0.09012081,0.09368723,0.038160726,-0.087921806,-0.09194803,0.0020241872,0.05656452,-0.08286762,0.011338,0.064718954,0.111446775,-0.017353762,0.1942368,-0.16527541,0.031297278,-0.07370111,0.068651736,0.035094596,0.049210828,0.20229448,-0.048151992,-0.22663404,-0.07191515,-0.18609264,0.019421196,0.03613132,-0.019471273,-0.07122162,0.0061379126,0.13207948,0.01018052,-0.08225553,-0.015689267
-0.05153054,-0.033947255,-0.13031504,0.047135267,-0.023104314,-0.034427796,0.0065953224,0.09320939,0.014615487,0.02608804,-0.06415493,0.039862134,-0.041525196,-0.025868548,-0.027419927,-0.067799136,0.13697238,0.019375382,0.012283505,-0.062743545,0.05609726,0.0546825,0.054456186,-0.033080347,-0.015466131,0.0013904935,0.1020296,0.04652602,0.0729443,-0.07680221,-0.010494532,0.123867966,0.047796812,-0.008543116,-0.011002995,-0.09560514,0.04019531,-0.005528635,-0.045687404,-0.066639885,-0.10065014,-0.012213267,0.06243776,0.010257512,-0.13412945,0.054547895,-0.025908336,0.026917366,-0.07238663,0.0032706521,-0.120220184,-0.07190126,0.06505215,0.09605334,-0.02275809,0.032121003,-0.0129650915,0.06440651,0.046087597,0.010620943,-0.15851678,-0.07196141,0.030415535,0.053442936
-0.17009419,-0.052282017,0.1484121,-0.041744526,0.065347575,-0.066019066,-0.023935065,-0.031979736,0.076464795,0.0069955294,-0.08349909,-0.0825081,0.0007822047,0.16578102,0.0786119,-0.16973403,-0.15055604,-0.23513633,0.105932,-0.07294339,-0.14973767,0.018634928,-0.1748175,-0.041387107,-0.010333637,-0.053222794,-0.08305628,-0.04347589,0.09360689,0.02108789,0.14213125,-0.10095706,0.049537137,0.1500368,-0.13575767,-0.023241002,0.057828326,-0.049557652,-0.21960187,0.08575811,0.08076646,-0.006291372,0.026115231,-0.16854669,0.047456905,-0.019399967,-0.18544464,-0.031233197,-0.17628813,-0.11326184,-0.23652905,-0.054626133,0.13910654,-0.24057315,0.06045929,-0.08208737,-0.02004236,-0.07797563,0.11154484,-0.028744973,-0.018483102,-0.017972603,-0.015075395,-0.092686266
-0.11141436,0.087849356,-0.082105584,-0.103541486,0.09208453,0.0025349117,0.005341388,-0.1761101,0.03362097,0.053540956,0.0028467458,0.104246676,-0.062130533,-0.07496688,-0.12240571,0.024726417,0.07849483,0.07439212,-0.062297396,0.08043775,0.024917861,-0.04136575,0.014485111,-0.04015461,0.004955842,-0.19476102,0.0046073142,0.04033719,0.068060495,0.118674405,0.025180904,-0.043340575,-0.0062267305,-0.013127736,0.011360969,0.064069204,0.052879784,-0.028897375,-0.01467551,-0.03515545,-0.15652853,-0.024573455,0.08665294,-0.036277827,-0.0037388438,-0.057358254,-0.0082979025,-0.012876589,-0.015925715,0.07492146,0.024957826,-0.028944291,0.0069633406,-0.027719326,-0.025702756,-0.019819027,0.0036294148,-0.13046865,0.14203267,-0.05572373,0.018063413,-0.002914467,0.005826388,-0.11652098
0.09347241,0.19552669,0.044784177,0.017533202,0.068128005,-0.026645247,-0.056521237,0.06679765,-0.03641356,-0.0632014,-0.03668673,-0.10559378,-0.1259672,0.04648151,-0.027767517,-0.07995651,0.033157334,0.09068109,0.010741821,0.22403735,-0.07227819,-0.036685683,0.04361371,-0.09688512,-0.04331325,0.017926866,0.01779889,-0.17961037,0.06153178,0.032596346,-0.2669281,0.09948068,-0.05535886,0.0046194415,-0.03491362,0.0070733135,-0.08603337,-0.1970231,-0.020954035,-0.019778013,0.105726585,0.07266519,-0.15100613,-0.096294,0.046497583,0.09894332,-0.12829345,-0.1083797,0.16990247,-0.17440769,-0.025016146,-0.05052549,-0.061581526,0.065644234,-0.06379322,0.11134414,-0.06513865,0.007304448,-0.17235428,0.01961835,-0.06325941,-0.08311626,-0.04377288,-0.053921916
0.18322922,-0.043832354,-0.053373016,0.11675513,-0.06928224,-0.01607976,0.061859794,0.07186468,-0.08034724,-0.045810144,0.033793412,-0.041051187,-0.051530335,-0.03209647,-0.16215183,-0.033962306,-0.26729807,-0.067776844,0.06587825,-0.06714742,-0.04617073,0.019424552,-0.099825025,0.011260771,0.07684684,-0.33646768,0.047637515,-0.1151396,-0.41860718,0.20059168,-0.17516416,0.01369425,0.050689436,-0.031352293,-0.03893476,-0.10111978,-0.04522362,-0.024857784,0.054443967,-0.18597145,0.19248949,0.24086279,-0.1444644,-0.11254466,0.060973216,-0.104986906,0.0875379,-0.0536208,-0.12422827,-0.084907636,-0.13810913,-0.20253356,-0.13567261,-0.15596077,-0.114499696,-0.018734133,-0.045804314,0.018686632,-0.09897168,-0.076438434,0.045983292,-0.04213398,0.06866949,0.053680606
0.09776206,-0.047948103,-0.19384457,-0.041317295,0.044468164,-0.06567283,-0.02308286,0.10288602,-0.08046698,0.068544865,-0.12823342,0.025651665,0.061390314,0.09144034,-0.063200906,-0.01247295,-0.12274091,0.08627729,-0.07724943,-0.034103602,0.019408777,-0.03173338,-0.0010403332,-0.01420039,-0.028180655,0.28269514,0.018506857,0.124621056,-0.04602395,-0.034888707,0.07217048,-0.013854958,0.03669874,0.034357104,0.030682044,0.031213384,-0.045085885,0.08425804,-0.15933242,-0.09098163,0.014969172,-0.04284068,0.0741223,-0.024397261,0.05334853,-0.07442492,-0.03946509,0.030698694,-0.07165868,-0.08577553,0.056693826,-0.028045593,0.003697424,0.023920419,0.003065885,0.12594634,-0.016809834,0.0688948,0.013844539,-0.05708853,0.028321294,-0.024182638,-0.06663169,0.027372355
0.012115528,-0.063561246,-0.07344201,-0.031807635,0.133324,0.058525167,0.013865921,-0.015034731,-0.043930758,-0.038005773,-0.039235536,-0.034390457,0.110453196,-0.0042974516,0.0013610597,-0.1242902,0.076130345,0.078640595,0.114608325,0.045453075,-0.038335145,0.06278537,-0.003571126,0.022718318,0.030288715,-0.075849704,-0.035168447,-0.11598554,-0.12406688,-0.06946379,-0.124332845,-0.047403924,-0.03402507,0.02975947,0.03717965,0.044996366,0.08016449,0.06492301,-0.0014413832,-0.043909572,0.10202845,-0.17707896,0.021212364,-0.029508341,0.07507185,0.0074164057,0.04114709,0.07767876,0.042552177,-0.076563634,-0.062432896,-0.013529314,0.052090134,-0.07617431,0.052406114,0.01659296,-0.044221293,0.0768827,0.04044021,-0.06919586,0.03505497,0.050478216,0.030953132,0.08446336
0.0066255573,-0.10836052,0.12027793,-0.043801766,0.10823724,-0.047576867,-0.07370492,-0.14422306,-0.13089606,0.10424349,-0.05788733,-0.04150908,0.15489519,-0.099517,-0.05670351,0.009780266,-0.26608428,-0.13829842,0.032912366,-0.07020632,0.06531488,0.038532022,-0.21258521,-0.044018507,-0.008654616,-0.03215121,0.032743722,-0.03873526,-0.09651696,-0.025671232,-0.18299161,-0.19143237,-0.054320805,0.15491372,-0.012754517,-0.0574123,-0.090136416,0.01582419,-0.3109069,-0.11389025,0.025344213,0.008027555,0.059146367,-0.03643278,0.05455301,-0.18709265,-0.22120273,-0.10368382,-0.027342705,-0.0076110475,-0.08559726,0.03457482,-0.18240687,-0.01902792,0.053074613,-0.07870817,0.15023337,-0.025040256,0.042508688,0.017312711,-0.04325858,-0.045715462,-0.010353832,0.009886031
-0.08515634,-0.042301733,-0.27809626,-0.054724313,-0.0009178695,0.017706772,-0.13501933,-0.028876528,0.009772258,-0.18531443,-0.14171228,-0.21262893,-0.21584326,-0.07189777,-0.013947207,0.1433676,-0.16383643,-0.30379108,-0.09823987,-0.22487234,0.060773797,0.0013557854,-0.22415012,-0.02663458,-0.021626115,-0.15349896,-0.18411352,-0.11281264,-0.22536135,-0.12489313,-0.13504606,-0.15630852,0.09478065,-0.013426409,-0.07904878,-0.08867193,0.056031343,0.0099822,0.0171478,-0.04584429,-0.012144422,0.003009005,-0.048723243,0.022116782,0.06713059,-0.10777391,-0.06759356,-0.1331187,-0.08762556,-0.2955499,-0.06703979,-0.06511303,-0.05539998,-0.089628145,0.04734684,-0.17941503,-0.26948267,0.039622366,-0.095513746,-0.019147366,-0.13436061,-0.12539059,-0.03493835,-0.13930145
0.06174375,0.0046412675,0.020169284,-0.095941864,0.07029881,0.046061393,0.18152383,0.13367662,-0.037132114,-0.012109112,0.028358359,0.046293713,-0.004122526,0.08675593,-0.0003692867,0.05227932,-0.011869901,-0.080381975,-0.07983121,-0.09364384,0.038539276,0.059424397,-0.051865503,0.09114614,-0.023731204,-0.067759655,0.06773503,0.09089024,0.05257821,0.09263588,0.023706038,-0.0051098713,0.00038654325,0.034246136,0.018670931,-0.00627085,0.10737433,0.058730826,-0.013252075,-0.079971895,-0.056299657,-0.12246117,0.04396846,0.08252065,-0.04225687,0.011593369,0.030015195,0.016466212,0.05527323,0.060136475,-0.02055051,-0.010263199,0.03194663,0.05507026,0.034225225,-0.027689954,-0.04471573,0.0416215,0.041111954,-0.03825451,-0.0061555277,-0.0022736196,0.04936591,-0.019728152
-0.118938684,-0.039988056,-0.06776024,-0.033237655,0.0037042266,0.07061178,0.011986941,-0.0034226368,0.027052566,0.033245288,-0.050546113,-0.03247217,-0.06501318,-0.15474008,-0.08246214,-0.043738097,-0.023474725,-0.018912308,-0.12750883,-0.09921194,0.054696806,0.014509236,-0.005407139,0.20985524,-0.03043368,-0.0732047,0.0049701156,-0.019637452,-0.08483264,-0.13640167,-0.24845064,0.12469342,0.019258525,0.016405992,0.14004031,0.061455965,-0.06671779,-0.013442565,0.010258406,-0.031904537,-0.07138744,0.093096025,0.043744467,0.03629633,-0.10517855,-0.058302686,-0.038394965,-0.005052182,-0.1412311,-0.037382808,-0.033924833,0.11582684,0.0534027,-0.19393829,0.13906759,-0.0537341,-0.0013792898,-0.16919142,0.040163815,0.06357078,-0.1979349,0.041879117,0.050790954,0.0045886976
-0.10425044,-0.17532532,-0.0053796116,-0.08832331,-0.09723072,0.0021396016,-0.28425178,-0.058483947,-0.18488461,0.18982327,-0.01553617,-0.02441976,-0.055135753,-0.2503792,-0.084406495,0.08295508,-0.12523133,-0.025355097,0.051913973,0.06608656,0.063341506,-0.013112638,-0.07319259,0.006395828,-0.06520364,-0.015384428,-0.0970545,-0.03738712,-0.17952582,-0.013186641,-0.18588711,-0.010361263,0.1255499,0.05299904,-0.15995479,0.05187596,-0.069282606,-0.08437485,0.059289638,0.05788011,-0.020072315,-0.06515367,-0.0036496483,0.07036812,-0.18671274,-0.06298998,-0.096582405,-0.030438295,0.066443175,-0.14385413,0.078691095,0.01777748,-0.11808605,0.08708825,0.040560402,0.18022048,0.046140008,0.036625758,0.13557786,0.06980516,0.027286852,0.036977436,0.060296305,0.02178395
-0.052840114,0.08348676,-0.106107585,0.019189939,-0.010220965,-0.089111395,0.031557836,-0.026678685,0.105274916,-0.1593198,-0.02964309,0.01340893,0.033444326,-0.031829122,-0.15356019,0.13218246,-0.08458598,-0.15432772,-0.0073795957,-0.061770927,-0.085093185,-0.09221701,-0.07903192,-0.13993037,0.028447773,0.029464558,-0.04959239,-0.1700465,-0.103251494,-0.101844236,-0.024944918,0.0031220687,0.16311632,-0.02641048,-0.05961528,0.009370908,-0.08806986,0.059492778,0.01840687,-0.092113994,0.12331922,-0.021338195,-0.055658106,-0.1323724,0.022680154,-0.0406679,-0.05146634,-0.02103983,0.082445934,0.006714542,-0.1580155,0.015567922,-0.032460883,0.020268055,0.07502986,0.01714253,-0.080433056,0.024507742,-0.18216395,-0.15737686,0.007929943,0.009378115,-0.08199541,0.0038996742
-0.019286769,-0.031938855,0.038458552,-0.108107485,0.013723391,0.030017748,0.011332777,-0.05618107,-0.06781601,-0.044203416,0.05060461,-0.08198434,0.022793148,-0.035814818,0.058159128,-0.007832167,0.038694564,-0.08981577,-0.014154562,0.021291092,0.008258486,0.049862612,-0.0039167786,-0.07921269,0.012320423,-0.02922949,-0.07707192,0.045887943,-0.09298308,0.115835756,-0.04364921,-0.07602131,0.037379593,-0.063628525,0.018457614,-0.06311038,0.015311696,-0.007800758,-0.0027156407,0.012718705,-0.003584087,0.0026748364,-0.14859739,-0.13609481,-0.14996411,-0.045703985,0.024105888,-0.018517612,-0.10686543,0.021925328,-0.058857437,0.026782371,0.109199315,-0.06791534,-0.052119162,0.04086157,-0.07259076,-0.0018849035,0.03895999,-0.09960927,-0.13218237,0.08238701,0.048064254,0.07440195
-0.06382025,0.0255221,-0.032843404,0.13677453,0.09530322,0.036697954,0.039753586,0.11927257,-0.07179856,0.0038798535,-0.0813021,-0.05268748,-0.031869255,0.02038804,-0.20235437,0.042463437,-0.10680362,-0.032769766,-0.07665358,-0.13013478,0.021652162,0.030864183,-0.03292944,0.059494592,0.06724081,-0.04240351,-0.03256073,-0.057816926,-0.094839886,0.03343716,-0.11809716,0.07390841,0.116903804,-0.28540778,-0.0047080326,0.011802367,0.019982155,0.0749886,0.0340736,-0.03017165,0.093012705,-0.047624856,0.044070404,-0.09916038,0.045323636,0.12153144,-0.05337061,-0.1223708,0.0333666,0.020703543,-0.0040201345,0.08171215,-0.11260791,0.051471904,0.09453052,-0.045272715,-0.062935196,-0.013945078,0.0594937,-0.013420111,-0.12783946,0.037270218,-0.09177798,0.060723495
-0.08076485,0.008680595,-0.12880392,-0.10118487,-0.24917899,-0.01685342,0.018885424,0.04600002,-0.034021083,-0.1656742,-0.118665345,-0.01836662,-0.014741234,-0.021859951,-0.1140495,0.024863325,-0.1413583,0.05946572,-0.06334479,-0.19485435,-0.027322736,-0.048895974,-0.02973119,-0.24099813,-0.07228532,0.052413397,-0.027155763,0.03510273,0.0057086665,-0.06981482,0.007096424,-0.09211555,0.04429063,-0.14147712,-0.039586745,-0.066265754,-0.10731427,0.023060786,0.010517092,-0.0017612678,0.15210488,-0.057653666,0.10576135,0.014758161,-0.27217016,-0.096959025,0.10287669,0.0758995,-0.10277246,-0.12707263,0.13544494,-0.10484969,-0.0047634533,-0.12891337,0.05781708,0.15482222,-0.10650296,-0.0698491,-0.033884443,0.19463664,-0.059575457,-0.060682904,-0.08005853,-0.012445854
-0.008197043,0.18715712,-0.0146669205,-0.1008657,0.29410392,-0.06569431,-0.09150416,-0.3202788,0.046475798,-0.16753761,-0.019795692,-0.030444928,0.050147835,0.1255331,-0.052675392,0.0099817775,0.06963754,-0.06341387,-0.12524627,-0.013767352,-0.010619844,-0.09228962,-0.04278132,0.013268497,-0.012987771,0.076708436,0.004974769,-0.115953624,0.082462974,-0.019929286,-0.10204676,-0.14065787,-0.0032285566,-0.066672474,-0.005468405,-0.06932879,-0.09679466,0.111442834,-0.13334736,-0.108116604,0.015087501,-0.037255745,0.0021440075,-0.08622881,0.0755055,-0.17739858,-0.23966727,-0.056427844,-0.14287435,0.16943212,-0.13335596,0.036486458,-0.024415579,-0.018978728,-0.028714737,-0.054944597,-0.028726835,-0.05330499,-0.035313442,0.07060863,0.08814093,-0.07577861,-0.024839014,-0.0609557
-0.1322991,0.04104747,0.07534548,0.15953712,-0.07921103,-0.07670223,-0.07700582,0.007193768,-0.06838474,0.0047255177,-0.12007356,0.0048727174,0.1528477,-0.041603453,-0.038451478,-0.059795618,-0.2026751,0.16200887,0.017086998,-0.09335484,-0.12234149,0.07103432,-0.15395467,0.046781063,0.0069073373,0.01947512,0.0036619217,-0.06519929,0.010391988,0.05125576,-0.1953891,0.0106017245,-0.080554806,-0.05005992,0.019593276,-0.012801818,0.032141857,-0.06520059,-0.02377207,-0.08748786,-0.10176112,-0.080290675,-0.08706158,-0.17261727,-0.048488524,-0.00458369,0.057180047,-0.07004236,0.0612502,-0.013243318,0.020748926,0.1238742,-0.095127024,-0.09030112,-0.10044272,-0.0032211046,-0.05109971,-0.079265796,0.043993093,0.043421432,0.21886489,0.07627731,-0.020376375,-0.14128141
-0.046306606,0.12837893,0.00060983305,0.07782429,0.10158799,-0.0049576075,-0.019107789,0.035962846,0.04610174,0.051320177,-0.07486491,0.029336903,0.08783121,0.033393588,0.10922033,0.04655781,-0.032737415,-0.09798972,-0.0044476986,-0.04313913,-0.067544274,0.030209739,-0.061942156,-0.00023858562,0.04519468,0.035727106,0.0010445911,-0.014982435,-0.08649899,0.083522856,0.043490194,-0.0166352,-0.091832496,-0.0032049536,-0.012922659,-0.044867605,0.058635272,-0.0008398549,-0.016234666,-0.0062403795,0.109149426,0.060435843,0.034124304,-0.14617626,0.13818066,0.087267056,0.029368358,0.007453578,0.08774868,-0.06862133,0.016655022,-0.03628879,0.11134,0.08512091,-0.056527223,-0.063361436,-0.08984557,-0.09608837,0.10139917,-0.011604118,-0.044881597,-0.08802146,-0.057280008,-0.07199114
0.08503995,0.047496945,0.06705078,0.15163855,-0.009710755,-0.05453341,0.015625495,0.016713738,0.13423666,0.123422146,0.12074678,-0.040400226,-0.028470052,-0.04342016,-0.013855518,0.046356373,-0.06451282,-0.024503132,-0.11409912,-0.07754354,-0.06792154,0.021761607,-0.027677793,-0.03393365,0.020993298,0.015771685,-0.0644713,-0.0049334504,0.015979199,0.13115095,-0.05789053,0.028731054,-0.0055951616,0.077585265,0.0516645,-0.07867177,0.017497545,-0.04211275,0.023866218,-0.0316592,0.11697608,0.042423353,-0.10543529,-0.09430766,-0.075221404,-0.060815938,-0.08526826,0.040574845,0.0094905365,0.08022968,-0.068766646,-0.11357507,-0.03177663,-0.020857623,0.08189735,-0.053636175,-0.012879253,-0.14526595,-0.026085874,0.062441725,0.030708484,0.07305747,-0.06769886,0.0076881996
-0.16677353,0.106978506,-0.009238349,-0.22682653,0.06397206,-0.07409886,-0.08015134,0.0534453,-0.087386094,0.06304375,0.033269055,0.05326607,0.066894084,0.022184847,0.08905414,-0.032700326,-0.053531125,-0.16176598,0.0057547763,-0.11086217,-0.1355378,-0.15388004,0.08487561,0.029698271,-0.1588352,-0.02491053,-0.076172665,0.055479378,-0.18846565,-0.13899298,0.11528227,-0.052344352,-0.088907205,-0.13214047,-0.010490229,-0.15140246,-0.0025119216,-0.013189303,0.029140566,0.01671776,0.041935567,-0.20930758,-0.08908875,-0.0806835,0.002364226,-0.037472144,-0.18984318,0.000852669,-0.19627944,-0.19659638,-0.03366428,-0.031876445,-0.05316444,-0.0543124,-0.10708897,-0.012598891,0.11573477,-0.025316024,0.032040052,-0.013381236,-0.032706574,-0.07728554,-0.023926584,0.06000757
-0.072821885,-0.0015170682,-0.03108137,0.07085544,-0.07439654,-0.016251873,0.022960313,-0.16226907,0.01918661,-0.061369948,0.044605494,-0.106855765,-0.10356841,-0.02518881,0.07856256,-0.016406478,-0.07831893,0.03876878,-0.0348273,0.07586485,0.0645471,-0.04038778,0.082589105,0.006200203,-0.018055385,-0.11492293,-0.044446588,-0.1412409,0.03703388,-0.10445707,0.013895517,0.065497726,0.13653459,0.014149342,-0.07434114,0.043972857,-0.024878647,0.008570799,-0.0038994334,0.0790215,-0.15306458,0.010569342,-0.121777415,0.026448222,-0.15871231,-0.023260128,-0.03437,-0.11742282,0.07470899,0.08357142,-0.10243254,0.031758323,0.08547049,-0.114340335,-0.039893366,-0.000634915,-0.04014973,-0.006549907,-0.023869101,-0.02817875,-0.15358053,0.0052544,0.04912456,-0.042888645
-0.02047301,0.07843739,-0.029851623,-0.041983925,-0.15371765,-0.114003986,-0.07827814,-0.036270514,0.069975786,0.059742738,-0.102020726,0.021096898,0.015181635,-0.04718264,-0.16241765,0.056741156,0.05487693,-0.01572518,-0.019913733,-0.024181025,-0.0011608582,-0.068886936,-0.14365281,-0.17438218,0.03282216,0.04469723,0.03737392,-0.18288295,0.15540852,-0.22971389,0.121839575,0.16205983,-0.14633869,0.022385888,-0.021777544,0.018489465,-0.049979344,-0.024449667,0.13608162,0.033285454,-0.07131579,0.07577921,0.26202565,0.1377158,0.0133987535,0.13222094,0.035917766,0.06314908,-0.0918822,0.0869776,-0.024394458,-0.12906256,-0.13209729,-0.05649955,-0.04845744,0.035097245,-0.026064536,-0.09645976,0.047728747,0.095372066,-0.042499255,0.14264292,0.002119802,0.033643115
-0.15651377,0.0038772654,0.04511649,0.12680057,-0.054812748,0.00801984,-0.07607999,0.025750132,0.024143448,-0.08924957,-0.03212463,-0.15344945,0.06666476,-0.2036738,0.023866571,-0.14540334,-0.22210446,-0.007805311,0.050024267,0.11318311,-0.09477469,0.02183416,0.025775488,0.012858415,-0.0031184927,0.00225608,-0.12346171,-0.0069074677,-0.12681499,-0.0064784912,-0.10968821,0.028473519,0.030100748,0.02386763,0.008319118,0.022073321,-0.12009939,-0.1926655,-0.047235932,-0.061262533,0.16337125,-0.10270421,0.015247733,-0.13029198,8.0116144e-05,-0.046186388,0.012179263,-0.15557444,0.18871851,-0.10013481,0.08919455,-0.12877703,-0.09831552,-0.07863132,0.15360868,0.016669601,-0.14769141,-0.1301483,-0.033736173,0.13666648,0.007578958,0.024827745,-0.02733056,0.0554809
-0.086116016,0.050527822,-0.08642984,0.040452003,-0.09012969,-0.067173816,-0.13563488,-0.00032364522,-0.08852376,0.107430644,-0.029831039,0.018921677,-0.043544255,-0.10474979,0.117095634,-0.089949965,0.0885861,-0.09082949,-0.0828955,-0.042527445,-0.038453624,0.03993961,-0.05199222,0.0047581526,-0.07622312,-0.049528215,-0.009884025,-0.08748504,-0.05086378,-0.10683055,-0.07731433,-0.18553032,-0.11477594,-0.05180577,-0.026204012,0.029165894,-0.029827092,-0.10433846,0.024912676,-0.036633544,-0.20072435,-0.045136523,0.054832797,-0.15020722,-0.034619458,-0.08381112,-0.021404454,-0.06699006,-0.014207528,-0.13316134,-0.16733696,-0.027966293,-0.09711901,0.0118104,-0.0438895,-0.041738853,-0.0925052,0.050198883,0.10253591,-0.012841928,0.056610618,0.05228418,0.010891115,0.045283694
-0.10548806,-0.22496796,0.07237614,0.017271958,-0.36348608,-0.06975749,0.11143778,0.07696006,-0.14237295,0.068589605,-0.12149676,-0.06296239,0.119827904,-0.08008973,0.034458622,-0.1789237,-0.10661566,0.04475801,0.12592754,-0.08531999,-0.017916024,-0.011158546,-0.0067025237,-0.021370942,-0.134111,-0.09133335,0.00894212,0.11477199,0.03908272,0.20807624,0.052097503,-0.100559615,0.008721832,-0.012432858,0.022422014,0.029969277,-0.09200896,-0.15471184,0.052595578,0.003096971,0.1648191,-0.062137637,0.0013307905,-0.12262121,-0.24238186,0.055742063,0.02719334,-0.0063759917,0.18062636,-0.16951448,-0.0013355059,-0.030073807,-0.080918945,-0.13333884,0.17005542,0.102791,-0.013579828,0.07351175,-0.09020753,-0.029499197,-0.04453776,-0.11733577,-0.07746937,-0.008400382
-0.027949698,-0.048411984,-0.051589373,0.07069382,0.14862345,-0.06450341,0.034398474,-0.0011843892,0.038781423,0.035727777,-0.023653734,-0.026734456,-0.0073980326,0.0330437,-0.15192865,0.0940152,-0.00037595409,0.05932121,-0.07674477,-0.07251932,0.051837843,0.023401778,-0.06860773,-0.050581284,-0.009240637,0.11976659,0.078973725,-0.13259734,-0.09076706,-0.03881028,-0.03521744,-0.0417207,0.05613418,-0.013840662,-0.070193104,-0.08334723,-0.013420472,-0.048416555,0.0526787,-0.021652084,-0.051386856,-0.09820899,0.08534721,0.03817927,-0.11701862,0.04037611,0.08769836,-0.121402144,0.01491482,-0.03403504,0.007243469,0.04347987,0.06896556,0.008328508,0.010763005,0.033082906,-0.032760803,-0.056306813,0.06058694,0.02798749,0.068839274,0.029187646,0.013584382,0.0069500417
0.0060490863,0.0023615016,-0.03696758,0.036124405,0.030744681,-0.043647345,-0.042300735,0.011195432,0.13185385,0.03206439,-0.08006342,-0.031328216,0.09087191,0.025782475,-0.16008449,-0.053350996,0.010670816,0.064780846,0.039665315,-0.025935017,0.008408227,-0.12604627,-0.039962865,0.028901294,0.027727615,0.049618952,0.10781906,-0.026059397,-0.04312243,0.017440293,0.029154453,0.123226725,-0.13884452,0.12765042,0.0752474,0.015861992,-0.064501815,-0.023766214,0.070264444,0.01103699,-0.018693805,-0.14188766,0.1240495,-0.1179702,-0.004529038,0.10380029,-0.09986379,-0.02230737,-0.19707955,0.14276193,0.0015951385,-0.035571735,0.13664897,0.062540114,0.047776688,0.02050259,-0.038040336,0.08011435,-0.057250086,-0.026602525,-0.0020216699,0.12191812,-0.042675868,-0.08247909
-0.050702855,-0.021502292,-0.08822017,-0.1678079,0.14972648,-0.1233717,-0.107687786,-0.24437244,0.01447303,-0.21257596,-0.1700699,-0.10849344,0.09239947,0.06849118,-0.09407602,0.0060321754,-0.06754514,-0.09106033,-0.33392027,-0.09878155,-0.014469766,-0.09342944,0.0030332184,0.13537417,-0.005147896,-0.012767201,-0.19475642,0.012789172,0.19275266,0.028292906,0.012154884,-0.325651,-0.087283775,-0.15526816,-0.1460788,-0.08824903,-0.18385965,0.12407003,-0.16573551,-0.18824588,0.023566864,0.12972517,-0.107873574,0.021976084,0.042715244,0.00050863734,-0.20622647,-0.024830755,-0.18650888,0.07030908,-0.13684498,-0.119566835,0.03473775,0.12778972,-0.27548587,-0.1651186,0.037744623,-0.011584346,0.24179988,-0.11308181,0.21801543,-0.14540085,-0.02124357,0.011807062
0.086437866,0.14904834,-0.037165966,0.13268723,-0.08223709,-0.010975712,0.012108319,0.04609641,0.1411783,0.08073618,0.170433,-0.13441348,0.06474571,-0.053553596,-0.19265002,-0.0013517846,0.017971888,-0.10464187,-0.01620408,-0.03516613,-0.072786294,0.0023785972,0.021120043,-0.039777074,0.059701663,0.040369283,-0.018745767,0.013288203,0.00152503,0.15126765,0.020081544,-0.04563875,0.07576319,0.04461087,-0.103303134,-0.106318064,-0.042780925,-0.057244774,0.041390307,-0.018450314,-0.13324842,0.055617124,-0.011096632,0.037516564,0.074960195,0.05503867,0.14829908,0.09881862,0.08626796,0.12687899,0.0834538,0.1015119,0.015345522,-0.049687367,-0.0121948905,-0.037018288,0.042403247,-0.020043166,-0.024080802,0.16722779,-0.10543285,-0.061790988,0.07038765,0.06325946
0.113457315,0.045393836,-0.07174202,-0.206383,-0.027786886,0.060706783,-0.038152333,0.28438887,0.051730577,0.026018789,0.084846176,-0.009124343,-0.021257604,0.10661923,0.13906357,0.053498026,0.10629819,-0.10354291,0.0065103453,-0.17785637,-0.066310585,-0.014417457,0.001463301,-0.010359408,0.022101082,-0.06535455,-0.043553546,-0.06446181,-0.002926372,0.1337943,0.11091063,0.051433213,0.035782013,0.08432456,-0.05985053,0.010207226,-0.12698399,0.06566627,-0.0055442955,0.15992539,0.001363948,-0.07215387,-0.00760048,0.033438507,0.02551631,0.034803495,-0.005772319,-0.0035564636,0.028925989,0.09053157,-0.11534181,-0.11317959,0.08040084,0.087914966,0.06669445,-0.11816232,-0.05004265,0.054074027,-0.040300686,-0.053050943,-0.17901812,-0.021789135,0.002070209,0.039820738
-0.3113842,-0.03998317,0.010216763,0.14788428,-0.064365104,-0.047987983,0.0460294,0.090588175,-0.10236448,0.19076194,-0.06364335,-0.12217657,0.12997784,0.015647689,-0.08957003,-0.16709657,0.033662684,-0.035597473,-0.062803335,-0.013473224,-0.04843624,0.034559637,0.07149836,-0.0356677,0.08648884,0.003727182,-0.16136074,0.055703208,-0.063057944,-0.049410954,-0.034165226,-0.07113265,0.06782914,-0.07408712,0.046278328,-0.13443117,0.055057973,0.05781211,-0.12239903,-0.102033794,0.1598019,0.034489393,0.10464137,0.044202108,-0.08708388,0.0105909975,-0.16001268,0.102112055,-0.053893227,0.08419376,0.10081338,-0.09980193,0.014616776,0.046147466,0.06291065,-0.15179023,0.034631275,0.022974206,-0.010274821,-0.016605157,0.019229539,0.04238748,-0.075947404,-0.06790306
-0.004265244,0.01720925,-0.045455236,0.017589001,-0.03755432,0.03702497,-0.040275477,0.019780155,0.0054798406,-0.017108269,-0.063394144,-0.030391233,-0.04110181,-0.075656176,0.013204167,-0.0021012493,0.07809941,0.055345796,-0.009281172,-0.05245597,0.062045164,-0.0038711487,-0.04988509,0.035747364,-0.087380625,-0.087676145,0.059386447,-0.0050215046,0.047403157,-0.15737525,0.01665611,-0.08488645,-0.035872463,0.10787031,-0.03527121,-0.05181881,-0.11498363,-0.04895687,0.059880953,-0.045282144,0.08961048,0.029814778,0.009730148,0.035682578,-0.19547747,0.03516205,-0.039815076,0.043323074,0.10658736,-0.07994185,0.102027304,-0.0517563,-0.03280745,0.0056167073,-0.07623937,0.0559346,0.059230004,0.028665539,-0.06968701,-0.0052836556,-0.013792766,0.07258076,0.04355348,-0.014397145
-0.059862096,0.0012706411,-0.18568443,-0.0057731587,0.080535345,-0.0038638723,-0.09129199,-0.063587084,-0.047542237,-0.012261955,-0.102988556,-0.16047403,0.02862175,-0.12065816,-0.021395087,-0.059898295,0.028567938,0.081003785,-0.15604964,0.0027779983,-0.08823308,-0.116409965,-0.025900016,0.01213479,-0.13947152,0.16180842,-0.058128253,0.06920998,0.02391308,-0.08516862,0.03252902,-0.20480594,-0.06054419,-0.085085675,-0.037792623,-0.13107286,-0.04377992,0.13814442,-0.088131286,-0.054554675,0.022357095,0.0073208995,-0.24184717,0.025487034,-0.05259441,-0.019908471,-0.10616012,-0.044261128,0.06533444,-0.02249186,-0.15470959,-0.15984516,-0.12138513,0.057475455,-0.10108141,0.029780142,-0.08102177,-0.19910392,-0.033221677,-0.19424316,0.15794465,-0.047084086,-0.017247522,-0.012741296
0.07543993,0.013836991,0.059116017,-0.088270284,0.115634486,0.025289085,-0.076004826,-0.09027676,0.04196833,-0.0706501,-0.010504189,0.063640535,-0.012465411,0.06528416,-0.093170404,-0.08420932,0.04012143,0.08170744,0.09034457,-0.16326569,0.085431926,0.026220424,0.025984803,-0.009623077,0.021100974,-0.0708937,-0.071772814,-0.010329491,-0.004757311,-0.005252755,-0.04563296,0.05123933,-0.054513365,0.057449818,0.05055859,-0.028332477,-0.053947993,-0.049408633,0.01398542,-0.06842163,-0.072430894,-0.08145361,-0.030338462,-0.17347695,-0.016720304,-0.025322817,-0.09884119,0.06825442,0.022337282,0.020109178,-0.16641735,-0.13395165,-0.012353916,-0.024509314,-0.0007917535,-0.083230205,-0.0073102773,0.02083356,0.050192453,-0.022685234,-0.01668888,0.048671667,-0.05346023,-0.03824126
-0.06424227,0.07980668,0.049005598,-0.00821315,-0.07479419,-0.14991662,-0.08068123,0.077161305,-0.110125825,0.004658369,0.026989076,-0.06380514,-0.09853335,-0.04813195,0.014362597,-0.11855286,-0.13228485,-0.1795577,0.025530174,-0.08179404,-0.058958694,-0.099738024,0.05794687,-0.046829622,0.0244204,0.041926228,0.07116069,-0.08329487,-0.15554023,0.09086294,-0.07456565,-0.03674922,-0.09397986,0.073061496,-0.12986717,-0.08916781,-0.13702647,-0.10587666,-0.085646525,0.092737235,0.09242273,-0.041473757,-0.15174663,0.053294387,0.025988262,-0.08367192,0.06012514,0.13638793,-0.07350936,0.10227766,-0.035966534,-0.017997323,-0.15515852,0.05550026,0.04994327,-0.012694128,-0.13178584,-0.12246851,-0.08537662,-0.06466444,-0.10231735,-0.0021959373,-0.0359971,-0.093887836
0.039722107,-0.07806349,-0.07680096,-0.02359545,0.06646577,0.006804039,-0.11669973,-0.05363847,-0.000583847,0.19848427,0.08922807,-0.19141941,0.06988759,0.06538302,-0.013210466,0.002825446,-0.123321645,-0.1598286,-0.0066317488,-0.036742654,-0.08358328,0.0051344763,-0.08641899,0.053975686,-0.08407078,0.040758822,0.18049034,-0.069573924,-0.19513245,0.12104418,0.11037917,0.05447507,-0.08209724,-0.016436344,-0.025280757,-0.05535721,-0.24340455,0.16579434,0.020576553,0.07747683,-0.10674428,0.06803944,0.13063176,0.128912,0.022027558,0.040179238,0.06853021,0.035082422,0.008899917,-0.13779554,-0.1091745,-0.021133833,-0.18007582,0.16975173,0.016128916,-0.05239399,0.14723034,-0.1332654,0.14980195,0.07723005,-0.001607691,-0.13777412,0.055073883,0.026310947
0.05371878,0.17905973,-0.05780089,0.19150357,0.14928177,0.08010716,-0.09147448,0.042642437,0.19377057,-0.01564556,0.11407878,0.00016389246,-0.09906112,0.018319972,-0.04932125,-0.07588128,-0.10554633,-0.114459015,0.13248275,-0.020792304,-0.10995524,-0.07663597,0.09353597,4.3197622e-05,-0.017943777,0.2161115,0.12529379,-0.07868612,0.17291756,-0.06216327,0.02936077,-0.08583171,-0.030556979,0.07470313,-0.005506088,-0.082418986,0.049030244,-0.021540163,0.106255226,-0.04981711,0.060957033,-0.05406143,0.015371515,-0.14057003,0.16396904,-0.02234428,0.017618643,-0.05927606,-0.011759855,0.032460667,-0.03411791,-0.08679209,-0.0048270207,0.23448324,-0.053062335,0.028376073,0.0051794876,0.055326916,0.010530844,0.045158055,-0.036523487,-0.0014330593,-0.06983393,0.036931053
0.026316822,0.015721323,-0.039968487,-0.18457055,-0.028201727,-0.012079187,0.042264886,-0.09649329,-0.061090212,0.048746794,0.031101678,0.0763345,-0.0032723842,-0.011050125,-0.03141509,0.027731277,-0.09182654,0.047411475,0.016028937,-0.047171377,-0.022295164,0.07202259,-0.014444589,0.06133905,0.020517774,-0.013669751,-0.0011650665,-0.035070416,0.05294182,-0.21594869,0.016175264,-0.009130735,-0.12511076,0.054471813,-0.07437153,-0.009356679,-0.0124661885,-0.0063686743,-0.070910014,0.020980822,-0.014728134,0.08457762,-0.025664808,-0.098232925,0.08843069,-0.05822816,0.020596383,0.07531145,-0.05117887,0.020515746,-0.016262066,-0.0033435095,0.08049359,-0.09170949,-0.022996498,-0.03314712,-0.0036859694,0.0010367795,-0.059517425,0.02287589,-0.10955702,0.022172859,0.031555805,-0.028000098
0.0971866,-0.32736498,-0.034643874,0.14586698,-0.014446271,-0.04222291,-0.035134982,-0.04975855,-0.06594885,-0.17067032,-0.16580378,0.000832566,0.0041619083,-0.07830896,-0.20101698,-0.0032844222,-0.004563515,-0.049371,-0.16995841,0.015866721,-0.0042165243,-0.055755258,-0.10957068,0.040523395,-0.11221305,0.23168902,-0.1274676,-0.004868694,-0.07565658,-0.021991106,-0.08081414,-0.2166682,0.048669875,-0.12682113,-0.0599033,-0.05939438,-0.017582789,0.08632215,0.08012275,0.072075136,0.024841744,0.12027515,-0.008505251,-0.27855933,-0.004294123,0.028438494,-0.18877785,-0.2434607,0.04648272,-0.029388195,-0.049861405,0.115821496,-0.046503987,-0.023258923,0.026502838,-0.038636338,0.04271476,-0.009572996,0.06365643,0.05956516,0.06711707,-0.08147288,-0.116968654,0.0529601
-0.054761887,0.0190122,-0.057845835,-0.05328122,-0.09056992,-0.083044805,0.0023367924,0.04609438,0.16444503,-0.2395871,-0.014418549,-0.086446784,-0.08863899,-0.02656857,-0.11769234,-0.07764326,0.038655948,0.036790874,-0.15520118,-0.088008195,-0.05609895,-0.006960681,-0.0028608271,0.10200609,-0.059157412,0.016555848,-0.10977325,0.011959821,0.12471263,-0.19367082,-0.19940312,-0.0116677545,-0.01383292,-0.12573442,-0.08877628,0.05851105,-0.061144374,0.031452943,0.019625844,-0.06501934,0.054026492,0.008709695,-0.20031904,-0.014916041,-0.0251527,-0.056771737,-0.053533282,-0.02570357,-0.037738934,0.10772154,-0.042210143,0.015876066,-0.053999033,0.056390036,0.005080601,-0.14731513,-0.082216315,-0.17768043,-0.06719529,-0.109191045,0.059899505,-0.021824334,-0.05229879,-0.07197545
0.068263374,0.015162759,0.114443876,0.09291751,0.051244218,-0.045364566,-0.10504312,0.022136183,-0.008541867,0.037693005,-0.004624116,-0.035163384,0.06094939,0.042580005,-0.16751532,0.035732873,-0.03874239,-0.027949981,-0.0043420205,-0.106120266,-0.063111335,-0.014259777,0.070442244,-0.12850273,0.022402754,0.11352504,0.070248626,0.013666666,0.05113187,-0.010458498,-0.041139934,0.018816093,0.061254155,0.062485863,0.014833905,0.03155985,0.08274721,0.08902908,-0.035971083,-0.0958921,-0.02462201,0.027073665,-0.025454897,0.046681825,0.022725547,-0.037246212,0.12764695,-0.027176315,-0.0067750844,0.061908428,0.05034598,0.0076730223,-0.084287114,0.07402268,0.0098372465,0.05993853,-0.057405688,0.010629188,-0.023463532,-0.00011316767,0.004665027,-0.0174127,-0.08651029,0.090758115
-0.14815894,-0.054994415,-0.11843725,-0.017739782,-0.05465701,-0.06477812,-0.023366397,0.11106911,0.071133666,-0.018481264,0.034324072,-0.049291983,-0.021743804,0.03270098,-0.103221424,0.063793205,0.046427317,0.07975974,0.10482422,-0.10152937,0.07382526,0.01731729,0.10300725,-0.044198114,-0.04415679,0.029743044,0.06055686,-0.05547063,-0.06307948,-0.017873969,-0.022831671,0.1648539,0.08502341,-0.058990423,-0.091561146,-0.049913287,-0.0019718842,0.08300357,0.1113455,0.090184234,0.02658322,0.0407957,-0.049514044,0.04206265,0.12355066,0.046772227,0.035764363,-0.04821269,-0.02140151,0.06986753,-0.026320338,0.05579186,-0.10581101,-0.122158915,0.2280767,0.09205153,-0.09018345,-0.022186218,-0.06672043,-0.083734274,0.059711996,-0.046858683,-0.057390545,-0.0028200576
-0.11668085,0.013295112,0.02344772,0.025676707,-0.08090714,0.06095538,-0.051710367,-0.12889309,-0.013044721,0.097305715,-0.05663333,-0.14018391,-0.10848401,-0.12376778,-0.029515676,0.020697616,-0.08910989,0.00904245,-0.13738853,0.10070715,-0.08538501,0.0035785064,-0.13122587,-0.16481055,-0.098693654,0.023371534,-0.10294536,-0.122829534,-0.077931926,0.079011425,-0.2087619,-0.03554403,0.11268999,-0.1664266,-0.10925915,0.07469051,-0.10545872,-0.14799604,-0.092064224,-0.14161634,0.036300197,0.013601379,-0.15371785,-0.049630135,-0.30115116,-0.098364964,0.07110091,-0.0050195633,0.074937865,-0.18225208,-0.053202707,-0.20512752,0.124650635,-0.0101851905,0.07368619,0.11980891,-0.0045182956,0.22427644,0.0009857286,0.026244005,-0.09481919,-0.16001447,0.009499135,-0.0018828094
-0.08580787,-0.101193994,0.07206257,-0.098067105,-0.13226072,-0.01342215,-0.027141102,0.11027163,0.028388757,0.08485628,-0.03863498,0.121746644,0.089419514,-0.0037905592,0.039059203,0.0007269295,-0.0092050545,-0.22136995,0.020704778,0.0571383,0.05571201,-0.017844217,-0.16720027,0.06571452,-0.0057880804,-0.14840794,-0.03332732,-0.09064287,0.021263625,0.20604527,0.029461564,-0.0016031177,0.041647624,0.016075127,-0.08188146,-0.08411519,-0.063007325,-0.09669032,-0.17828806,0.088186406,0.08228596,-0.056785144,-0.06465327,-0.022184514,0.04236563,-0.020893412,-0.0008477198,-0.103016794,0.03924898,-0.10415058,0.068426214,0.1943716,-0.035134364,-0.28230515,0.15402324,0.023995735,0.12946334,-0.009020383,0.013982874,0.1514619,0.17560098,-0.034585815,0.039515093,-0.09410974
