#ifndef CNN_WEIGHTS_H
#define CNN_WEIGHTS_H

// conv2d_weights weights, shape: 3 3 3 32
const float weight[3][3][3][32] = {{{
{ -0.25027522, 0.009280897, -0.16295698, -0.22881618, 0.3755984, 0.03606391, 0.101372845, 0.027032426, 0.24067587, 0.48505557, 0.15301694, -0.34932852, 0.34763995, -0.12562232, -0.63755697, -0.43011713, 0.4226426, -0.36041814, 0.38445586, 0.43535015, -0.14333007, 0.005353371, -0.1474824, 0.40089816, 0.1311967, 0.37228298, 0.14096205, -0.030556446, -0.12875031, 0.39493403, -0.570511, -0.15239474 },
{ -0.071744144, 0.11448384, -0.13063356, 0.16213568, -0.0392651, -0.30382663, 0.29361993, -0.007512011, -0.0194365, 0.2273454, 0.22597088, -0.036981758, 0.20029649, -0.25996956, -0.36409608, -0.56319547, 0.5490682, -0.106553346, 0.5632762, 0.50200987, -0.11708153, -0.02397429, -0.42192343, -0.30449855, 0.15694855, 0.3569904, 0.19541731, 0.078432575, -0.14793848, 0.2206761, -0.59813505, 0.023272434 },
{ -0.014324808, 0.060551308, 0.22562821, 0.22042312, 0.19837737, -0.35348064, 0.52517635, -0.088591576, 0.1737825, 0.27987164, 0.42301065, -0.21773756, 0.15815945, -0.18858096, -0.24654564, -0.50950545, 0.40748584, -0.19994852, 0.67147434, 0.51568633, -0.105358236, 0.30081666, -0.3956813, -0.35957256, 0.28520784, 0.028154137, 0.13705501, -0.13095815, 0.07230637, 0.41678965, -0.57788354, -0.051166754 }},
{{ -0.5870109, 0.02262643, -0.2878642, 0.33747178, -0.045967, 0.5708654, 0.27625334, 0.07957977, -0.36697587, 0.4949796, -0.17420708, -0.28448465, 0.3705415, -0.34525406, -0.81509274, -0.4500603, -0.18284203, -0.4323289, 0.2968848, -0.0315971, -0.0796284, -0.28890687, -0.29436687, 0.32518345, -0.4059878, 0.0802275, 0.19338277, -0.023146523, -0.24236204, 0.3703927, -0.3899163, -0.11429617 },
{ -0.3761056, -0.051076844, -0.16963132, 0.63186955, -0.406342, 0.2269263, 0.4123389, 0.308348, -0.45779076, 0.25404292, 0.25799343, -0.0699526, 0.6461404, -0.6157799, -0.6049704, -0.63639134, 0.013647571, -0.0861599, 0.19455616, 0.10304694, -0.057530463, -0.005611343, -0.3521344, -0.28953755, -0.066933006, -0.124294795, 0.14335138, 0.052191425, -0.02017871, 0.3072302, -0.34298897, 0.093387336 },
{ -0.1261342, -0.14574912, 0.10059766, 0.7577821, -0.30475956, 0.3835203, 0.6291261, 0.031606976, -0.5352605, 0.40904766, 0.19251446, -0.34859872, 0.3862717, -0.44908965, -0.37645704, -0.5133357, -0.10129624, -0.15194222, 0.4023255, -0.043192234, 0.066403426, 0.26843542, -0.47569296, -0.5251621, 0.2188963, -0.3393379, -0.061255593, -0.07280167, 0.11354307, 0.39273915, -0.46050456, 0.09024693 }},
{{ -0.2199448, -0.30941802, -0.18049902, 0.3799867, 0.19531062, 0.7064428, 0.2863327, 0.17760307, -0.2925667, 0.2930211, -0.33798078, -0.36445177, 0.48842305, -0.38287807, -0.08925101, -0.3326756, -0.5266544, -0.57267797, -0.08639947, -0.36631572, -0.056343537, -0.20966178, -0.55472124, 0.16169289, -0.7060427, 0.076226, -0.17330746, -0.024159024, -0.35739708, 0.28401032, -0.46065894, -0.24883072 },
{ -0.11045628, -0.021703934, -0.25364697, 0.62723714, -0.20490038, 0.5758152, 0.4272671, 0.36067367, -0.67326325, 0.1291109, -0.10353245, -0.09606085, 0.67942876, -0.26208785, 0.015446922, -0.59626704, -0.4503997, -0.3168314, -0.2847734, -0.6155831, -0.14317046, 0.017474903, -0.68600845, 0.043756098, -0.44560105, -0.14114863, -0.41985002, -0.06493515, -0.27311966, 0.06325955, -0.2770923, 0.16285491 },
{ 0.14469767, -0.3030008, 0.013632074, 0.59995615, 0.083096966, 0.52930176, 0.4875395, 0.11952396, -0.5219525, 0.18003684, 0.18559043, -0.2557242, 0.59163946, -0.33352923, 0.2355777, -0.33508024, -0.3852006, -0.33562368, -0.019725833, -0.3846118, -0.009306066, 0.2385448, -0.64427584, -0.19177347, -0.26052785, -0.5245815, -0.3272272, -0.1231758, -0.22692004, 0.32118335, -0.35339373, 0.23962836 }}},
{{{ -0.26295438, 0.06710258, -0.004656595, -0.81207573, 0.049409702, -0.06854382, -0.13289483, 0.065653905, 0.54740024, 0.1510126, -0.26917753, -0.069433965, -0.21764319, -0.057594456, -0.28915083, 0.19886442, 0.33110547, -0.10279201, 0.34746808, 0.38524386, -0.02899243, -0.27977958, 0.07485451, 0.44599664, 0.023101268, 0.538815, -0.1939123, -0.0739976, 0.09770274, 0.12511899, 0.022921728, 0.052414123 },
{ 0.030699354, 0.18578334, -0.011145959, -0.4833377, -0.42144498, -0.7182703, -0.19296442, 0.101253614, 0.24365637, -0.25946432, -0.14947455, 0.2188635, -0.1185663, -0.2721391, -0.3389345, 0.053058058, 0.46013114, 0.052658327, 0.6002772, 0.5813209, -0.08089207, 0.029159963, -0.037604287, -0.23381774, 0.28533885, 0.26198512, -0.07524139, -0.021206845, 0.13606577, -0.11977869, -0.24205771, 0.24326696 },
{ 0.21092902, -0.035695307, 0.3298025, -0.3181416, -0.21214598, -0.7739671, -0.0112158535, -0.23722662, 0.57819414, -0.39407963, 0.015667744, 0.13704357, -0.017537467, -0.3513963, -0.051451933, 0.044986535, 0.24335858, -0.037568063, 0.6095037, 0.42235848, 0.048686374, 0.081494786, 0.21895748, -0.3100499, 0.3807383, 0.005166553, 0.008022286, 0.11167193, 0.17756929, 0.006179321, -0.07415796, 0.25600404 }},
{{ -0.23454714, -0.049104102, -0.13490404, -0.25167575, -0.034845345, 0.21473466, 0.11829195, -0.004576159, 0.051736932, 0.37430173, -0.13396528, -0.10318443, -0.025253441, -0.25859475, -0.24000145, 0.17073111, -0.13868365, -0.18166484, -0.019389434, 0.2260434, 0.11269318, -0.31803656, 0.18268201, 0.2856687, -0.18364486, 0.20470768, 0.32934254, -0.07428068, -0.042283606, 0.13236362, 0.112827525, -0.20376469 },
{ 0.08018702, 0.15443282, -0.04270929, 0.008169079, -0.46668488, -0.35903338, 0.17084853, 0.25200182, 0.047170404, -0.13802955, 0.0775761, 0.1377062, 0.2047972, -0.3786445, -0.21176407, -0.113642044, -0.007028824, 0.07389157, 0.082582496, 0.069458164, -0.14711773, -0.14853144, 0.24388407, -0.26237267, 0.22581123, -0.061655134, 0.21435124, -0.06934153, 0.17305262, -0.13178901, 0.08931855, 0.104853556 },
{ 0.23738088, 0.030352606, 0.42236847, 0.24101219, -0.2325311, -0.4473388, 0.12864666, -0.16786745, -0.008349169, -0.22957805, 0.05473604, -0.055594165, 0.12525946, -0.29637334, -0.12936792, 0.1038477, -0.15175027, -0.19273934, -0.040698938, 0.27167782, -0.12551953, 0.0817496, 0.29897887, -0.70762897, 0.20816894, -0.40313914, 0.3318807, -0.026452588, 0.16628756, -0.14950253, 0.17966583, 0.31284896 }},
{{ -0.21571591, -0.092844486, -0.18951438, 0.32725805, 0.37402782, 0.5423037, 0.03329804, -0.23301618, -0.2495528, 0.31292772, -0.16988213, -0.15781467, 0.030889604, 0.024425102, 0.28421143, -0.22484963, -0.39392596, -0.4403469, -0.5998565, -0.7039545, 0.12304638, -0.41738346, 0.08703029, 0.26036385, -0.6443351, 0.09660485, 0.012879845, 0.13608755, -0.19804683, -0.16837901, -0.13972946, -0.1539324 },
{ -0.007597266, 0.03726855, 0.07703215, 0.41733298, 0.04540279, 0.2705773, 0.08369977, 0.05292575, -0.31470695, -0.08351451, -0.029990945, 0.054491594, 0.090300225, -0.10302163, 0.6321343, -0.21388921, -0.30235308, -0.24679692, -0.6329178, -0.5550713, -0.111893415, -0.15685968, -0.17496473, -0.064320415, -0.09933626, -0.19690844, -0.16019598, -0.0128826285, 0.097675666, -0.33048877, -0.12956567, 0.2589669 },
{ 0.048885953, -0.07004239, 0.35520574, 0.60686564, 0.41226634, 0.2524173, 0.34563205, -0.19211721, -0.42726406, -0.10346655, 0.20006245, -0.09611369, 0.14239633, 0.045785934, 0.7137939, -0.31571856, -0.20683482, -0.36017525, -0.55082244, -0.5876581, 0.080997035, 0.22779705, 0.0014534332, -0.2209651, 0.07999472, -0.6138749, 0.04451118, 0.056053445, -0.081887044, -0.33356735, 0.07763266, 0.3146547 }}},
{{{ 0.18801653, 0.04639276, -0.30413702, -0.6119523, -0.11560354, 0.24447805, -0.35382104, -0.07750272, 0.33045924, 0.13216019, -0.6090854, 0.015679058, -0.47489566, 0.19418399, -0.27213186, 0.34178847, 0.30961618, 0.5350666, 0.038771857, 0.28217793, -0.084841006, -0.055016614, 0.28231397, 0.30111262, 0.2688338, 0.29600284, -0.43905184, -0.15662387, -0.07578488, -0.14306161, 0.5349585, -0.3604145 },
{ 0.38436007, 0.18137287, -0.12699732, -0.4321694, -0.5973683, -0.22657536, -0.2455375, 0.11246227, 0.51602507, -0.5409978, -0.25773555, 0.082906604, -0.5538212, 0.06266017, -0.030809795, 0.57961196, 0.1927099, 0.6223846, 0.1790655, 0.54776126, -0.11365385, 0.22581527, 0.35016876, -0.1133747, 0.32482827, 0.021383634, -0.20668064, 0.029046776, 0.25157905, -0.04974517, 0.37695584, -0.16088192 },
{ 0.48860514, -0.035462517, 0.18411997, -0.26957086, -0.47149497, -0.27130792, -0.20042683, 0.08620224, 0.6343068, -0.4263475, -0.03252796, 0.20077103, -0.5346756, 0.24865961, -0.18434948, 0.428137, 0.116478056, 0.30080757, 0.34072247, 0.516763, -0.05822109, 0.35132548, 0.4564984, -0.024425764, 0.21289523, -0.0919806, -0.2120315, -0.14556739, 0.23213586, 0.057409186, 0.38699397, 0.08828431 }},
{{ -0.14535007, -0.15161872, -0.23945962, -0.89740294, 0.03939965, -0.04566485, -0.41557243, -0.19940858, 0.38246226, 0.03994364, -0.5719784, 0.19239144, -0.5066103, 0.32938376, 0.25816074, 0.528294, -0.11752084, 0.32942724, -0.45510244, -0.054336347, 0.048596624, -0.1810834, 0.38571385, 0.0999028, -0.13675372, 0.33405578, 0.042833734, -0.031683914, -0.05450101, -0.08299407, 0.5443153, -0.4244535 },
{ 0.111215904, 0.18796586, 0.046399232, -0.47910795, -0.126354, -0.48680553, -0.5965895, 0.09628919, 0.16477239, -0.62230915, -0.26802608, 0.37705582, -0.57668823, 0.47669548, 0.13459602, 0.58029014, -0.2520313, 0.379407, -0.4501166, -0.095049255, -0.005534195, 0.09609213, 0.48036328, -0.3756993, 0.080429785, -0.186567, -0.057163596, -0.064646915, 0.14177036, -0.3494039, 0.48490897, -0.003026896 },
{ 0.3940338, 0.06255815, 0.33670804, -0.4772214, 0.22956507, -0.6273591, -0.5257649, 0.0076072696, 0.1734329, -0.63214856, 0.000105946194, 0.3110664, -0.52077985, 0.60161823, 0.26253578, 0.6005587, -0.27434054, 0.31028816, -0.27143487, 0.18381265, -0.09301547, 0.11727838, 0.39576745, -0.62746114, 0.1672357, -0.45623878, 0.2658528, -0.07634526, 0.25443882, -0.22297584, 0.5017132, -0.18648715 }},
{{ -0.23145717, -0.24917592, -0.16829275, -0.517672, 0.42467463, 0.11583381, -0.6825024, -0.33672458, -0.13321276, 0.12673008, -0.33677754, 0.12106936, -0.6214862, 0.3456513, 0.48159346, 0.53238213, 0.0064493795, 0.05911346, -0.5844169, -0.6809649, -0.14522041, -0.19725196, 0.22978656, 0.2183262, -0.4376147, 0.05904594, 0.11132598, -0.02347832, 0.026627703, -0.36629924, 0.40924346, -0.49742955 },
{ 0.19543426, 0.10580183, -0.01809433, -0.09480138, 0.18472008, -0.20174931, -0.68000257, 0.0019606566, -0.21801433, -0.49798205, -0.20456348, 0.16045278, -0.4276206, 0.6956363, 0.83135444, 0.3982682, 0.13493447, 0.38198575, -0.6289748, -0.6370008, 0.04443221, -0.027311143, 0.13722189, -0.018190445, -0.1087152, 0.03900285, -0.0466482, -0.13206989, 0.1812226, -0.6235701, 0.27467665, -0.09477416 },
{ 0.3547908, -0.029804578, 0.2099414, 0.014205482, 0.54474753, -0.3340657, -0.6069123, -0.37558696, 0.058226682, -0.3131887, 0.11814025, 0.20688869, -0.5296741, 0.76356363, 0.8266592, 0.43220112, 0.20171393, 0.2608497, -0.47334608, -0.26248106, -0.038785055, 0.35144955, 0.3525453, -0.31741917, 0.050699424, -0.33838195, -0.0022362247, 0.11065248, 0.07275733, -0.5786187, 0.45835295, -0.08891393 }
}}};

// conv2d_biases weights, shape: 32
const float biases[32] = { 
    0.0019814605, -0.018240813, 0.023962278, 0.10238528, 0.112124026, 0.102677524, 0.037468854, 0.030503483, 0.03478753, 0.045823358, 0.23561221, 0.023470951, 0.09344742, 0.11205696, 0.091484256, 0.035269, 0.035727665, 0.17884977, 0.057566654, 0.033162672, 0.0035132195, 0.06975551, 0.019808538, 0.36902794, 0.051496774, 0.15556271, 0.019945534, -0.015329696, -0.051873956, 0.061533414, 0.041940648, 0.042222846 
};

// dense_weights weights, shape: 6272 43
const float dense_weights[6272][43] = {
{ -0.032298587, 0.011471267, -0.10866272, -0.014579655, 0.0053117545, 0.009914076, -0.09727549, 0.08488581, 0.105711624, -0.02307338, -0.061781622, 0.02377466, -0.02988535, -0.013774124, -0.07566392, -0.0331557, -0.06042013, 0.04343128, -0.09834879, -0.01899947, 0.034039825, -0.06560882, 0.035475217, -0.008569789, 0.032080255, -0.05968887, 0.024675839, 0.01597659, 0.022599673, 0.0047296025, 0.009511718, 0.11010293, -0.0006655847, -0.07805107, -0.0905196, -0.10604991, -0.043871466, -0.04163104, 0.035768554, -0.1341039, -0.080897994, 0.0050704135, 0.027763559 },
{ -0.08096351, -0.04589964, -0.023078147, 0.0034331605, -0.0127935875, 0.010393152, 0.005902797, -0.005646719, 0.0861409, -0.005782203, -0.025211193, -0.0055563827, -0.013302162, -0.012040522, -0.031920895, 0.019558916, -0.038815856, 0.038249042, -0.010502156, -0.0005805383, -0.018764907, -0.06327667, -0.032016974, 0.029271238, -0.05393334, -0.057683486, 0.0018125332, 0.010392159, 0.004928397, 0.031311736, -0.0064330464, 0.06841925, 0.019567497, -0.067143634, -0.007571675, 0.05831866, -0.00670077, 0.014066412, -0.08625652, -0.04028967, 0.01864623, 0.06953295, -1.202387e-05 },
{ -0.0020896571, -0.11099426, -0.14910395, -0.10176444, -0.018041153, 0.051694687, -0.034319222, 0.06130464, 0.17683649, -0.00522648, -0.07128691, -0.05092623, -0.0010651342, -0.03902974, -0.110410266, 0.01663113, -0.066417165, 0.10922593, -0.0076856017, -0.20589823, 0.041185457, -0.012970244, -0.12527002, -0.091085434, 0.13482319, 0.024482233, 0.10439695, -0.046261556, 0.09988207, -0.15200733, 0.09920708, 0.016194172, -0.13378757, -0.10951973, -0.056830958, -0.15566267, -0.13685264, -0.11385555, -0.03905363, -0.20210928, -0.14142497, -0.056493983, -0.029528053 },
{ -0.27090707, -0.101076566, 0.20376287, 0.031408533, 0.05616227, -0.029173516, 0.049056422, 0.13277026, -0.018333698, -0.11386189, -0.037609577, -0.11688017, -0.015134653, -0.092344865, 0.008363065, 0.17925735, -0.04905524, -0.08040309, 0.023352379, -0.16325043, -0.032009177, -0.22155283, -0.120246895, -0.17615956, -0.049135122, 0.18789431, 0.10467038, -0.00817004, -0.17604057, 0.042362493, 0.10827643, 0.089077756, 0.016013304, -0.012273284, 0.012046975, -0.13123077, -0.09070137, -0.042749573, -0.047153685, -0.14198594, -0.06724859, -0.14592685, -0.06838336 },
{ 0.014134746, 0.020028744, 0.04592461, 0.059605833, -0.083805256, -0.0040505636, -0.04417334, -0.10972946, 0.03199236, -0.13958864, 0.088497676, 0.23053548, 0.024162794, -0.057155713, -0.02886244, -0.16242167, -0.013316357, -0.110529974, -0.04787515, -0.0018364587, 0.02307667, -0.05969463, -0.024046948, -0.15045753, -0.06604125, -0.06902573, -0.05541599, -0.10762693, -0.113289274, -0.11298716, -0.15931205, -0.061324086, -0.12943672, 0.14500323, -0.010625525, -0.06932095, -0.04730837, -0.14139238, 0.115247615, 0.055266447, 0.06941997, -0.073459335, -0.0033892202 },
{ -0.087527074, 0.1036566, 0.061275996, -0.1279515, -0.045073573, 0.049109247, 0.100883596, -0.09400681, -0.09493982, -0.061725087, -0.10144364, -0.0029496471, -0.014600489, -0.029159501, -0.035588145, 0.032793656, -0.02578257, -0.063901, 0.00064974563, 0.013885672, 0.0040078233, -0.09218747, -0.09179346, -0.16543767, -0.13208453, 0.025611028, 0.006001626, -0.041308865, -0.26800564, 0.08738049, -0.20409502, 0.038268637, 0.032064494, 0.09357242, 0.1206537, 0.008347233, 0.041742295, 0.08371586, 0.021583103, 0.08967495, 0.07729857, -0.060425963, 0.03666215 },
{ -0.2685857, -0.05757561, 0.070296526, -0.086226426, 0.035566177, -0.00081817474, 0.064440414, 0.113851674, -0.07361789, -0.020408666, -0.29886898, -0.2239323, -0.061701454, 0.02152658, -0.038382534, 0.13586676, -0.14805846, -0.094315305, 0.11580776, -0.2856299, -0.041922458, -0.15075366, -0.14923495, -0.0882832, 0.023619074, 0.16729341, -0.012011933, -0.030471668, -0.13812633, 0.04817207, 0.17529264, 0.07356631, 0.06857069, -0.06726194, -0.070351474, -0.07217351, -0.11080361, -0.03609717, -0.019385014, -0.21421264, 0.002987171, -0.16128474, -0.08641149 },
{ -0.18868582, -0.102338195, 0.101719074, -0.036872283, 0.04480013, 0.05778412, 0.06042737, 0.031898353, -0.025195165, -0.0353271, -0.07411033, 0.0173138, -0.03747346, -0.00037205778, 0.0034212486, 0.048534226, -0.09160946, -0.030628018, 0.100558594, -0.0449999, -0.045141447, -0.020549284, -0.08042122, 0.011197226, -0.044950556, 0.09408782, -0.1207356, 0.04783711, -0.10450396, 0.11044242, 0.11019096, 0.017576113, 0.047221925, -0.043103475, 0.06396123, 0.062111985, -0.043949965, 0.12833063, -0.14480074, -0.014430308, 0.04412728, 0.003069119, -0.08406873 },
{ 0.008859629, 0.05194316, -0.11242282, -0.052778646, 0.075138524, -0.18666384, -0.12826861, 0.06980598, 0.01623002, -0.059316326, -0.24074942, -0.094790205, -0.043734543, 0.010177862, -0.05418658, 0.020541508, -0.0029488902, 0.12229848, -0.11720491, -0.10197485, 0.12985748, -0.077872984, -0.07327743, 0.013367211, 0.05288179, -0.03469215, 0.04290751, -0.07410208, 0.066924185, -0.11773764, -0.1264103, 0.079220854, 0.023725629, -0.06786782, 0.100000136, 0.033734206, -0.05584131, -0.016654188, 0.016744034, -0.0013873051, 0.070360154, 0.121383026, 0.024717588 },
{ 0.0013664883, 0.08006004, 0.044482913, -0.26206926, 0.023127861, 0.019214306, 0.045519013, -0.0070045535, -0.121205434, -0.02651016, -0.3083284, -0.13311091, -0.025962302, 0.01823174, -0.0072109737, 0.017494122, -0.06616781, -0.09019425, 0.20262916, -0.021055669, 0.08082422, -0.11807952, -0.13193479, -0.15139887, 0.020343982, 0.06630404, -0.06662649, -0.056553427, -0.144055, -0.0040022093, -0.006160641, 0.07908073, 0.047455616, 0.04934035, 0.15697233, 0.010116871, 0.01917839, 0.09728117, 0.04119372, 0.016842518, 0.15833983, -0.042407572, -0.018945958 },
{ -0.08276357, -0.08160561, 0.044424403, -0.073728025, -0.07672741, 0.011895771, -0.006993947, -0.047655992, 0.14108177, -0.06753088, 0.08914495, -0.065080166, -0.0011049041, 0.026592826, -0.018177379, 0.004331159, -0.032624867, -0.019821692, -0.12602066, 0.00026686297, 0.12282653, -0.044022482, -0.27802205, 0.09576338, -0.07344289, -0.074540004, 0.14561397, -0.17234288, 0.100688726, -0.2620906, 0.01928048, 0.10474616, -0.29855815, 0.021421902, -0.039201025, -0.15198898, -0.07028946, -0.120992504, 0.02073733, -0.058411974, -0.34833297, 0.079230025, -0.002841799 },
{ -0.04885067, -0.005092902, -0.064827055, -0.07085495, 0.04647339, 0.03144683, -0.030783588, 0.06778498, 0.01630173, -0.030911831, 0.011824473, -0.011498785, 0.02624301, -0.015379372, -0.041196488, -0.032049853, 0.017039496, 0.060128007, -0.14033277, 0.048899837, 0.025480067, -0.06294091, -0.010656161, 0.046958048, -0.008918, -0.10273719, 0.035851035, -0.0035593566, 0.03088737, 0.043095652, -0.023854503, 0.05747809, -0.043181565, -0.022959389, -0.005221057, -0.06547188, -0.024956938, -0.046166893, -0.00879007, -0.023574956, -0.042537462, 0.10329485, 0.026258115 },
{ -0.3045633, -0.09550348, 0.18708208, -0.13718349, 0.023201572, -0.043357886, 0.10329521, 0.026056781, -0.11522436, -0.09838784, -0.14556536, -0.24935393, -0.041595317, -0.016415903, -0.05140895, 0.042066917, -0.15215315, -0.13461371, 0.060648166, -0.19783947, -0.053669468, -0.2194484, -0.17486969, -0.08568095, -0.11158981, 0.15652263, -0.017245399, -0.032153074, -0.15854391, 0.06358419, 0.1307732, -0.037165567, -0.0013865165, -0.024347521, 0.07694965, -0.07304835, -0.12820248, -0.059858155, 0.020035239, -0.08798523, 0.013065066, -0.12535952, -0.06525423 },
{ 0.043861657, 0.013766788, 0.034033947, -0.10696274, -0.029651355, 0.0031884746, -0.111270726, -0.014846036, 0.04827669, -0.058172405, 0.10482772, 0.074317046, 0.061794005, -0.0067629125, -0.12419229, -0.099980205, 0.08292379, -0.008076952, -0.22820526, 0.06583531, -0.0074350773, -0.09423204, -0.012320619, 0.08964551, -0.043474577, -0.33871514, -0.13949113, 0.09120194, 0.012301722, -0.061937965, -0.10705611, -0.0035791995, -0.0883969, 0.020799302, -0.037549548, -0.09603595, -0.082787424, -0.11399984, 0.15402207, -0.032910384, -0.1321243, 0.05045061, 0.025304656 },
{ -0.027893662, 0.070527114, 0.11933512, -0.07580617, -0.13182929, -0.12097476, -0.07724329, -0.026615726, 0.07133719, -0.14820477, 0.11768695, 0.040333837, 0.05784493, -0.082697645, -0.12079348, -0.04925369, 0.016026324, 0.07916681, -0.26612008, 0.023048652, -0.008204207, 0.023016084, -0.052625164, -0.051370066, -0.0928101, -0.042917557, 0.061699685, -0.016465455, -0.051477775, -0.09164861, -0.00017370706, 0.011738165, -0.045253344, 0.02438309, 0.020985197, -0.116971664, -0.12599097, -0.14319594, -0.010951879, 0.041480765, -0.19520202, -0.06749815, -0.031632554 },
{ 0.01268606, 0.013556834, 0.055248465, -0.14289707, 0.05791452, -0.13909554, -0.044420283, -0.087408915, -0.10025077, -0.07472383, -0.057290677, -0.01411005, 0.033143077, 0.05821806, -0.08970468, -0.07102604, 0.07608671, 0.06347669, -0.22640601, 0.04514338, -0.003852601, -0.06737104, -0.031623047, 0.036402415, -0.058089014, -0.1584291, -0.009945651, -0.0038394018, 0.0018380905, -0.062070493, -0.117038704, 0.09560333, -0.042429082, -0.043582246, 0.042182285, -0.0030016305, -0.002385301, -0.0071661063, 0.076508, -0.0234887, -0.054727953, 0.12665309, 0.026495822 },
{ -0.02278013, 0.007599116, -0.073298804, -0.02946963, 0.025235092, -0.09753651, -0.11553956, 0.05250656, 0.006182908, -0.0035407825, -0.22528256, -0.03690353, -0.042939182, -0.018679455, -0.0033408944, -0.012515928, -0.14721647, 0.041987326, -0.098716706, -0.049737968, 0.14909805, -0.07296271, -0.07061506, -0.012307993, 0.09832171, -0.0144398585, 0.03032305, -0.024666796, 0.0387326, -0.083763376, 0.017367443, 0.01493144, -0.061368063, -0.076864205, 0.056735016, 0.027282681, -0.048041046, -0.0625818, -0.05195878, -0.10336722, -0.00017176777, 0.1402983, -0.1364537 },
{ -0.0922523, -0.07153445, -0.015634147, 0.030147724, 0.08922391, -0.08541263, -0.071478784, -0.032278325, 0.006159532, 0.0042952234, 0.008302525, 0.029247405, 0.04786841, -0.009303505, -0.13924527, -0.053443484, 0.06487607, 0.046794347, -0.29071942, 0.040366884, 0.10857051, -0.10377128, 0.03086588, 0.021888502, -0.13319471, -0.3156696, -0.07572187, 0.07478752, 0.03856454, -0.16616862, -0.21747355, 0.060829975, -0.1466609, -0.05644088, -0.026305199, -0.0913295, -0.08196688, -0.14587653, 0.027089246, 0.008200933, -0.16168065, 0.14800711, -0.018098943 },
{ -0.17697339, 0.06997789, -0.04774108, -0.090332635, -0.013388632, -0.026097113, -0.02939311, 0.17847387, 0.0818353, -0.052998155, -0.43384013, -0.050142884, -0.071613155, -0.07633742, -0.02119866, 0.18603118, -0.072821096, 0.04286631, 0.12215825, -0.19411482, 0.122044384, -0.10460805, -0.17134185, -0.06721377, 0.10857061, 0.0916712, -0.11453361, -0.103819616, 0.062477183, -0.05924226, 0.15024617, 0.039429672, 0.018072765, -0.11166994, -0.034490034, 0.0332251, -0.07611497, -0.027042247, -0.077060625, -0.05448935, 0.027765295, 0.047394283, -0.12077875 },
{ -0.1527858, 0.090722725, -0.10553004, -0.077711366, -0.05732573, 0.02372992, -0.09580284, 0.027294833, 0.05919432, -0.009572902, -0.32524306, -0.04696332, -0.057829387, -0.062273353, -0.039022096, 0.06353668, -0.08461241, 0.0407359, 0.03923182, -0.09384119, 0.15027, -0.09051678, -0.10715614, -0.08758547, 0.09811435, 0.060599875, -0.07373244, -0.042913936, 0.052767955, -0.12191022, 0.02391145, 0.017628735, -0.007875668, -0.13891219, 0.0026820845, 0.05431234, -0.09566578, -0.04684841, -0.04880969, -0.10362699, 0.014911812, 0.099529296, -0.16268949 },
{ -0.052363195, 0.048029188, 0.013786333, -0.031019619, -0.052104786, 0.039398074, -0.06885306, -0.03675431, -0.010455826, -0.011482322, -0.051109236, -0.0076894667, -0.06156688, -0.0389546, 0.008480823, -0.017495835, 0.045289077, -0.041569185, -0.066698074, -0.05987468, -0.00809454, -0.03352082, -0.04108645, -0.08071494, -0.048388805, -0.012193466, -0.06954211, -0.0661655, -0.029665362, -0.072826914, -0.0013151468, 0.00276302, 0.044017423, 0.02689179, -0.07043314, -0.051170893, -0.037915792, -0.010099184, -0.058936507, -0.005204206, -0.050426703, -0.029255105, -0.0544604 },
{ 0.008228343, -0.098969184, -0.055579286, 0.010513613, -0.021408504, -0.023969725, -0.021615667, 0.10554498, 0.14958893, 0.020657383, -0.038579907, -0.07996482, -0.059215043, 0.034468472, -0.19250365, 0.040327612, -0.07195707, 0.0493023, 0.016386734, -0.19210495, -0.08215921, -0.03400667, -0.14678359, -0.10388191, 0.08540649, 0.06291236, 0.04843489, -0.022359667, -0.03337427, -0.037864838, 0.06260254, 0.16381408, -0.05740689, -0.085115544, -0.10662874, -0.14342193, -0.03136702, -0.13183512, -0.036014106, -0.19632667, -0.07877434, -0.048904598, -0.013529366 },
{ 0.0015985811, 0.03064599, 0.060465857, -0.06875735, 0.09322837, -0.06616826, -0.1053185, -0.06514316, -0.17457013, -0.028025666, -0.029327756, 0.014301802, 0.06559769, 0.06902569, -0.020240836, -0.06486196, 0.006590115, 0.05084151, -0.180777, -0.00097059354, 0.02112228, -0.106887445, -0.004081128, 0.061516285, -0.04081959, -0.08981644, 0.01873634, 0.056877475, 0.0752027, -0.05485308, -0.067375764, 0.13170697, -0.047905255, -0.027492823, 0.018136133, 0.0080840085, -0.017174343, -0.066439815, 0.06358642, 0.041356836, -0.011546806, 0.13184787, -0.018918416 },
{ 0.034032624, 0.04954983, 0.11818976, 0.06267407, 0.07145123, -0.16788751, 0.05794122, -0.105981395, -0.014328814, -0.18507783, 0.0045881127, 0.17996073, -0.03415726, 0.001448804, -0.06432967, -0.12424763, -0.014238902, -0.036149543, -0.06439027, 0.06365552, 0.034777645, 0.054782193, -0.05255619, -0.09320912, -0.1105656, -0.26293984, -0.17975461, -0.039644834, -0.04843405, -0.0654571, -0.23654917, 0.057146594, -0.117984675, 0.059988268, 0.022531005, 0.20723073, 0.04592407, -0.04098391, 0.0018074098, 0.0824943, 0.0357402, 0.01059322, 0.09155487 },
{ -0.064975515, -0.023950797, -0.13797536, 0.0005425067, -0.038086906, 0.016560016, 0.003769553, 0.10198016, 0.16722052, 0.07444791, -0.099414155, -0.040779833, -0.07544065, -0.040587436, -0.12394311, 0.122855075, -0.06711463, 0.07506129, -0.047113918, -0.11218674, 0.016720524, -0.09534302, -0.03653992, -0.08399681, 0.045153964, 0.026843475, 0.025607672, -0.03843556, 0.09021292, -0.0895809, 0.030906405, 0.066450976, -0.10597093, -0.11289901, -0.0651264, -0.065595485, -0.09327887, -0.084324405, -0.04146933, -0.10528225, -0.06225597, 0.10555463, -0.102992654 },
{ -0.012621652, 0.030097976, 0.05521636, -0.06629169, 0.015870376, -0.17903358, 0.029938202, -0.011846069, -0.05910129, -0.09410035, -0.22688423, 0.099039495, -0.028135322, 0.06454765, -0.085060224, -0.03236144, -0.069949575, -0.008243205, -0.056105062, -0.015794255, 0.10998123, -0.015851252, -0.101923525, -0.10657125, -0.04383992, -0.047570147, -0.08262834, -0.085585214, -0.04328057, -0.1798513, -0.14291175, 0.095242955, -0.050940927, -0.03087292, 0.12870353, 0.14135051, -0.041678183, 0.003138567, -0.08363587, 0.10448654, 0.13970292, 0.07753882, 0.088203676 },
{ -0.0015644026, -0.12717426, 0.109805316, 0.06536055, 0.050899453, -0.069111854, 0.013119354, 0.055544626, -0.09478569, 0.009345055, -0.096116304, -0.014962622, -0.0024705431, -0.04554319, -0.014721341, -0.008003803, -0.0899575, -0.04268767, -0.006245972, 0.036625464, 0.0584442, -0.12804596, 0.019406041, 0.019476289, 0.01623603, 0.07435181, 0.13026825, -0.01992279, -0.030962093, 0.010940225, -0.008039947, 0.021323813, -0.053457037, -0.033298045, -0.031014694, -0.011245757, -0.056958485, -0.06470458, -0.087774195, 0.016321324, 0.14297356, 0.075611174, 0.015153592 },
{ -0.04211299, -0.01039816, 0.0009788639, -0.009685969, -0.06540763, -0.06961822, -0.011604628, -0.03796125, -0.07884183, -0.02806435, -0.019019155, 0.0391735, -0.035003673, -0.062988825, -0.06274907, -0.044156775, -0.006770877, -0.08580967, 0.03529954, 0.020053469, -0.12015542, 0.05923241, -0.009502147, -0.08257826, -0.059505045, -0.043789737, -0.06599192, 0.0016102497, -0.09617657, -0.038709223, 0.020922793, -0.0059602237, -0.037994273, -0.08210103, -0.043714464, 0.02359433, -0.026417596, -0.026654443, 0.015741678, -8.297908e-05, 0.034784764, -0.02485757, -0.08491983 },
{ -0.09808153, 0.0021896278, -0.02686753, 0.025608731, -0.067003086, 0.016691212, -0.026728993, 0.016325109, 0.0770094, 0.05783257, -0.07455303, 0.05927865, -0.037426736, 0.018379688, -0.012365366, 0.06166972, -0.07382572, 0.010705423, 0.014832985, 0.00703567, -0.03517415, -0.11853599, 0.046154264, -0.003514729, -0.015026832, -0.03817051, -0.074044034, -0.020219067, 0.049722385, 0.029232373, 0.03066549, 0.06801136, 0.016790545, -0.14523953, -0.082105026, -0.0008976796, 0.005103771, -0.07240465, -0.047625113, -0.12038891, -0.054761223, 0.09994098, 0.014374788 },
{ -0.054077465, -0.031282887, 0.053680964, -0.09716333, -0.0060408846, -0.03845535, 0.03646458, 0.14085852, -0.029820247, -0.022771414, -0.3693537, -0.06960987, -0.023470638, -0.035130166, -0.014303106, 0.11330974, -0.1062452, -0.0235092, 0.22394101, -0.16159461, 0.032766465, -0.044308566, -0.11313165, -0.037470557, 0.049300708, 0.08640511, -0.12778148, -0.09990972, -0.027908722, 0.0059346473, 0.15642357, 0.03816884, 0.009858111, -0.08425759, 0.05524005, 0.08406003, -0.108267754, 0.08291634, -0.033412237, 0.018357968, 0.09034143, 0.03777632, -0.024105487 },
{ -0.00543727, 0.10319776, -0.008968685, -0.1417772, 0.10592901, -0.118957475, -0.00034642284, -0.09339537, -0.05126418, -0.042479284, 0.0074755675, 0.056678116, 0.02904391, 0.01030527, -0.08091912, -0.051073182, 0.05280432, 0.004041786, -0.20257162, 0.05021, 0.03200291, -0.03742682, 0.031353537, 0.08341891, -0.0077027874, -0.11485172, -0.081214376, 0.023648614, -0.055814054, -0.04483216, -0.10496256, 0.10731418, -0.07594733, -0.017096195, 0.004198606, -0.033324514, -0.050575618, -0.048342753, 0.082849935, 0.051212214, -0.04962044, 0.09614133, 0.02909034 },
{ -0.09173104, -0.13365483, 0.024784204, 0.032405987, 0.048300207, 0.055719633, 0.045208845, 0.05433722, 0.08853295, 0.060045905, -0.07076544, -0.054617334, -0.040676415, -0.006863561, 0.020726647, 0.049758542, -0.085633315, -0.070511736, 0.037135277, -0.05927985, -0.04824766, -0.09921539, 0.010286105, -0.037352867, 0.0001429025, 0.091946684, 0.016462607, 0.03590509, 0.031611517, 0.014898829, 0.013203812, 0.09447621, -0.01068837, -0.051605117, -0.022588829, -0.064730756, -0.041488837, -0.04797479, -0.026491666, -0.20543525, -0.018051686, 0.005658697, -0.08456591 },
{ 0.001829837, -0.0343338, -0.074187554, -0.027964087, -0.04907652, 0.050135553, -0.0083614355, 0.019692723, 0.035639964, -0.017270068, 0.029857684, -0.029719442, 0.0038551567, 0.04151192, -0.018611662, -0.05278267, -0.008287147, 0.023889413, -0.04456043, 0.03265561, -0.034469005, -0.037154876, 0.026487615, -0.066422984, 0.100856714, -0.05202046, 0.025876407, 0.07263561, 0.088884026, -0.029586038, 0.08078412, 0.09710784, -0.02456984, -0.06932145, -0.023371909, 0.015655492, -0.07528672, -0.027731786, -0.07084592, -0.12583505, -0.045772895, 0.04632899, 0.0020802505 },
{ -0.07643925, -0.01169338, -0.042291418, 0.009170737, -0.03713495, 0.04909474, 0.022182422, -0.08215637, 0.031014824, 0.009136874, 0.067894585, 0.041687034, -0.008997029, -0.024175422, 0.03316498, 0.034162525, 0.001736801, -0.014823172, -0.03319998, 0.07286914, -0.022036256, -0.0323666, -0.02060741, -0.009087972, -0.021853516, 0.0042165588, 0.009224213, -0.0011971042, -0.019264774, 0.052990645, 0.004017841, 0.05118668, -0.011641767, -0.03845917, -0.0071935183, 0.007198919, -0.03573744, 0.045002557, -0.013764534, 0.011443102, -0.054203864, 0.007288233, -0.030537505 },
{ 0.06084125, 0.019613009, -0.12565324, -0.13758048, -0.024818687, 0.041536067, -0.07002538, 0.00693387, 0.09022512, -0.06987285, -0.056362413, -0.16656741, -0.02159187, -0.02390574, -0.07572727, 0.071162134, -0.036344197, 0.08618479, 0.017206684, -0.12124529, 0.0071810195, 0.028505212, -0.18421799, -0.13851914, 0.1317098, 0.05558557, 0.11934198, 0.001525383, 0.07153851, -0.17514957, 0.092315875, 0.06431829, -0.075675115, -0.022863548, -0.026013408, -0.07647961, -0.12468413, -0.07258824, -0.1698434, -0.201182, -0.17896007, -0.1057892, -0.074374765 },
{ -0.14426036, 0.021749247, -0.06287444, 0.030638492, 0.04256603, 0.04234897, 0.0591133, 0.03155833, -0.0047999993, -0.06740157, -0.14901198, -0.017568475, -0.04456303, -0.02559681, 0.034785282, 0.13652496, -0.055910937, 0.010713429, 0.08508409, -0.23168476, -0.15884002, -0.06539119, -0.20900857, 0.020396648, -0.04839386, 0.026004093, 0.004819179, -0.02295814, -0.10287591, 0.05090069, 0.05769923, 0.08348184, 0.033459183, -0.11210061, 0.055360682, -0.05321341, -0.03866058, -0.08173905, -0.14849779, -0.011066747, -0.047683734, -0.069914244, -0.123697884 },
{ 0.12099336, 0.0065412875, -0.050075736, 0.022799723, -0.16151646, 0.08039411, -0.07284831, 0.015202068, 0.027516475, -0.04369441, -0.12597826, 0.08060466, -0.017457137, 0.049444232, -0.032064732, -0.0699701, -0.07819218, 0.0072527835, -0.011199971, -0.08764332, 0.10530104, -0.014249552, -0.18319128, -0.05236814, -0.02792239, -0.22596905, -0.122309625, -0.05352347, -0.17563942, 0.012029716, -0.15324122, -0.024037657, -0.09268108, -0.020558432, 0.036795247, 0.11206931, -0.09129525, -0.22075547, -0.00028167389, 0.0329027, 0.17221557, -0.008081487, -0.0003524654 },
{ 0.069732055, 0.16161367, -0.18663514, -0.012694141, -0.064670265, 0.04593682, 0.053176235, -0.0012011487, -0.010920356, 0.015204003, -0.24405877, 0.07995527, 0.031104986, -0.022870464, 0.014329706, -0.081302226, -0.13238621, -0.018280737, 0.055775817, -0.11702359, 0.013299261, -0.061116062, -0.15427735, -0.02932107, -0.025146408, -0.17720507, -0.11007741, -0.025119314, -0.16174085, 0.0407638, -0.10228479, 0.032029603, 0.05034479, 0.026124667, 0.13762864, 0.0130787585, 0.032808986, 0.04932816, 0.04103305, 0.14974314, 0.14843303, 0.026390933, -0.0021566916 },
{ -0.21305017, 0.031185623, -0.0833587, -0.029348, -0.006942377, 0.08959675, 0.05287467, 0.01013543, -0.07512217, -0.0077842106, -0.21794526, -0.11465817, -0.029170742, -0.035000242, 0.09276169, 0.12581883, -0.04606217, -0.015848782, 0.15798996, -0.30717534, -0.13430354, -0.069115736, -0.18358442, 0.015186959, -0.09471026, 0.1265985, -0.03321854, -0.18721157, -0.15052627, -0.0027258873, 0.027950881, 0.0871934, 0.055177264, -0.1130307, -0.03387201, -0.068010814, -0.028387384, -0.04644081, 0.00410393, -0.0486149, -0.11462252, -0.033884834, -0.090718195 },
{ -0.13115373, -0.15618202, 0.04392469, -0.032736003, 0.023079762, 0.21677919, 0.037791964, -0.042523563, -0.16301094, 0.010548943, 0.030842312, -0.0041589313, 0.0072821467, -0.040450208, 0.06928797, -0.036046114, 0.005401756, -0.059822436, 0.043449566, -0.040361047, -0.10600923, -0.08409062, -0.020044245, 0.09609628, -0.062862605, 0.045467403, -0.005682065, 0.0016483769, -0.049582936, 0.010792321, -0.03929273, 0.043710463, 0.04364677, -0.0841711, 0.074754804, -0.03451602, -0.06756063, 0.06239619, -0.06118051, 0.04937419, -0.02720963, -0.0007508891, -0.07251612 },
{ 0.043930683, 0.017572954, -0.029458348, -0.024433102, -0.0387021, -0.17222261, 0.010761075, -0.010664436, -0.039390907, 0.002112985, -0.059125993, -0.015950002, 0.028061176, -0.12261213, 0.022248497, -0.012458746, 0.13482615, -0.012320376, -0.16644508, -0.014052955, 0.08568506, -0.046590645, -0.012357028, -0.09966603, -0.02283834, 0.030309299, 0.06497131, -0.028088043, 0.09127561, -0.15122779, 0.016131869, 0.007459627, 0.018314758, -0.037377965, 0.028148131, 0.03573431, -0.09415977, 0.029153142, -0.034510393, -0.042080294, 0.05059838, 0.008290651, 0.006471651 },
{ 0.03990244, 0.12738933, -0.06771018, -0.17101659, -0.11441749, 0.0633409, 0.07626069, -0.0081090825, -0.003360319, 0.034023494, -0.36966863, -0.023762943, 0.051731363, 0.005398434, 0.0020493865, 0.06311087, -0.074675724, -0.07046041, 0.14371356, -0.13184951, 0.01421334, -0.12916741, -0.12989408, -0.02646755, -0.05299535, 0.07823992, -0.08210686, -0.08282745, -0.14614904, -0.05407572, -0.09426159, 0.10612453, 0.096528895, 0.012882962, 0.12814623, -0.023432316, 0.0008859604, 0.12404848, 0.04532627, 0.09012065, 0.10903103, 0.023581445, -0.01726888 },
{ -0.15360084, -0.16924897, 0.08725427, -0.18267024, -0.057307817, 0.07186657, -0.016909195, -0.15434845, 0.17619862, -0.058881007, 0.10687493, -0.02649361, -0.018211953, 0.037913337, 0.030284032, 0.09327098, 0.01909158, 0.003903002, -0.12272971, 0.010029447, 0.101984225, 0.0034606871, -0.20578033, 0.043485943, -0.14958854, -0.027850153, 0.15996821, -0.15010571, 0.10612606, -0.16361472, -0.048091322, 0.0863631, -0.20321779, 0.042055033, -0.08318441, -0.115608156, -0.10155063, -0.15253334, -0.02343051, -0.041767355, -0.43047863, 0.049770776, -0.01541159 },
{ 0.023327928, -0.0047607264, -0.03697473, 0.043619905, -0.07479115, 0.081459075, 0.017846487, 0.06012184, -0.038350437, -0.0066673295, 0.037020784, -0.008328379, 0.0156096, -0.031841267, -0.036013816, -0.04652579, 0.03688984, -0.01577137, -0.10995183, 0.08425002, -0.098418735, -0.013381305, 0.003985939, 0.046261, 0.0030145154, -0.017412152, -0.000571648, 0.034117937, 0.037766702, -0.026299132, -0.0036674028, 0.03416994, -0.03265196, -0.040353872, 0.00063739356, 0.064870276, -0.07009358, -0.055391878, -0.05457318, -0.047056507, -0.020908358, 0.034642108, -0.012546652 },
{ -0.20353612, -0.05327779, 0.023051862, -0.071044475, -0.06930399, 0.07702815, 0.024465838, -0.011910558, -0.16012338, -0.06127754, -0.19513182, -0.13949382, -0.03690591, -0.0280456, 0.019700633, 0.105237536, -0.11768255, -0.03808408, 0.039483793, -0.22698103, -0.11343912, -0.14818722, -0.21235353, 0.026803056, -0.17041491, -0.037735436, -0.0374974, -0.11058212, -0.09029481, 0.03523758, -0.06567526, 0.020961562, 0.038964733, -0.057013694, 0.10400236, -0.032035213, -0.03625257, -0.03458487, -0.0026086594, 0.01880158, -0.07648671, -0.042890236, -0.06684094 },
{ 0.08152914, -0.062764645, 0.05524502, 0.046167485, -0.12373236, -0.0827486, -0.02393398, 0.038399998, 0.013479782, -0.047169276, -0.044679582, -0.046464153, 0.019975161, 0.02058993, -0.1474773, -0.109905675, 0.054857243, 0.0520858, -0.11656286, 0.037217807, -0.014744457, 0.10043762, -0.056628577, 0.07859345, 0.015952893, -0.24033225, -0.10165461, 0.022958074, 0.07914352, -0.18998617, -0.083097346, 0.044778552, -0.107188, -0.045239452, -0.1375343, 0.10209017, -0.063963935, -0.18243258, 0.078819685, -0.020324413, -0.18104605, 0.04912918, 0.028829759 },
{ 0.05129923, 0.015720213, -0.09186768, -0.10782177, -0.1372649, 0.11568235, -0.0768922, 0.008419527, 0.073879905, -0.14133462, -0.068953395, -0.09964854, 0.010566935, 0.07300685, -0.10999259, -0.09130304, -0.050346013, 0.14529526, -0.13492066, -0.017522987, 0.01819626, 0.11557197, -0.22739787, -0.070082076, 0.10319257, -0.17271212, 0.056064725, 0.044652533, -0.040666685, -0.08082555, 0.07275172, 0.02767004, -0.08494279, -0.11553309, 0.013805088, 0.06435733, -0.16331343, -0.19348015, -0.06684651, -0.09699258, -0.16685115, -0.021788655, -0.07312926 },
{ 0.075380005, -0.03179355, 0.10203711, -0.042031545, -0.048938666, -0.059515648, -0.028548742, -0.026378272, -0.14116079, -0.056387816, -0.06026993, -0.064524345, -0.0060308343, 0.026347807, -0.10363073, -0.13497083, 0.07163757, -4.7173595e-05, -0.15810153, 0.09038237, -0.057136305, 0.0058264914, -0.10259851, 0.031048046, 0.022142727, -0.11668135, -0.0143938055, -0.007582182, 0.039183877, -0.09992898, 0.029463636, 0.070979156, -0.01580693, -0.06586196, 0.042844478, 0.0972871, -0.012552837, -0.12606087, 0.0720067, -0.015972981, -0.037803777, 0.03260774, -0.012127311 },
{ -0.067123026, 0.085694455, -0.093530186, -0.030046118, -0.0076485206, -0.23971148, -0.02872293, -0.12937902, 0.04627044, -0.029733047, -0.0358689, -0.10095835, -0.012461473, -0.06020249, 0.06406858, 0.052012064, 0.03653301, -0.016735004, -0.07193972, 0.06534618, 0.030221328, 0.04214496, 0.018480659, -0.047245625, -0.09508078, 0.1905907, 0.08143996, 0.007301374, 0.05722688, -0.092897855, -0.1098589, -0.065250635, 0.025811253, -0.03259565, 0.07532508, 0.07199969, -0.11961711, 0.03200871, -0.15696208, -0.07263369, -0.031332258, -0.0001716213, -0.06750761 },
{ -0.05632949, -0.19813764, 0.08477604, 0.10037033, -0.009810262, -0.16491295, -0.023298813, 0.031580176, -0.10803992, -0.056233283, 0.046368204, 0.0035761178, -0.055406142, 0.006667859, -0.07108428, -0.11904288, 0.14423814, -0.0045854338, -0.29153174, 0.090674326, -0.002423107, -0.0688703, -0.013008353, 0.06361347, -0.05792106, -0.1907651, 0.022350598, 0.041793782, 0.100835264, -0.16506581, -0.12695712, 0.018363375, -0.08326239, -0.047097024, -0.09202606, 0.09316252, -0.093072966, -0.14297174, -0.00082238065, -0.06320866, -0.17517054, 0.0617532, 0.014865409 },
{ -0.1702216, 0.09648231, -0.031179294, -0.10199166, 0.025729435, -0.03784469, 0.018669749, -0.024654437, 0.03875088, -0.02045209, -0.15350124, -0.013994104, 0.064338304, -0.10893667, 0.09970445, 0.19048381, 0.11608218, -0.013940735, 0.041441515, -0.2133212, 0.04052977, -0.043531172, -0.0035028604, -0.07662259, -0.07755613, 0.26246175, 0.06348804, -0.0721193, -0.045432717, -0.06752, -0.0061581875, 0.079413965, 0.038449734, -0.0068951733, -0.0035693487, -0.09968773, -0.09126079, 0.08298918, -0.03189282, -0.10330977, -0.05713387, -0.054558408, -0.051873464 },
{ -0.15370864, 0.07209627, -0.12030559, -0.02013957, 0.008444073, -0.112523384, -0.048444994, -0.087275624, -0.0219325, 0.014424786, -0.03365072, 0.057363912, 0.02023537, -0.12947696, 0.06877289, 0.069582865, 0.04904973, -0.03704128, -0.020826984, -0.09600154, 0.017716983, -0.026867745, 0.034029122, -0.10001231, -0.013455687, 0.19344358, 0.12348675, -0.030820124, 0.050982058, -0.057071473, -0.065770045, -0.005681842, -0.027328491, -0.031481314, 0.02115823, -0.018078597, -0.14452595, 0.041660648, -0.09855541, -0.07947788, 0.010006054, -0.021788184, -0.06759566 },
{ -0.028136106, 0.063607566, 0.031751238, 0.0017391894, -0.083820514, 0.009309644, -0.068447106, -0.05800702, -0.0447242, -0.009467714, -0.021183278, -0.049258698, -0.05589134, -0.07715879, 0.03554712, -0.019561948, 0.038721487, -0.03147107, -0.009902694, -0.06382365, -0.040360797, -0.04963414, -0.03515076, -0.0629183, -0.056911003, -0.029468535, -0.024107073, -0.06621039, 0.005008474, -0.077047855, 0.018363295, 0.0030174458, 0.013340163, 0.03367022, -0.04209428, -0.058542266, -0.06360405, -0.031309966, -0.010319236, -0.03363855, -0.03641535, -0.05753331, -0.025955677 },
{ -0.0790889, 0.0032028926, -0.04405101, -0.030415427, 0.025905099, 0.032727618, -0.041638922, 0.06390405, 0.08386367, 0.022627197, -0.0130556505, -0.1030262, -0.08584296, 0.04873914, -0.032306917, 0.08507249, -0.0058721453, 0.007858289, -0.01213957, -0.14729437, -0.05821365, -0.06696789, -0.08931711, -0.09199383, 0.07488781, 0.07761969, 0.039632894, 0.0039307657, 0.01806932, -0.08501237, 0.045599528, 0.1166549, 0.0029598498, -0.04969551, -0.014428992, -0.13680027, -0.037991263, -0.10880188, -0.09697976, -0.14158747, -0.06619539, -0.11788607, -0.067937955 },
{ 0.05991951, -0.05383146, 0.11653068, -0.0055900826, -0.07263342, -0.026973994, -0.08226599, 0.010536366, -0.11515778, -0.08191422, 0.028564515, -0.023194466, -0.006273329, -0.0048410464, -0.020238897, -0.10430293, 0.038428057, 0.025492705, -0.09623634, 0.04819872, -0.044869926, -0.040403396, -0.05409994, -0.0032508457, 0.060369495, -0.041585214, 0.008287731, 2.5783032e-05, 0.060959734, -0.05360698, 0.07589308, 0.03521061, -0.004395952, -0.037075706, 0.0046736714, 0.065603085, -0.046664406, -0.07409537, 0.023492323, 0.018626472, -0.04597312, 0.04699312, 0.0016293043 },
{ 0.06152221, -0.09957151, 0.1829475, 0.12570417, -0.041216746, -0.16346642, 0.031573247, -0.06639189, 0.050599646, -0.10710503, -0.076682866, 0.2161407, -0.014999864, -0.034833763, -0.018304296, -0.048147522, -0.017364409, -0.08384278, -0.05973294, 0.05777303, 0.069802135, -0.012356479, -0.07143078, -0.05672441, -0.115006395, -0.22526647, -0.11370161, -0.04229523, -0.0320057, -0.10397001, -0.24755615, 0.11585888, -0.16928121, 0.0006832571, 0.029484054, 0.1263827, 0.024721315, -0.028070826, 0.06286186, 0.12787418, 0.05842254, -0.023278104, 0.111611694 },
{ -0.09213231, 0.0010118806, -0.13240966, -0.028072884, -0.029827474, -0.0018465284, 0.009137469, 0.035627857, 0.0031107068, 0.041121382, 0.056058988, -0.047231894, 0.019889291, -0.08245151, 0.05524854, 0.10052904, 0.051033683, -0.017004479, -0.104398735, -0.07391451, -0.065991014, -0.0835884, 0.01344148, -0.12677087, -0.0099144075, 0.17366204, 0.08145526, 0.023780411, 0.10703712, -0.10315218, 0.005122849, 0.08680256, -0.009721416, -0.06792308, -0.04353143, -0.015358521, -0.1409966, -0.0583347, -0.07270905, -0.09065087, -0.072632566, -0.023522299, -0.068672486 },
{ 0.042933106, -0.019642156, 0.102563836, -0.0008657004, -0.07555626, -0.28302628, 0.0547626, -0.0596034, 0.010337234, -0.08944492, -0.21080853, 0.119693644, 0.009184958, -0.01948228, -0.006117044, -0.09378194, 0.00738009, -0.09612897, -0.08490441, -0.035384774, 0.06925129, -0.009735147, -0.033950917, -0.11259631, -0.14961384, 0.07170311, 0.011448455, 0.05642685, -0.0454687, -0.21282594, -0.25142148, 0.088261366, -0.03219867, -0.04658179, 0.166062, 0.06757148, 0.005282316, 0.12502752, -0.049309853, 0.114366025, 0.12349654, 0.019641226, 0.07059916 },
{ -0.022041667, -0.026518563, 0.08540086, 0.116191566, 0.15149797, -0.17383166, -0.05049997, -0.04252657, 0.07224038, -0.044355884, -0.10952781, -0.05207874, -0.00046031544, -0.108539164, 0.017202377, 0.046909466, -0.036814228, -0.057485607, 0.07776859, 0.10597346, -0.024352135, -0.06888466, -0.017280772, 0.015923366, -0.102131344, 0.005683012, -0.04605273, -0.029304523, -0.06505542, 0.06450816, 0.024856966, -0.028008852, 0.030353801, 0.043302767, -0.0006112179, 0.067079924, -0.029276818, -0.004720662, -0.095912345, -0.077764936, 0.063765086, -0.021828413, -0.01586499 },
{ -0.05234834, 0.03187654, -0.035224415, -0.030417249, -0.04275159, -0.034127068, 0.018256469, -0.0077411258, -0.010626578, -0.019441606, -0.019185245, 0.0150194345, -0.05680339, -0.044404197, -0.040476758, -0.015191745, -0.056523215, -0.10909554, -0.004652012, 0.02578052, -0.08031446, 0.021584582, -0.033609096, -0.050963372, -0.07453374, -0.05309103, -0.06257961, -0.009996448, -0.048817616, -0.008372915, 0.024039855, -0.0121695865, -0.070847996, -0.058326855, -0.018388255, 0.027992683, -0.052817687, -0.0096800225, -0.0052654142, -0.03842761, -0.012646317, -0.025153583, -0.12404197 },
{ -0.09136449, 0.04642464, -0.030308912, 0.053609364, -0.089152515, -0.0034501937, 0.014918963, -0.019198453, 0.015302422, 0.033764757, 0.046806388, 0.052199487, 0.008289208, 0.014651634, -0.037888385, 0.004009258, -0.004636757, -0.002331343, -0.022372503, 0.06291203, -0.047197808, -0.09872498, 0.0062319147, -0.0049475, -0.0014102991, -0.024414515, -0.0142494105, -0.007016051, 0.049808197, 0.053961396, 0.056546357, 0.06537161, 0.016601056, -0.07996878, -0.006118477, -0.026421886, -0.0137678515, -0.055165976, -0.030371701, -0.10407352, -0.06343165, 0.05696584, -0.029239453 },
{ 0.017826142, 0.01791437, -0.010787517, -0.09247487, -0.05063765, 0.051841516, 0.03299532, 0.016301306, -0.04525143, 0.0050592525, -0.19020572, -0.020485282, 0.055544358, -0.058255468, 0.04018844, 0.10502105, -0.023302848, -0.11850465, 0.08146644, -0.15180515, 0.000832842, -0.042263396, -0.033582896, -0.039570294, -0.080129474, 0.113242425, -0.008435089, -0.07576172, -0.08383727, -0.015611153, -0.06033287, 0.07991802, 0.03321217, -0.01315261, 0.060165018, -0.09156374, -0.034735784, 0.07848652, -0.014772848, 0.028121723, 0.007846065, -0.01253154, -0.039780516 },
{ 0.09129346, 0.009969593, 0.058967713, -0.07873168, -0.072132014, -0.048018314, -0.04734758, -0.0008522396, -0.057692394, -0.11585335, -0.055425197, -0.008545254, 0.007862839, 0.04941902, -0.10017407, -0.13090399, 0.050074015, 0.045629848, -0.19658378, 0.04165198, -0.021896375, -0.0042117937, -0.101052895, 0.05350887, 0.072550185, -0.109028816, 0.010830808, -0.040691655, 0.04807301, -0.13220434, 0.032847892, 0.056750122, -0.048817933, -0.08841911, 0.031303193, 0.11810298, -0.063221276, -0.16551328, 0.025641793, 0.015143885, -0.08929556, 0.016554853, 0.0041018114 },
{ -0.10555825, -0.0607943, 0.108573, 0.004029342, 0.04798753, 0.05748387, -0.022097923, 0.004287749, 0.07375283, 0.004438229, -0.05992007, -0.037428863, -0.036720168, 0.037097473, 0.09063893, 0.0570698, -0.056132838, -0.0039715674, 0.048002105, -0.06701841, -0.103677325, -0.036818255, -0.025127986, -0.066726394, 0.017814284, 0.06719307, -0.008273054, 0.024846679, 0.008863415, 0.013110515, 0.03227066, 0.08819846, -0.0065268427, -0.05973734, 0.024936838, -0.053551786, -0.055450633, -0.010852932, -0.06751982, -0.11121331, -0.051052686, 0.00648704, -0.09048188 },
{ -0.013363976, 0.07963753, -0.11881188, 0.008596117, -0.043631714, 0.030584667, -0.002889207, 0.030554423, 0.05423144, 0.019451058, -0.055681664, -0.05143233, 0.0027255653, 0.050698385, 0.011161676, -0.006592849, -0.028652618, 0.11484, -0.022914251, 0.039996773, -0.05430813, 0.062003538, 0.0011987109, -0.06852395, 0.092735596, 0.027255787, 0.041014872, -0.007200836, 0.107729256, -0.011667067, 0.060169116, 0.042564835, -0.014768863, -0.049010374, 0.01609211, -0.007740449, -0.03265007, -0.116091065, -0.07429798, -0.15713201, -0.12741983, -0.032238495, -0.04545537 },
{ -0.033681612, 0.06635066, -0.069172524, 0.012292643, -0.055346, 0.019550387, -0.007571643, 0.000633253, 0.009718907, -0.038035884, -0.0023933442, 0.04286536, -0.012457162, 0.038348522, 0.016312629, 0.0036209791, 0.00064957497, -0.022427058, -0.06841102, 0.06781206, -0.054516055, -0.048210323, 0.031686902, 0.068449855, -0.01216221, -0.042590927, -0.00078279496, -0.018884873, -0.0073016696, 0.09181652, -0.0067956615, 0.019089334, -0.0012471481, -0.071872875, 0.028113183, -0.019465845, 0.030909179, 0.0030217646, 0.015745165, -0.059694458, -0.031808686, 0.026328383, -0.01682637 },
{ 0.0075628012, 0.0009011445, -0.24576356, -0.06842764, -0.041659214, 0.050985772, -0.08823739, 0.059918273, 0.047089532, -0.13204756, -0.028835788, -0.13712487, 0.031124894, 0.03516571, -0.001294972, 0.11779636, 0.006320851, 0.17820176, 0.097104564, -0.13738993, 0.02841612, 0.0862791, -0.18229914, -0.21282147, 0.10767142, 0.051463734, 0.14842908, -0.11912245, 0.07100797, -0.110743225, 0.11715892, 0.028570112, -0.054055788, 0.03161705, 0.016984014, -0.12335874, -0.033674046, -0.09416103, -0.122866735, -0.21751727, -0.13678503, -0.17785904, -0.049710225 },
{ -0.078489125, 0.10901628, -0.18974008, -0.030737763, 0.13584988, 0.056614004, -0.058757234, 0.057676204, -0.06968066, -0.15330379, -0.08075987, -0.05315691, -0.06852281, 0.0313145, 0.06858012, 0.0153658185, 0.0145307435, 0.06602302, 0.07415325, -0.15712735, -0.03666517, 0.0732909, -0.036167655, -0.05489878, -0.059394874, 0.0939522, 0.022250311, -0.03339418, 0.01737692, -0.084673695, -0.035426777, -0.034708556, 0.09643039, -0.011261107, -0.030321363, -0.08223982, 0.07532912, -0.102191165, -0.10933555, -0.065586045, -0.075975575, 0.011743525, -0.11136506 },
{ 0.15569761, -0.0272296, -0.07016168, 0.12187499, 0.010263169, -0.18374613, -0.047125254, -0.061247222, 0.09082151, 0.0070970575, -0.004358759, 0.07640352, 0.009190197, -0.10573965, 0.00070800533, -0.020078339, -0.04574362, -0.16674912, 0.033912487, -0.041650478, 0.072409965, 0.07388202, -0.05906997, -0.10441961, 0.11010906, -0.065373555, -0.120494634, -0.14396618, 0.014973369, -0.08518361, -0.28154263, -0.057385724, -0.0019355873, 0.037642565, 0.019823207, 0.001994138, -0.09216021, -0.09545394, 0.14501593, 0.016317783, 0.09887418, -0.02872865, -0.053852666 },
{ 0.11870366, 0.0056857243, -0.05156182, -0.055308755, -0.04571758, -0.06369359, 0.0023898927, -0.08812874, 0.0723417, 0.014279922, -0.15793455, -0.014590179, -0.0673462, -0.13532294, -0.06160089, -0.1662917, -0.07208163, -0.09923477, 0.084517956, -0.023090612, 0.068910725, 0.027203254, -0.046870008, -0.0020843684, 0.043324728, 0.016190873, -0.12531848, 0.015383058, -0.094322175, -0.14801997, -0.2687619, -0.06847448, 0.04937036, -0.0055562523, 0.092902966, 0.044808354, 0.045391586, 0.09202652, 0.08462196, 0.1134008, 0.05572669, 0.04934681, -0.038023703 },
{ -0.09132219, 0.06945572, -0.14005382, -0.020785416, -0.024482243, 0.06738016, -0.03280034, 0.031803396, -0.022623284, -0.085728735, -0.057401944, 0.009285673, -0.04759481, 0.006799336, 0.016188802, 0.0701706, 0.03691937, 0.055809088, 0.07852389, -0.20100269, -0.048283584, 0.02918617, -0.045548506, -0.021222731, -0.13533098, 0.043753743, 0.003965786, -0.033642408, -0.10409165, -0.13336152, -0.05329629, 0.027640935, 0.07570604, -0.061906967, -0.081061, -0.08835967, 0.06339368, -0.12920134, -0.004566799, -0.09577122, -0.090725064, -0.020771246, -0.09411856 },
{ -0.02115409, -0.1129804, 0.025769895, -0.05143718, -0.11217053, 0.19700095, 0.027171843, -0.026780678, -0.001608458, -0.04597917, 0.024875224, -0.029632712, -0.053024214, -0.022596542, 0.013118874, -0.066262655, 0.019014936, 0.0033636284, -0.07634854, -0.015576062, -0.10088264, -0.034504186, 0.09969524, 0.09860246, -0.14560494, 0.13557267, 0.036505524, 0.091680035, -0.07441141, -0.032961473, -0.09297528, -0.022835784, -0.0022110266, -0.075844325, -0.0315594, -0.048782755, -0.049624756, 0.11008499, -0.054517843, 0.047528848, -0.06059989, 0.031242449, -0.08976461 },
{ 0.05299727, 0.101746865, -0.076962546, -0.034506664, -0.029273389, -0.23168068, -0.101598725, 0.008496292, -0.07459496, -0.08939808, -0.09386307, -0.08313441, 0.027980303, -0.07041428, -0.02368693, 0.00570859, 0.047778115, 0.071652755, -0.048700426, -0.019892083, 0.012613352, -0.09099646, -0.03728613, 0.013397787, 0.112728186, -0.037635602, 0.0493594, -0.10875748, 0.06840621, -0.061191533, 0.025639027, 0.075992495, -0.053489234, -0.057336837, 0.013246576, -0.030511342, 0.022631299, -0.059020985, 0.015932927, -0.045476064, 0.026599133, 0.0010089946, -0.07509071 },
{ 0.029321585, 0.011295953, -0.04660845, -0.10544494, -0.14718065, 0.09590289, 0.015355606, -0.029927216, 0.03944764, 0.04967223, -0.22971338, -0.016805077, -0.06491612, -0.03368549, 0.00057235267, -0.07255201, -0.06744295, -0.095600344, 0.123438396, -0.18840368, -0.022660952, -0.074660525, -0.064561956, 0.07018239, -0.043411333, 0.035682987, -0.07001654, 0.02488694, -0.1681475, -0.16948922, -0.14443736, 0.02362345, 0.108355835, 0.07428271, 0.14062272, -0.026824106, 0.011784288, 0.09767582, 0.055525787, 0.06849429, 0.0761213, 0.04609424, 0.0014067125 },
{ -0.13860849, -0.15941285, 0.015633103, -0.14463787, 0.0016150121, 0.059261285, -0.046400335, -0.13129184, 0.14414802, -0.0898691, 0.15110652, 0.029678553, 0.0027376572, 0.096192256, 0.07598498, 0.10549016, 0.04014931, 0.059942354, -0.15958568, 0.004186158, 0.100402094, 0.042899743, -0.1320215, -0.023937967, -0.15913883, -0.13272914, 0.17612702, -0.20480445, 0.16803345, -0.18425643, -0.009114275, 0.0848226, -0.14835583, 0.12119311, -0.11119218, -0.2221613, -0.015781933, -0.15482971, -0.024908874, -0.04600104, -0.398309, -0.0444049, -0.025317216 },
{ 0.017948879, 0.06881673, -0.10390516, 0.0106620025, -0.044146713, 0.11628612, 0.0030148535, 0.0025287175, -0.043509535, 0.006932286, 0.0007029997, -0.088760644, -0.0072383145, -0.048408806, -0.014411943, -0.012177908, -0.02470249, 0.0098586185, -0.071026266, 0.019072264, -0.07022046, 0.04799013, -0.025693428, 0.06515842, 0.047736887, -0.0072210985, 0.022608826, -0.06270127, 0.047757044, -0.0003325552, 0.03426727, 0.017762695, -0.019287923, -0.067991816, -0.013130458, 0.019532977, -0.041162375, -0.053625282, -0.048360765, -0.045349013, -0.013915119, -0.0040899254, -0.035029393 },
{ -0.039983496, -0.026674032, -0.020353977, 0.002658944, -0.088933125, -0.016600216, 0.022700036, -0.04201084, -0.06595187, -0.08844473, -0.060447004, -0.030347621, -0.10670692, -0.0038519597, 0.009100498, -0.016861308, -0.0053348057, -0.03787383, 0.004875415, -0.19644712, -0.0018682486, -0.024847787, 0.016589873, 0.060033962, -0.11756613, -0.00428234, -0.027933916, -0.07668246, -0.07875207, -0.1652912, -0.13509245, -0.03520412, 0.0027809788, -0.06630152, -0.049251556, -0.049640726, 0.025149126, -0.10099278, 0.020142822, -0.020383779, -0.08739349, 0.05861969, -0.08730469 },
{ 0.12305789, -0.10098108, 0.03462005, 0.021326877, -0.048361555, -0.09398651, 0.006816344, -0.015988786, -0.0067980033, 0.044078384, -0.05128675, -0.12526956, 0.07949924, -0.044013686, -0.07492807, -0.028254647, 0.016836915, 0.0027285449, -0.1346999, -0.0062641334, -0.019740568, 0.093333185, -0.086975105, 0.06903297, 0.036959432, -0.06389631, -0.04071946, -0.13407987, 0.114916585, -0.2002435, -0.040655013, -0.0025570153, -0.07486643, -0.019559646, -0.18195589, 0.14159045, -0.09433137, -0.13509282, -0.011367296, -0.038801085, -0.07356582, -0.067470424, 0.025653338 },
{ 0.07294231, -0.07981103, -0.153571, -0.055383157, 0.045023836, -0.122341394, -0.07874808, 0.08541444, -0.009867242, -0.041884843, 0.021600831, -0.1101501, 0.048363663, -0.0038300648, -0.0363321, 0.0072196224, -0.022788625, 0.067422606, -0.046626274, -0.05634621, 0.08994619, 0.13850497, -0.030955426, -0.05683773, 0.078711584, 0.076772295, -0.066626035, -0.03849882, 0.016434586, -0.18358189, 0.03350718, -0.0452771, -0.022964904, -0.08388927, -0.07448687, 0.08335473, -0.1485433, -0.13650346, -0.028193317, -0.05722598, -0.10846834, -0.07191026, -0.08336832 },
{ 0.11800601, 0.07009392, 0.06053084, -0.044301882, -0.08461699, -0.17252454, -0.0082227085, -0.056466334, -0.08655815, 0.0064732092, -0.17846167, -0.17548755, 0.053399093, -0.0020005447, -0.0150647145, -0.055098444, 0.020714827, -0.045015942, -0.13344052, 0.025555281, -0.06709706, 0.050394155, -0.16281933, 0.023548966, 0.04292785, 0.024561195, -0.046198647, -0.07165355, 0.065746665, -0.12849791, 0.026984464, 0.06312896, -0.059299838, -0.05958167, 0.017071035, 0.09432555, -0.017464941, -0.065121606, -0.019118339, -0.03999792, -0.013484617, -0.06714089, -0.009999625 },
{ -0.031944964, 0.04149034, -0.16121586, -0.00603855, -0.0015568765, -0.20484509, -0.07199963, -0.04978338, -0.00924971, -0.087428704, 0.049872767, -0.0116001405, 0.07235295, -0.053327635, 0.0029012617, 0.10729742, -0.07122173, 0.10425368, -0.0968557, -0.03908281, -0.015334357, -0.14911161, 0.005174179, -0.068717174, 0.03427617, 0.011830743, 0.09342703, -0.028815085, 0.0686957, 0.01621015, 0.028730234, 0.047407284, -0.052192345, -0.05799497, 0.01726344, -0.07587037, 0.006134071, -0.033790495, -0.004354541, -0.075359836, -0.072267294, -0.014817171, -0.1520251 },
{ -0.062288616, 0.0045911614, -0.04957209, 0.01789522, -0.037922017, -0.14035946, -0.002904843, -0.014888143, -0.1132358, 0.015765233, -0.068172514, -0.12618789, 0.05864023, -0.024030812, -0.004170438, 0.03426308, 0.1187174, 0.057645317, -0.17503777, 0.043856695, 0.015732653, -0.0018870347, -0.009468864, 0.0611345, 0.05281766, -0.12068488, -0.020478036, -0.17008549, 0.13996981, -0.23816855, -0.08770768, 0.04948972, -0.07497683, -0.10602371, -0.09253281, 0.07302976, -0.07737797, -0.2014058, -0.0033132453, -0.08294049, -0.17451176, -0.054784145, 0.028443528 },
{ -0.06426381, 0.01896211, -0.10552995, 0.047749, -0.01591575, 0.04339797, -0.075339794, -0.025697343, -0.098561056, -0.08855612, 0.008627025, -0.043047152, 0.069150805, -0.025379382, 0.098704085, 0.10857085, 0.037690196, 0.105137534, 0.03023397, -0.23138328, 0.015664754, -0.12619133, -0.008382137, -0.042385064, -0.07035729, 0.08506704, 0.030413596, 0.022164967, -0.02508985, -0.030762197, -0.04449749, 0.10026513, -0.011027835, -0.031901013, -0.12082174, -0.056185525, -0.08243446, -0.056560945, 0.015046881, -0.061215185, -0.00012525418, -0.021265907, -0.10888624 },
{ -0.15103592, 0.10712077, -0.19763535, 0.04897705, 0.00913472, -0.03469592, -0.040081814, -0.04241157, -0.07208083, -0.10547275, 0.01557753, -0.014918618, 0.10262248, -0.0055861035, -0.00093895855, 0.0973557, -0.03935539, 0.12741001, -0.016537061, -0.06408893, 0.00046985986, -0.14936818, 0.007679579, -0.10502935, 0.0059021977, 0.02528996, 0.085674256, 0.049164385, 0.01877839, 0.05153621, -0.01700802, 0.09576776, -0.058577087, -0.0689764, -0.0072650635, -0.059577752, 0.0069567827, -0.08501903, -0.051300593, -0.13285595, 0.006467119, -0.013822762, -0.12562011 },
{ -0.000640364, 0.03954984, 0.01292174, -0.011400007, -0.10734946, 0.0017350415, -0.05646757, -0.03678874, -0.031380426, 0.022890242, -0.06799021, -0.0036821745, -0.08040766, -0.06802982, 0.044924233, -0.023798734, 0.03972438, -0.007051618, -0.021828087, -0.032499984, -0.034424726, -0.039052986, -0.052716482, -0.06553769, -0.07043529, -0.044437703, -0.015748864, -0.017817639, -0.032536265, -0.063720986, -0.0018306192, 0.047040764, 0.043547075, 0.037534583, -0.050700847, -0.025413524, -0.060026284, -0.02670599, -0.027233591, -0.044596564, -0.0614534, -0.03124456, -0.021697314 },
{ -0.08838766, -0.0141876, -0.08936105, -0.010641432, -0.0027634653, -0.01693687, -0.0066058203, 0.029119765, 0.11317684, -0.03444016, 0.024742637, -0.07391314, -0.037330292, 0.11707693, -0.034616258, 0.10785266, -0.006050363, 0.12427041, 0.00080167997, -0.17584129, -0.014935555, 0.09053297, -0.10096877, -0.13591735, 0.10135859, 0.04679836, 0.09956158, -0.11769462, 0.09439027, -0.073752955, 0.09681318, 0.045532424, -0.006932269, -0.02502201, 0.034410603, -0.117985785, -0.023452507, -0.15211257, -0.06924239, -0.1844965, -0.12723707, -0.11889506, -0.043538406 },
{ 0.12838179, 0.121009886, 0.058566812, -0.10141008, -0.05546315, -0.15598707, -0.078389615, 0.013914562, -0.15465018, -0.010795452, -0.16277507, -0.10574527, -0.007290671, -0.038635798, 0.019734086, -0.006889614, -0.011711733, -0.010463431, -0.07793964, 0.049968313, -0.06479317, 0.05494283, -0.0663553, 0.07520087, 0.041631408, 0.056529447, 0.05650168, -0.09495267, 0.06361937, -0.09866019, 0.067559905, 0.06012354, -0.0598319, -0.035835918, -0.03992555, 0.025403704, 0.003047924, -0.0933331, -0.016474862, -0.018111302, -0.04407264, -0.019360421, -0.06679203 },
{ 0.0018908895, -0.07040194, 0.25059715, 0.10513156, -0.00070284266, -0.30614403, 0.06636336, -0.059956264, 0.1295548, -0.07503079, -0.051627923, 0.16006806, -0.026283674, -0.03515769, -0.051052265, -0.100310445, 0.006621948, -0.2854867, 0.01327662, 0.04914488, 0.044627097, -0.021030607, -0.053784832, -0.0058041955, 0.024727345, -0.20956445, -0.1185432, -0.038622603, -0.10641872, -0.14661954, -0.24037726, 0.078914136, -0.12249529, 0.08250366, 0.034812953, 0.1336161, 0.0424661, 0.042386685, 0.0300279, 0.050119754, 0.057129364, 0.003049333, 0.08025896 },
{ -0.061569795, 0.10655367, -0.28886297, 0.030666454, -0.069364436, -0.03853237, -0.013466417, 0.04381758, 0.04122079, -0.10017197, -0.0047994372, -0.08987621, 0.07248211, 0.005797769, -0.056389887, 0.10580599, 0.037298128, 0.14025444, -0.07556011, -0.023245962, -0.0069573913, -0.045164287, -0.0031144642, -0.14470538, 0.055560544, 0.0011106194, 0.058710415, -0.07387922, 0.044037215, -0.04565067, 0.06907534, 0.07577072, 0.019885885, -0.022216652, -0.02717625, -0.088468656, 0.010839042, -0.11278856, -0.03928961, -0.18786356, -0.10806558, -0.097646944, -0.097399056 },
{ 0.08222663, -0.08601757, 0.0660103, 0.06156922, 0.009506041, -0.29403555, 0.0040456573, -0.048423436, -0.013608521, -0.08197765, -0.18409437, 0.07617326, 0.05940069, -0.087042116, -0.11724975, -0.033086643, -0.048347447, -0.049163595, -0.036315784, -0.0015184619, 0.030491268, -0.07965991, 0.013152922, -0.020556739, -0.0386894, -0.075816564, -0.06967974, -0.07093652, -0.05482734, -0.1418176, -0.17270921, 0.03662331, -0.071665004, 0.026188454, 0.09835763, 0.025020592, -0.0049721394, 0.06343124, -0.022948518, 0.06471539, 0.16332941, -0.009505307, 0.058178935 },
{ -0.05332203, 0.06936359, -0.098246574, 0.055356238, 0.05646921, -0.039813112, -0.11984073, 0.02250977, -0.041610315, -0.006729872, -0.065805785, -0.038316622, 0.01499546, -0.027002247, 0.038048945, 0.05686827, -0.052986603, -0.07461956, 0.013188602, -0.040006693, -0.08727917, 0.0025265815, 0.013023543, 0.0010248882, -0.055711225, 0.032821327, 0.039300088, -0.01876117, -0.056666758, 0.028060596, -0.08033503, 0.03726566, -0.02323912, -0.02662139, 0.018306782, -0.05560931, 0.07467261, -0.012263249, -0.047244597, -0.015066202, 0.08687159, 0.08534283, -0.049415473 },
{ -0.048057653, 0.016114725, -0.012359981, 0.0018568307, -0.009203241, -0.06437553, -0.035317253, -0.016207607, -0.024584116, 0.02410588, -0.019520052, 0.044323634, -0.05496203, -0.03243312, -0.0036927676, -0.032086294, -0.044653542, -0.06471841, 0.04602722, -0.012374082, -0.08282811, 0.013672558, -0.009865049, -0.080645844, -0.07205531, -0.012720216, -0.07741837, -0.025906218, -0.043216813, -0.054009117, 0.027822968, -0.015223058, -0.06381114, -0.027466826, -0.056216754, 0.04246202, -0.07383556, -0.0029611257, 0.039860103, -0.038268257, -0.0054711495, 0.022500014, -0.11123327 },
{ -0.071391046, 0.062587015, -0.08076621, -0.0017499311, -0.06026664, 0.056988463, -0.03807895, 0.0055914912, 0.037332635, 0.046580706, -0.04974885, -0.014873161, 0.0006944247, 0.018122196, -0.02308216, 0.026670758, -0.024472043, 0.045179352, 0.0019426368, 0.060097203, -0.09362969, -0.032548096, 0.020351429, 0.04728679, 0.035041634, -0.05602074, -0.0006938755, -0.00812199, 0.024157798, 0.06978483, 0.017309612, 0.034293126, -0.022137998, -0.09421687, -0.042912133, -0.02817352, 0.0004517865, -0.07842996, -0.018352622, -0.13545616, -0.08592518, 0.039448537, -0.05951123 },
{ -0.034120835, -0.02393899, -0.016227253, 0.017785745, -0.07839996, 0.048382714, -0.029170439, 0.010606321, 0.0010931958, -0.023304053, -0.06942904, -0.026510432, 0.01395644, -0.092934236, 0.077116504, 0.040772256, -0.020731704, -0.04966383, 0.052929215, -0.14385942, -0.010526777, -0.06844221, 0.025423931, -0.014225203, -0.105782956, 0.08679431, -0.0895339, 0.051972304, -0.070780344, 0.01368252, -0.077850945, 0.04945842, 0.010316604, 0.0025068806, 0.019416803, -0.05605421, -0.07585404, 0.021265661, 0.04136639, -0.017157447, 0.04316716, 0.014382848, -0.038312584 },
{ 0.13908593, 0.010533468, 0.0070964363, -0.038971763, -0.066049114, -0.10546383, 0.01155783, -0.026447654, -0.044013128, -0.010645675, -0.10547377, -0.11086173, -0.012278294, 0.0013134404, -0.02376656, -0.088427484, -0.0060811895, -0.023697129, -0.10801253, 0.0542117, -0.055514354, 0.098125145, -0.059990864, 0.057678454, 0.033126544, 0.027945736, -0.007094027, -0.06230007, 0.05191401, -0.14610662, 0.06665831, 0.025649162, -0.013186408, -0.0501548, -0.015989857, 0.06805714, -0.031320628, -0.100614764, 0.02017107, -0.02557734, -0.022946907, -0.06324244, -0.06462404 },
{ -0.088028334, -0.025577666, -0.017796032, 0.043418463, -0.01143115, 0.04387709, -0.0076228133, 0.03926889, 0.0064612944, -0.061473083, -0.032882955, 0.033083454, -0.03458742, 0.0672236, 0.08736006, 0.045441285, -0.026722064, 0.0066517796, 0.011106259, -0.06627337, -0.0886437, 0.023978394, -0.0022102448, -0.07674161, -0.043167416, 0.010183934, 0.048188355, 0.016922865, 0.015922036, -0.04924132, -0.040841635, 0.025267677, 0.024494896, -0.08807441, -0.0051003904, -0.047299735, 0.026795227, -0.045743342, -0.038301844, -0.12317094, -0.022334805, -0.012490352, -0.06837606 },
{ -0.035785038, 0.056715365, -0.17878722, 0.0035195565, 0.046729576, 0.06445127, -0.06628226, 0.09476667, 0.07031096, 0.0054293796, -0.03577139, 0.015959442, 0.053425316, 0.023346191, 0.023958443, 0.013545221, -0.06393653, 0.0675785, -0.050672214, -0.020120924, -0.016050601, 0.026960302, -0.0036841743, -0.05448114, 0.06870861, -0.08688239, 0.13217185, -0.030021109, 0.03589152, -0.013087483, 0.0818723, 0.09133048, 0.01319461, 0.007208354, -0.026184589, -0.06753348, -0.029959792, -0.037971035, -0.043687567, -0.15418357, -0.08220563, -0.13367537, -0.037821017 },
{ 0.044822138, -0.0064148665, -0.056887485, 0.020061376, 0.0148558365, 0.04702264, -0.04253789, -0.036425035, 0.054795798, -0.027465463, 0.05262717, 0.057887107, 0.02165803, 0.038948484, 1.8304595e-06, -0.0207027, -0.036882218, -0.026676737, -0.039080672, 0.09453148, -0.038572352, 0.04109177, 0.00700535, 0.030329175, -0.05435873, -0.06167558, 0.023080232, 0.0008397284, 0.009261258, 0.0033963793, -0.027091302, -0.00034206855, 0.03789127, -0.058299836, -0.025965432, 0.0027445285, 0.039212584, 0.016912173, -0.023415225, -0.010464602, -0.050294556, 0.07209285, -0.016818894 },
{ 0.027679551, -0.057765946, -0.19498299, 0.01285883, -0.05709605, -0.031939603, -0.030636504, 0.084151, 0.06637928, -0.11937409, 0.008986869, -0.07529925, -0.0007659778, 0.08467834, 0.021482732, 0.047973137, 0.0075135548, 0.07068358, 0.020454774, -0.15244858, 0.021869054, 0.066074364, -0.16527776, -0.1967425, 0.050816827, -0.054643545, 0.0909275, -0.09652939, 0.075205915, -0.11421732, 0.08829979, 0.0017399216, 0.012719313, 0.04575989, 0.015573304, -0.20921205, 0.05747429, -0.08328577, -0.08817246, -0.2012349, -0.08902799, -0.22605698, 0.00018288007 },
{ -0.06831154, 0.13694131, -0.100506745, -0.08810426, 0.012065948, -0.024067108, -0.0023265025, 0.07450128, 0.018729543, -0.09737325, 0.037134726, -0.07130611, -0.0010156443, -0.006109021, 0.07177735, 0.048333265, 0.05570286, -0.00451923, -0.014359154, -0.06513449, 0.081459224, 0.011971247, -0.08481034, -0.081651434, -0.090770386, 0.16935965, 0.029708143, 0.050329022, -0.09119493, -0.031367067, -0.002003349, 0.04727716, 0.024795298, -0.07435441, -0.07062742, -0.031894192, -0.023156218, -0.09450848, -0.056440283, -0.08592473, -0.059071172, 0.021355895, -0.019593947 },
{ -0.03667848, 0.02371631, 0.03324221, 0.19080278, 0.012391854, -0.2816401, -0.059935655, -0.15060942, 0.10397619, 0.02631521, 0.05004719, -0.018136932, -0.023883108, -0.036980268, -0.10506115, -0.13016754, -0.01581779, 0.0011285158, 0.035828616, -0.020076511, -0.010680594, -0.0015297682, -0.06613954, -0.11449719, 0.065527484, -0.00013252562, -0.10060018, -0.10035463, -0.030499263, -0.11566897, -0.21374933, -0.09349898, -0.058465473, 0.100407, -0.09233457, -0.05893314, -0.054011844, -0.116414204, 0.1460376, 0.0059957644, 0.087094314, 0.06418266, 0.05537102 },
{ 0.035427384, 0.028253123, 0.04881653, -0.095962, -0.026579134, -0.18326749, 0.016680287, -0.041022412, -0.01165724, 0.10817058, 0.014565716, -0.14062774, 0.00782852, -0.13061053, -0.05118592, -0.2008865, -0.014711781, -0.07008624, 0.043224037, 0.007550474, 0.08947504, 0.06991888, -0.06922803, -0.07582798, 0.0394384, 0.11371758, -0.03556062, -0.031389486, -0.11108457, -0.10838293, -0.2150995, -0.083413064, -0.03641747, -0.015608886, 0.006810077, 0.08544264, 0.030569287, 0.12281823, 0.046771627, 0.13525796, 0.052322157, 0.10695639, 0.039805982 },
{ -0.040184647, -0.0012748879, 0.010659832, -0.011028291, -0.024208248, -0.011743261, 0.029409105, 0.032036077, 0.026249269, -0.07172776, -0.049262807, -0.019854134, -0.054073244, -0.08288288, 0.06924923, 0.0354512, 0.028368326, 0.0024772712, -0.002112664, -0.051857322, 0.051736925, 0.0122017, -0.044087563, -0.017342037, -0.08516469, 0.032142483, -0.022714196, -0.03339401, -0.11506702, -0.017634803, -0.043453056, 0.03349854, -0.0109647475, -0.11041291, -0.116580375, -0.015258106, 0.010773403, -0.07738221, -0.06431756, -0.14388838, -0.09421537, 0.014234394, -0.057824742 },
{ -0.022476407, -0.072796345, 0.050965816, -0.048281252, -0.10997415, 0.041587077, 0.019157253, -0.016368072, 0.0024493202, -0.016406761, -0.014720912, -0.053541437, 0.020908585, -0.05675009, 0.06972882, -0.067933545, 0.035370275, -0.025942033, -0.099858664, 0.13447171, 0.054983377, 0.014344078, 0.031678565, 0.08982093, -0.120901875, 0.021644127, 0.06585507, 0.07520413, -0.015009023, 0.045296017, -0.04402263, -0.08441095, 0.016785586, -0.09141801, -0.0052031702, 0.051532477, -0.07541878, 0.06469995, -0.10212099, 0.098463535, -0.0391345, 0.08000247, -0.062423095 },
{ 0.019439463, 0.001893312, -0.12035622, -0.067851156, -0.01859357, -0.0390089, -0.16476147, -0.06513022, -0.09979824, -0.018610502, -0.00985323, -0.038048517, -0.032296937, -0.049809847, 0.049685005, 0.075251095, -0.10956555, -0.040635347, 0.028644256, -0.049027056, -0.030164544, -0.011343758, 0.02403533, -0.039956465, 0.0944407, 0.05457203, 0.049125783, -0.08777775, 0.06573311, -0.11860228, -0.0018264924, 0.011481868, -0.009534191, -0.05880978, 0.00093318534, -0.031471726, 0.09847442, 0.036003735, -0.011666698, 0.01597016, 0.11445752, 0.075937904, -0.15319467 },
{ -0.010929365, 0.059421636, 0.016574359, -0.13017891, -0.1193409, 0.0048912736, 0.009823879, -0.06540669, -0.0024048688, 0.03899737, -0.018290678, -0.09166471, -0.033976123, -0.11162306, -0.039206963, -0.16447745, 0.0438641, -0.12659885, 0.04264956, -0.060908195, 0.027548876, -0.043798998, -0.027629586, 0.07406925, 0.0037826858, 0.081997454, -0.08245448, 0.0006416726, -0.17735541, -0.076459244, -0.1651158, -0.034526642, 0.0045526545, -0.018946467, 0.018742187, -0.0051650433, 0.059208035, 0.14888746, 0.068939805, 0.09430885, 0.08517908, 0.09617386, -0.017830871 },
{ -0.14296378, -0.23429573, -0.04248027, -0.14215866, -0.07792443, 0.03147334, -0.023701468, -0.06784493, 0.21895069, -0.08586072, 0.14748874, 0.015815174, -0.0023709678, 0.0975675, 0.072396606, 0.08007541, 0.06100946, 0.038606465, -0.16410974, 0.05108955, 0.1315876, 0.12165264, -0.061566662, -0.042959977, -0.110736564, -0.08677833, 0.10954434, -0.17169812, 0.06481527, -0.18742874, -0.047741838, 0.0985095, -0.13638686, 0.11181446, -0.10660859, -0.16265716, -0.038638767, -0.11038925, -0.048046045, -0.042419065, -0.3229172, 0.010793698, -0.013534202 },
{ -0.03090229, 0.035869226, -0.16647026, -0.010922352, -0.007994224, 0.097626254, -0.0460773, -0.006458745, 0.07082679, 0.05078299, -0.026117302, -0.050395403, 0.011008182, -0.06120032, -0.012193815, -0.023114998, -0.030241013, 0.04594478, -0.110003926, 0.047243655, 0.00027339326, 0.043847337, 0.037538037, 0.052087475, -0.010961467, -0.049074467, 0.101810604, -0.016994597, 0.05334802, 0.033230815, 0.0071449163, -0.052239396, -0.0061764224, -0.013030603, -0.051709604, -0.011065932, 0.03739965, -0.024591085, 0.0066401213, -0.07357363, -0.0115326075, -0.013965384, -0.020444848 },
{ -0.0062234914, 0.0039633308, 0.06590862, -0.122035146, -0.10760134, -0.089834474, -0.0029532616, -0.03036564, -0.054040622, -0.038016867, -0.044502586, -0.14596325, -0.059266374, -0.07646036, 0.00070568564, -0.028631521, -0.02440712, -0.015768206, -0.07594327, -0.034230344, 0.08752946, -0.11085869, 0.01783026, -0.005443988, -0.08195529, 0.000756427, -0.06436357, -0.008663563, -0.17731252, -0.07937829, -0.17175625, -0.0034434716, -0.04251523, -0.11093833, -0.038298942, 0.020910595, 0.007511373, -0.029102914, -0.034062352, -0.019594053, -0.13194244, 0.06880635, -0.01931095 },
{ 0.03831497, -0.04524852, -0.04963871, 0.07800732, -0.02135982, -0.031651452, -0.011794518, -0.07499462, 0.07450349, 0.011376899, -0.01116466, -0.07732317, 0.045320254, -0.00029784002, -0.06804591, -0.07694375, -0.015105019, 0.036625605, -0.13499473, -0.02996451, -0.0066002067, -0.07662814, -0.066573486, 0.0077167223, -0.0013248193, -0.12977403, 0.017440729, -0.011837595, 0.0440555, -0.14055361, 0.013353112, -0.011506713, -0.047211275, 0.07848959, -0.17675698, -0.030742638, 0.04748248, -0.08583011, 0.10067984, -0.0588341, -0.09600461, -0.06442397, 0.055455036 },
{ -0.07447838, -0.022876674, -0.06505717, 0.028341955, 0.053899128, -0.21148854, -0.0076728268, 0.04958298, 0.065509334, -0.11362984, -0.027337534, -0.07762695, 0.07566662, 0.01281012, -0.103511974, -0.03385254, -0.049130764, 0.09090855, -0.04699636, -0.04792691, 0.10746508, 0.01364137, -0.0808234, -0.08922276, 0.029777095, 0.045929104, 0.009283816, 0.019149277, -0.0039522806, -0.13369933, 0.06988726, 0.00067734055, -0.04256734, 0.0110771395, -0.22644438, -0.111100964, -0.14954092, -0.14510202, 0.17986396, -0.07102278, -0.1459673, -0.1672096, 0.017490914 },
{ 0.06159648, 0.032232787, -0.032903798, -0.053829618, 0.0014718635, -0.114589, -0.14741755, -0.10449925, -0.055925265, 0.050690148, -0.038203675, -0.14307877, -0.008207398, -0.026304148, -0.031714063, -0.008927019, -0.0037671202, -0.06068469, -0.12062002, 0.049021512, -0.09202354, 0.0005730054, -0.10657366, 0.039782926, 0.11585871, -0.01787261, 0.09385302, -0.030256499, 0.019066872, -0.15979381, 0.0448752, -0.0083193565, 0.0047892733, 0.013295066, -0.02861135, -0.012224539, 0.069073774, 0.012355793, 0.019209655, -0.080867946, -0.019642293, -0.068685524, -0.010863622 },
{ -0.056068495, -0.0857016, -0.18826099, 0.0022496632, 0.03759364, 0.061247155, -0.1560245, -0.120388895, -0.08504972, -0.065578595, 0.09283791, 0.010943122, -0.014557174, -0.042923737, 0.10488317, 0.021483779, -0.18920657, 0.038731154, 0.019686598, 0.014619795, 0.045514878, 0.027134828, 0.02003015, -0.011191258, 0.0355334, 0.046020564, -0.0002330032, 0.04635832, -0.06740514, -0.05857723, -0.14929125, -0.14160076, 0.007920739, -0.048951074, 0.043546297, -0.069636814, 0.0981532, -0.012748296, -0.086571716, 0.030443465, 0.01752522, 0.05350535, -0.18019351 },
{ -0.07392524, -0.07201081, -0.20068108, -0.009498552, -0.005662249, 0.089883775, -0.07707587, -0.003788653, 0.022152765, 0.026427647, -0.06517472, -0.052451134, -0.038159527, -0.05292445, 0.027616024, 0.08711759, 0.010709188, -0.0028762915, -0.24934514, 0.041495547, 0.01829783, -0.06303384, 0.007593271, 0.111759916, -0.023451822, 0.002402874, 0.15608807, -0.044071376, 0.10600042, -0.32861006, -0.0926857, -0.007427302, -0.05069035, -0.04199855, -0.06224437, 0.00045265057, -0.00978079, -0.10850779, 0.008122518, -0.036772553, -0.16098107, -0.090288684, -0.028552204 },
{ 0.0043377527, -0.03164994, -0.12995704, 0.032331206, -0.06917686, 0.0020082009, -0.04169214, -0.007911133, 0.10401074, -0.13329183, -0.039343495, 0.038192824, -0.0028864094, 0.018308299, 0.183377, 0.052438535, -0.058945008, -0.027376698, 0.0031039834, -0.015982175, 0.017901868, 0.011811181, 0.09271778, -0.054887164, -0.007306113, 0.06638757, 0.075572, 0.034654953, -0.058694966, -0.046537492, -0.07726299, -0.033611737, -0.0051446296, -0.07863105, 0.08355405, -0.06755428, -0.08877293, 0.020989433, 0.010610351, 0.056180555, 0.047226433, 0.055459756, -0.14914656 },
{ -0.07296234, -0.07239994, -0.19514391, 0.041057434, 0.04531663, 0.011407253, -0.12814365, -0.07573326, -0.03100465, -0.08913116, 0.06068215, 0.056119584, -0.002146231, -0.0287096, 0.1765074, 0.055904094, -0.19352159, -0.09255215, 0.08011734, -0.003049232, 0.033358578, 0.011498153, 0.03207119, -0.025009226, 0.030758837, 0.007164623, 0.026111674, 0.03771794, -0.0020888422, -0.06354134, -0.14535698, -0.073742144, 0.008714254, -0.08380714, 0.003284301, -0.026180256, 0.011515788, -0.043450285, -0.102909096, 0.029333862, -0.016395707, 0.090694495, -0.25783107 },
{ -0.007904117, 0.013516689, -0.042346366, -0.0007823113, -0.08786202, 0.0028418452, -0.06141064, -0.016685413, -0.028695488, 0.013260496, -0.046031084, -0.007046627, -0.09804534, -0.08770236, 0.02145643, -0.0004840883, 0.045809533, -0.038365915, -0.030344052, -0.083500296, -0.05366581, -0.08501717, -0.04024909, -0.076001614, -0.059240825, -0.046293736, -0.010818136, -0.030054552, -0.018469978, -0.04584886, -0.0064796084, 0.05680682, 0.029738566, 0.011519648, -0.019066503, -0.048785005, -0.022407986, -0.028259201, -0.019540533, -0.016093638, -0.008419819, -0.06358367, -0.045672268 },
{ -0.0753124, 0.0067988397, -0.113796026, 0.054762878, -0.012924689, -0.02809629, 0.005850443, 0.09320968, 0.11589514, -0.05502966, -0.029146312, -0.07879862, -0.03933543, 0.10491209, 0.07023548, 0.08185533, -0.04355902, 0.031248799, 0.020860469, -0.21621013, -0.060578525, 0.08881229, -0.073059455, -0.14510934, 0.0074833087, -0.005618187, 0.10570416, -0.0681753, 0.037446294, -0.032337517, 0.07782471, 0.066188425, 0.04671802, -0.015592225, 0.03012037, -0.13687648, -0.044110656, -0.13593134, -0.11518549, -0.1655037, -0.035186395, -0.26736578, -0.028635286 },
{ 0.063659914, 0.023912799, -0.02763002, -0.03424951, 0.0013291864, -0.07184259, -0.16180368, -0.048113476, -0.073535345, -0.039363645, -0.045694537, -0.015113129, 0.048149064, -0.03188235, -0.020702891, 0.0074837697, -0.014555007, -0.055350572, -0.08807691, 0.046312366, -0.023822669, -0.019729532, -0.04095841, -0.0072980197, 0.104681484, 0.0033897036, 0.034594033, -0.07359889, 0.054690845, -0.13823384, 0.03619861, 0.030772721, 0.017285902, 0.01998652, -0.030944753, 0.017944576, 0.116741106, -0.056518093, 0.007159149, -0.049758956, 0.007058662, -0.038930018, -0.059912696 },
{ -0.07570663, -0.07239154, 0.1873491, -0.05331673, 0.026886791, -0.18166539, 0.01524254, -0.08986118, 0.023725782, -0.05319529, -0.013497939, 0.18117388, 0.023716068, -0.060129832, -0.11799827, -0.03509119, -0.022624664, -0.13179241, -0.02072757, 0.10348157, -0.03283949, -0.026408106, -0.073365904, -0.06862294, 0.16133717, -0.23116615, -0.12874717, -0.053587414, -0.13852099, -0.091856, -0.17996953, 0.024393758, -0.18783653, 0.14053208, 0.051290017, -0.0033846295, -0.005917237, 0.021948952, 0.0051649455, 0.04922252, 0.08701167, 0.09795478, 0.073405385 },
{ -0.021416595, -0.028479908, -0.22894312, 0.10183806, -0.06989536, -0.018069213, -0.06411406, 0.054696206, 0.08922361, -0.04732007, -0.0039069206, 0.025861017, -0.04779502, 0.04340858, 0.15945609, 0.111079, -0.042380553, -0.00035602268, 0.013098105, -0.06115189, -0.0528801, 0.051160257, 0.016860234, -0.10715465, 0.095541246, -0.009617987, 0.017956622, -0.0424144, 0.012151796, -0.09535467, 0.010975211, -0.017174408, 0.05263194, -0.039265066, 0.037352994, -0.13469286, 0.005244796, -0.036849465, -0.03711252, -0.11457076, -0.06210373, -0.15931685, -0.06803217 },
{ 0.02108588, -0.09639658, 0.063914694, -0.090860896, -0.05237721, -0.12824565, -0.042051207, -0.05354481, -0.09670873, 0.020053875, -0.0825698, 0.11836564, -0.030641904, -0.087488756, -0.15967627, -0.07269387, -0.08854833, -0.113803476, -0.08552488, 0.0052219974, 0.03334382, 0.011869526, 0.022140589, 0.041825317, 0.061841264, 0.008031352, -0.04126052, -0.022962332, -0.10746996, -0.23540767, -0.18027733, -0.06579409, -0.057259146, 0.060575396, 0.097492516, 0.057332892, 0.0799023, 0.059639614, -0.115567915, 0.15435992, 0.13043834, 0.11800039, 0.02626537 },
{ 0.06355986, -0.07514911, -0.065743506, 0.13917229, 0.0013076715, -0.08456041, -0.124070086, -0.15236484, 0.039827686, -0.047493402, 0.108563155, 0.014881206, -0.01393586, -0.052082866, 0.049813416, -0.029461345, 0.042823967, -0.01849013, -0.013922215, 0.063223265, 0.047651403, 0.051273122, 0.07725469, -0.01452118, -0.042238858, 0.11727608, -0.036496405, 0.02864456, -0.0068554785, 0.006499396, -0.23324038, -0.17085382, 0.101611994, -0.014023239, -0.01613093, 0.011768864, 0.032913737, 0.025393933, -0.12270489, 0.018249173, 0.02196473, 0.082643196, -0.026130239 },
{ -0.025162295, 0.0032585282, -0.01117566, 0.021664638, -0.02401906, -0.055520657, -0.019990867, 0.013665011, -0.047227714, -0.024842858, -0.020927444, 0.015305908, -0.039521586, -0.051823393, -0.055101678, -0.045865595, -0.03752378, -0.07995725, 0.036007807, 0.01894717, -0.1104801, 0.02894094, -0.038131166, -0.084899455, -0.048172794, -0.03772737, -0.11128352, -0.056062315, -0.07954133, -0.015701367, 0.007399454, -0.004326223, -0.045239363, -0.029107789, -0.017794399, 0.05839428, -0.06955918, -0.005859046, 0.0032152198, -0.005812475, 0.021835744, 0.03097143, -0.10371555 },
{ -0.0017428445, 0.040470213, -0.10358946, 0.06777772, 0.006337451, 0.021208484, 0.020857459, 0.028969252, 0.10417335, -0.033839427, -0.028425582, 0.023784209, -0.036645874, 0.03623076, -0.017030107, -0.0013224615, -0.046041667, -0.026350113, -0.03154197, 0.07841145, -0.08298426, -0.034783795, 0.02396949, -0.011106396, -0.016284265, -0.040263932, -0.02507158, 0.00021330413, 0.01698729, 0.054408126, 0.018825563, 0.05850834, 0.056929957, -0.07910474, 0.0010387996, -0.03264412, 0.06546714, -0.056065794, 0.018028487, -0.113964856, -0.07088763, 0.007314438, -0.049946595 },
{ 0.0036155113, -0.005241858, 0.026713446, 0.012204467, -0.10797261, -0.059153356, -0.046971332, -0.023780035, 0.06731151, 0.072531484, -0.0630817, -0.028087517, 0.015080787, -0.103733465, 0.08941046, 0.008865445, -0.03372165, -0.09567607, -0.01260179, 0.005675448, 0.019033771, -0.0500032, 0.037845515, 0.058712076, -0.035275638, 0.06576716, -0.04735293, 0.07152882, -0.13020624, 0.025929527, -0.052399423, -0.04769441, -0.014809399, -0.0026517245, 0.018913295, -0.013458292, -0.09047821, 0.07035693, 0.018171726, 0.09703113, 0.06866894, 0.09548419, -0.054900408 },
{ 0.06514373, -0.006556228, -0.055523925, -0.0009660163, 0.0030062618, -0.081394434, -0.104297295, -0.051504813, 0.051114608, 0.014075557, -0.07832944, -0.068149075, 0.032618303, -0.013053213, -0.02187506, -0.020109538, -0.0042128144, -0.039650094, -0.15308988, 0.033465747, -0.045643665, -0.01274584, -0.08588092, 0.013839123, 0.12589926, -0.04102838, 0.034300216, -0.040031895, 0.056027632, -0.15159577, 0.016073335, 0.04917415, 0.05215281, 0.042606503, -0.11427124, 0.018657709, 0.048939645, -0.040365003, 0.05239497, -0.06916103, -0.033136558, -0.09030592, -0.029407388 },
{ 0.009840896, -0.019085003, 0.027128447, 0.037368152, -0.09125822, 0.057397228, -0.0010479434, 0.060737804, 0.003969156, -0.10405866, -0.02764392, -0.014458701, -0.022298906, 0.08552525, 0.09115865, 0.018235885, -0.06301336, -0.014879707, -0.018414482, 0.008117214, -0.028563928, 0.043680612, -0.025794927, -0.06639747, -0.01297565, -0.03107967, 0.04081328, 0.011999004, -0.036818884, 0.080766395, -0.012255765, 0.053698707, 0.008392078, 0.013012634, -0.026806949, -0.016042693, -0.036150575, -0.083097905, -0.017607415, -0.15094183, -0.058374066, -0.05422392, -0.027183281 },
{ 0.00791759, 0.002002535, -0.17072581, -0.0064390046, 0.049002856, 0.03671636, 0.009094881, 0.1011385, 0.02775144, -0.073463894, -0.022720737, -0.04280333, -0.043398548, 0.025969654, 0.028445752, 0.027852079, -0.03965193, -0.048432436, 0.021146152, 0.039468683, 0.009057128, -0.023320826, 0.0004734571, -0.037814118, 0.033421364, 0.0030166742, -8.087962e-05, 0.034809716, -0.019633982, 0.0022115768, 0.057078306, 0.033564284, 0.04848606, 0.039517388, 0.0038346597, -0.13983485, 0.037791636, -0.055815786, 0.0005703926, -0.17366211, -0.06959086, -0.15576655, -0.020865524 },
{ -0.024721866, -0.018425249, 0.05351137, -0.03286926, 0.008257512, 0.027963052, 0.014142336, -0.04976752, 0.08106852, -0.025252301, 0.0076114833, 0.040017825, -0.023097565, -0.016336989, 0.030355182, -0.036296938, -0.049229737, 0.008857578, -0.04628423, 0.086847305, 0.016267901, -0.0003975176, -0.0012736361, -0.01942725, -0.013900297, -0.045481008, -0.028749928, 0.037363917, -0.0089504225, 0.0017234981, -0.033927724, -0.016506113, -0.0078797955, -0.0820766, 0.01162616, -0.0060962336, -0.030596472, 0.044265952, -0.039538305, -0.003135873, -0.028159121, 0.03454769, -0.014932907 },
{ 0.102864474, -0.124556236, 0.0015196834, -0.07911867, 0.033963338, -0.0018967203, -0.044574507, 0.104087144, 0.03912887, -0.10577382, -0.008521671, -0.110199414, -0.03667693, 0.1086172, 0.09319223, 0.11955133, 0.003945174, 0.007439527, 0.04413146, -0.09893591, -0.01010347, 0.08930211, -0.15798907, -0.13013402, 0.0058354307, -0.043685913, 0.06388647, -0.08524335, 0.0132728135, -0.08265219, 0.08006048, 0.027226763, -0.055495348, 0.08421511, 0.013693978, -0.1951542, -0.04217407, -0.09193631, -0.0377763, -0.2981176, -0.12302058, -0.2684586, 0.035353784 },
{ 0.03912258, -0.059066657, 0.10039162, -0.13154906, 0.15896039, -0.09344947, -0.07872499, 0.013307705, -0.02107451, -0.06058603, 0.15033284, -0.098752275, -0.12387424, -0.026867079, 0.14482488, 0.07008906, -0.11317987, -0.05066238, -0.1739661, -0.03359563, 0.031653915, -0.062086392, 0.008351048, -0.1302818, 0.08250098, 0.096663766, -0.00372056, -0.026678007, -0.089401014, 0.03175931, 0.011474854, 0.10796621, -0.0417794, -0.16202469, -0.029620502, 0.05123219, 0.0995901, -0.11440038, -0.20212872, -0.047694728, 0.039371744, -0.02200123, -0.017218547 },
{ -0.01281582, 0.0020617521, 0.005181184, 0.10149281, -0.04225847, -0.11288536, -0.08563494, -0.038976863, -0.1099246, -0.04551019, 0.17487483, -0.0682035, -0.023252806, 0.027514784, 0.018975802, 0.0067848703, 0.039590567, -0.09625742, -0.06443886, -0.005210182, 0.0069968384, 0.012792197, 0.07445718, -0.0586995, 0.11453284, 0.08503868, -0.20429349, -0.16952117, -0.015906056, -0.10900671, -0.21566093, -0.036825202, -0.15791382, 0.04639993, 0.06612213, -0.09135909, 0.055745605, -0.02942511, 0.0005058408, 0.02301894, 0.14008388, 0.06206437, -0.0045788074 },
{ -0.020808896, -0.047492445, 0.12424952, -0.15564014, 0.06724083, -0.24676867, -0.111500464, -0.06650617, -0.14878556, 0.13414735, 0.18737814, -0.14452465, -0.007467284, -0.10484533, -0.057213113, -0.12063821, -0.031096812, -0.020215128, -0.082537815, 0.016281411, 0.0020332194, -0.039337378, 0.020442963, -0.12677146, 0.14398289, 0.08670918, -0.086873636, -0.029750047, -0.05774446, -0.070804894, -0.10101016, -0.048826415, -0.04339502, -0.029956052, 0.081861526, 0.040090553, 0.14082818, 0.07822967, -0.06797083, 0.14130133, 0.20535983, 0.11284444, 0.07092938 },
{ 0.11358015, -0.09968408, 0.13722353, -0.11224939, -0.037160076, -0.062157486, 0.008667165, -0.013047397, -0.039717976, 0.11426113, -0.009237578, -0.037985444, -0.123197526, -0.15373924, 0.09739856, 0.11531782, -0.08622277, -0.022959875, -0.1244522, -0.0061904774, 0.03831795, -0.0520221, -0.06610718, -0.010545664, 0.06465245, -0.05937195, -0.038114585, -0.020192502, -0.10909606, 0.0032328323, 0.051390674, 0.047982864, -0.08183604, -0.089004844, -0.03141913, 0.049316633, 0.040272724, -0.12534961, -0.110661075, -0.094052985, 0.039065626, -0.027569778, 0.03062101 },
{ 0.04375343, -0.025777971, 0.13302797, -0.03035484, -0.026803873, -0.10580315, 0.025374603, -0.12925267, -0.004412874, 0.014949588, -0.028900206, 0.06322158, 0.03574468, -0.044206128, 0.037893616, -0.040541876, 0.004102522, -0.013093325, -0.06869655, 0.15816553, -0.005356442, -0.0061447774, 0.048279356, 0.08831319, -0.023213599, -0.010953287, -0.057321217, 0.05255584, -0.0026697947, 0.058119804, 0.006457954, -0.05687327, -0.01607289, -0.10056637, 0.040965583, 0.024037065, -0.095261715, -0.013381468, -0.09460733, 0.05755943, 0.056723617, -0.019648869, 0.001089716 },
{ 0.01481669, -0.02733759, 0.014391511, -0.1133434, -0.07801989, -0.17576018, -0.09569641, -0.10558769, -0.0225045, -0.09499074, 0.08957704, -0.015484528, 0.004665154, -0.052621353, -0.050310586, 0.005070862, -0.015862674, 0.032096017, 0.083573796, 0.10572679, 0.0640972, 0.060877647, 0.032827657, -0.07409231, 0.03756789, 0.0701476, -0.14088231, -0.059397478, 0.040587362, -0.054336287, -0.057006393, 0.008847364, -0.003013806, -0.049967013, -0.08709754, -0.019252462, 0.09362762, 0.053971604, 0.01329858, -0.011163431, 0.058645427, 0.013542526, -0.04621624 },
{ 0.024127241, 0.043072164, 0.07876687, -0.119661175, -0.10815628, -0.11696046, -0.090891846, -0.06775324, -0.08322176, 0.14690329, 0.079043634, -0.108031094, 0.03363948, -0.11706024, -0.10469286, -0.08716723, -0.027436862, -0.01652053, -0.058326043, 0.01154084, 0.0028103204, -0.009229458, 0.00070568576, 0.0030864023, 0.037608095, -0.045996305, -0.0976049, -0.048686605, -0.14688893, -0.020770645, -0.051092368, -0.057311308, -0.03438392, 0.021318708, 0.058328886, 0.0238289, 0.10907207, 0.09000027, 0.02844904, 0.123972826, 0.14083725, 0.073499784, 0.054503243 },
{ -0.031588186, -0.20368552, 0.09038692, -0.19897962, -0.0980166, 0.15684704, 0.050392706, -0.11259303, 0.16410615, -0.08963482, 0.11336667, 0.041545693, -0.08420509, 0.05335869, 0.13634388, 0.12873597, 0.070640825, -0.02352639, -0.19833662, 0.049826838, 0.06803818, 0.014694908, -0.0797676, -0.022148807, -0.023915077, -0.119647324, 0.12024047, -0.1049035, 0.054049414, -0.11454713, -0.072847225, 0.17486924, -0.21362811, 0.09977238, -0.092470154, -0.09888602, -0.08096377, -0.1393213, -0.05580092, -0.08167411, -0.3958202, -0.09882545, -0.018917616 },
{ -0.026501939, 0.036595114, -0.09889797, 0.023055825, 0.062768914, 0.093958855, 0.022875745, 0.067295186, 0.006668181, -0.055975426, 0.043075077, 0.001449013, 0.010354821, -0.0047351345, -0.03973164, 0.032646224, -0.014038839, 0.024155768, -0.010894284, 0.0828524, 0.08605783, -0.02164919, 0.02347231, -0.008308647, -0.008057959, -0.049670067, -0.044678334, 0.020672688, 0.011054577, -0.004593284, 0.028660526, 0.0040370305, -0.019512167, 0.010631038, 0.00064398645, -0.06124418, 0.035763618, -0.034245513, 0.013920353, -0.06191542, -0.01885727, -0.032352168, -0.016581316 },
{ 0.009954565, -0.101502195, 0.19837779, -0.10500173, -0.0015762119, -0.1513103, -0.03274307, -0.10894018, -0.08380128, 0.03323716, 0.058958087, -0.052305885, -0.07412758, -0.19133843, 0.06974007, 0.030879771, -0.08303206, -0.08350909, -0.22589704, 0.018640304, -0.0069749197, -0.17534971, -0.0020858892, -0.04161016, 0.06622962, -0.077593274, -0.052444883, -0.035276894, -0.12673943, 0.01930719, -0.060411613, -0.05325503, -0.105104275, -0.1430905, -0.008650882, 0.030479848, 0.08460451, -0.16659458, -0.108732834, 0.023686111, 0.10235428, 0.049556594, 0.03103829 },
{ -0.022061912, -0.035988495, -0.085998446, 0.02611479, -0.057693172, 0.03369998, -0.06563607, -0.024519788, -0.07883732, -0.028623117, 0.057725184, -0.07289142, 0.047749683, -0.0048138294, -0.045093745, -0.03337074, 0.06616005, 0.033176936, -0.06231768, 0.05238561, 0.068007834, -0.015084595, -0.06879672, 0.048773203, -0.012634141, -0.06889374, -0.20574135, -0.06638706, 0.033531882, -0.044323664, 0.020520948, -0.024997965, -0.13508593, 0.016723, -0.0069386796, -0.13856325, 0.11062497, 0.002882583, 0.0056080827, -0.060201805, -0.19621229, -0.004698363, 0.00919516 },
{ -0.12644573, 0.04837477, -0.07735287, -0.14809857, 0.03668735, -0.040110152, -0.035675824, 0.06807456, -0.16980603, -0.10117894, 0.008463593, -0.1870301, 0.035340022, 0.12247904, 0.05892104, 0.018745461, -0.091121204, 0.018998211, -0.0959633, -0.045285195, 0.12541057, -0.017858822, 0.033146977, 0.0062833335, 0.07687212, 0.025810607, -0.12199786, 0.016072605, -0.011054169, -0.13945594, 0.07238828, 0.082654454, -0.050275654, -0.03408079, 5.2245363e-05, -0.15719368, -0.021563098, -0.10798889, -0.025333581, -0.0015235137, -0.2353507, -0.13880648, 0.031371098 },
{ 0.0085464325, -0.031561572, 0.043468203, -0.020214155, 0.050414518, -0.11015355, -0.097892836, -0.10572005, -0.13713191, -0.10695953, 0.10972602, -0.09323034, -0.029305473, -0.001593315, -0.05840875, -0.009601003, 0.09432723, 0.060850117, -0.0448936, 0.08106896, 0.026911065, -0.01996463, -0.13818708, -0.027669488, 0.025663499, -0.038524833, -0.09570101, 0.012325937, 0.016002355, -0.042882454, 0.034131896, -0.03052789, -0.08751807, 0.006690972, 0.0036206462, -0.12026219, 0.060803134, 0.077874325, 0.056961183, -0.044306602, -0.012689716, 0.03895988, -0.013983375 },
{ 0.01729467, -0.009789131, -0.0146471625, -0.020119248, -0.059992675, -0.1184666, -0.027052073, -0.16873696, 0.038239162, -0.16016649, 0.027267812, 0.03846547, 0.0070151365, -0.053627733, -0.009074256, -0.014780716, -0.072544076, 0.0025987092, 0.13945426, 0.06969481, 0.04947266, 0.01370801, 0.03170909, -0.023808384, -0.024634492, 0.024391253, -0.07645591, 0.01414641, -0.0019341189, 0.030457571, -0.09234377, -0.044563644, -0.10346724, -0.05419911, 0.012203161, -0.013656398, -0.0029216742, 0.06361663, -0.06869632, 0.07930402, 0.0227583, 0.04794948, -0.08779029 },
{ -0.15373175, -0.08638365, -0.1347231, -0.003704726, 0.032728232, 0.022829035, 0.03715209, -0.030627416, 0.054389987, 0.04421936, -0.115313426, -0.124248646, 0.004688972, -0.012382372, -0.054923438, 0.06369846, -0.04519797, -0.005760182, -0.04133572, 0.089563936, 0.10716969, -0.037483264, 0.033066865, -0.044101324, -0.11481453, -0.06452154, -0.063252315, 0.016787846, 0.04302413, -0.17483637, -0.044199657, 0.016267633, -0.04217855, -0.00222486, -0.022885855, -0.09865677, -0.039974563, -0.00629657, 0.027273407, -0.078919925, -0.14141352, -0.11753981, -0.01888234 },
{ 0.07959998, 0.028012764, 0.06947606, -0.066302806, -0.19400512, -0.07296603, -0.00025133422, -0.12273823, 0.043850765, -0.042049743, -0.098260626, 0.075817145, 0.09281332, -0.13595676, 0.0019378414, 0.056484185, -0.0125703495, -0.03516497, 0.031764768, 0.07034218, -0.053122915, -0.03404773, 0.045465242, 0.012290731, 0.005234601, 0.051923376, -0.054232925, 0.02401522, 0.0062336707, -0.014054568, -0.0056356024, 0.038219545, -0.033917613, -0.029935334, -0.035512302, 0.040629666, -0.23353325, -0.018617157, 0.015564494, 0.053466108, 0.029252272, -0.0081179645, -0.09311571 },
{ 0.037870977, -0.023130331, 0.049043044, -0.090438046, -0.082269795, -0.036443442, 0.032089133, -0.22179072, 0.002372054, -0.11072634, -0.05260394, 0.062677324, 0.036456566, -0.13629717, -0.038374092, 0.033150084, -0.101853944, 0.0070199324, 0.102902, 0.15593775, -0.017980928, 0.005421832, 0.029795483, -0.070421755, 0.027975738, 7.077546e-05, -0.07737263, -0.009320704, 0.030370286, -0.039571952, -0.109550685, -0.001600333, -0.040998686, -0.058862716, -0.065518595, 0.020528935, -0.067911774, -0.038289815, -0.049255077, -0.05060876, 0.07861747, 0.013661161, -0.18354262 },
{ 0.0028084973, 0.019344132, -0.054176982, -0.04195317, -0.084577404, 0.036873367, -0.08649718, -0.004501072, 0.006461256, 0.0067710434, -0.06336203, 0.0037303274, -0.10128395, -0.037958138, 0.005813125, -0.011039762, 0.05622765, -0.036967874, -0.041261133, -0.057071883, -0.032865006, -0.068828054, -0.032195415, -0.043581028, -0.01766283, 0.008572108, -0.080302335, -0.04402553, -0.050190236, -0.034239955, -0.015342949, 0.025221018, 0.0070598046, 0.004031374, -0.024973933, -0.023735246, -0.062596366, -0.044821575, -0.039203417, -0.027100075, -0.051053386, -0.05938205, -0.019967504 },
{ 0.0028185851, -0.14931859, -0.0053194426, 0.008287299, 0.022002613, 0.053198457, -0.006243254, 0.09668987, 0.084031835, -0.063548736, -0.074438915, -0.06963724, -0.13078532, 0.10714855, 0.0613013, 0.14574039, 0.0042434367, -0.009175825, 0.06680071, -0.08777209, -0.039734863, 0.022485798, -0.12609728, -0.15649913, 0.032486796, -0.012713832, 0.065985374, 0.017184462, -0.039279416, -0.031808127, 0.077390715, 0.056961752, 0.053651333, 0.025502102, 0.020748159, -0.13178748, -0.046833236, -0.14028509, -0.06616553, -0.20869976, -0.12704012, -0.30317923, -0.025748001 },
{ 0.04651162, 0.0172242, 0.0632939, -0.022413623, 0.010735235, -0.16632742, -0.0518639, -0.098147586, -0.05094828, -0.1417716, 0.073206946, 0.017399346, 0.031910837, -0.037188318, -0.051069513, -0.021097803, 0.057874966, -0.0138616245, 0.01747833, 0.050087232, 0.01599344, -0.014128926, -0.047535285, -0.09852834, 0.03864602, 0.018207043, -0.09215952, -0.0138664255, -0.011626395, -0.011437598, 0.030279415, -0.017034791, -0.08353284, -0.01199898, -0.060742036, -0.061844084, 0.05942737, 0.07926103, 0.025365122, -0.07797317, -0.022844525, 0.05371326, -0.038581133 },
{ -0.041550238, 0.024598854, 0.072310686, -0.06971008, -0.0038084388, -0.10255607, 0.01869459, -0.14557078, -0.062145185, -0.032951873, 0.20702207, 0.09662993, 0.071169674, -0.051195737, -0.2205989, 0.013510836, 0.084855735, -0.06124138, 0.0011473852, 0.05196747, -0.0118990205, -0.083582185, 0.028964074, -0.029379385, 0.074366346, -0.17460306, -0.13980953, -0.059563804, -0.009427949, -0.13070735, -0.26211938, -0.0004310329, -0.14857768, 0.07489073, 0.091080345, -0.06568329, 0.04162939, 0.006357417, -0.060161684, 0.15418208, 0.11848923, 0.09689428, 0.04144867 },
{ 0.046524044, -0.053548474, -0.07767976, -0.03012626, -0.09689189, 0.054096144, 0.073364094, 0.03829907, 0.0062793484, -0.067864, -0.06456879, 0.015773298, -0.035660412, -0.0037884063, -0.047371093, 0.13500226, -0.039348375, 0.02013793, 0.053774282, 0.042465914, 0.02779089, -0.014378445, 0.035389327, -0.10950654, 0.025843397, -0.028424691, 0.004305695, 0.0223514, 0.04008247, 0.016250849, 0.012187528, 0.05203157, 0.009143288, -0.038748376, -0.02206498, -0.12267581, -0.08244961, -0.044420052, -0.016609577, -0.1070153, -0.03226982, -0.09815696, -0.11289409 },
{ -0.0009737006, -0.04412832, 0.09170774, -0.14222437, -0.097486444, -0.2246148, -0.049060274, -0.025432386, -0.072033726, -0.067072876, 0.02540822, 0.1102031, 0.097774275, -0.022409532, -0.19471766, -0.16194493, -0.0077088135, -0.043716826, -0.020394867, 0.040707823, 0.005794886, 0.06914666, -0.017217884, -0.012875709, 0.0022147084, -0.04343716, -0.04277654, 0.010366579, -0.010086981, -0.14195439, -0.31512985, -0.04054869, -0.083238184, -0.048248146, 0.12096146, 0.08134679, -0.013383965, 0.10060005, -0.08712047, 0.13256477, 0.120696895, 0.08945167, 0.067059375 },
{ 0.014687985, -0.0061377967, -0.037309, 0.098678514, 0.012565648, -0.029299786, -0.065018535, -0.11048386, -0.06092713, -0.083886966, 0.13858375, 0.024049226, -0.012158158, -0.056596134, 0.04322064, -0.00019436778, 0.06507439, 0.005106653, 0.064146526, 0.13799033, 0.00581748, 0.047884636, -0.012979965, -0.18483023, -0.004647977, -0.021144083, 0.020026447, -0.075155295, -0.052882902, 0.098518886, -0.08268884, -0.06291952, -0.015306213, -0.017481918, -0.029831517, -0.008496051, 0.0045256126, 0.04351707, -0.10743802, -0.027253723, 0.05841228, 0.08500809, -0.0016228736 },
