#include "cnn.h"

float conv1_weights[CONV1_FILTERS][INPUT_CHANNELS][KERNEL_SIZE_5x5][KERNEL_SIZE_5x5]= {
	    {
	        {
	            {-0.110185, 0.015570, -0.064161, -0.136926, -0.143858},
	            {0.009585, -0.114316, -0.039902, 0.015228, -0.020499},
	            {-0.096373, -0.105308, -0.058650, -0.076799, -0.104715},
	            {-0.046742, -0.138909, -0.052819, -0.137990, -0.037498},
	            {-0.103246, -0.130699, -0.115721, 0.007263, -0.029007}
	        },
	        {
	            {-0.130346, 0.017922, -0.000126, -0.071918, -0.127976},
	            {-0.041893, -0.101657, -0.098920, -0.069685, -0.035630},
	            {-0.005692, -0.028805, -0.104055, 0.015116, -0.067867},
	            {0.033188, -0.113395, 0.031934, -0.079578, -0.123456},
	            {0.041225, 0.003912, 0.023275, -0.054450, -0.055115}
	        },
	        {
	            {-0.060532, -0.107921, 0.003065, 0.002070, -0.121849},
	            {-0.046502, 0.025662, -0.049802, -0.013972, 0.026791},
	            {0.057763, 0.084921, -0.040859, -0.038426, 0.086976},
	            {-0.014173, 0.024744, 0.037933, 0.056537, -0.078616},
	            {-0.065338, -0.088521, -0.111972, -0.096884, -0.024361}
	        }
	    },
	    {
	        {
	            {-0.127940, -0.090187, -0.019574, 0.029689, -0.044328},
	            {-0.009532, 0.054138, -0.017881, 0.082571, 0.033482},
	            {0.036356, 0.099550, 0.138383, 0.055809, 0.022890},
	            {-0.044640, -0.040588, -0.040614, -0.080483, 0.013179},
	            {0.027007, -0.043256, -0.070986, -0.065752, -0.045704}
	        },
	        {
	            {0.003259, -0.053716, -0.047599, 0.010323, 0.029386},
	            {0.035981, -0.001410, -0.080737, -0.013311, -0.055628},
	            {0.024061, -0.142026, -0.040547, -0.084677, -0.052617},
	            {-0.014942, 0.006526, -0.030926, -0.049682, -0.047782},
	            {-0.038983, -0.043852, 0.068267, 0.018891, 0.068463}
	        },
	        {
	            {-0.079216, 0.016890, -0.079622, -0.023626, -0.107103},
	            {-0.087496, -0.005476, -0.083529, 0.011259, 0.054110},
	            {0.030665, -0.001484, 0.055739, 0.046951, 0.010851},
	            {0.033721, 0.034358, -0.038905, 0.010134, -0.163160},
	            {-0.139477, -0.160280, -0.142822, -0.181235, -0.070490}
	        }
	    },
	    {
	        {
	            {-0.055458, -0.068057, 0.045630, -0.061299, -0.040219},
	            {-0.026647, -0.077874, 0.051261, -0.078520, 0.032984},
	            {-0.057020, -0.073968, 0.055737, 0.059125, -0.068632},
	            {-0.061605, -0.062430, 0.011660, -0.008928, 0.025134},
	            {-0.010417, -0.008492, -0.071893, 0.023774, -0.035217}
	        },
	        {
	            {0.017547, -0.020695, 0.002586, -0.056092, -0.089852},
	            {0.022943, 0.052660, -0.045710, 0.042030, -0.049172},
	            {-0.064582, -0.083098, 0.074871, 0.053911, -0.082004},
	            {-0.057969, 0.005671, -0.024680, -0.064264, 0.054955},
	            {0.028243, 0.039897, -0.083351, -0.070807, -0.063562}
	        },
	        {
	            {-0.040924, -0.052731, 0.011182, -0.030448, -0.035826},
	            {-0.074056, 0.003425, 0.027775, -0.020839, 0.047978},
	            {0.010075, 0.008231, 0.017746, 0.019193, -0.009995},
	            {-0.093749, -0.048901, -0.057797, 0.025425, 0.027225},
	            {0.018531, -0.033031, 0.048998, 0.003964, -0.004838}
	        }
	    },
	    {
	        {
	            {0.006566, 0.025670, -0.030490, -0.009479, -0.047524},
	            {-0.011982, 0.020729, -0.006238, -0.034420, -0.116214},
	            {-0.069226, -0.151006, -0.025650, -0.062538, -0.147998},
	            {0.047235, -0.012241, 0.034009, -0.075986, -0.016470},
	            {-0.053205, -0.147395, -0.035178, -0.143980, -0.030585}
	        },
	        {
	            {-0.075557, -0.123009, -0.051883, -0.053698, -0.033195},
	            {0.059787, -0.078196, 0.005767, -0.114282, 0.024193},
	            {-0.075532, -0.051111, -0.129518, -0.137483, 0.022623},
	            {0.029443, -0.017783, 0.079458, -0.013558, 0.059868},
	            {-0.001712, 0.101037, 0.030267, -0.057744, 0.008941}
	        },
	        {
	            {-0.039470, -0.121256, -0.102365, -0.129518, -0.092219},
	            {0.022714, 0.032830, 0.029466, -0.071104, 0.011646},
	            {0.033505, 0.034014, 0.032769, -0.074388, -0.110762},
	            {0.027009, -0.172449, -0.040596, -0.119756, -0.151339},
	            {-0.073102, -0.050733, -0.107371, -0.054808, -0.020334}
	        }
	    },
	    {
	        {
	            {-0.080471, -0.077843, -0.101640, 0.014985, -0.131950},
	            {-0.034751, 0.019212, -0.138256, -0.064297, -0.117721},
	            {-0.007824, -0.129152, 0.018589, -0.005265, -0.009417},
	            {-0.026224, -0.113070, 0.034588, -0.065209, -0.093598},
	            {-0.051405, -0.000333, 0.036210, -0.046020, -0.036967}
	        },
	        {
	            {-0.092515, -0.068681, -0.099934, 0.023517, 0.049694},
	            {-0.047057, -0.090913, -0.022467, -0.099996, -0.063806},
	            {0.018835, 0.011519, -0.108579, 0.054860, -0.005317},
	            {-0.117805, -0.095135, 0.001332, 0.041026, 0.010332},
	            {-0.048674, -0.097613, -0.109063, -0.024353, -0.023351}
	        },
	        {
	            {-0.020908, -0.062432, 0.028021, -0.075487, -0.108123},
	            {-0.003551, -0.104886, -0.071511, -0.018306, 0.071113},
	            {-0.131040, -0.111929, -0.028771, -0.003041, -0.096237},
	            {-0.088273, -0.000568, 0.064167, -0.047287, -0.102389},
	            {0.000790, -0.066466, 0.036492, 0.088295, 0.092705}
	        }
	    },
	    {
	        {
	            {-0.072838, -0.042860, -0.096505, 0.036166, -0.085897},
	            {-0.074578, 0.000254, 0.002249, 0.004974, -0.028662},
	            {0.007728, -0.095061, -0.059491, -0.090621, 0.018726},
	            {-0.078821, -0.113001, -0.009277, -0.100420, -0.119036},
	            {-0.072421, -0.032844, -0.054226, -0.012073, 0.010947}
	        },
	        {
	            {-0.026817, -0.107863, -0.081059, -0.015371, -0.105138},
	            {-0.072290, -0.026101, -0.049602, -0.024656, -0.015952},
	            {0.003102, -0.005902, -0.110397, -0.049174, 0.008443},
	            {-0.063376, 0.008028, -0.076957, 0.049466, 0.034389},
	            {0.054742, 0.058103, -0.015511, -0.005500, -0.000603}
	        },
	        {
	            {-0.045240, -0.024758, 0.015792, 0.026416, 0.002197},
	            {0.026536, 0.030234, 0.062734, -0.054673, -0.018080},
	            {0.002884, -0.023669, -0.006566, -0.061646, -0.077048},
	            {-0.010218, -0.079161, -0.088614, -0.056437, -0.075170},
	            {-0.011061, -0.069015, 0.005301, -0.109974, -0.037094}
	        }
	    },
	    {
	        {
	            {-0.082087, -0.036548, -0.009328, -0.042604, -0.003980},
	            {0.068687, -0.019430, -0.017926, -0.066328, -0.007795},
	            {-0.052275, 0.008224, -0.088218, -0.065509, -0.009982},
	            {-0.091646, 0.003641, 0.051466, -0.021259, 0.061038},
	            {-0.084156, -0.040755, -0.031340, -0.012591, 0.064455}
	        },
	        {
	            {0.031918, -0.037982, -0.013890, -0.080711, -0.026195},
	            {0.049314, 0.016078, -0.036105, 0.009767, 0.038943},
	            {0.019916, -0.015496, -0.052622, 0.050841, 0.032335},
	            {-0.067622, 0.034957, 0.017107, 0.061083, -0.079008},
	            {-0.026281, 0.013648, -0.066742, -0.038362, -0.092150}
	        },
	        {
	            {0.065110, -0.034595, -0.034739, 0.057835, 0.017695},
	            {-0.015357, -0.019415, -0.028714, 0.020746, -0.054099},
	            {-0.055440, 0.031134, 0.006039, -0.060063, -0.074914},
	            {-0.025809, 0.053604, 0.021467, 0.042587, -0.085268},
	            {-0.067146, 0.000896, -0.059335, -0.014851, 0.046055}
	        }
	    },
	    {
	        {
	            {-0.092155, 0.044972, 0.050624, 0.035991, -0.059745},
	            {-0.061233, -0.015253, -0.020517, -0.009239, -0.083062},
	            {-0.086567, -0.017355, -0.015449, -0.003222, 0.005483},
	            {-0.087125, -0.048744, -0.027490, -0.096306, -0.061163},
	            {-0.071065, 0.001449, -0.108782, -0.067339, 0.007085}
	        },
	        {
	            {-0.023369, -0.096932, 0.007806, -0.054000, 0.028885},
	            {-0.036238, -0.081293, 0.014101, -0.126242, 0.034106},
	            {-0.058499, -0.038082, -0.087222, -0.042728, -0.049339},
	            {0.041526, 0.045048, 0.098666, 0.039766, -0.093234},
	            {-0.061332, -0.043157, -0.078061, -0.090166, -0.013096}
	        },
	        {
	            {0.019344, -0.072432, 0.045781, 0.042041, -0.008870},
	            {-0.044146, -0.035792, -0.027844, -0.056888, 0.014904},
	            {-0.155654, -0.025796, 0.043292, -0.054430, 0.032200},
	            {0.012559, -0.130097, 0.047580, 0.042203, -0.001625},
	            {0.033656, -0.081153, 0.055137, -0.114910, -0.073264}
	        }
	    },
	    {
	        {
	            {-0.000351, 0.010142, -0.011957, -0.007871, -0.095756},
	            {-0.068349, 0.036454, -0.002110, -0.070686, -0.065925},
	            {0.029016, 0.009961, -0.015257, -0.069087, 0.053806},
	            {-0.045492, -0.042609, 0.041839, 0.005310, -0.045608},
	            {-0.070811, 0.024629, 0.002259, -0.038864, 0.045631}
	        },
	        {
	            {0.022452, -0.001927, 0.066878, -0.016410, 0.029609},
	            {0.008749, 0.027430, 0.035400, 0.020890, 0.036417},
	            {0.029228, 0.015370, 0.003591, -0.011762, -0.012361},
	            {0.011117, -0.005949, -0.067733, 0.054089, -0.011420},
	            {0.030997, -0.063428, -0.082232, 0.016070, 0.042606}
	        },
	        {
	            {-0.057988, -0.063155, -0.065325, -0.086677, 0.026788},
	            {-0.023922, -0.063434, 0.021167, -0.054363, 0.055985},
	            {0.033070, -0.051889, -0.010261, -0.070241, -0.014603},
	            {-0.031090, -0.057509, 0.043780, 0.012947, 0.040986},
	            {-0.079939, 0.055387, -0.082326, -0.017551, -0.051821}
	        }
	    },
	    {
	        {
	            {0.078486, -0.050568, 0.059872, 0.099777, -0.053022},
	            {-0.035059, 0.119841, -0.040056, -0.003383, 0.057664},
	            {0.019437, 0.037059, 0.036951, 0.000883, 0.052973},
	            {0.007036, 0.013406, -0.027214, 0.116769, -0.172100},
	            {-0.030726, -0.004734, -0.098789, -0.103981, 0.094632}
	        },
	        {
	            {-0.059674, -0.096071, -0.085566, -0.007857, -0.091260},
	            {0.057170, -0.047513, 0.031226, -0.040725, -0.136662},
	            {-0.039069, -0.062656, -0.138741, -0.151006, -0.017298},
	            {-0.241506, -0.180361, -0.059047, -0.092623, 0.055711},
	            {0.052974, -0.055500, 0.042395, 0.046453, -0.115921}
	        },
	        {
	            {0.029880, 0.032048, -0.039444, 0.025285, 0.025966},
	            {-0.063027, -0.026918, 0.051334, 0.093265, 0.110402},
	            {-0.031804, -0.088785, 0.067299, 0.044278, 0.057547},
	            {0.029302, -0.056909, 0.002489, 0.037770, 0.040674},
	            {0.071913, 0.033085, 0.068049, 0.118531, 0.159902}
	        }
	    },
	    {
	        {
	            {-0.046168, -0.004948, 0.016442, 0.050479, -0.030215},
	            {-0.048758, 0.070752, 0.045993, 0.037351, -0.026437},
	            {-0.075313, -0.088271, -0.095322, -0.061401, 0.011434},
	            {0.022577, -0.098995, 0.015696, 0.009915, -0.078012},
	            {-0.082629, -0.083020, -0.036577, -0.018009, -0.141815}
	        },
	        {
	            {-0.123774, 0.034567, 0.014622, -0.092782, 0.003428},
	            {-0.039413, 0.040734, 0.047298, -0.070951, 0.066409},
	            {0.074255, 0.040554, -0.005652, 0.075020, 0.003608},
	            {-0.078281, -0.050077, 0.025280, -0.059095, -0.009387},
	            {-0.044914, -0.038862, 0.036380, -0.005936, -0.026056}
	        },
	        {
	            {0.030146, -0.034266, -0.077074, -0.082421, 0.015509},
	            {-0.039312, 0.079350, -0.008506, -0.005801, 0.047307},
	            {0.000785, -0.057231, 0.052600, 0.023282, -0.129917},
	            {-0.067099, -0.149940, -0.108154, -0.026884, -0.114482},
	            {-0.165558, -0.029084, -0.078628, -0.087131, -0.127177}
	        }
	    },
	    {
	        {
	            {-0.067405, -0.065330, 0.042700, 0.028886, 0.060266},
	            {0.128666, 0.051003, 0.039452, 0.065910, -0.010244},
	            {0.085060, 0.079457, 0.116087, 0.067013, 0.052199},
	            {-0.152667, -0.184135, -0.124126, 0.003635, -0.049322},
	            {-0.026706, 0.122381, 0.101750, 0.007356, 0.097142}
	        },
	        {
	            {0.139061, 0.044789, -0.012219, 0.093083, 0.047853},
	            {-0.172514, -0.128716, -0.207319, -0.166088, -0.137065},
	            {-0.207600, -0.075565, -0.051806, -0.003386, 0.094355},
	            {0.078022, 0.026645, 0.124857, 0.055981, 0.109047},
	            {-0.146931, -0.101506, -0.080740, -0.041509, -0.139402}
	        },
	        {
	            {-0.100124, -0.036568, -0.063450, -0.148710, -0.001815},
	            {-0.099254, -0.092352, 0.024067, 0.065836, 0.038480},
	            {-0.063431, -0.048123, 0.033377, -0.078337, -0.086976},
	            {-0.096118, -0.160648, -0.145769, -0.189675, -0.006321},
	            {-0.150605, -0.130815, 0.015004, -0.048050, -0.043124}
	        }
	    },
	    {
	        {
	            {0.109331, 0.076685, -0.034761, 0.159610, -0.007083},
	            {0.000152, 0.168544, 0.063529, -0.073086, 0.083881},
	            {0.087066, -0.053912, -0.059537, -0.003034, -0.003478},
	            {0.040241, 0.013298, -0.067593, 0.100328, -0.005905},
	            {-0.007929, 0.060987, 0.116962, 0.081346, -0.003733}
	        },
	        {
	            {-0.039254, -0.005594, -0.029818, 0.001965, 0.065548},
	            {-0.141850, -0.112220, 0.006935, -0.218862, -0.137899},
	            {-0.078984, -0.126387, -0.130971, 0.026684, -0.152453},
	            {-0.090700, 0.075791, 0.001506, -0.043381, 0.008234},
	            {-0.316795, -0.128684, 0.059398, -0.302699, -0.118070}
	        },
	        {
	            {0.132666, -0.302045, -0.119187, 0.057737, -0.197623},
	            {-0.094116, 0.083863, -0.115239, -0.123278, 0.022586},
	            {-0.361518, -0.203350, 0.095330, -0.333104, -0.194491},
	            {0.090444, -0.201373, -0.067615, 0.099853, -0.057370},
	            {0.023568, 0.063510, -0.154864, -0.124905, 0.033160}
	        }
	    },
	    {
	        {
	            {-0.028931, -0.006882, -0.065851, 0.009267, -0.015044},
	            {0.042362, 0.017002, -0.025507, -0.059817, 0.021039},
	            {-0.053486, 0.035410, -0.044304, -0.051996, 0.061534},
	            {-0.003326, -0.060872, 0.065476, -0.065892, 0.034595},
	            {-0.076963, 0.028042, -0.071783, 0.039187, -0.019845}
	        },
	        {
	            {-0.009157, -0.093803, -0.048994, -0.150441, -0.035933},
	            {0.039400, -0.102773, 0.005413, 0.016469, 0.000761},
	            {-0.096170, 0.023717, -0.071190, -0.040276, -0.004136},
	            {-0.067654, -0.045225, 0.002765, -0.123102, -0.137712},
	            {0.082524, -0.011075, -0.049583, 0.026900, -0.037861}
	        },
	        {
	            {-0.119313, 0.017748, -0.023637, -0.068616, 0.021671},
	            {-0.054940, -0.045641, 0.036525, -0.115841, -0.076955},
	            {-0.033299, -0.102042, 0.038210, 0.033914, -0.071305},
	            {-0.014255, 0.010456, -0.132135, -0.071678, 0.012014},
	            {0.003148, -0.053080, 0.040044, -0.057856, -0.060203}
	        }
	    },
	    {
	        {
	            {0.038059, -0.023147, 0.000398, -0.119965, 0.018957},
	            {-0.007236, -0.100473, -0.000413, 0.006873, -0.053186},
	            {-0.014773, 0.010979, -0.062948, -0.105631, -0.075658},
	            {0.024172, 0.013160, 0.021977, -0.002093, -0.088021},
	            {-0.075701, -0.019462, -0.091216, -0.002988, -0.104004}
	        },
	        {
	            {-0.085126, 0.009343, -0.013857, -0.138498, -0.076960},
	            {-0.141065, 0.017740, -0.100222, -0.079680, 0.040411},
	            {-0.081312, -0.123888, -0.030833, 0.038054, -0.133533},
	            {-0.099904, -0.046913, -0.057607, -0.079517, -0.035880},
	            {-0.128703, -0.077982, -0.085632, -0.014285, -0.101209}
	        },
	        {
	            {0.001383, -0.085468, 0.039352, -0.100521, -0.060047},
	            {-0.054733, -0.112688, -0.141635, -0.092879, -0.006201},
	            {0.006351, -0.080911, -0.031346, -0.076681, 0.022510},
	            {-0.034814, -0.012426, -0.105210, -0.098708, -0.063000},
	            {-0.007566, -0.106656, -0.072225, -0.042379, -0.045803}
	        }
	    },
	    {
	        {
	            {0.028705, -0.053626, 0.020084, 0.009335, 0.034953},
	            {0.031553, -0.083929, 0.057968, -0.049957, 0.009170},
	            {0.111167, 0.031494, -0.047448, -0.008516, -0.019138},
	            {-0.012084, -0.061676, -0.024102, -0.067822, 0.009173},
	            {0.073510, -0.031921, 0.103270, 0.077497, 0.065872}
	        },
	        {
	            {0.044198, 0.008623, -0.023342, 0.116181, 0.086711},
	            {-0.139061, -0.049879, -0.009216, -0.055505, -0.019875},
	            {-0.027321, -0.067746, 0.037524, -0.001044, 0.181736},
	            {0.182340, 0.214047, 0.139673, 0.182931, 0.271739},
	            {-0.023262, -0.070999, -0.076003, -0.077376, -0.045126}
	        },
	        {
	            {0.089422, -0.047527, -0.075656, -0.052282, -0.068327},
	            {-0.011399, -0.085554, -0.077615, -0.017560, -0.064504},
	            {0.128593, -0.102729, -0.002172, 0.053549, -0.033606},
	            {0.024313, -0.120080, 0.040124, 0.084991, -0.035918},
	            {-0.054520, -0.030145, -0.171405, -0.091888, -0.055308}
	        }
	    },
	    {
	        {
	            {-0.078911, -0.006411, -0.012122, 0.008210, -0.026391},
	            {-0.091057, -0.001748, -0.089083, -0.036746, -0.105009},
	            {0.048894, -0.038801, 0.052837, 0.070919, 0.106811},
	            {-0.146010, -0.078639, -0.026380, -0.121398, -0.116306},
	            {-0.091398, -0.086256, -0.084209, -0.099700, -0.055412}
	        },
	        {
	            {-0.116283, -0.084635, 0.054164, 0.091428, 0.084532},
	            {-0.045354, -0.040826, -0.112622, 0.009859, -0.073475},
	            {0.059538, -0.031758, -0.065142, -0.067795, -0.119704},
	            {-0.097164, -0.126000, 0.016029, 0.065419, -0.069911},
	            {-0.119830, -0.062693, -0.115092, -0.073737, -0.069460}
	        },
	        {
	            {-0.027042, -0.098009, -0.046555, -0.044259, -0.097104},
	            {-0.113464, -0.123706, -0.152446, -0.049840, -0.017343},
	            {-0.128192, -0.040798, -0.125301, -0.032468, 0.057497},
	            {0.023393, -0.041174, 0.023907, 0.079295, -0.024538},
	            {-0.051173, -0.045585, -0.049639, -0.151394, -0.118161}
	        }
	    },
	    {
	        {
	            {0.101970, -0.038505, -0.021979, 0.036356, 0.114914},
	            {0.096532, 0.009513, 0.080272, -0.027864, 0.070609},
	            {0.160631, 0.082753, 0.015424, 0.033998, -0.110209},
	            {0.044254, 0.032258, -0.014533, -0.154752, 0.030334},
	            {-0.115120, -0.090936, -0.012134, 0.016854, -0.004084}
	        },
	        {
	            {0.118945, 0.086916, 0.138675, 0.047839, 0.038195},
	            {-0.039551, 0.003606, 0.055575, -0.210731, -0.162648},
	            {-0.124270, -0.172038, 0.004098, -0.001408, 0.032802},
	            {0.086318, 0.044077, 0.070222, 0.021077, -0.097081},
	            {-0.175152, -0.016827, -0.027888, -0.202039, -0.152667}
	        },
	        {
	            {-0.103482, -0.024379, -0.037663, -0.006082, 0.043411},
	            {0.148748, -0.018141, -0.030769, 0.074952, -0.105350},
	            {-0.182552, -0.087768, -0.036859, -0.192185, -0.069580},
	            {0.040896, -0.028475, -0.011135, -0.007929, 0.093175},
	            {0.161015, 0.071781, 0.082779, 0.045798, 0.026813}
	        }
	    },
	    {
	        {
	            {0.021721, -0.051718, -0.048077, 0.026055, 0.067102},
	            {-0.008190, 0.012730, -0.005601, -0.013817, -0.072994},
	            {-0.094271, -0.015511, -0.026375, 0.014555, -0.102766},
	            {0.035238, -0.035265, -0.006054, -0.094778, -0.077632},
	            {0.028729, -0.087643, 0.016774, 0.035544, 0.004228}
	        },
	        {
	            {-0.050537, -0.108686, -0.106820, -0.017523, 0.038693},
	            {-0.036330, -0.095858, -0.061828, -0.025369, -0.041777},
	            {-0.107259, -0.078129, -0.040303, -0.084209, -0.097229},
	            {-0.069846, -0.065980, -0.029835, 0.026226, 0.013659},
	            {0.000685, -0.090401, -0.080464, -0.094782, 0.055908}
	        },
	        {
	            {-0.055148, 0.046025, 0.008702, -0.016021, -0.052873},
	            {-0.031906, -0.050442, -0.098801, 0.001046, -0.081432},
	            {-0.109276, 0.031471, -0.063394, -0.092635, -0.036038},
	            {-0.014434, 0.000105, 0.074716, 0.027034, 0.064595},
	            {-0.014967, -0.036559, 0.004577, 0.072865, 0.034254}
	        }
	    },
	    {
	        {
	            {0.045983, -0.035220, -0.045201, 0.029157, 0.048167},
	            {-0.044942, -0.012463, 0.049541, -0.044067, -0.024232},
	            {0.060868, -0.032241, -0.080095, -0.015879, 0.024028},
	            {-0.018852, 0.048438, 0.040551, -0.058092, -0.078621},
	            {0.052671, -0.059248, 0.055868, -0.082497, -0.001689}
	        },
	        {
	            {-0.045224, 0.017165, 0.035544, -0.072721, -0.076241},
	            {-0.006368, -0.062088, -0.059014, -0.004785, -0.014798},
	            {-0.078573, -0.054733, 0.038735, -0.050205, -0.057909},
	            {0.046319, -0.028587, -0.081661, -0.027359, 0.040935},
	            {0.028216, -0.076239, -0.007457, -0.033302, 0.061925}
	        },
	        {
	            {-0.055134, 0.042505, 0.021751, -0.061600, -0.019604},
	            {0.033334, -0.013575, -0.059568, 0.042575, -0.031804},
	            {0.053676, -0.044853, -0.000683, 0.019416, -0.096430},
	            {0.065065, -0.028738, 0.056367, 0.044082, -0.047436},
	            {-0.062203, 0.032878, -0.031945, 0.014585, 0.032835}
	        }
	    },
	    {
	        {
	            {0.013134, -0.101068, -0.104328, -0.119136, -0.016398},
	            {-0.018294, 0.009280, 0.045093, -0.023862, 0.070107},
	            {0.017608, 0.045009, -0.006983, -0.044899, 0.049240},
	            {-0.125367, -0.015335, -0.098664, -0.045986, -0.009572},
	            {-0.046203, -0.112129, -0.054481, -0.018496, 0.064733}
	        },
	        {
	            {-0.075659, 0.009563, -0.041088, 0.108556, 0.080524},
	            {-0.115118, -0.129556, -0.074867, -0.036265, -0.120130},
	            {-0.087503, -0.143783, -0.074699, -0.070160, -0.055674},
	            {-0.064697, -0.027573, 0.091475, 0.064827, -0.075427},
	            {-0.115382, 0.015732, -0.079032, -0.039516, -0.103454}
	        },
	        {
	            {-0.017117, -0.111561, -0.095432, -0.038737, -0.087732},
	            {-0.072254, 0.019661, -0.104105, 0.024587, -0.100710},
	            {-0.025064, -0.048768, -0.099350, -0.094900, 0.000948},
	            {-0.114754, -0.054835, -0.115259, -0.087663, -0.087618},
	            {-0.049048, -0.032557, -0.040597, 0.018301, 0.037386}
	        }
	    },
	    {
	        {
	            {0.016332, -0.019579, -0.075207, 0.041141, -0.053943},
	            {-0.087343, -0.050512, -0.052742, -0.018027, -0.075324},
	            {0.049651, -0.039422, -0.085404, 0.061450, 0.064345},
	            {-0.017916, -0.045359, -0.046017, 0.042736, 0.033735},
	            {-0.030960, -0.090298, -0.010545, 0.041186, -0.049215}
	        },
	        {
	            {0.011411, -0.059825, 0.049246, -0.020160, -0.053558},
	            {0.036907, -0.035348, -0.036216, -0.068094, -0.038450},
	            {0.044037, -0.004253, -0.027963, 0.016346, 0.071518},
	            {-0.043136, 0.055799, -0.070332, 0.044024, -0.032071},
	            {-0.069602, -0.002368, 0.018813, 0.046539, 0.051021}
	        },
	        {
	            {-0.039800, -0.001649, 0.026102, 0.068654, 0.041945},
	            {-0.073611, 0.010876, 0.064768, 0.005606, -0.056615},
	            {-0.014723, 0.054227, 0.028577, 0.020834, -0.080435},
	            {-0.068050, 0.009663, -0.037977, -0.031937, -0.059215},
	            {0.016495, 0.013725, -0.089530, 0.057010, -0.076858}
	        }
	    },
	    {
	        {
	            {-0.076278, -0.055951, -0.010011, -0.039204, -0.052281},
	            {0.021172, -0.095951, -0.076931, 0.004918, -0.083241},
	            {-0.077017, -0.085022, 0.036774, -0.096871, -0.107431},
	            {0.029741, 0.051628, -0.004592, -0.052678, -0.008181},
	            {-0.060365, -0.072976, -0.029288, 0.024673, -0.060053}
	        },
	        {
	            {-0.023617, -0.084878, -0.023208, 0.047396, -0.007617},
	            {-0.005985, -0.005502, -0.089163, 0.013091, -0.069500},
	            {0.068000, -0.005354, -0.068225, 0.037705, -0.045222},
	            {-0.066860, -0.074312, -0.074029, 0.051607, -0.097717},
	            {0.000026, -0.076656, -0.083347, 0.064201, -0.048799}
	        },
	        {
	            {-0.085554, -0.021232, -0.014333, -0.031610, -0.091283},
	            {-0.046474, 0.023586, -0.040957, 0.026738, -0.022240},
	            {-0.005832, 0.051353, -0.055644, -0.026034, -0.050646},
	            {-0.043837, -0.065402, 0.056160, -0.012616, -0.063175},
	            {-0.014856, 0.038639, -0.004106, -0.024953, -0.073167}
	        }
	    },
	    {
	        {
	            {-0.012989, -0.036894, -0.098116, -0.075768, -0.036557},
	            {-0.001073, -0.106559, -0.074785, 0.027352, -0.067848},
	            {-0.033609, 0.052616, 0.024660, -0.019098, 0.020632},
	            {0.020051, -0.086650, 0.026465, -0.088706, -0.084878},
	            {-0.029710, 0.034778, -0.081175, 0.032999, 0.001391}
	        },
	        {
	            {0.031615, -0.037844, -0.080890, 0.066239, -0.073601},
	            {-0.104541, -0.091131, -0.007268, -0.105604, -0.020707},
	            {0.027342, -0.051848, -0.076339, -0.106441, -0.059658},
	            {0.039462, 0.026817, 0.031906, -0.041805, -0.043962},
	            {0.050663, 0.033322, -0.037427, -0.055956, -0.091479}
	        },
	        {
	            {-0.055831, -0.101690, -0.097235, -0.025790, -0.021389},
	            {0.018325, -0.093706, -0.005114, -0.034278, -0.079361},
	            {-0.095192, -0.054986, -0.107726, 0.034095, -0.011841},
	            {-0.023484, -0.032257, -0.003035, -0.029584, -0.096686},
	            {-0.001288, -0.015578, 0.054428, 0.068946, -0.038119}
	        }
	    },
	    {
	        {
	            {-0.054510, 0.008043, 0.031402, 0.019488, -0.091867},
	            {-0.059097, 0.024877, -0.075089, -0.044412, -0.066547},
	            {-0.060079, 0.063768, 0.025041, 0.050862, -0.040900},
	            {-0.086195, 0.012244, -0.091455, 0.048964, -0.056982},
	            {0.049286, -0.051523, 0.065693, -0.037354, -0.090524}
	        },
	        {
	            {0.005276, 0.047750, 0.031890, -0.034371, 0.034082},
	            {-0.037937, -0.087133, -0.011407, -0.082440, -0.062836},
	            {0.004872, 0.020855, 0.036268, -0.073745, -0.035201},
	            {-0.034028, -0.056422, 0.033979, -0.030954, -0.086635},
	            {-0.096519, 0.043409, -0.038283, 0.006394, 0.038971}
	        },
	        {
	            {-0.049487, 0.014910, 0.033551, -0.070503, -0.034476},
	            {-0.090009, 0.003166, -0.034702, -0.090988, 0.048281},
	            {-0.042147, -0.016176, -0.082760, -0.037541, 0.048994},
	            {-0.040013, 0.045374, -0.054925, 0.040816, 0.041776},
	            {0.015337, 0.032954, -0.046300, 0.045729, -0.079073}
	        }
	    },
	    {
	        {
	            {0.013246, 0.003176, -0.072241, -0.028692, -0.071110},
	            {-0.013782, -0.091161, -0.076966, -0.038362, -0.040937},
	            {0.005152, 0.034179, -0.061475, 0.043300, 0.032001},
	            {-0.101501, -0.060192, -0.064677, -0.076314, 0.002895},
	            {-0.095675, -0.034950, -0.046396, 0.020766, 0.027770}
	        },
	        {
	            {-0.044640, 0.039030, -0.002385, 0.060511, -0.004683},
	            {0.009274, -0.020762, -0.021786, 0.037877, 0.044184},
	            {-0.056789, -0.108979, -0.064189, 0.011131, -0.093310},
	            {-0.054073, -0.049025, -0.051393, 0.009564, -0.103314},
	            {-0.007650, -0.069698, -0.075112, -0.064314, -0.020630}
	        },
	        {
	            {-0.082116, -0.002671, -0.005259, -0.103955, -0.029093},
	            {-0.031207, -0.083370, -0.049665, -0.006633, -0.053325},
	            {-0.125805, -0.124712, 0.005368, -0.086483, -0.019798},
	            {-0.109109, 0.015781, -0.069232, 0.022413, -0.075005},
	            {-0.064328, -0.003296, -0.065775, -0.100945, -0.097990}
	        }
	    },
	    {
	        {
	            {0.001694, -0.042360, -0.003431, -0.087516, -0.061236},
	            {-0.045637, -0.056329, -0.101957, -0.056378, -0.052068},
	            {-0.010139, -0.112373, -0.075189, -0.009540, -0.105169},
	            {-0.052756, -0.051347, 0.023691, -0.035305, -0.008449},
	            {-0.003120, -0.067792, 0.032788, -0.108535, -0.104442}
	        },
	        {
	            {-0.055785, -0.107558, -0.054679, -0.111678, -0.084957},
	            {0.051453, 0.011930, -0.080437, 0.001185, -0.042937},
	            {0.022820, 0.043750, 0.062690, -0.062481, -0.022075},
	            {0.061901, 0.024525, -0.038113, -0.085619, 0.098028},
	            {-0.033427, 0.013666, 0.021569, 0.023980, -0.065750}
	        },
	        {
	            {-0.095610, 0.048875, -0.078718, -0.105010, 0.015218},
	            {-0.058837, -0.086734, 0.081287, 0.048340, 0.033523},
	            {-0.093551, -0.060416, -0.045900, -0.045568, -0.051864},
	            {0.041322, -0.086115, 0.056107, -0.006416, 0.033196},
	            {0.046848, -0.033633, 0.040718, -0.002277, -0.028804}
	        }
	    },
	    {
	        {
	            {-0.036452, 0.053736, -0.091618, -0.024242, -0.030731},
	            {0.009076, -0.041190, -0.047578, 0.034106, 0.009840},
	            {-0.076455, -0.051241, -0.029846, 0.066414, 0.026208},
	            {-0.061957, -0.026162, -0.071095, 0.000224, 0.015636},
	            {-0.002552, 0.021802, 0.005334, -0.063868, 0.078866}
	        },
	        {
	            {0.059240, -0.054781, -0.048010, 0.052978, -0.001563},
	            {-0.140917, -0.031223, -0.122663, -0.083599, -0.018008},
	            {-0.094571, 0.043304, 0.080516, -0.010426, 0.034533},
	            {-0.057608, -0.046124, 0.005109, -0.099472, 0.019514},
	            {-0.143308, -0.076610, -0.117073, -0.043662, 0.052924}
	        },
	        {
	            {0.055208, -0.020208, 0.013197, 0.050527, 0.076572},
	            {0.073381, -0.001865, -0.094722, -0.082211, 0.021342},
	            {-0.044609, -0.035553, -0.041348, -0.079048, -0.074626},
	            {0.012611, -0.085003, -0.056050, -0.031685, 0.060919},
	            {0.058292, 0.005864, -0.079836, 0.021214, -0.095468}
	        }
	    },
	    {
	        {
	            {-0.095952, -0.039749, -0.120117, 0.026796, -0.091194},
	            {-0.111723, 0.026873, 0.051536, -0.054734, -0.014973},
	            {-0.024481, -0.021258, -0.035209, 0.045001, 0.036025},
	            {-0.057161, 0.000813, -0.040764, 0.019079, 0.013457},
	            {0.010506, -0.089724, -0.084589, -0.100907, 0.032327}
	        },
	        {
	            {-0.050388, 0.045974, -0.086116, 0.049471, 0.047389},
	            {-0.046225, -0.022345, -0.028465, -0.009239, -0.002868},
	            {0.006620, -0.077680, -0.076073, -0.061997, 0.053603},
	            {0.001498, -0.035482, 0.059636, -0.091631, -0.078866},
	            {-0.122642, -0.037498, -0.002624, -0.132999, -0.043697}
	        },
	        {
	            {-0.081740, -0.037844, -0.051021, -0.067810, 0.047564},
	            {0.047367, -0.047263, 0.086243, -0.028617, 0.011069},
	            {0.031457, -0.056280, -0.059652, -0.116650, -0.103391},
	            {-0.087464, -0.078413, -0.124165, -0.109541, -0.078976},
	            {-0.109164, -0.080204, 0.017208, 0.035469, -0.014824}
	        }
	    },
	    {
	        {
	            {0.070088, -0.009171, 0.033174, -0.006164, 0.004323},
	            {-0.001021, -0.105799, -0.085836, 0.021076, 0.047946},
	            {-0.042225, 0.097664, -0.019291, 0.020647, 0.000053},
	            {0.052772, -0.096412, -0.030029, -0.107213, -0.090539},
	            {0.004385, -0.135469, 0.029940, -0.023226, -0.102582}
	        },
	        {
	            {0.041563, -0.012552, 0.098237, 0.030731, 0.087431},
	            {0.084509, 0.061452, 0.007847, -0.084468, 0.028997},
	            {-0.009972, -0.101577, -0.150249, -0.101960, -0.185763},
	            {-0.179625, -0.121656, -0.085493, -0.056414, -0.036943},
	            {0.139139, -0.019605, 0.050770, -0.018903, 0.034880}
	        },
	        {
	            {0.099275, -0.098469, -0.048610, 0.080250, -0.117880},
	            {0.000440, 0.085871, -0.006726, 0.015166, 0.167686},
	            {0.070544, -0.080631, -0.002516, 0.011619, -0.043630},
	            {0.004294, 0.081936, 0.099090, 0.070077, 0.063919},
	            {-0.050847, 0.059399, -0.033804, 0.082136, 0.115858}
	        }
	    },
	    {
	        {
	            {-0.096573, 0.027479, -0.039357, -0.081213, -0.030938},
	            {-0.002345, 0.031515, 0.031059, 0.063422, 0.049918},
	            {0.000050, -0.039379, -0.016309, 0.001212, 0.043195},
	            {-0.096609, -0.008424, -0.004237, -0.013784, -0.009508},
	            {0.001341, -0.043853, -0.078231, -0.015528, -0.020192}
	        },
	        {
	            {-0.092187, -0.027175, 0.018606, -0.022044, -0.024682},
	            {-0.046587, -0.006335, -0.042129, 0.049883, -0.093514},
	            {0.058841, 0.028700, -0.042990, 0.052242, -0.084426},
	            {-0.085288, -0.059884, 0.029825, -0.104150, -0.037859},
	            {0.040504, 0.044280, 0.000848, -0.028800, -0.051882}
	        },
	        {
	            {0.052550, 0.002102, 0.032667, -0.023812, -0.027788},
	            {0.063146, -0.002811, -0.080029, -0.099019, -0.090394},
	            {-0.085500, -0.041512, -0.044887, -0.063285, -0.054378},
	            {-0.081589, -0.089613, -0.079205, -0.042274, 0.061312},
	            {-0.055696, 0.070491, 0.058412, 0.011931, 0.015271}
	        }
	    },
	    {
	        {
	            {-0.003118, -0.078432, 0.037944, -0.062664, -0.053440},
	            {-0.021821, -0.024072, 0.024440, 0.002841, -0.055985},
	            {0.021388, -0.050994, -0.011952, 0.085423, -0.084306},
	            {-0.046170, -0.037111, -0.080615, -0.002683, -0.090076},
	            {-0.036079, -0.071702, -0.026154, -0.062657, -0.028634}
	        },
	        {
	            {0.075260, 0.074865, -0.054297, -0.081474, -0.101940},
	            {0.036245, -0.108618, -0.007226, 0.042914, -0.055538},
	            {-0.090819, -0.038292, 0.036405, -0.010692, 0.068427},
	            {0.009745, 0.058515, 0.035194, -0.006010, -0.093593},
	            {-0.099561, 0.007112, -0.028762, -0.001348, -0.028559}
	        },
	        {
	            {0.021658, -0.049679, 0.059864, 0.053488, -0.099179},
	            {0.043421, 0.021676, -0.016823, -0.074423, -0.027729},
	            {-0.057405, -0.033129, -0.054433, 0.016527, 0.057417},
	            {0.014834, 0.016804, -0.039868, -0.008519, -0.070175},
	            {0.049333, -0.052789, -0.070678, -0.094950, -0.045349}
	        }
	    }
	};


float conv1_biases[CONV1_FILTERS]=
				   {-0.016948, 0.502643, -0.011546, -0.031563, 0.004053, 0.002510, -0.015190, -0.117150, 0.080383, 0.971414, 0.453725, -0.258788, -0.444835, 0.539179, -0.050671, 0.463774, -0.070534, -0.541808, -0.066592, -0.009681, -0.091069, -0.021090, -0.025382, -0.035485, -0.045539, -0.040330, 0.316535, -0.127512, -0.010769, 0.728868, -0.022790, -0.011681};
