#include "cnn.h"

float conv4_weights[CONV4_FILTERS][CONV3_FILTERS][KERNEL_SIZE_3x3][KERNEL_SIZE_3x3] = {
	    {
	        {
	            {-0.014117, 0.008053, -0.039610},
	            {0.034561, 0.041878, 0.116574},
	            {-0.109453, 0.084006, 0.012829}
	        },
	        {
	            {0.022017, 0.006304, -0.074804},
	            {0.050208, -0.200021, -0.029323},
	            {-0.273053, -0.187557, 0.008506}
	        },
	        {
	            {0.054927, -0.255886, 0.042253},
	            {0.153303, 0.018368, -0.007746},
	            {-0.060061, -0.092072, 0.032248}
	        },
	        {
	            {0.061796, 0.010328, -0.163512},
	            {0.023279, 0.014474, -0.030642},
	            {-0.200476, 0.031109, -0.141818}
	        },
	        {
	            {0.028323, 0.133115, 0.014650},
	            {0.091429, -0.017646, 0.070630},
	            {-0.008172, -0.128059, -0.014811}
	        },
	        {
	            {0.082238, 0.116043, 0.134777},
	            {0.040889, 0.068994, -0.001054},
	            {-0.096013, -0.039225, 0.073464}
	        },
	        {
	            {-0.004509, -0.056396, -0.001420},
	            {-0.085690, 0.015316, -0.097452},
	            {-0.086794, -0.128231, -0.044057}
	        },
	        {
	            {-0.064476, 0.021138, -0.001589},
	            {-0.013628, -0.070363, 0.075664},
	            {-0.218456, -0.126650, -0.063052}
	        },
	        {
	            {-0.081114, 0.073850, -0.060746},
	            {-0.309003, 0.041387, -0.135303},
	            {-0.112519, -0.258294, -0.068312}
	        },
	        {
	            {-0.044790, -0.071003, -0.081213},
	            {0.006995, 0.147786, 0.168357},
	            {0.032260, 0.016965, -0.037828}
	        },
	        {
	            {-0.096245, -0.062414, -0.023368},
	            {-0.102320, 0.093070, 0.042867},
	            {-0.158070, 0.039186, 0.053117}
	        },
	        {
	            {0.059196, 0.122773, -0.187410},
	            {0.005132, -0.050040, -0.237674},
	            {0.081641, 0.086865, 0.047953}
	        },
	        {
	            {-0.080846, -0.127343, 0.029354},
	            {-0.084244, 0.012148, 0.048120},
	            {-0.024298, 0.070174, 0.118074}
	        },
	        {
	            {-0.097503, 0.012511, -0.153133},
	            {-0.014529, -0.008964, -0.032291},
	            {-0.293755, -0.096693, -0.095927}
	        },
	        {
	            {-0.132071, -0.029338, 0.059656},
	            {0.028493, 0.023657, -0.063872},
	            {0.058492, -0.027589, -0.089581}
	        },
	        {
	            {-0.104198, -0.186800, -0.030679},
	            {-0.017370, -0.137559, -0.041840},
	            {0.064734, 0.063142, -0.248692}
	        },
	        {
	            {0.106018, -0.220050, 0.032413},
	            {-0.076663, 0.025658, 0.045420},
	            {0.096428, -0.044158, 0.115936}
	        },
	        {
	            {-0.061708, 0.047500, -0.028322},
	            {-0.163378, -0.130772, -0.066312},
	            {-0.157639, -0.179260, -0.027271}
	        },
	        {
	            {0.000945, 0.103549, 0.052401},
	            {0.032063, 0.074779, -0.048531},
	            {-0.299075, 0.001767, -0.089198}
	        },
	        {
	            {-0.039695, 0.012709, -0.056137},
	            {-0.054185, 0.036782, -0.200017},
	            {-0.097042, 0.064569, -0.070074}
	        },
	        {
	            {-0.039025, 0.102011, -0.097690},
	            {0.021355, -0.022272, 0.006147},
	            {0.071751, 0.017069, -0.067669}
	        },
	        {
	            {0.072630, -0.190250, -0.039003},
	            {-0.044773, 0.031275, -0.054066},
	            {-0.046620, -0.072905, -0.209311}
	        },
	        {
	            {0.219832, 0.013606, 0.044626},
	            {0.020339, -0.007899, -0.236454},
	            {0.046251, -0.041784, -0.027807}
	        },
	        {
	            {-0.187545, -0.208071, 0.036303},
	            {0.093768, -0.168196, -0.028794},
	            {-0.039741, 0.102122, 0.154571}
	        },
	        {
	            {-0.090919, -0.100071, -0.061807},
	            {-0.082405, -0.068905, -0.107771},
	            {-0.095013, -0.042711, 0.055311}
	        },
	        {
	            {-0.002014, -0.008251, 0.006066},
	            {-0.014142, 0.082295, 0.010888},
	            {0.148478, 0.028181, 0.032671}
	        },
	        {
	            {-0.041180, 0.094387, -0.128169},
	            {0.063416, -0.108843, 0.021575},
	            {0.154294, 0.047799, -0.115391}
	        },
	        {
	            {0.033082, -0.071199, 0.085110},
	            {0.095218, -0.034176, -0.041921},
	            {0.056481, 0.148708, -0.107813}
	        },
	        {
	            {-0.011489, 0.003946, -0.144096},
	            {-0.022874, 0.052507, 0.072930},
	            {-0.128097, -0.112922, -0.018410}
	        },
	        {
	            {-0.263401, -0.043556, -0.049692},
	            {-0.239071, -0.064570, -0.004735},
	            {-0.316964, -0.138583, -0.088169}
	        },
	        {
	            {-0.100023, -0.327233, -0.074534},
	            {-0.255919, 0.005854, 0.101144},
	            {0.078319, -0.047257, 0.013736}
	        },
	        {
	            {0.099150, 0.148073, -0.007143},
	            {0.133662, -0.061257, -0.057144},
	            {-0.086638, -0.040801, -0.051530}
	        },
	        {
	            {-0.026012, -0.016776, -0.024139},
	            {-0.220018, 0.000346, 0.118792},
	            {0.106902, 0.098609, -0.360408}
	        },
	        {
	            {0.012166, 0.009563, 0.045189},
	            {0.015847, -0.057936, 0.001561},
	            {0.042037, -0.180092, 0.108289}
	        },
	        {
	            {0.057864, -0.099397, 0.108006},
	            {-0.158623, 0.040003, -0.057827},
	            {-0.152608, 0.153785, 0.110084}
	        },
	        {
	            {-0.071157, 0.127431, -0.281951},
	            {0.011862, -0.182374, -0.046665},
	            {-0.129935, -0.024080, 0.009795}
	        },
	        {
	            {0.136787, -0.132092, -0.001254},
	            {-0.008951, -0.227042, -0.090510},
	            {0.106232, -0.060494, -0.135782}
	        },
	        {
	            {-0.060607, -0.022437, 0.052474},
	            {0.066504, -0.045138, 0.091596},
	            {0.106647, 0.042457, -0.038709}
	        },
	        {
	            {0.062618, 0.164807, 0.176995},
	            {0.168121, 0.004113, -0.131956},
	            {-0.183289, -0.085466, 0.055614}
	        },
	        {
	            {-0.046317, -0.159805, -0.091000},
	            {-0.151956, -0.062168, 0.072526},
	            {0.108010, 0.037024, -0.092228}
	        },
	        {
	            {-0.081072, -0.126812, -0.032535},
	            {0.064772, 0.034567, -0.104523},
	            {-0.061853, 0.060216, -0.231572}
	        },
	        {
	            {-0.065821, 0.182615, -0.076529},
	            {0.096740, -0.113169, -0.045355},
	            {-0.145733, 0.263965, 0.212759}
	        },
	        {
	            {-0.001615, 0.014527, 0.041050},
	            {-0.038864, -0.059038, -0.038557},
	            {-0.032897, 0.058275, 0.000771}
	        },
	        {
	            {0.000036, -0.062989, -0.096799},
	            {-0.047697, -0.130616, -0.076748},
	            {-0.212384, 0.004022, -0.278192}
	        },
	        {
	            {-0.155350, -0.074278, -0.086134},
	            {-0.133609, -0.110154, 0.055051},
	            {0.011073, 0.068366, 0.014737}
	        },
	        {
	            {0.115385, -0.004564, -0.049648},
	            {0.129957, -0.076214, -0.011383},
	            {-0.096333, -0.078428, -0.200893}
	        },
	        {
	            {-0.315994, -0.149266, -0.063955},
	            {-0.010648, -0.036442, -0.091381},
	            {-0.077321, 0.056954, -0.166635}
	        },
	        {
	            {0.069501, -0.605016, 0.031235},
	            {0.016593, 0.056644, -0.201835},
	            {-0.100261, -0.039741, -0.003972}
	        },
	        {
	            {-0.107128, 0.032986, -0.000639},
	            {0.033012, -0.108512, -0.114533},
	            {-0.055897, 0.043139, 0.036207}
	        },
	        {
	            {-0.004852, -0.016938, -0.079357},
	            {-0.132902, -0.136160, -0.275192},
	            {-0.177786, -0.187008, -0.223589}
	        },
	        {
	            {-0.025304, -0.041557, -0.140888},
	            {-0.271853, -0.047182, 0.091245},
	            {-0.086467, -0.167383, -0.014997}
	        },
	        {
	            {-0.242409, -0.117725, -0.063790},
	            {-0.186907, -0.076295, 0.078439},
	            {-0.203314, 0.138534, 0.099717}
	        },
	        {
	            {0.001934, -0.032852, 0.046276},
	            {0.132516, 0.217970, 0.117868},
	            {-0.181987, -0.042266, -0.161312}
	        },
	        {
	            {-0.136691, 0.025797, 0.036149},
	            {-0.213719, 0.027304, -0.160383},
	            {-0.003735, 0.103182, 0.189909}
	        },
	        {
	            {0.087886, -0.037765, -0.143581},
	            {0.012761, 0.041225, -0.129374},
	            {-0.076511, -0.035383, -0.138967}
	        },
	        {
	            {-0.009657, 0.032065, 0.031512},
	            {0.143683, -0.246090, 0.114172},
	            {-0.021737, -0.185812, -0.015327}
	        },
	        {
	            {0.181674, -0.048726, -0.006656},
	            {0.062010, -0.057524, -0.266670},
	            {-0.169886, -0.080636, -0.098399}
	        },
	        {
	            {-0.394206, -0.073791, -0.090417},
	            {0.057907, 0.002425, -0.071531},
	            {-0.106655, -0.091250, -0.316597}
	        },
	        {
	            {0.183419, 0.021487, -0.117980},
	            {-0.228544, 0.169999, 0.186354},
	            {0.024914, -0.239617, -0.091769}
	        },
	        {
	            {0.105953, -0.102007, -0.164714},
	            {0.012119, 0.209452, 0.222860},
	            {0.216516, -0.056771, -0.058121}
	        },
	        {
	            {-0.046533, -0.033094, -0.095419},
	            {0.115550, -0.336855, -0.281143},
	            {-0.090757, 0.013699, 0.125388}
	        },
	        {
	            {0.147977, 0.008162, -0.000912},
	            {0.222189, -0.160858, -0.112224},
	            {0.040521, -0.169177, -0.017068}
	        },
	        {
	            {-0.146221, -0.175848, 0.004828},
	            {-0.097217, 0.097114, -0.105556},
	            {-0.197812, 0.083541, -0.037355}
	        },
	        {
	            {-0.106685, -0.132189, 0.260526},
	            {-0.013076, -0.001920, -0.046494},
	            {0.012053, -0.087406, -0.103981}
	        }
	    },
	    {
	        {
	            {0.046910, 0.020950, -0.060497},
	            {-0.026863, -0.182089, -0.092923},
	            {-0.087869, 0.047660, -0.092473}
	        },
	        {
	            {0.040638, -0.133859, 0.034358},
	            {0.025643, -0.066193, -0.008224},
	            {0.029667, 0.100688, -0.037379}
	        },
	        {
	            {0.018271, -0.030902, 0.087261},
	            {-0.066961, -0.012812, -0.010520},
	            {0.005293, 0.051727, -0.076090}
	        },
	        {
	            {-0.003750, -0.045907, 0.013473},
	            {-0.082177, 0.074880, -0.148796},
	            {-0.010257, 0.004860, -0.034494}
	        },
	        {
	            {-0.219181, 0.053018, 0.028827},
	            {0.004641, -0.120044, -0.141997},
	            {-0.060613, -0.113415, 0.125449}
	        },
	        {
	            {0.045498, -0.088321, 0.136858},
	            {0.034361, -0.046321, -0.148399},
	            {-0.180824, -0.068119, -0.027251}
	        },
	        {
	            {-0.061355, 0.028114, 0.073382},
	            {0.015325, 0.000726, -0.120079},
	            {0.019426, -0.021228, -0.130611}
	        },
	        {
	            {-0.019487, 0.011700, 0.147648},
	            {0.007307, -0.080427, -0.010975},
	            {-0.132246, -0.082578, -0.015810}
	        },
	        {
	            {-0.089456, 0.225937, -0.007474},
	            {-0.100563, -0.028743, -0.093175},
	            {-0.118141, -0.133971, 0.165692}
	        },
	        {
	            {-0.001432, 0.021987, -0.076671},
	            {-0.013793, -0.112365, -0.004339},
	            {0.056671, 0.044727, -0.088636}
	        },
	        {
	            {0.075454, -0.043191, -0.025779},
	            {-0.031704, -0.008594, -0.020580},
	            {-0.077625, 0.020607, -0.118803}
	        },
	        {
	            {-0.036623, 0.014857, 0.055226},
	            {0.001098, 0.003922, -0.159694},
	            {-0.049774, 0.116931, -0.099702}
	        },
	        {
	            {-0.014554, -0.051516, 0.064591},
	            {-0.176217, 0.005834, -0.179091},
	            {-0.056715, -0.088790, -0.032781}
	        },
	        {
	            {-0.010497, -0.092158, 0.068516},
	            {-0.090430, -0.074107, -0.114899},
	            {0.024833, -0.088151, -0.114613}
	        },
	        {
	            {-0.121582, -0.021417, -0.084256},
	            {-0.109193, -0.085956, 0.054248},
	            {-0.181283, -0.007783, -0.038846}
	        },
	        {
	            {-0.047885, -0.065266, -0.111133},
	            {0.007968, -0.138411, -0.014142},
	            {0.101323, -0.129570, -0.086974}
	        },
	        {
	            {-0.064114, -0.101752, 0.017418},
	            {-0.068672, -0.097287, 0.114923},
	            {-0.055930, -0.003096, -0.068150}
	        },
	        {
	            {0.118367, 0.051200, -0.009780},
	            {-0.016570, 0.096695, -0.008990},
	            {-0.051581, -0.107806, -0.068228}
	        },
	        {
	            {0.023635, -0.063918, -0.013273},
	            {0.064598, 0.061267, -0.082984},
	            {-0.134129, -0.014439, 0.177344}
	        },
	        {
	            {-0.007791, -0.259218, -0.081540},
	            {-0.062518, -0.103609, -0.084337},
	            {-0.205884, -0.034782, 0.005326}
	        },
	        {
	            {0.115126, -0.014469, -0.015445},
	            {-0.079301, -0.110099, 0.085561},
	            {-0.020077, 0.026137, -0.177209}
	        },
	        {
	            {-0.055662, -0.034508, -0.018440},
	            {0.103326, -0.330041, -0.024880},
	            {-0.124878, -0.051898, -0.079798}
	        },
	        {
	            {-0.063930, 0.002149, -0.139864},
	            {0.000489, -0.078804, -0.197154},
	            {-0.070315, 0.017644, -0.145671}
	        },
	        {
	            {-0.093316, -0.096987, -0.053634},
	            {-0.105102, -0.000409, 0.014738},
	            {0.033849, 0.092581, 0.037770}
	        },
	        {
	            {-0.119622, -0.029766, 0.130191},
	            {0.002205, 0.009492, -0.093541},
	            {-0.132379, -0.092119, -0.039891}
	        },
	        {
	            {-0.049255, 0.014749, 0.068304},
	            {-0.079329, 0.047095, 0.097431},
	            {-0.033281, -0.111976, -0.140600}
	        },
	        {
	            {0.056964, 0.026239, -0.147093},
	            {0.107403, -0.050249, -0.028286},
	            {-0.141018, -0.037753, -0.051847}
	        },
	        {
	            {-0.035775, 0.135613, -0.050314},
	            {0.155685, -0.131255, -0.091223},
	            {-0.048396, 0.039233, 0.144987}
	        },
	        {
	            {0.017735, -0.018097, 0.008756},
	            {-0.041015, 0.041201, -0.125800},
	            {-0.083595, 0.016687, 0.190791}
	        },
	        {
	            {-0.035555, 0.028501, 0.048825},
	            {-0.130597, -0.015701, 0.078693},
	            {0.048684, 0.118872, -0.111576}
	        },
	        {
	            {-0.003300, -0.030732, -0.095826},
	            {0.022799, -0.088506, -0.047953},
	            {-0.093487, -0.147408, 0.050299}
	        },
	        {
	            {-0.029434, 0.007397, 0.007715},
	            {-0.064993, 0.020798, -0.015861},
	            {-0.154188, 0.042006, -0.033138}
	        },
	        {
	            {-0.157919, -0.035426, -0.042860},
	            {0.077821, 0.064587, 0.032355},
	            {-0.047704, 0.031025, -0.110087}
	        },
	        {
	            {-0.103138, -0.074641, -0.040996},
	            {-0.168004, -0.035072, 0.229368},
	            {0.036585, -0.035835, -0.131952}
	        },
	        {
	            {0.020285, 0.122919, 0.142605},
	            {-0.084397, 0.076766, -0.015060},
	            {-0.071266, -0.066432, 0.024816}
	        },
	        {
	            {-0.043118, 0.014542, 0.010574},
	            {-0.123888, -0.007215, 0.004340},
	            {-0.204826, 0.025045, 0.031231}
	        },
	        {
	            {0.017963, -0.252502, -0.083876},
	            {0.051041, 0.035678, 0.048705},
	            {-0.016245, -0.153148, 0.025564}
	        },
	        {
	            {-0.002091, -0.094704, 0.003484},
	            {-0.019556, 0.112153, -0.074396},
	            {-0.065015, -0.036550, -0.116810}
	        },
	        {
	            {-0.112588, 0.026206, -0.034603},
	            {-0.068659, -0.123818, -0.002281},
	            {0.041391, -0.114700, -0.085007}
	        },
	        {
	            {-0.060073, -0.088679, -0.058404},
	            {0.073962, -0.040383, 0.010422},
	            {-0.072601, -0.066002, -0.039196}
	        },
	        {
	            {-0.043593, -0.021934, 0.014732},
	            {0.059497, 0.049581, 0.118929},
	            {0.118027, -0.057849, -0.015830}
	        },
	        {
	            {0.105509, 0.050224, -0.116974},
	            {-0.059785, -0.008616, -0.097993},
	            {-0.076013, -0.022228, 0.104064}
	        },
	        {
	            {-0.028427, -0.008234, 0.039232},
	            {0.010385, -0.076748, -0.053420},
	            {0.025551, -0.114498, -0.032474}
	        },
	        {
	            {-0.053509, -0.209189, -0.052194},
	            {-0.076372, -0.027726, -0.031893},
	            {-0.037605, 0.058915, -0.043405}
	        },
	        {
	            {0.013322, -0.062975, -0.052426},
	            {0.011951, 0.019336, -0.200012},
	            {-0.079647, -0.108208, -0.155336}
	        },
	        {
	            {-0.006346, 0.008518, 0.067797},
	            {-0.042459, 0.011913, -0.078876},
	            {0.045110, -0.022837, -0.014487}
	        },
	        {
	            {-0.135352, 0.016700, -0.060881},
	            {0.014217, 0.023384, 0.006603},
	            {-0.071537, -0.017347, -0.083536}
	        },
	        {
	            {-0.033367, -0.053739, -0.085607},
	            {0.026960, 0.164144, -0.022562},
	            {-0.016384, -0.089154, 0.041989}
	        },
	        {
	            {-0.055375, 0.057317, -0.211688},
	            {-0.130091, -0.110433, -0.056427},
	            {-0.094363, 0.036728, 0.124046}
	        },
	        {
	            {-0.040948, 0.037699, -0.219595},
	            {-0.102800, 0.134571, -0.051249},
	            {0.068982, 0.044367, -0.100010}
	        },
	        {
	            {-0.126821, 0.011287, -0.002085},
	            {0.059920, 0.001350, -0.032760},
	            {-0.016676, 0.040785, -0.144163}
	        },
	        {
	            {-0.031218, -0.081988, -0.012988},
	            {0.010930, -0.154928, 0.013368},
	            {-0.033614, -0.121864, -0.181299}
	        },
	        {
	            {-0.115167, -0.046244, -0.035936},
	            {-0.131969, 0.100521, -0.145181},
	            {0.117044, -0.002281, -0.004564}
	        },
	        {
	            {-0.050098, 0.005013, -0.006490},
	            {-0.063421, -0.011703, -0.102596},
	            {-0.099773, -0.033364, -0.174523}
	        },
	        {
	            {0.017966, 0.058661, -0.065812},
	            {-0.003012, 0.027955, 0.012717},
	            {0.023400, 0.078969, -0.087960}
	        },
	        {
	            {-0.216864, -0.054878, -0.276351},
	            {-0.127419, -0.054787, -0.147547},
	            {-0.018759, -0.029663, -0.031555}
	        },
	        {
	            {0.139160, 0.025189, -0.017542},
	            {-0.142856, -0.019005, -0.129345},
	            {-0.025918, -0.081874, -0.087653}
	        },
	        {
	            {-0.113447, 0.029303, 0.048900},
	            {-0.102780, 0.044514, 0.047692},
	            {0.037264, -0.115565, -0.063781}
	        },
	        {
	            {-0.069718, 0.084172, 0.034230},
	            {0.132966, -0.060764, 0.040074},
	            {-0.177286, -0.142467, -0.096230}
	        },
	        {
	            {-0.125770, -0.036806, -0.011679},
	            {-0.048235, -0.086004, -0.182396},
	            {0.045303, 0.062438, -0.092753}
	        },
	        {
	            {-0.086714, -0.120309, -0.101244},
	            {-0.019818, 0.017802, -0.071056},
	            {-0.170848, -0.118527, -0.026525}
	        },
	        {
	            {-0.114864, 0.024180, -0.074711},
	            {-0.070427, -0.054650, -0.058582},
	            {-0.024290, -0.104719, -0.137067}
	        },
	        {
	            {-0.082561, 0.017767, -0.024311},
	            {-0.068627, -0.194843, -0.043453},
	            {-0.236828, -0.172012, -0.187087}
	        },
	        {
	            {-0.047520, -0.080607, 0.112470},
	            {-0.138740, 0.030084, -0.026665},
	            {-0.031173, 0.092212, -0.022633}
	        }
	    },
	    {
	        {
	            {-0.040751, -0.090409, 0.070116},
	            {0.012014, 0.101452, -0.066798},
	            {-0.038981, 0.155459, -0.147889}
	        },
	        {
	            {-0.006193, 0.071678, -0.028447},
	            {0.104498, -0.038618, 0.043158},
	            {0.000984, -0.040166, -0.324929}
	        },
	        {
	            {-0.077391, -0.057915, -0.161272},
	            {-0.129629, -0.025577, 0.188421},
	            {-0.028516, 0.047756, 0.147024}
	        },
	        {
	            {-0.006204, -0.028416, -0.133125},
	            {-0.018466, 0.014365, -0.140440},
	            {-0.055538, 0.070405, 0.178182}
	        },
	        {
	            {-0.043744, -0.115659, -0.025005},
	            {0.023972, -0.217723, -0.195762},
	            {-0.109182, -0.120614, 0.016058}
	        },
	        {
	            {-0.119371, 0.078105, 0.064018},
	            {-0.186067, -0.151746, -0.134649},
	            {0.111997, -0.085404, 0.025226}
	        },
	        {
	            {-0.066969, -0.134190, 0.161433},
	            {-0.016721, 0.071268, -0.104806},
	            {-0.038779, 0.083273, 0.008421}
	        },
	        {
	            {-0.018381, -0.071734, -0.011465},
	            {-0.047570, -0.004429, -0.047149},
	            {0.006036, -0.119746, 0.041293}
	        },
	        {
	            {-0.185159, -0.014641, -0.022648},
	            {0.049726, -0.011019, -0.154668},
	            {0.104170, 0.124791, -0.125754}
	        },
	        {
	            {-0.249089, -0.096483, 0.115627},
	            {-0.137188, -0.054446, -0.164837},
	            {0.062856, -0.111325, -0.050262}
	        },
	        {
	            {-0.018852, 0.027336, -0.130639},
	            {0.008247, 0.051912, 0.072577},
	            {-0.032445, 0.051869, -0.132089}
	        },
	        {
	            {-0.163152, -0.004091, 0.118003},
	            {-0.041661, 0.118514, 0.070662},
	            {0.035696, -0.098597, -0.091968}
	        },
	        {
	            {-0.018190, -0.188031, -0.106134},
	            {-0.215323, -0.021073, -0.192439},
	            {-0.057864, -0.115231, 0.022552}
	        },
	        {
	            {0.057815, -0.100057, -0.108002},
	            {0.277474, -0.055225, -0.080569},
	            {-0.032378, -0.123475, -0.009338}
	        },
	        {
	            {0.025053, -0.068390, -0.032467},
	            {-0.149771, -0.007769, -0.100209},
	            {0.010156, -0.081096, -0.068228}
	        },
	        {
	            {-0.133449, -0.118355, -0.062348},
	            {0.134362, -0.094974, 0.060981},
	            {-0.090087, -0.162066, 0.074718}
	        },
	        {
	            {-0.120902, -0.018975, 0.133431},
	            {-0.054969, 0.013442, -0.122492},
	            {-0.104396, -0.040860, -0.232283}
	        },
	        {
	            {0.038399, -0.017436, -0.206750},
	            {0.047298, 0.155430, -0.084588},
	            {-0.010745, 0.004871, -0.115851}
	        },
	        {
	            {-0.184929, -0.095140, -0.188242},
	            {-0.073959, -0.107872, -0.049521},
	            {-0.015536, -0.009164, -0.031315}
	        },
	        {
	            {-0.047995, 0.081173, -0.133640},
	            {0.026363, -0.039567, 0.048642},
	            {-0.128583, -0.174213, -0.179051}
	        },
	        {
	            {0.014536, -0.076316, -0.005612},
	            {0.002410, 0.115372, -0.015252},
	            {0.057753, -0.141332, -0.122365}
	        },
	        {
	            {-0.181115, 0.021248, 0.016156},
	            {-0.005601, -0.262898, -0.106009},
	            {-0.000824, -0.011626, -0.103611}
	        },
	        {
	            {0.013260, -0.018724, -0.070373},
	            {-0.130503, 0.041928, 0.175385},
	            {0.118571, -0.004159, 0.145970}
	        },
	        {
	            {-0.036802, -0.175137, -0.108925},
	            {-0.043536, 0.036701, -0.043118},
	            {-0.183065, -0.164937, -0.052886}
	        },
	        {
	            {-0.083105, -0.017365, 0.012256},
	            {-0.181472, 0.013114, 0.032286},
	            {0.171524, 0.040633, -0.163073}
	        },
	        {
	            {-0.023317, 0.041787, -0.044629},
	            {-0.021148, 0.105063, -0.055527},
	            {-0.016582, -0.103825, -0.213644}
	        },
	        {
	            {-0.145588, 0.049683, 0.041580},
	            {-0.031846, -0.036459, -0.038555},
	            {0.014786, 0.067177, -0.082743}
	        },
	        {
	            {-0.106864, -0.139090, 0.120826},
	            {0.062254, -0.242667, -0.052607},
	            {-0.083716, -0.001534, -0.105984}
	        },
	        {
	            {-0.135841, 0.203216, -0.167150},
	            {0.059771, -0.075047, -0.035139},
	            {0.018643, -0.056124, -0.209519}
	        },
	        {
	            {-0.093210, -0.058491, -0.114302},
	            {-0.159017, -0.065218, -0.012373},
	            {0.063736, -0.022081, -0.217040}
	        },
	        {
	            {-0.109545, 0.055384, -0.197172},
	            {-0.167804, -0.075207, -0.041157},
	            {0.083081, 0.030182, -0.088129}
	        },
	        {
	            {0.037184, 0.019854, 0.020485},
	            {-0.141928, -0.273213, -0.093075},
	            {-0.082467, 0.108238, -0.072980}
	        },
	        {
	            {0.005664, 0.048673, -0.021111},
	            {-0.116811, -0.120568, -0.043659},
	            {-0.260290, 0.054380, -0.243660}
	        },
	        {
	            {-0.164103, -0.127332, -0.077578},
	            {-0.031790, 0.046834, -0.075115},
	            {-0.059994, -0.259556, 0.048552}
	        },
	        {
	            {-0.126283, -0.125919, 0.010080},
	            {-0.151744, 0.006109, -0.121493},
	            {-0.129305, 0.041203, -0.170789}
	        },
	        {
	            {-0.029282, -0.016437, 0.096303},
	            {0.080546, 0.053445, 0.037151},
	            {-0.197590, 0.023081, 0.081904}
	        },
	        {
	            {-0.120098, -0.028184, 0.076711},
	            {-0.053425, -0.140800, 0.008320},
	            {-0.139185, 0.036464, -0.247386}
	        },
	        {
	            {-0.112471, -0.026586, 0.123341},
	            {0.076888, -0.132302, 0.061167},
	            {-0.159271, 0.137418, 0.028512}
	        },
	        {
	            {-0.153423, -0.115372, -0.080301},
	            {0.054781, -0.185810, -0.079552},
	            {-0.074722, -0.143789, 0.120669}
	        },
	        {
	            {-0.023941, 0.109174, 0.002888},
	            {-0.010430, -0.191077, 0.010573},
	            {0.012319, -0.061936, 0.125382}
	        },
	        {
	            {-0.093018, -0.037785, -0.226643},
	            {-0.134229, -0.012589, -0.200083},
	            {-0.154639, -0.246651, -0.007767}
	        },
	        {
	            {0.079563, -0.035630, -0.097879},
	            {-0.114106, -0.233351, -0.195351},
	            {-0.139634, 0.092391, 0.112356}
	        },
	        {
	            {0.008132, 0.086652, 0.080142},
	            {0.064332, -0.276281, -0.110625},
	            {0.071284, 0.012059, -0.015770}
	        },
	        {
	            {-0.000894, 0.004129, 0.061708},
	            {-0.058663, -0.042634, -0.074181},
	            {0.127927, -0.139438, 0.043013}
	        },
	        {
	            {0.127453, -0.108079, -0.113610},
	            {0.008893, 0.026870, 0.152926},
	            {0.022390, -0.030531, -0.028801}
	        },
	        {
	            {0.174254, -0.071757, -0.082692},
	            {0.041477, -0.136942, -0.125106},
	            {-0.026856, -0.017094, 0.104199}
	        },
	        {
	            {0.116339, -0.072246, -0.035454},
	            {-0.116885, 0.000115, 0.025184},
	            {-0.048464, -0.162800, 0.057307}
	        },
	        {
	            {-0.074551, -0.059254, -0.148578},
	            {-0.179219, -0.138847, 0.136674},
	            {-0.183593, 0.152276, -0.036103}
	        },
	        {
	            {0.076359, 0.140372, -0.013522},
	            {0.027172, -0.073606, 0.112595},
	            {-0.153957, -0.144834, -0.181474}
	        },
	        {
	            {-0.109996, -0.090157, -0.180133},
	            {0.085263, 0.036260, -0.082228},
	            {-0.144489, 0.048844, -0.131833}
	        },
	        {
	            {0.015156, -0.104993, -0.012910},
	            {0.008679, 0.051060, -0.028651},
	            {-0.080568, 0.034494, -0.137110}
	        },
	        {
	            {0.018258, -0.005736, -0.091164},
	            {0.018841, -0.088554, 0.111390},
	            {0.095762, -0.013288, -0.040594}
	        },
	        {
	            {0.040357, 0.117316, 0.077232},
	            {-0.054805, -0.177321, 0.218468},
	            {0.004391, -0.093118, -0.037508}
	        },
	        {
	            {-0.032440, -0.059228, 0.071113},
	            {-0.157440, 0.039772, -0.209781},
	            {0.125531, -0.271061, -0.075442}
	        },
	        {
	            {-0.084677, -0.125047, -0.092034},
	            {-0.109838, -0.340368, -0.134190},
	            {-0.109337, -0.089304, 0.043316}
	        },
	        {
	            {-0.187168, 0.035814, -0.034541},
	            {-0.040933, -0.036771, -0.095602},
	            {-0.144861, -0.168073, -0.215201}
	        },
	        {
	            {0.079445, 0.023411, 0.181645},
	            {-0.185724, -0.085768, 0.087301},
	            {0.049070, -0.136986, -0.107680}
	        },
	        {
	            {-0.120962, -0.017702, 0.030482},
	            {-0.162553, 0.071230, -0.074295},
	            {0.045338, -0.024493, 0.028027}
	        },
	        {
	            {-0.116659, -0.029858, -0.008963},
	            {-0.029650, 0.015850, 0.010828},
	            {0.091832, 0.177809, 0.032619}
	        },
	        {
	            {-0.113648, -0.026188, -0.154893},
	            {-0.000956, 0.005999, -0.101472},
	            {-0.026693, 0.014199, -0.165028}
	        },
	        {
	            {0.026454, -0.223984, -0.104053},
	            {-0.007379, -0.022179, -0.169012},
	            {-0.149952, 0.065515, -0.126867}
	        },
	        {
	            {-0.211056, -0.016269, -0.053229},
	            {0.083146, -0.096666, -0.171206},
	            {-0.199381, -0.010820, -0.145904}
	        },
	        {
	            {0.027357, -0.062720, -0.022945},
	            {0.000612, 0.013959, -0.122904},
	            {-0.068921, -0.054404, -0.196612}
	        },
	        {
	            {-0.068505, -0.039241, -0.090408},
	            {0.025169, -0.049475, 0.047504},
	            {-0.069670, 0.067524, -0.067889}
	        }
	    },
	    {
	        {
	            {0.012252, -0.031269, 0.107812},
	            {-0.158597, 0.016249, 0.069814},
	            {-0.129784, 0.028283, -0.025229}
	        },
	        {
	            {-0.158373, -0.165616, -0.132866},
	            {0.073174, 0.026424, -0.096193},
	            {-0.016545, -0.120445, -0.075430}
	        },
	        {
	            {-0.026688, 0.162252, -0.327693},
	            {0.082163, 0.014070, -0.019953},
	            {0.066427, 0.016543, -0.044755}
	        },
	        {
	            {-0.139451, -0.138137, -0.069428},
	            {0.119928, 0.149696, 0.065316},
	            {-0.037030, -0.277126, -0.164705}
	        },
	        {
	            {0.075381, -0.081570, -0.069440},
	            {0.064093, 0.105158, -0.016120},
	            {0.075207, -0.059039, -0.188938}
	        },
	        {
	            {-0.045587, -0.129713, -0.307813},
	            {-0.262565, 0.088065, 0.118685},
	            {-0.233446, -0.054421, 0.063174}
	        },
	        {
	            {-0.110889, -0.236074, -0.148118},
	            {0.022498, 0.028264, -0.167448},
	            {-0.076993, 0.058817, -0.022070}
	        },
	        {
	            {0.006705, -0.089502, -0.088370},
	            {0.019401, 0.029926, 0.080325},
	            {-0.062125, 0.030494, 0.021191}
	        },
	        {
	            {-0.082812, -0.112832, -0.045629},
	            {-0.087079, -0.159907, -0.038893},
	            {0.084415, -0.088789, -0.065957}
	        },
	        {
	            {-0.219421, -0.082175, 0.173830},
	            {-0.110406, -0.046389, -0.026689},
	            {0.078901, -0.072243, -0.038999}
	        },
	        {
	            {0.091427, -0.098816, -0.033524},
	            {0.081524, 0.105390, 0.028855},
	            {0.095480, -0.055654, -0.000362}
	        },
	        {
	            {0.077609, 0.034545, 0.060378},
	            {-0.065271, -0.017108, -0.061647},
	            {0.092241, -0.037240, -0.074423}
	        },
	        {
	            {0.012945, 0.074602, -0.042412},
	            {0.027553, 0.051927, 0.092837},
	            {-0.185831, -0.155843, -0.037203}
	        },
	        {
	            {0.068316, -0.000543, -0.134152},
	            {0.127743, 0.030599, 0.012606},
	            {0.055050, -0.042724, 0.128719}
	        },
	        {
	            {-0.134677, -0.042816, -0.045189},
	            {-0.032650, -0.017176, -0.127337},
	            {0.099428, 0.028291, 0.037331}
	        },
	        {
	            {-0.081505, -0.095505, -0.101318},
	            {-0.029403, 0.141170, 0.179117},
	            {-0.009272, -0.153741, 0.000675}
	        },
	        {
	            {0.011517, 0.027429, 0.090740},
	            {-0.005025, 0.182541, 0.095281},
	            {0.022341, -0.004423, -0.016797}
	        },
	        {
	            {-0.016786, -0.047915, -0.013003},
	            {0.113540, -0.033436, 0.041859},
	            {0.005908, 0.126303, -0.042443}
	        },
	        {
	            {0.167561, 0.039476, -0.067890},
	            {-0.016446, 0.134722, -0.005466},
	            {-0.016441, -0.004441, -0.235444}
	        },
	        {
	            {-0.137710, -0.075231, 0.062853},
	            {-0.072246, 0.059451, 0.048019},
	            {0.063876, 0.117724, 0.065800}
	        },
	        {
	            {-0.008080, -0.072781, 0.056657},
	            {0.026731, 0.052797, 0.046800},
	            {-0.010042, -0.038868, -0.011051}
	        },
	        {
	            {0.163790, -0.036152, 0.048727},
	            {0.170542, -0.008718, 0.076766},
	            {-0.158900, 0.007107, 0.108800}
	        },
	        {
	            {0.054441, -0.031807, -0.219299},
	            {0.095649, -0.085483, 0.133519},
	            {0.156827, -0.091270, -0.150492}
	        },
	        {
	            {0.145544, -0.427352, -0.080405},
	            {-0.117202, -0.026793, -0.193466},
	            {0.046804, -0.034504, -0.002498}
	        },
	        {
	            {0.071696, 0.113197, 0.084923},
	            {0.044616, 0.043367, 0.068780},
	            {-0.144340, 0.035123, 0.033479}
	        },
	        {
	            {0.069252, -0.036031, -0.010510},
	            {-0.134111, -0.155452, -0.077790},
	            {-0.067793, -0.017067, -0.193762}
	        },
	        {
	            {-0.110266, -0.148220, 0.253568},
	            {-0.025516, 0.024544, -0.241579},
	            {0.006085, 0.118986, 0.002889}
	        },
	        {
	            {-0.046535, -0.052368, -0.062963},
	            {0.160521, -0.142791, -0.029690},
	            {-0.023182, -0.124033, -0.046169}
	        },
	        {
	            {0.051910, 0.123058, 0.065556},
	            {-0.110717, -0.029045, 0.016181},
	            {-0.041813, -0.118507, -0.111752}
	        },
	        {
	            {0.007322, -0.167151, -0.092775},
	            {-0.004947, 0.035849, -0.092567},
	            {-0.032138, -0.080039, 0.025661}
	        },
	        {
	            {-0.118161, 0.084270, -0.108122},
	            {0.032389, -0.160028, 0.036845},
	            {-0.085444, 0.025671, -0.244898}
	        },
	        {
	            {-0.124509, -0.069721, -0.011147},
	            {0.044615, 0.016957, -0.104104},
	            {0.036339, -0.264678, -0.137460}
	        },
	        {
	            {-0.112727, -0.076611, -0.199627},
	            {-0.056246, -0.170559, -0.026085},
	            {0.077161, -0.042406, 0.073850}
	        },
	        {
	            {-0.002690, 0.109856, 0.026052},
	            {0.009147, 0.042942, 0.144974},
	            {-0.150959, -0.022373, -0.080956}
	        },
	        {
	            {0.054573, 0.036115, 0.067597},
	            {-0.163523, 0.033480, -0.083398},
	            {0.148779, -0.046136, 0.040862}
	        },
	        {
	            {-0.084095, 0.070834, 0.016994},
	            {0.072860, -0.006452, -0.038509},
	            {-0.113762, -0.042056, -0.126811}
	        },
	        {
	            {0.059186, -0.001018, -0.065822},
	            {0.074504, -0.216462, 0.028592},
	            {-0.103738, -0.107467, 0.039208}
	        },
	        {
	            {-0.054126, 0.021346, 0.021637},
	            {0.114510, -0.068852, -0.028031},
	            {0.100551, 0.011631, -0.054841}
	        },
	        {
	            {0.022629, 0.008456, -0.010827},
	            {-0.065150, 0.017883, -0.078990},
	            {0.090428, -0.031431, -0.100589}
	        },
	        {
	            {0.019846, -0.038730, -0.072576},
	            {-0.162905, 0.112995, -0.026639},
	            {0.066826, -0.083978, 0.043552}
	        },
	        {
	            {0.157431, 0.024659, -0.155118},
	            {0.034145, -0.068798, 0.090120},
	            {-0.180307, -0.098806, 0.084758}
	        },
	        {
	            {0.020678, 0.101381, -0.078543},
	            {0.013782, -0.069888, -0.194522},
	            {-0.040872, -0.026480, -0.053035}
	        },
	        {
	            {0.016167, -0.031697, 0.008874},
	            {0.046485, 0.029407, 0.000591},
	            {0.072720, -0.179875, 0.082826}
	        },
	        {
	            {0.067156, 0.000481, 0.064421},
	            {0.009251, 0.040033, -0.187360},
	            {-0.004481, -0.056158, -0.118095}
	        },
	        {
	            {0.123585, 0.020369, -0.000011},
	            {-0.164356, -0.117833, 0.171740},
	            {-0.153100, -0.152024, -0.056910}
	        },
	        {
	            {-0.126052, -0.089134, -0.072098},
	            {-0.226201, -0.012311, -0.126392},
	            {0.066975, 0.112346, -0.081135}
	        },
	        {
	            {0.079034, -0.104659, -0.077831},
	            {0.032073, 0.066295, -0.129051},
	            {-0.074409, 0.131288, -0.037538}
	        },
	        {
	            {0.050694, -0.090240, 0.086882},
	            {-0.116853, 0.037954, 0.115451},
	            {0.148567, -0.070027, -0.030005}
	        },
	        {
	            {-0.118721, 0.052124, -0.215543},
	            {0.004347, -0.076036, -0.034651},
	            {0.004426, 0.162648, 0.050112}
	        },
	        {
	            {0.084927, 0.073230, -0.132278},
	            {-0.006373, -0.070173, 0.052291},
	            {-0.164878, 0.004814, 0.005809}
	        },
	        {
	            {-0.019183, -0.170395, -0.194090},
	            {0.068017, 0.028810, -0.024978},
	            {-0.118385, 0.122157, 0.058397}
	        },
	        {
	            {-0.067128, 0.018745, -0.027149},
	            {-0.063181, -0.061228, -0.147594},
	            {-0.118653, -0.107388, -0.008309}
	        },
	        {
	            {-0.298463, -0.040881, -0.276410},
	            {-0.139544, -0.035235, -0.032181},
	            {0.067987, 0.012948, -0.035850}
	        },
	        {
	            {-0.056463, 0.049048, -0.139449},
	            {-0.080242, -0.146952, 0.000676},
	            {-0.332295, -0.105345, 0.069044}
	        },
	        {
	            {0.257509, -0.066136, 0.003633},
	            {-0.068542, -0.039893, 0.057518},
	            {0.160352, -0.166654, 0.169852}
	        },
	        {
	            {-0.065223, -0.103558, -0.188665},
	            {-0.228757, 0.123962, 0.079818},
	            {-0.052444, 0.139879, -0.176886}
	        },
	        {
	            {-0.036757, -0.008846, -0.060261},
	            {-0.204079, -0.099851, 0.223360},
	            {0.035027, 0.000541, 0.056774}
	        },
	        {
	            {0.030754, -0.050597, 0.028620},
	            {-0.080319, 0.024372, -0.020728},
	            {0.012862, -0.095285, -0.001642}
	        },
	        {
	            {-0.169410, -0.006596, -0.117851},
	            {0.000902, -0.249112, 0.150768},
	            {0.027572, -0.076920, -0.149064}
	        },
	        {
	            {-0.123621, -0.312130, 0.101272},
	            {-0.107509, -0.071038, -0.133030},
	            {-0.090228, 0.070950, -0.046335}
	        },
	        {
	            {-0.055737, 0.077467, 0.087004},
	            {-0.220345, 0.095675, -0.196804},
	            {-0.128426, -0.131663, -0.169292}
	        },
	        {
	            {-0.177255, 0.124055, -0.166126},
	            {0.090609, -0.171797, -0.062302},
	            {0.027955, -0.177053, -0.114806}
	        },
	        {
	            {0.044719, -0.264803, -0.008367},
	            {-0.373650, -0.165074, -0.096162},
	            {0.009934, -0.210356, -0.127177}
	        },
	        {
	            {-0.126745, -0.044957, -0.034369},
	            {-0.039980, -0.042969, -0.123541},
	            {0.013498, -0.024757, 0.012262}
	        }
	    },
	    {
	        {
	            {0.085861, -0.154602, 0.100502},
	            {0.063612, 0.055140, 0.043830},
	            {0.006999, 0.065558, -0.133923}
	        },
	        {
	            {-0.068194, 0.106797, 0.047007},
	            {0.056141, -0.036745, -0.220594},
	            {0.052576, 0.020433, 0.070288}
	        },
	        {
	            {-0.035032, -0.086685, -0.113568},
	            {0.052690, 0.090492, -0.069574},
	            {0.014357, -0.047399, -0.084254}
	        },
	        {
	            {-0.040411, -0.021570, -0.105243},
	            {0.010743, -0.019704, -0.047933},
	            {0.141847, -0.073121, -0.132375}
	        },
	        {
	            {-0.075455, -0.060609, 0.100390},
	            {-0.031880, -0.057806, -0.222449},
	            {-0.125909, -0.217708, 0.081263}
	        },
	        {
	            {0.014996, 0.105434, -0.076548},
	            {-0.065198, 0.018862, 0.035623},
	            {0.116614, 0.021308, -0.060785}
	        },
	        {
	            {0.111893, -0.251213, -0.024615},
	            {-0.227168, -0.074834, -0.021070},
	            {-0.225006, 0.155517, -0.069410}
	        },
	        {
	            {-0.162572, 0.041056, -0.241932},
	            {-0.156615, 0.028312, 0.171091},
	            {0.058741, -0.089934, 0.047231}
	        },
	        {
	            {-0.160686, 0.018727, 0.057993},
	            {-0.010992, 0.026610, -0.029302},
	            {-0.040940, 0.084361, 0.042400}
	        },
	        {
	            {0.107779, 0.073420, 0.174858},
	            {-0.007321, -0.109294, 0.012404},
	            {0.035802, 0.121080, 0.029060}
	        },
	        {
	            {-0.141920, 0.009621, -0.253668},
	            {-0.050578, 0.043423, 0.001070},
	            {-0.160044, -0.072632, -0.164537}
	        },
	        {
	            {0.002811, -0.062162, 0.023574},
	            {-0.096926, -0.101312, 0.086565},
	            {0.043413, -0.278456, -0.026009}
	        },
	        {
	            {-0.146201, 0.069773, -0.017682},
	            {-0.066680, -0.091780, -0.036687},
	            {-0.002109, 0.033816, -0.002575}
	        },
	        {
	            {0.034751, 0.069858, -0.127374},
	            {0.086964, 0.084872, -0.178092},
	            {-0.038038, 0.085107, 0.118619}
	        },
	        {
	            {0.116012, -0.053408, 0.078984},
	            {-0.266242, -0.064292, -0.025422},
	            {0.112873, 0.010356, 0.096046}
	        },
	        {
	            {-0.184783, 0.082610, -0.124170},
	            {0.126373, -0.104571, 0.077261},
	            {0.046387, 0.091935, -0.048766}
	        },
	        {
	            {-0.062411, 0.014705, -0.138216},
	            {-0.093644, -0.029329, 0.099776},
	            {-0.013322, -0.067108, -0.017606}
	        },
	        {
	            {-0.111642, -0.120246, 0.042337},
	            {0.012328, -0.136961, 0.038857},
	            {0.146842, 0.146597, 0.038980}
	        },
	        {
	            {0.008966, 0.130370, 0.123172},
	            {0.013059, -0.074647, 0.076665},
	            {0.034164, -0.107581, -0.067256}
	        },
	        {
	            {-0.105181, -0.010893, 0.144576},
	            {-0.003481, -0.124954, 0.158713},
	            {0.034931, -0.029555, -0.041504}
	        },
	        {
	            {-0.029489, -0.016455, 0.006826},
	            {-0.096768, 0.107322, -0.256759},
	            {-0.124058, 0.084077, 0.099657}
	        },
	        {
	            {0.094395, -0.160361, -0.033736},
	            {0.032091, -0.209134, 0.134163},
	            {-0.005003, 0.194132, 0.081220}
	        },
	        {
	            {-0.013989, -0.101907, 0.025351},
	            {-0.061273, -0.075226, -0.006877},
	            {0.328454, -0.137472, -0.246168}
	        },
	        {
	            {-0.006851, -0.062320, -0.159814},
	            {-0.072075, -0.007553, -0.006811},
	            {-0.016304, -0.024160, 0.000469}
	        },
	        {
	            {0.009376, 0.000231, 0.044867},
	            {-0.043219, -0.141369, -0.112954},
	            {-0.026868, 0.045285, 0.022075}
	        },
	        {
	            {-0.142663, -0.260814, 0.005011},
	            {-0.189218, -0.176178, 0.098807},
	            {-0.093883, 0.031757, -0.076489}
	        },
	        {
	            {0.093391, 0.115831, -0.055025},
	            {-0.027253, 0.040645, -0.266558},
	            {-0.188444, 0.011146, -0.022878}
	        },
	        {
	            {-0.080967, 0.095682, -0.236347},
	            {-0.007640, -0.102412, -0.172755},
	            {-0.071092, -0.015215, -0.168564}
	        },
	        {
	            {0.071196, 0.061861, 0.038594},
	            {0.018043, 0.149583, -0.193380},
	            {-0.021995, 0.096348, 0.090374}
	        },
	        {
	            {-0.023256, 0.033309, -0.069043},
	            {-0.140090, -0.167323, -0.024093},
	            {-0.050762, 0.060795, 0.048019}
	        },
	        {
	            {-0.178025, 0.174215, -0.085622},
	            {-0.074371, 0.096290, 0.144499},
	            {-0.045148, 0.000224, 0.048712}
	        },
	        {
	            {0.044326, 0.182771, 0.003977},
	            {-0.125696, -0.152669, -0.007580},
	            {0.095485, -0.124327, -0.112064}
	        },
	        {
	            {-0.076636, -0.003280, -0.203759},
	            {0.017478, -0.012228, -0.028533},
	            {0.014787, -0.178258, 0.118687}
	        },
	        {
	            {-0.131403, -0.115317, 0.034935},
	            {0.191946, -0.070924, 0.035070},
	            {-0.095858, -0.118214, -0.113141}
	        },
	        {
	            {0.154561, 0.147572, 0.060044},
	            {-0.067275, 0.003459, -0.173738},
	            {0.089725, 0.101099, 0.189344}
	        },
	        {
	            {-0.197342, -0.046930, 0.032000},
	            {0.090584, 0.092716, 0.142659},
	            {-0.098102, -0.137739, -0.108825}
	        },
	        {
	            {0.126347, 0.090813, 0.061322},
	            {0.114151, -0.149670, -0.097275},
	            {-0.098223, -0.061578, -0.183450}
	        },
	        {
	            {-0.155354, 0.084539, 0.108017},
	            {0.033743, 0.154196, -0.079157},
	            {0.078845, -0.182862, -0.063017}
	        },
	        {
	            {-0.018803, -0.206932, 0.008390},
	            {0.128325, -0.106544, -0.126239},
	            {0.095921, -0.030747, -0.265752}
	        },
	        {
	            {0.004601, -0.229356, 0.017164},
	            {0.007289, 0.077780, 0.007955},
	            {0.018989, -0.066927, 0.105235}
	        },
	        {
	            {0.122699, 0.072189, -0.062596},
	            {0.038821, 0.238922, -0.022670},
	            {-0.157552, -0.173027, -0.122695}
	        },
	        {
	            {-0.155022, 0.149255, 0.048130},
	            {-0.114447, -0.009875, -0.191993},
	            {-0.066833, 0.070304, -0.023493}
	        },
	        {
	            {0.136198, -0.003752, 0.175322},
	            {-0.104642, -0.026367, -0.046293},
	            {0.110604, 0.076129, -0.005747}
	        },
	        {
	            {0.145303, 0.105327, 0.130126},
	            {0.016626, -0.026746, -0.002493},
	            {0.020562, -0.136306, -0.098000}
	        },
	        {
	            {-0.060527, -0.034995, -0.246601},
	            {-0.046695, -0.108139, -0.189329},
	            {-0.005503, 0.011571, -0.551040}
	        },
	        {
	            {-0.065661, 0.017159, -0.076843},
	            {-0.181134, 0.009131, 0.033686},
	            {0.090137, -0.051100, -0.014287}
	        },
	        {
	            {0.027033, -0.041984, 0.011849},
	            {-0.158895, -0.209582, 0.198397},
	            {-0.224599, -0.441110, -0.018913}
	        },
	        {
	            {-0.167278, 0.028459, -0.195333},
	            {-0.024794, 0.096071, 0.108109},
	            {0.124547, 0.214621, -0.363868}
	        },
	        {
	            {0.001511, -0.132376, -0.017997},
	            {-0.051772, -0.022447, -0.252576},
	            {-0.035688, -0.144347, 0.001659}
	        },
	        {
	            {-0.076625, 0.062392, -0.350201},
	            {0.130494, -0.054666, 0.059452},
	            {0.151251, 0.003838, -0.120477}
	        },
	        {
	            {-0.169250, 0.078851, 0.137525},
	            {-0.053062, 0.033623, -0.073937},
	            {-0.043846, 0.033912, -0.151929}
	        },
	        {
	            {-0.205198, -0.008460, 0.091083},
	            {-0.236202, -0.085018, -0.106301},
	            {-0.160170, -0.271035, -0.006106}
	        },
	        {
	            {-0.231156, -0.328091, -0.013399},
	            {0.003727, 0.174880, -0.111180},
	            {-0.135642, -0.188335, -0.014049}
	        },
	        {
	            {0.085747, 0.035150, -0.044633},
	            {0.026245, 0.040139, -0.338110},
	            {0.169078, -0.089376, -0.056402}
	        },
	        {
	            {0.058077, -0.081761, 0.076687},
	            {-0.169417, 0.096769, 0.021061},
	            {0.049719, -0.125902, -0.061558}
	        },
	        {
	            {-0.301781, -0.036999, -0.124112},
	            {0.028269, 0.027584, -0.035036},
	            {-0.343726, -0.078649, -0.149663}
	        },
	        {
	            {-0.082136, -0.171270, 0.081633},
	            {-0.057398, -0.004350, 0.014611},
	            {-0.041821, 0.095168, -0.065372}
	        },
	        {
	            {-0.221166, 0.013065, 0.045750},
	            {0.030657, -0.084695, 0.147917},
	            {-0.070552, -0.173975, -0.109458}
	        },
	        {
	            {0.250343, 0.034401, 0.040953},
	            {0.089021, 0.109157, 0.070054},
	            {0.010984, -0.201791, 0.052805}
	        },
	        {
	            {-0.043163, -0.196180, -0.010991},
	            {-0.115457, -0.091342, -0.010754},
	            {-0.041100, -0.102542, -0.025616}
	        },
	        {
	            {0.030765, -0.031180, -0.001046},
	            {-0.057375, -0.086047, -0.019038},
	            {-0.024984, -0.014087, 0.003597}
	        },
	        {
	            {-0.031815, -0.286966, -0.030633},
	            {0.009102, -0.150539, -0.260997},
	            {-0.221353, 0.048094, -0.041156}
	        },
	        {
	            {-0.215927, -0.068095, -0.006914},
	            {-0.093504, 0.010439, -0.138650},
	            {-0.217745, 0.024451, -0.108904}
	        },
	        {
	            {0.030671, 0.073387, 0.120476},
	            {0.056834, -0.098325, 0.133134},
	            {-0.024449, -0.019567, 0.095337}
	        }
	    },
	    {
	        {
	            {0.113217, -0.200992, -0.072857},
	            {0.081087, -0.026290, 0.029133},
	            {0.015282, -0.250035, -0.213582}
	        },
	        {
	            {-0.035564, 0.129402, -0.067816},
	            {-0.115126, -0.043308, 0.119427},
	            {-0.008141, -0.102317, -0.075231}
	        },
	        {
	            {0.036043, 0.013963, -0.084702},
	            {-0.059687, 0.066564, -0.000948},
	            {0.129176, 0.040169, -0.066067}
	        },
	        {
	            {0.177411, -0.044867, 0.070616},
	            {0.063750, -0.074944, -0.098602},
	            {0.026966, -0.089541, 0.201413}
	        },
	        {
	            {-0.013055, 0.038424, -0.060946},
	            {0.168581, 0.038471, 0.056981},
	            {0.063498, 0.092187, 0.051060}
	        },
	        {
	            {-0.098377, 0.112095, -0.061208},
	            {0.008933, -0.024636, 0.124526},
	            {0.073095, -0.057558, 0.141449}
	        },
	        {
	            {-0.147623, -0.065480, 0.025652},
	            {-0.140201, 0.130304, -0.017920},
	            {0.180129, 0.055077, -0.239760}
	        },
	        {
	            {-0.069749, 0.083750, -0.075809},
	            {-0.161564, -0.087661, 0.065896},
	            {-0.285535, 0.008090, -0.115999}
	        },
	        {
	            {-0.126278, -0.086484, 0.138254},
	            {-0.060656, 0.126777, 0.065716},
	            {-0.043932, -0.176847, -0.135192}
	        },
	        {
	            {0.073419, -0.072527, -0.295458},
	            {-0.024362, -0.135500, 0.134984},
	            {-0.051093, -0.046342, -0.022943}
	        },
	        {
	            {-0.055009, 0.001931, -0.012134},
	            {-0.140407, 0.104698, -0.041065},
	            {0.015147, -0.017847, 0.068293}
	        },
	        {
	            {0.208127, -0.063743, -0.046028},
	            {0.042325, 0.078069, -0.202569},
	            {-0.111212, -0.077310, 0.021402}
	        },
	        {
	            {0.090327, 0.147798, 0.031748},
	            {0.111730, -0.245884, -0.001677},
	            {-0.177134, -0.115194, -0.110659}
	        },
	        {
	            {0.122807, 0.032249, 0.064314},
	            {-0.070446, -0.037432, 0.056955},
	            {0.008928, -0.198181, -0.070587}
	        },
	        {
	            {-0.106534, 0.021350, 0.000031},
	            {-0.049723, -0.146369, 0.045215},
	            {-0.006940, 0.263668, -0.058684}
	        },
	        {
	            {-0.073711, -0.082034, -0.032882},
	            {-0.056768, -0.012446, 0.101083},
	            {-0.065612, -0.204687, -0.011672}
	        },
	        {
	            {0.006513, -0.336554, 0.027345},
	            {0.163140, -0.101445, -0.005061},
	            {-0.024880, -0.139980, -0.149081}
	        },
	        {
	            {0.041989, -0.010206, -0.083336},
	            {-0.030490, -0.089639, 0.021275},
	            {0.095285, -0.051955, -0.199588}
	        },
	        {
	            {-0.094145, 0.071207, -0.021880},
	            {-0.183628, 0.111753, -0.114255},
	            {0.147060, -0.103873, -0.170594}
	        },
	        {
	            {0.033319, -0.103497, -0.027354},
	            {0.003859, 0.012974, -0.067184},
	            {-0.157487, -0.011378, -0.121211}
	        },
	        {
	            {-0.032609, -0.150895, 0.036404},
	            {-0.094038, -0.073013, -0.043338},
	            {-0.066539, -0.132185, -0.178947}
	        },
	        {
	            {-0.118810, 0.111837, 0.030151},
	            {-0.208727, -0.068742, -0.056639},
	            {0.021774, -0.088638, -0.113300}
	        },
	        {
	            {-0.040576, -0.087192, 0.054761},
	            {-0.018057, -0.244013, 0.039915},
	            {-0.275789, 0.088306, -0.031649}
	        },
	        {
	            {0.015917, -0.080491, -0.017610},
	            {-0.072269, 0.126729, 0.001826},
	            {0.084393, -0.073089, 0.016063}
	        },
	        {
	            {0.146315, 0.086014, -0.152467},
	            {-0.065712, 0.046713, 0.006363},
	            {-0.118531, -0.073138, 0.023650}
	        },
	        {
	            {-0.021950, 0.026596, 0.091632},
	            {0.152070, 0.058927, -0.130180},
	            {0.093745, 0.030727, 0.026194}
	        },
	        {
	            {0.146673, 0.135274, 0.285442},
	            {-0.060342, 0.069386, -0.172603},
	            {0.041493, -0.171701, 0.038143}
	        },
	        {
	            {0.119716, 0.011883, 0.077314},
	            {-0.183307, -0.104550, 0.128842},
	            {0.156683, -0.013437, 0.126893}
	        },
	        {
	            {0.086251, 0.048149, 0.026355},
	            {0.121553, -0.101534, -0.058732},
	            {-0.140069, 0.027607, -0.004554}
	        },
	        {
	            {-0.180024, -0.030137, -0.176987},
	            {-0.048325, 0.028267, -0.031115},
	            {-0.113699, -0.095954, -0.044991}
	        },
	        {
	            {0.140065, -0.273525, -0.186880},
	            {0.067331, -0.148665, -0.143424},
	            {-0.073131, -0.023753, 0.016836}
	        },
	        {
	            {-0.117347, -0.032582, -0.136188},
	            {0.014071, -0.104323, -0.183975},
	            {-0.034684, 0.158519, -0.178751}
	        },
	        {
	            {-0.148173, 0.034875, -0.008061},
	            {0.045708, 0.097531, 0.109174},
	            {-0.110422, 0.125887, -0.116890}
	        },
	        {
	            {-0.041504, -0.122134, -0.132728},
	            {-0.008501, -0.002151, 0.050021},
	            {-0.069924, 0.008605, -0.020634}
	        },
	        {
	            {0.051840, 0.036770, -0.171250},
	            {0.143031, -0.218243, 0.025523},
	            {-0.017414, -0.147044, -0.013287}
	        },
	        {
	            {0.139837, -0.040697, 0.016891},
	            {-0.244908, -0.073623, 0.095906},
	            {-0.057720, 0.049199, 0.161992}
	        },
	        {
	            {-0.183416, 0.130260, 0.051240},
	            {0.126635, -0.016889, -0.037781},
	            {-0.008334, 0.020825, -0.053475}
	        },
	        {
	            {0.018758, -0.059756, -0.194611},
	            {-0.225250, -0.122523, 0.001198},
	            {-0.123523, -0.007841, -0.215959}
	        },
	        {
	            {-0.054936, 0.042509, -0.287141},
	            {-0.236559, 0.016583, -0.130804},
	            {-0.112249, -0.132448, -0.033033}
	        },
	        {
	            {-0.168940, -0.071256, -0.196637},
	            {-0.011900, 0.079815, -0.023232},
	            {-0.188557, 0.028672, -0.081492}
	        },
	        {
	            {-0.162470, -0.047216, -0.025155},
	            {0.073763, -0.113208, 0.110818},
	            {-0.091850, 0.039363, -0.125750}
	        },
	        {
	            {-0.008095, -0.374686, 0.010581},
	            {0.067640, 0.010002, 0.016015},
	            {-0.067917, -0.067880, -0.199312}
	        },
	        {
	            {-0.114231, -0.158360, -0.107357},
	            {-0.296465, -0.136673, -0.076932},
	            {0.067017, -0.021034, -0.090908}
	        },
	        {
	            {0.103187, 0.025504, 0.053886},
	            {-0.183848, -0.115427, -0.018010},
	            {0.009134, -0.085965, -0.040693}
	        },
	        {
	            {-0.015487, 0.108606, -0.023712},
	            {0.046811, -0.041031, -0.103020},
	            {-0.258257, 0.051952, -0.033452}
	        },
	        {
	            {0.011705, -0.162753, 0.127453},
	            {0.103718, 0.064137, 0.030478},
	            {-0.130981, -0.027026, 0.057231}
	        },
	        {
	            {-0.101898, -0.057230, 0.019375},
	            {-0.063562, -0.161696, -0.008496},
	            {0.053695, -0.060900, 0.055398}
	        },
	        {
	            {-0.049447, 0.041023, -0.059704},
	            {0.024050, -0.010006, 0.085584},
	            {-0.135293, -0.023995, -0.086690}
	        },
	        {
	            {0.044455, -0.053713, -0.029347},
	            {-0.175035, 0.042002, -0.076969},
	            {0.044468, -0.162856, 0.167636}
	        },
	        {
	            {0.090716, 0.078949, -0.284315},
	            {0.001705, -0.018334, 0.002929},
	            {0.053774, 0.126543, -0.068995}
	        },
	        {
	            {0.027783, -0.063697, 0.016660},
	            {0.048283, 0.107172, -0.080233},
	            {0.029375, 0.003744, -0.129713}
	        },
	        {
	            {0.049234, -0.097700, -0.002039},
	            {-0.133241, -0.249273, 0.080570},
	            {0.118556, -0.062902, -0.144490}
	        },
	        {
	            {-0.094521, 0.125344, -0.198619},
	            {-0.155975, 0.080031, -0.000980},
	            {-0.052588, -0.079696, -0.073473}
	        },
	        {
	            {-0.050414, 0.012753, 0.084406},
	            {-0.026710, -0.093506, -0.414852},
	            {-0.054041, 0.077219, -0.062295}
	        },
	        {
	            {-0.124282, 0.097952, -0.018945},
	            {-0.021179, -0.071469, -0.038823},
	            {-0.040598, -0.006739, 0.170998}
	        },
	        {
	            {-0.143877, 0.105635, -0.111375},
	            {0.091601, 0.031953, -0.147716},
	            {-0.074112, 0.080539, -0.040543}
	        },
	        {
	            {-0.066168, -0.071304, 0.040118},
	            {-0.018177, 0.023665, 0.053540},
	            {-0.002557, 0.052096, -0.171971}
	        },
	        {
	            {0.031879, 0.087712, -0.052588},
	            {-0.080779, -0.135912, -0.288858},
	            {-0.114465, 0.035439, 0.044299}
	        },
	        {
	            {-0.119472, -0.011994, -0.104382},
	            {-0.230322, 0.071169, -0.218779},
	            {-0.132648, 0.040440, -0.071289}
	        },
	        {
	            {-0.281998, 0.020994, 0.113119},
	            {0.023745, 0.043726, 0.035861},
	            {-0.105532, 0.058941, 0.000799}
	        },
	        {
	            {0.057503, 0.165983, -0.051946},
	            {0.036018, -0.177917, -0.124932},
	            {-0.063048, 0.149809, -0.105293}
	        },
	        {
	            {0.059875, 0.051459, 0.022229},
	            {-0.153903, -0.074612, -0.006488},
	            {0.085609, 0.006482, -0.047807}
	        },
	        {
	            {-0.123943, -0.161327, -0.139757},
	            {0.126052, -0.055554, 0.079266},
	            {-0.058435, -0.069958, -0.116479}
	        },
	        {
	            {0.057960, 0.036056, -0.061260},
	            {0.112611, -0.045228, -0.032716},
	            {0.059813, -0.117180, 0.028518}
	        }
	    },
	    {
	        {
	            {0.032041, 0.001879, 0.048601},
	            {-0.120821, -0.065702, -0.040126},
	            {-0.007331, 0.030710, 0.059562}
	        },
	        {
	            {0.040793, 0.007866, -0.379989},
	            {0.096177, -0.047128, -0.223270},
	            {-0.084085, -0.186001, -0.002441}
	        },
	        {
	            {-0.043310, 0.013207, -0.033725},
	            {0.044309, 0.113487, 0.056680},
	            {0.198135, 0.087295, 0.153427}
	        },
	        {
	            {-0.057125, -0.097302, -0.008429},
	            {-0.006659, -0.030176, 0.135661},
	            {-0.018813, -0.066291, 0.161108}
	        },
	        {
	            {0.003967, -0.196086, 0.118473},
	            {0.050445, 0.182773, 0.044916},
	            {0.148398, 0.071092, -0.095283}
	        },
	        {
	            {0.014334, -0.100158, -0.235376},
	            {-0.090063, 0.080959, -0.078828},
	            {-0.095567, -0.065667, 0.004512}
	        },
	        {
	            {-0.074367, 0.000820, 0.008464},
	            {0.024994, -0.000992, 0.073498},
	            {-0.320576, 0.036004, 0.015466}
	        },
	        {
	            {-0.042723, -0.025550, -0.203288},
	            {0.013572, 0.020531, -0.028593},
	            {-0.024074, 0.109879, 0.072876}
	        },
	        {
	            {0.004836, -0.029220, 0.027745},
	            {-0.107281, 0.122978, 0.033587},
	            {-0.111358, 0.013160, -0.066876}
	        },
	        {
	            {-0.189482, 0.167273, 0.129843},
	            {-0.042045, 0.119386, -0.065834},
	            {0.060139, 0.098196, 0.068674}
	        },
	        {
	            {0.014966, -0.093495, 0.029577},
	            {0.094277, -0.034574, 0.042366},
	            {0.103041, 0.001358, -0.054236}
	        },
	        {
	            {0.068436, -0.088445, 0.023236},
	            {-0.049744, -0.009732, -0.066369},
	            {0.022958, 0.010411, -0.169482}
	        },
	        {
	            {-0.004919, 0.109613, -0.070522},
	            {-0.004039, 0.036055, 0.107377},
	            {0.003274, -0.094183, 0.004708}
	        },
	        {
	            {-0.092571, 0.083001, -0.121158},
	            {0.230076, 0.021301, -0.045840},
	            {0.062961, -0.050135, 0.041872}
	        },
	        {
	            {-0.215256, -0.056610, -0.087197},
	            {-0.147311, 0.150796, -0.035333},
	            {0.058784, -0.133641, 0.009315}
	        },
	        {
	            {0.151378, -0.001906, -0.015810},
	            {-0.133644, 0.087537, 0.033392},
	            {0.049798, -0.262946, 0.037287}
	        },
	        {
	            {-0.099068, -0.080983, 0.058456},
	            {0.074473, 0.131799, 0.034100},
	            {0.064633, 0.108955, 0.162045}
	        },
	        {
	            {0.104491, -0.050784, -0.245027},
	            {0.006397, 0.092007, 0.014616},
	            {0.298774, 0.026808, -0.058678}
	        },
	        {
	            {0.027637, 0.008182, -0.040101},
	            {-0.139902, 0.028589, 0.003905},
	            {-0.077062, -0.136516, -0.078106}
	        },
	        {
	            {0.032655, 0.199565, -0.061882},
	            {-0.098026, -0.113992, 0.044498},
	            {-0.160133, 0.064631, 0.035989}
	        },
	        {
	            {0.053098, -0.210543, 0.021274},
	            {-0.056508, 0.034561, 0.258451},
	            {-0.096027, -0.101490, -0.313483}
	        },
	        {
	            {-0.097627, -0.020808, 0.010664},
	            {0.185078, 0.081394, -0.091487},
	            {0.064202, -0.000719, 0.134628}
	        },
	        {
	            {0.157619, 0.054208, -0.004230},
	            {0.156797, -0.217100, 0.008145},
	            {0.138853, 0.073180, -0.286930}
	        },
	        {
	            {-0.011397, -0.197067, -0.304488},
	            {0.042619, 0.046815, -0.030946},
	            {0.130978, -0.179830, 0.065564}
	        },
	        {
	            {-0.026298, -0.177760, -0.007963},
	            {-0.099179, -0.158184, 0.120580},
	            {0.136815, 0.023538, -0.064009}
	        },
	        {
	            {-0.043297, -0.154724, -0.092519},
	            {0.022267, -0.105876, 0.188576},
	            {0.093997, 0.029641, -0.030144}
	        },
	        {
	            {0.149636, 0.034768, 0.169508},
	            {-0.016696, 0.118490, -0.032030},
	            {-0.006674, -0.205624, 0.149948}
	        },
	        {
	            {-0.019742, -0.095028, -0.246464},
	            {0.025249, 0.048791, 0.183501},
	            {-0.171357, 0.046384, -0.025146}
	        },
	        {
	            {0.050525, 0.160178, 0.103224},
	            {0.176139, 0.092210, 0.079698},
	            {-0.000997, 0.021401, -0.042344}
	        },
	        {
	            {-0.116636, -0.150309, 0.075228},
	            {0.000927, 0.148071, 0.099504},
	            {-0.076714, -0.090848, 0.056331}
	        },
	        {
	            {-0.112834, -0.046073, -0.007860},
	            {-0.135026, 0.254569, 0.104096},
	            {-0.075940, -0.131259, 0.041069}
	        },
	        {
	            {0.145329, 0.057671, 0.037803},
	            {-0.093979, -0.046749, -0.111771},
	            {0.069913, -0.062768, 0.031979}
	        },
	        {
	            {-0.164201, -0.071588, -0.319557},
	            {-0.054315, 0.081106, -0.050689},
	            {0.058631, 0.069138, 0.080836}
	        },
	        {
	            {0.056033, 0.059849, -0.000321},
	            {0.001962, -0.057006, -0.068227},
	            {-0.196956, -0.117907, 0.009729}
	        },
	        {
	            {0.121216, 0.039203, -0.132255},
	            {-0.031702, -0.097650, 0.004353},
	            {-0.101417, 0.127812, -0.083294}
	        },
	        {
	            {-0.089130, -0.012756, 0.035515},
	            {-0.000405, 0.221791, 0.012871},
	            {-0.124637, 0.044183, 0.009832}
	        },
	        {
	            {0.123000, -0.120072, -0.243882},
	            {0.013297, -0.241973, -0.046859},
	            {-0.099198, -0.130443, -0.004470}
	        },
	        {
	            {0.023906, -0.192561, 0.079091},
	            {0.177488, -0.208077, 0.203097},
	            {0.147862, 0.059222, -0.048095}
	        },
	        {
	            {0.067629, -0.007493, 0.048916},
	            {-0.006475, -0.070430, -0.325055},
	            {-0.038432, -0.166596, 0.198663}
	        },
	        {
	            {-0.104592, -0.010230, -0.157170},
	            {-0.272306, -0.037606, 0.056590},
	            {0.002029, 0.125361, -0.166061}
	        },
	        {
	            {-0.055210, 0.072620, -0.058957},
	            {-0.166416, -0.078596, -0.142422},
	            {0.005825, -0.067974, -0.095115}
	        },
	        {
	            {0.220292, 0.133486, -0.132888},
	            {-0.014203, -0.151480, -0.070537},
	            {-0.017953, -0.086725, -0.003675}
	        },
	        {
	            {-0.028508, -0.158418, -0.188174},
	            {0.219385, -0.129935, 0.039464},
	            {0.097581, 0.076535, 0.045334}
	        },
	        {
	            {0.149397, 0.143793, -0.001864},
	            {0.130841, -0.004388, -0.118923},
	            {0.072531, -0.017155, -0.150267}
	        },
	        {
	            {0.119683, -0.002831, -0.044518},
	            {-0.150363, -0.025947, 0.058061},
	            {0.075925, 0.070739, 0.023069}
	        },
	        {
	            {0.085250, -0.138169, -0.064991},
	            {0.154551, 0.011017, 0.080711},
	            {0.015736, -0.176664, -0.108355}
	        },
	        {
	            {0.030816, 0.014995, -0.004042},
	            {-0.123485, -0.001432, -0.018886},
	            {-0.066042, 0.002168, 0.165159}
	        },
	        {
	            {-0.030982, -0.034817, 0.015798},
	            {-0.041067, -0.023460, 0.116434},
	            {0.012488, 0.022157, -0.012781}
	        },
	        {
	            {-0.068325, -0.080225, -0.033503},
	            {-0.089451, 0.141251, -0.143433},
	            {0.031826, 0.189111, 0.071748}
	        },
	        {
	            {-0.005931, 0.039918, -0.082170},
	            {0.129557, 0.118383, 0.000386},
	            {0.106758, -0.177312, 0.077610}
	        },
	        {
	            {0.027841, 0.066793, 0.032978},
	            {-0.032357, -0.099207, 0.043041},
	            {-0.049460, 0.058944, -0.109495}
	        },
	        {
	            {-0.144134, 0.068223, -0.131033},
	            {-0.117761, 0.140757, -0.060553},
	            {-0.102157, -0.073524, 0.016243}
	        },
	        {
	            {-0.060269, 0.093041, -0.011449},
	            {-0.077466, -0.077494, 0.088458},
	            {-0.108351, -0.234665, -0.295531}
	        },
	        {
	            {-0.050228, 0.027939, -0.018276},
	            {-0.154048, -0.110113, -0.239079},
	            {-0.232170, -0.032118, 0.125563}
	        },
	        {
	            {-0.003781, -0.227663, -0.049051},
	            {0.060223, -0.008737, -0.030271},
	            {-0.129439, -0.048665, 0.081705}
	        },
	        {
	            {-0.181619, -0.042808, -0.107232},
	            {0.135350, -0.039349, 0.108920},
	            {-0.155501, 0.081026, -0.012890}
	        },
	        {
	            {-0.042841, -0.037961, -0.103449},
	            {-0.241345, 0.086406, 0.129044},
	            {-0.045604, 0.104865, -0.003365}
	        },
	        {
	            {-0.032402, -0.125649, 0.095779},
	            {0.104559, -0.228586, -0.113044},
	            {0.043397, -0.079949, -0.082379}
	        },
	        {
	            {-0.090982, -0.120097, -0.165816},
	            {-0.031179, 0.027090, 0.064839},
	            {0.031313, -0.058838, -0.115745}
	        },
	        {
	            {0.068593, -0.081073, -0.003975},
	            {-0.227955, 0.013575, -0.055018},
	            {-0.010661, -0.054464, -0.102087}
	        },
	        {
	            {-0.036627, -0.082217, -0.059677},
	            {-0.042272, -0.191146, -0.024187},
	            {-0.203240, -0.014946, -0.013241}
	        },
	        {
	            {-0.084202, -0.005850, -0.003460},
	            {0.009487, -0.206823, -0.015653},
	            {-0.005773, -0.149087, -0.232798}
	        },
	        {
	            {0.037107, -0.081887, -0.123591},
	            {0.036597, 0.214705, -0.012553},
	            {-0.033127, -0.123394, -0.172745}
	        },
	        {
	            {-0.179091, -0.070329, -0.039383},
	            {-0.087278, -0.137161, -0.246972},
	            {0.053319, -0.088352, -0.070510}
	        }
	    },
	    {
	        {
	            {0.079046, 0.054430, -0.096288},
	            {-0.019787, -0.059389, -0.197684},
	            {0.034045, -0.137199, -0.240606}
	        },
	        {
	            {-0.073315, 0.033972, -0.051095},
	            {0.008062, 0.119522, 0.077946},
	            {-0.070514, -0.138954, -0.054067}
	        },
	        {
	            {0.000738, -0.117507, -0.116467},
	            {0.168541, -0.050386, -0.005512},
	            {0.061211, -0.011572, -0.016374}
	        },
	        {
	            {0.008661, -0.155354, -0.015191},
	            {0.093627, -0.051378, -0.244120},
	            {0.085763, -0.061749, 0.038256}
	        },
	        {
	            {0.041275, -0.045089, -0.105979},
	            {0.028004, -0.030303, -0.081420},
	            {-0.123022, -0.041529, 0.024164}
	        },
	        {
	            {-0.180954, 0.113482, 0.075611},
	            {-0.116532, -0.188754, 0.019478},
	            {0.027789, -0.050575, -0.015854}
	        },
	        {
	            {-0.217645, 0.032181, -0.030381},
	            {-0.113796, 0.060417, -0.136539},
	            {0.118694, 0.014367, -0.206843}
	        },
	        {
	            {-0.043771, -0.028924, -0.233025},
	            {0.070605, 0.011597, -0.005335},
	            {-0.020133, -0.008700, -0.235247}
	        },
	        {
	            {-0.191645, 0.149919, 0.108344},
	            {-0.080072, -0.088988, -0.069226},
	            {0.057522, -0.014625, 0.140517}
	        },
	        {
	            {-0.208313, 0.171066, -0.156917},
	            {0.035335, -0.061938, -0.141028},
	            {0.028588, -0.046156, -0.259895}
	        },
	        {
	            {-0.129953, -0.243694, -0.100091},
	            {-0.027289, 0.177380, 0.024417},
	            {-0.030752, -0.173188, -0.162483}
	        },
	        {
	            {0.092945, 0.000671, -0.036930},
	            {-0.113747, -0.017980, -0.035698},
	            {-0.194599, -0.046669, 0.053887}
	        },
	        {
	            {-0.060425, 0.097039, 0.080126},
	            {-0.045067, -0.360511, -0.056710},
	            {-0.099640, 0.078071, -0.075737}
	        },
	        {
	            {-0.032486, 0.028093, -0.000245},
	            {-0.086025, -0.062934, -0.127000},
	            {0.084768, -0.131243, -0.056503}
	        },
	        {
	            {-0.113247, 0.044801, -0.176197},
	            {-0.081703, 0.075277, -0.067386},
	            {-0.280587, 0.220475, 0.202248}
	        },
	        {
	            {-0.061385, -0.167189, -0.117783},
	            {0.104966, 0.042756, 0.183872},
	            {-0.105513, -0.011314, -0.123462}
	        },
	        {
	            {0.066590, -0.059949, -0.064629},
	            {-0.243790, -0.183074, 0.063091},
	            {0.052513, 0.011033, -0.056402}
	        },
	        {
	            {0.003872, 0.030618, -0.060827},
	            {-0.193339, 0.007427, -0.037208},
	            {0.003834, 0.037964, -0.092001}
	        },
	        {
	            {-0.023490, 0.014588, -0.252602},
	            {-0.060370, -0.145130, -0.074200},
	            {0.071017, -0.192660, -0.195860}
	        },
	        {
	            {-0.058091, -0.256331, 0.069355},
	            {0.120347, 0.083916, -0.078544},
	            {-0.022493, -0.139108, -0.127160}
	        },
	        {
	            {-0.068392, -0.092724, -0.005317},
	            {0.047240, -0.145226, -0.054433},
	            {0.150610, -0.020043, -0.122095}
	        },
	        {
	            {-0.018980, 0.131195, -0.009120},
	            {-0.092744, 0.023085, -0.124376},
	            {-0.122704, 0.023840, 0.039808}
	        },
	        {
	            {-0.006943, 0.006210, -0.134313},
	            {-0.189287, -0.057107, -0.036853},
	            {0.073889, 0.168456, -0.160222}
	        },
	        {
	            {0.127796, -0.002032, -0.020150},
	            {-0.091058, -0.079509, -0.020998},
	            {0.048583, 0.117456, 0.013703}
	        },
	        {
	            {0.034078, -0.066891, 0.128083},
	            {-0.006661, 0.035806, 0.023984},
	            {-0.133621, -0.073243, -0.239733}
	        },
	        {
	            {0.005437, -0.059603, -0.037237},
	            {0.021678, 0.082531, 0.036507},
	            {-0.075656, -0.080332, -0.028979}
	        },
	        {
	            {0.058192, -0.001109, -0.066676},
	            {-0.260413, 0.046851, 0.038644},
	            {-0.114521, -0.091981, -0.021988}
	        },
	        {
	            {-0.117093, -0.069475, -0.011036},
	            {-0.036126, 0.001790, -0.204150},
	            {0.052608, -0.085122, 0.010120}
	        },
	        {
	            {-0.183040, 0.083673, -0.134256},
	            {-0.172246, -0.112587, 0.008212},
	            {0.152482, -0.034071, -0.056819}
	        },
	        {
	            {-0.045166, -0.217739, -0.222423},
	            {-0.227495, 0.067826, -0.116156},
	            {-0.230590, -0.128180, -0.023758}
	        },
	        {
	            {-0.103053, 0.033217, -0.038327},
	            {0.029174, 0.029190, 0.041973},
	            {0.057008, -0.050175, -0.103027}
	        },
	        {
	            {0.137076, 0.077062, -0.037890},
	            {-0.052825, -0.104229, -0.187809},
	            {0.091390, -0.019131, -0.079125}
	        },
	        {
	            {-0.070745, 0.037126, 0.014822},
	            {-0.053838, -0.034542, -0.011000},
	            {-0.103780, 0.053340, -0.143465}
	        },
	        {
	            {-0.068308, -0.099976, -0.077971},
	            {0.016567, -0.234647, 0.014592},
	            {0.021675, -0.056535, -0.018254}
	        },
	        {
	            {0.049197, -0.017225, -0.062363},
	            {0.011564, -0.020211, -0.056096},
	            {-0.122638, -0.080230, -0.084098}
	        },
	        {
	            {-0.013816, -0.148550, -0.094008},
	            {-0.308424, -0.014830, 0.005846},
	            {-0.032934, -0.043277, 0.060429}
	        },
	        {
	            {-0.032363, 0.076972, -0.119486},
	            {-0.104929, -0.128110, -0.145116},
	            {0.032665, 0.005334, -0.159428}
	        },
	        {
	            {-0.028689, 0.110162, -0.016050},
	            {0.088998, 0.017933, -0.104877},
	            {-0.161384, 0.065272, 0.019097}
	        },
	        {
	            {-0.070873, -0.387410, -0.034503},
	            {-0.126063, -0.160297, 0.019078},
	            {-0.067774, -0.082462, 0.287403}
	        },
	        {
	            {-0.191025, -0.009946, -0.048609},
	            {0.003022, -0.148916, 0.073379},
	            {0.124796, 0.024335, -0.055048}
	        },
	        {
	            {-0.037540, 0.091283, -0.177495},
	            {-0.003736, -0.149161, 0.094521},
	            {-0.032493, -0.110736, -0.055289}
	        },
	        {
	            {-0.032340, -0.231533, -0.045447},
	            {-0.096713, 0.012427, -0.169824},
	            {0.152016, -0.124822, -0.000208}
	        },
	        {
	            {-0.038851, 0.146445, -0.090261},
	            {-0.024527, -0.331833, -0.035481},
	            {-0.312476, 0.041220, 0.013677}
	        },
	        {
	            {0.103542, 0.175080, 0.095129},
	            {-0.102798, -0.047729, -0.039591},
	            {0.080475, -0.008366, 0.055840}
	        },
	        {
	            {-0.062530, -0.077731, -0.098700},
	            {-0.100599, 0.061991, -0.049780},
	            {0.151269, 0.188932, 0.080455}
	        },
	        {
	            {0.030455, -0.130199, 0.040525},
	            {0.046412, 0.066381, -0.024032},
	            {-0.025349, 0.046706, -0.050739}
	        },
	        {
	            {0.163612, -0.028229, 0.051853},
	            {-0.138864, -0.162890, -0.212034},
	            {0.168097, 0.070495, 0.174080}
	        },
	        {
	            {-0.172443, 0.047260, -0.026531},
	            {0.008027, 0.014920, 0.104441},
	            {-0.100069, 0.098887, -0.149151}
	        },
	        {
	            {0.021219, -0.159383, -0.009543},
	            {-0.292001, 0.000044, -0.143653},
	            {0.010194, -0.080983, -0.207741}
	        },
	        {
	            {0.113902, -0.042290, -0.134302},
	            {-0.016411, 0.264895, 0.098795},
	            {0.080006, -0.087228, -0.038009}
	        },
	        {
	            {-0.217348, -0.172628, 0.035567},
	            {0.016553, -0.045577, -0.042914},
	            {-0.011187, 0.014570, -0.013405}
	        },
	        {
	            {-0.030896, -0.081226, -0.104246},
	            {-0.060401, 0.118304, 0.059224},
	            {-0.061568, -0.019417, 0.138969}
	        },
	        {
	            {0.063736, -0.169535, 0.099695},
	            {0.064442, 0.068901, 0.031103},
	            {-0.043661, -0.068360, 0.143145}
	        },
	        {
	            {-0.002092, 0.061908, 0.010219},
	            {-0.024414, -0.323200, -0.169527},
	            {0.025991, -0.176846, -0.073472}
	        },
	        {
	            {0.096499, 0.013865, 0.032898},
	            {0.058135, -0.150563, -0.155632},
	            {-0.274185, -0.174583, 0.021957}
	        },
	        {
	            {0.050336, 0.127445, -0.087929},
	            {-0.046556, -0.153351, 0.032248},
	            {-0.168821, 0.034174, -0.045897}
	        },
	        {
	            {-0.098658, -0.024753, -0.227191},
	            {-0.028933, -0.053652, 0.221722},
	            {0.048498, -0.094336, -0.059277}
	        },
	        {
	            {0.071673, 0.058601, -0.094364},
	            {0.109607, -0.012436, -0.100200},
	            {0.026677, 0.019858, 0.063109}
	        },
	        {
	            {-0.098604, 0.002341, 0.071075},
	            {-0.084266, -0.230739, -0.057464},
	            {0.081671, 0.105579, -0.157798}
	        },
	        {
	            {-0.115823, 0.163431, 0.171592},
	            {-0.023283, -0.153822, 0.175595},
	            {0.005957, -0.080031, -0.110668}
	        },
	        {
	            {0.064970, 0.042055, -0.150294},
	            {-0.087377, -0.156358, -0.090048},
	            {-0.099243, 0.085150, -0.161253}
	        },
	        {
	            {0.135300, -0.160002, 0.118373},
	            {-0.160540, 0.014986, -0.100902},
	            {0.014252, -0.157286, -0.032150}
	        },
	        {
	            {-0.018499, -0.075393, 0.048211},
	            {-0.142108, 0.027734, -0.001174},
	            {-0.098814, -0.058912, -0.237749}
	        },
	        {
	            {-0.119208, -0.139577, 0.016241},
	            {-0.025424, 0.008934, 0.030451},
	            {0.151603, -0.024656, -0.123360}
	        }
	    },
	    {
	        {
	            {0.053954, -0.012434, -0.149315},
	            {0.028742, -0.174716, 0.012739},
	            {-0.128307, -0.028424, 0.197779}
	        },
	        {
	            {-0.065146, -0.127629, -0.131991},
	            {-0.118598, -0.039524, -0.040030},
	            {-0.159856, 0.083415, 0.083807}
	        },
	        {
	            {0.086839, 0.049061, -0.057481},
	            {0.056674, -0.057758, -0.042428},
	            {-0.110263, -0.004432, -0.096381}
	        },
	        {
	            {-0.099240, 0.061949, 0.001493},
	            {-0.058017, 0.165344, -0.157418},
	            {0.019136, -0.038297, -0.063352}
	        },
	        {
	            {0.055071, -0.053321, -0.092633},
	            {0.157670, 0.049074, -0.033503},
	            {-0.152280, 0.135678, 0.145944}
	        },
	        {
	            {0.018034, 0.064511, -0.108310},
	            {0.119368, -0.012083, 0.139922},
	            {-0.102436, -0.116496, 0.011921}
	        },
	        {
	            {-0.179160, -0.010676, 0.021985},
	            {0.083631, -0.129921, 0.009314},
	            {0.002725, 0.060684, 0.008775}
	        },
	        {
	            {-0.002820, -0.067308, 0.039820},
	            {-0.096321, 0.049960, -0.245722},
	            {-0.134898, 0.119875, -0.067803}
	        },
	        {
	            {-0.014554, 0.009864, 0.164880},
	            {-0.126891, 0.049043, -0.034968},
	            {0.004681, -0.040054, -0.009372}
	        },
	        {
	            {0.059050, 0.010800, 0.027294},
	            {0.017873, -0.118622, -0.114622},
	            {0.125732, -0.095092, 0.112238}
	        },
	        {
	            {-0.068321, 0.046601, -0.062776},
	            {0.062102, -0.118625, 0.095652},
	            {0.044332, -0.031981, -0.001573}
	        },
	        {
	            {-0.075690, 0.072550, 0.037320},
	            {-0.024732, -0.075751, 0.065063},
	            {0.008547, -0.042272, 0.085826}
	        },
	        {
	            {0.082193, 0.080307, -0.042090},
	            {-0.032205, -0.021569, 0.121131},
	            {0.035504, 0.094703, -0.134517}
	        },
	        {
	            {0.103929, -0.074070, 0.000158},
	            {0.091517, -0.099450, 0.049004},
	            {0.068628, -0.073947, -0.082545}
	        },
	        {
	            {-0.135226, 0.025436, -0.007484},
	            {-0.092593, 0.052846, 0.077896},
	            {0.066173, 0.062386, 0.047832}
	        },
	        {
	            {-0.033653, -0.037586, 0.023647},
	            {-0.066022, 0.035092, -0.017688},
	            {-0.083591, 0.027522, -0.307564}
	        },
	        {
	            {0.017146, -0.041506, -0.086359},
	            {-0.079893, 0.005986, -0.002735},
	            {0.067657, 0.108162, -0.072218}
	        },
	        {
	            {-0.105365, 0.141892, 0.023276},
	            {-0.085156, -0.085517, -0.062341},
	            {0.023753, 0.120281, 0.001174}
	        },
	        {
	            {0.050715, -0.070658, 0.017167},
	            {0.071768, 0.064715, 0.006247},
	            {-0.087092, 0.132083, 0.054093}
	        },
	        {
	            {0.135443, -0.016736, 0.137725},
	            {0.126244, -0.005081, -0.079128},
	            {0.121806, -0.130140, 0.101829}
	        },
	        {
	            {0.124556, -0.047802, -0.017954},
	            {0.049427, 0.116119, -0.052390},
	            {0.049736, 0.011429, -0.007330}
	        },
	        {
	            {-0.171640, 0.026966, 0.141027},
	            {0.047576, -0.199627, -0.008318},
	            {0.038935, 0.031314, 0.155352}
	        },
	        {
	            {-0.000351, -0.008132, 0.039166},
	            {-0.013795, -0.196847, 0.094505},
	            {0.148021, 0.021120, -0.069631}
	        },
	        {
	            {0.117316, -0.041301, 0.085353},
	            {-0.203684, -0.059714, -0.007739},
	            {0.136540, -0.023306, -0.264026}
	        },
	        {
	            {-0.242748, 0.027673, -0.058677},
	            {-0.070273, 0.126740, -0.068694},
	            {-0.068722, -0.041694, -0.000766}
	        },
	        {
	            {0.211861, 0.030594, -0.200622},
	            {0.044428, -0.227414, -0.046989},
	            {-0.125423, 0.128593, -0.057579}
	        },
	        {
	            {-0.002106, -0.058014, 0.131959},
	            {0.045656, -0.018253, -0.168735},
	            {0.040315, -0.047913, -0.025256}
	        },
	        {
	            {-0.004200, -0.073997, -0.264319},
	            {0.148059, -0.265778, -0.179144},
	            {0.150131, -0.068985, 0.099071}
	        },
	        {
	            {-0.020626, -0.011744, 0.146114},
	            {-0.095463, -0.191771, -0.049973},
	            {0.099663, -0.048494, -0.035420}
	        },
	        {
	            {0.070278, -0.113096, -0.069747},
	            {-0.143332, 0.038968, -0.068291},
	            {0.041220, -0.145108, 0.106149}
	        },
	        {
	            {-0.020424, 0.082496, 0.010748},
	            {0.119550, -0.014374, -0.009447},
	            {-0.070745, 0.116872, -0.033705}
	        },
	        {
	            {-0.197459, -0.073393, 0.022640},
	            {-0.014260, 0.037042, 0.034894},
	            {0.052117, -0.182369, -0.101432}
	        },
	        {
	            {-0.107300, 0.133052, -0.190615},
	            {-0.108792, -0.254677, -0.051121},
	            {-0.045354, 0.046174, 0.083675}
	        },
	        {
	            {-0.113958, -0.199313, 0.132376},
	            {0.005900, 0.034750, 0.061961},
	            {-0.163332, 0.157560, -0.101446}
	        },
	        {
	            {0.105596, 0.115597, -0.139173},
	            {0.039467, 0.003941, -0.060125},
	            {-0.078112, 0.000195, 0.135303}
	        },
	        {
	            {-0.021965, 0.034384, 0.162813},
	            {0.068695, -0.061454, -0.006700},
	            {-0.140726, -0.073596, -0.099475}
	        },
	        {
	            {-0.250214, -0.024636, 0.089942},
	            {-0.111541, -0.051575, -0.019155},
	            {0.087144, -0.009818, -0.090628}
	        },
	        {
	            {-0.066327, -0.019577, -0.157798},
	            {-0.011143, -0.110172, 0.017779},
	            {-0.020400, 0.101259, -0.036432}
	        },
	        {
	            {0.025404, 0.134417, 0.079547},
	            {-0.117103, 0.071486, 0.008257},
	            {-0.080462, 0.004533, 0.077240}
	        },
	        {
	            {-0.021626, -0.047580, -0.021069},
	            {0.008043, -0.145872, -0.132648},
	            {-0.021941, -0.093230, 0.028076}
	        },
	        {
	            {-0.074883, -0.034395, -0.130465},
	            {0.096977, 0.053102, -0.143616},
	            {0.101011, 0.110792, 0.011739}
	        },
	        {
	            {0.094703, 0.046184, 0.003621},
	            {0.093233, 0.011713, 0.048820},
	            {-0.043411, 0.058204, -0.106004}
	        },
	        {
	            {0.064358, -0.164668, 0.033460},
	            {-0.018549, -0.132196, -0.061840},
	            {0.037096, -0.008000, -0.065768}
	        },
	        {
	            {-0.145271, -0.080897, -0.086420},
	            {-0.012009, 0.088279, -0.007964},
	            {-0.042250, 0.089217, -0.328250}
	        },
	        {
	            {-0.057194, -0.134150, -0.113865},
	            {0.074133, 0.059232, -0.003073},
	            {-0.024446, -0.097131, -0.288687}
	        },
	        {
	            {-0.138374, 0.007464, 0.046139},
	            {-0.196344, -0.030523, 0.021697},
	            {-0.066324, -0.147023, -0.020589}
	        },
	        {
	            {-0.212357, 0.150966, -0.016170},
	            {-0.182014, -0.221636, -0.037704},
	            {-0.248357, 0.026188, -0.031030}
	        },
	        {
	            {-0.008738, -0.120294, 0.002052},
	            {-0.005942, 0.043495, -0.012287},
	            {-0.218865, 0.068606, -0.089586}
	        },
	        {
	            {-0.157728, 0.046592, -0.328271},
	            {-0.129921, -0.000632, -0.288820},
	            {-0.018397, -0.094182, -0.143349}
	        },
	        {
	            {-0.129246, -0.059857, -0.186668},
	            {-0.046412, -0.135317, -0.029921},
	            {-0.135510, 0.061526, -0.067504}
	        },
	        {
	            {-0.085581, -0.075853, -0.067484},
	            {0.001225, -0.002785, -0.007681},
	            {-0.004861, 0.002378, -0.165968}
	        },
	        {
	            {-0.114470, 0.054827, -0.013165},
	            {-0.215515, 0.040397, 0.020094},
	            {-0.004916, -0.136104, -0.140531}
	        },
	        {
	            {-0.239984, 0.096310, -0.172572},
	            {-0.116519, -0.160272, 0.000411},
	            {-0.090923, -0.188834, 0.085371}
	        },
	        {
	            {-0.041692, -0.011763, 0.107677},
	            {-0.055280, 0.070134, -0.151730},
	            {-0.101869, -0.239668, -0.114871}
	        },
	        {
	            {-0.135171, -0.173463, 0.001106},
	            {0.057967, 0.022680, -0.020924},
	            {-0.253379, -0.084570, 0.082097}
	        },
	        {
	            {-0.287701, -0.066020, -0.203946},
	            {0.039072, 0.029378, 0.022912},
	            {-0.229128, -0.070476, -0.205917}
	        },
	        {
	            {0.071694, -0.249837, 0.089070},
	            {-0.184471, -0.123716, 0.089771},
	            {0.024395, -0.009898, -0.073649}
	        },
	        {
	            {-0.054264, -0.018991, 0.014819},
	            {-0.064163, -0.065760, -0.092538},
	            {-0.001239, -0.032979, -0.040022}
	        },
	        {
	            {0.033438, -0.062443, -0.007883},
	            {0.025696, -0.122849, 0.136004},
	            {-0.009965, 0.116376, -0.073672}
	        },
	        {
	            {-0.039455, -0.396781, 0.074821},
	            {-0.414690, -0.227306, 0.168009},
	            {-0.106315, 0.188318, 0.082922}
	        },
	        {
	            {-0.212373, -0.035624, -0.124605},
	            {-0.129292, -0.094937, -0.040469},
	            {-0.114751, 0.011618, -0.010798}
	        },
	        {
	            {0.079953, -0.081559, -0.042029},
	            {0.033703, 0.012637, -0.160777},
	            {0.030557, 0.027707, -0.171809}
	        },
	        {
	            {0.135470, -0.140937, -0.071067},
	            {0.001828, 0.134704, 0.039273},
	            {-0.202931, 0.089822, -0.151524}
	        },
	        {
	            {-0.050217, 0.163361, 0.128693},
	            {-0.007020, -0.090706, 0.059911},
	            {0.123444, 0.138280, 0.018622}
	        }
	    },
	    {
	        {
	            {-0.001914, 0.009162, -0.077166},
	            {-0.184028, 0.121237, 0.079690},
	            {-0.258312, -0.040956, -0.047634}
	        },
	        {
	            {-0.173688, -0.207293, -0.084632},
	            {0.092802, -0.022839, -0.256115},
	            {-0.136044, -0.133382, -0.080579}
	        },
	        {
	            {0.007305, 0.072439, -0.144059},
	            {-0.115862, 0.089378, -0.143487},
	            {-0.033623, 0.097366, -0.060076}
	        },
	        {
	            {-0.338322, 0.074252, 0.143393},
	            {-0.121092, -0.057572, 0.021079},
	            {-0.218407, -0.169654, -0.058444}
	        },
	        {
	            {-0.090123, 0.010564, 0.092227},
	            {-0.290740, -0.058238, -0.063948},
	            {-0.009744, -0.090649, -0.406714}
	        },
	        {
	            {-0.188850, -0.003601, -0.373088},
	            {-0.036100, -0.231445, 0.059358},
	            {-0.209211, 0.126437, -0.203210}
	        },
	        {
	            {0.122649, -0.132109, -0.135673},
	            {-0.142053, 0.105215, -0.138719},
	            {-0.117536, -0.052458, 0.153673}
	        },
	        {
	            {-0.049274, 0.029608, -0.040009},
	            {-0.177572, -0.041994, -0.035189},
	            {-0.022050, -0.300132, -0.112360}
	        },
	        {
	            {-0.079058, -0.012058, -0.077607},
	            {-0.074491, -0.108728, -0.068360},
	            {-0.043887, -0.012100, -0.201118}
	        },
	        {
	            {0.040537, 0.142741, 0.056510},
	            {-0.173473, 0.061934, -0.015697},
	            {-0.082811, -0.027270, -0.053284}
	        },
	        {
	            {-0.099974, -0.179283, -0.067251},
	            {0.063372, 0.018085, 0.021710},
	            {-0.066201, 0.083420, -0.299087}
	        },
	        {
	            {-0.116775, 0.101680, 0.047349},
	            {0.001954, 0.032671, 0.122398},
	            {-0.103242, 0.015872, 0.126090}
	        },
	        {
	            {-0.176539, -0.094773, -0.057396},
	            {-0.194033, -0.016993, -0.097012},
	            {0.149373, 0.009107, -0.029252}
	        },
	        {
	            {-0.088114, -0.000245, -0.088227},
	            {-0.032201, 0.019202, -0.075064},
	            {-0.199544, 0.150415, 0.030992}
	        },
	        {
	            {-0.069698, 0.120075, 0.000648},
	            {-0.100128, 0.029672, -0.143445},
	            {-0.082352, -0.216218, 0.066506}
	        },
	        {
	            {0.038928, 0.117208, -0.247497},
	            {-0.032143, -0.030611, -0.216828},
	            {0.059377, 0.006764, 0.050371}
	        },
	        {
	            {-0.158106, -0.038630, 0.066417},
	            {-0.116515, -0.085935, -0.053662},
	            {0.043665, 0.102671, 0.106196}
	        },
	        {
	            {-0.038009, -0.030665, 0.001151},
	            {-0.138474, 0.055746, -0.106708},
	            {-0.040130, 0.173060, 0.109070}
	        },
	        {
	            {-0.125724, 0.261098, 0.027457},
	            {0.041274, -0.169950, 0.050339},
	            {-0.008259, -0.013792, -0.031216}
	        },
	        {
	            {-0.013182, 0.184528, -0.027123},
	            {0.049160, -0.106501, -0.054510},
	            {0.012382, -0.034984, -0.013510}
	        },
	        {
	            {-0.079793, 0.138461, -0.159442},
	            {-0.079757, -0.132361, -0.008327},
	            {0.034603, 0.081264, 0.070944}
	        },
	        {
	            {0.195153, -0.096606, 0.025089},
	            {-0.081479, -0.057428, 0.016857},
	            {-0.235827, 0.035801, -0.065475}
	        },
	        {
	            {-0.074599, -0.029946, -0.091461},
	            {0.054972, -0.229215, -0.211332},
	            {-0.017493, -0.059263, -0.183393}
	        },
	        {
	            {0.087225, -0.033042, -0.145856},
	            {-0.167934, 0.030334, -0.171716},
	            {-0.097533, -0.071549, -0.010805}
	        },
	        {
	            {0.093793, 0.055742, -0.052618},
	            {0.056465, -0.197233, -0.144048},
	            {0.135759, -0.114586, -0.119259}
	        },
	        {
	            {0.018189, -0.095782, -0.277293},
	            {-0.060379, -0.353762, -0.075419},
	            {-0.108241, -0.004863, -0.065341}
	        },
	        {
	            {0.108357, -0.044180, -0.064277},
	            {-0.081037, 0.018210, -0.214580},
	            {-0.146673, -0.055921, -0.219690}
	        },
	        {
	            {0.076748, -0.074546, -0.143592},
	            {-0.044199, -0.036200, -0.038733},
	            {-0.036633, -0.254638, -0.058989}
	        },
	        {
	            {-0.006403, -0.005875, -0.079714},
	            {0.157111, 0.033949, -0.102698},
	            {-0.029909, 0.000473, 0.116649}
	        },
	        {
	            {0.042540, -0.191330, -0.114411},
	            {-0.137287, -0.044153, -0.092169},
	            {-0.054842, 0.027298, -0.047759}
	        },
	        {
	            {-0.126730, 0.092890, 0.046700},
	            {0.007453, -0.114225, 0.148969},
	            {-0.194936, 0.049166, 0.016188}
	        },
	        {
	            {-0.004031, -0.067561, -0.050249},
	            {-0.186253, -0.089553, -0.111556},
	            {-0.053023, 0.051531, 0.096028}
	        },
	        {
	            {-0.073691, -0.003434, -0.211518},
	            {-0.142900, -0.082564, -0.021791},
	            {-0.043336, 0.117842, 0.136649}
	        },
	        {
	            {-0.053117, 0.033082, -0.115805},
	            {0.158695, -0.002364, 0.048189},
	            {-0.076650, 0.095722, -0.026959}
	        },
	        {
	            {0.063296, -0.008671, -0.015207},
	            {0.009349, -0.009039, 0.016469},
	            {-0.047513, 0.000707, -0.056557}
	        },
	        {
	            {-0.011163, 0.085752, 0.041065},
	            {0.062987, 0.034176, 0.026336},
	            {0.050858, -0.057638, -0.121962}
	        },
	        {
	            {0.001781, 0.002318, -0.171788},
	            {0.071521, -0.071347, -0.038419},
	            {-0.111499, -0.083182, 0.067700}
	        },
	        {
	            {0.021603, -0.080895, -0.014476},
	            {-0.073711, 0.075435, 0.049017},
	            {0.132498, -0.065514, -0.096264}
	        },
	        {
