#include "cnn.h"

float conv2_weights[CONV2_FILTERS][CONV1_FILTERS][KERNEL_SIZE_5x5][KERNEL_SIZE_5x5] = {
	    {
	        {
	            {0.052711, 0.091024, 0.009202, 0.008064, -0.024151},
	            {-0.042393, 0.025704, -0.040948, 0.016864, -0.074799},
	            {0.008512, -0.019291, -0.107293, -0.053450, 0.043709},
	            {-0.100003, -0.048168, -0.066007, 0.011544, -0.063033},
	            {-0.015119, 0.035171, 0.040175, -0.038408, 0.003888}
	        },
	        {
	            {0.012490, -0.050264, -0.071198, 0.003853, -0.124189},
	            {0.044646, -0.031155, 0.054199, -0.014144, -0.021168},
	            {-0.110577, -0.056344, 0.011606, -0.002745, -0.008874},
	            {-0.024185, 0.019088, -0.005519, -0.018179, -0.125436},
	            {-0.036795, 0.010244, -0.059993, 0.026427, -0.120074}
	        },
	        {
	            {0.034839, -0.054197, -0.042000, -0.004793, 0.002181},
	            {0.011069, 0.054518, 0.046606, -0.055431, -0.045002},
	            {0.047336, -0.068975, 0.031160, 0.027716, -0.009302},
	            {-0.052021, -0.018977, -0.090453, -0.054428, -0.066132},
	            {0.028331, 0.035292, 0.041279, -0.030227, -0.020213}
	        },
	        {
	            {-0.055856, -0.069517, -0.008713, -0.005244, -0.170496},
	            {-0.046450, -0.137884, -0.016984, -0.025742, -0.026284},
	            {0.009550, -0.064958, 0.037051, -0.040218, -0.013790},
	            {-0.055729, -0.001909, 0.032173, -0.077862, 0.010381},
	            {0.043773, -0.002656, 0.007439, 0.007462, 0.004912}
	        },
	        {
	            {-0.058681, 0.009059, 0.033081, 0.036239, 0.038629},
	            {-0.085370, -0.019516, -0.078906, 0.060910, -0.001210},
	            {-0.001371, -0.121045, -0.044985, 0.022193, 0.055156},
	            {0.053414, 0.022245, -0.059238, -0.033773, 0.053365},
	            {0.031675, 0.037877, -0.017065, -0.065017, 0.000055}
	        },
	        {
	            {-0.069940, -0.023458, -0.020420, 0.007902, -0.063823},
	            {-0.066504, -0.020068, 0.019693, 0.025119, 0.041365},
	            {0.051925, -0.017307, 0.043550, -0.035206, -0.039337},
	            {0.056182, -0.023850, -0.050870, -0.222433, 0.054730},
	            {0.044552, 0.028840, 0.020198, -0.040920, 0.027505}
	        },
	        {
	            {0.045329, 0.023119, -0.034554, -0.025586, -0.036304},
	            {-0.036193, 0.042187, -0.057374, -0.065210, 0.048793},
	            {0.065444, 0.035256, 0.052042, -0.086850, 0.033237},
	            {0.035874, 0.015547, 0.023628, -0.003476, -0.109358},
	            {0.007815, -0.035076, -0.060703, 0.018894, 0.044074}
	        },
	        {
	            {-0.139595, -0.055955, -0.046565, -0.027193, -0.019072},
	            {-0.035260, 0.009555, 0.029248, 0.032595, -0.062628},
	            {-0.060089, -0.057507, -0.071652, -0.046565, -0.061388},
	            {0.066124, -0.042889, -0.029321, -0.035993, 0.053078},
	            {0.009488, 0.028072, -0.015827, 0.033903, -0.037378}
	        },
	        {
	            {0.007722, -0.017270, -0.013915, 0.045276, -0.109118},
	            {0.049338, -0.067203, -0.133050, 0.059782, -0.057219},
	            {0.051611, 0.017912, -0.050054, -0.039666, 0.034156},
	            {0.046822, -0.062795, 0.027925, 0.015005, -0.017400},
	            {-0.037438, -0.044357, 0.002385, -0.051317, -0.055129}
	        },
	        {
	            {-0.039597, -0.063772, 0.003263, 0.047060, -0.025450},
	            {0.013487, -0.020408, -0.034069, -0.013400, 0.047107},
	            {-0.009814, -0.058362, -0.056011, -0.019489, -0.087480},
	            {-0.008283, -0.023762, 0.051264, -0.003532, -0.042625},
	            {0.044453, 0.000378, 0.012936, -0.038584, -0.000945}
	        },
	        {
	            {-0.011100, 0.036837, -0.009339, -0.039026, 0.032832},
	            {0.008983, -0.051238, 0.046144, 0.023611, -0.030402},
	            {-0.021826, 0.055686, -0.041733, -0.060759, -0.064066},
	            {-0.085025, -0.008643, 0.032476, 0.046074, -0.035163},
	            {-0.009508, -0.024911, -0.055499, -0.069926, 0.021976}
	        },
	        {
	            {-0.019880, -0.027905, -0.006101, -0.016789, 0.005021},
	            {0.013833, -0.047787, 0.038021, 0.044241, -0.040415},
	            {-0.075517, -0.014582, -0.056703, 0.045723, -0.059850},
	            {0.029997, -0.038815, 0.042365, -0.005749, 0.001051},
	            {-0.022139, 0.004005, -0.109847, 0.012666, 0.007158}
	        },
	        {
	            {-0.051659, -0.016948, 0.039634, -0.043642, -0.042968},
	            {-0.089179, -0.047978, -0.023594, -0.015503, -0.021942},
	            {0.028178, 0.057688, -0.017804, -0.062536, 0.040035},
	            {-0.054623, -0.027677, 0.012804, -0.003090, -0.055607},
	            {-0.034841, -0.045329, 0.044158, 0.012789, 0.030281}
	        },
	        {
	            {0.019607, 0.057560, 0.013029, -0.057075, -0.139681},
	            {0.004589, 0.053899, -0.118717, -0.037195, -0.040746},
	            {-0.011300, -0.009460, 0.002933, 0.009941, -0.012895},
	            {0.010668, 0.046032, 0.003086, 0.036150, -0.055017},
	            {-0.034080, 0.013977, -0.005219, 0.021602, -0.019496}
	        },
	        {
	            {0.050651, -0.018378, -0.022586, -0.014777, 0.056291},
	            {0.020217, -0.027609, -0.046409, -0.023330, -0.001593},
	            {-0.035606, 0.064544, -0.056571, 0.024138, -0.126731},
	            {-0.036168, -0.026521, -0.024359, -0.010396, -0.100297},
	            {0.017294, 0.048882, -0.025735, 0.023463, 0.057679}
	        },
	        {
	            {0.063055, -0.057992, 0.050451, -0.056667, 0.039767},
	            {0.042067, -0.069744, -0.041541, -0.020184, -0.022646},
	            {0.115081, -0.023508, -0.024647, -0.027060, -0.013206},
	            {-0.039375, -0.005908, -0.000448, 0.000022, -0.014275},
	            {0.016734, 0.041548, -0.007059, 0.031020, -0.213006}
	        },
	        {
	            {0.027316, -0.060627, -0.032355, 0.035769, -0.059063},
	            {-0.000100, -0.056805, -0.011474, 0.037934, -0.046291},
	            {-0.044582, 0.015139, 0.046791, -0.022205, 0.025117},
	            {-0.068171, 0.038395, 0.072853, 0.006676, -0.057878},
	            {-0.019263, 0.026759, -0.041844, 0.007330, 0.012640}
	        },
	        {
	            {-0.149593, 0.034509, -0.007181, -0.015370, -0.049392},
	            {-0.069701, -0.136467, 0.006280, -0.001172, -0.045365},
	            {-0.059903, -0.027957, 0.041317, 0.064148, 0.014455},
	            {0.044306, 0.020845, -0.002534, -0.040101, 0.017256},
	            {-0.091150, 0.011724, 0.025924, 0.037444, -0.059120}
	        },
	        {
	            {-0.051287, -0.018835, 0.011008, -0.019279, -0.041764},
	            {0.019062, -0.064480, -0.110741, -0.026833, -0.048761},
	            {-0.046226, -0.064290, 0.024661, -0.067122, -0.070672},
	            {-0.067160, -0.018179, 0.034980, 0.052413, 0.006120},
	            {0.034599, -0.008506, -0.048636, -0.018383, 0.021769}
	        },
	        {
	            {0.044075, 0.017319, 0.020011, -0.032876, 0.025016},
	            {-0.001347, -0.091510, -0.052856, 0.004644, -0.035710},
	            {-0.035408, -0.054105, 0.060282, 0.023516, -0.065021},
	            {-0.027336, 0.007661, -0.215441, 0.003558, 0.030102},
	            {-0.015459, -0.002019, -0.147531, 0.042371, -0.005926}
	        },
	        {
	            {-0.002604, 0.007871, 0.031783, 0.047958, -0.024528},
	            {-0.043663, -0.008858, 0.016261, -0.055806, 0.043666},
	            {-0.012407, -0.011107, 0.051211, -0.003538, 0.024602},
	            {-0.008162, -0.044138, -0.004085, -0.043359, -0.001042},
	            {-0.045403, -0.005857, -0.075668, 0.029926, -0.064996}
	        },
	        {
	            {-0.040436, 0.017468, -0.104949, -0.009832, -0.089338},
	            {-0.013280, 0.035461, -0.008822, -0.029689, 0.005854},
	            {-0.033679, -0.050553, -0.000370, -0.014027, -0.055573},
	            {0.014052, -0.093715, -0.028009, -0.018668, 0.011621},
	            {0.059549, -0.046162, -0.001991, -0.027096, -0.046717}
	        },
	        {
	            {-0.008368, -0.022885, 0.021779, -0.010653, 0.039445},
	            {0.047742, 0.083280, 0.003259, -0.080309, -0.075608},
	            {0.022376, 0.030358, 0.054153, -0.020985, -0.029739},
	            {-0.043749, -0.029866, 0.046532, 0.012531, -0.047519},
	            {0.002992, 0.025742, 0.028019, -0.091607, 0.045067}
	        },
	        {
	            {-0.045842, -0.027824, 0.006839, 0.047506, 0.041423},
	            {0.000748, -0.013650, 0.030122, -0.083615, -0.023979},
	            {-0.066222, -0.022111, 0.029695, -0.025189, -0.028920},
	            {0.031639, -0.025004, -0.053926, -0.036578, -0.035684},
	            {-0.064042, 0.008466, -0.009365, -0.039610, 0.016643}
	        },
	        {
	            {0.016230, 0.019673, -0.069866, -0.021493, 0.036093},
	            {-0.128466, -0.026227, -0.061525, 0.017726, 0.029533},
	            {0.041785, -0.060531, -0.042836, 0.048244, 0.032268},
	            {-0.021237, 0.013525, -0.072823, -0.040839, -0.057274},
	            {-0.083214, 0.001663, -0.019109, -0.033890, 0.019610}
	        },
	        {
	            {-0.111671, -0.033007, 0.025903, -0.026585, 0.017242},
	            {-0.023000, -0.021718, -0.067625, 0.040929, 0.030372},
	            {0.055939, -0.036274, -0.060260, 0.006003, -0.032298},
	            {-0.039203, -0.022683, 0.053384, 0.031696, -0.054682},
	            {0.008373, -0.051317, 0.034034, 0.043759, -0.160402}
	        },
	        {
	            {0.003884, 0.049532, -0.141999, 0.004819, 0.005043},
	            {-0.039532, -0.057977, -0.041332, 0.029024, -0.025380},
	            {-0.054818, -0.042566, -0.054984, 0.020361, -0.012144},
	            {0.016097, 0.033592, -0.052519, 0.001043, -0.001823},
	            {-0.043804, 0.040906, 0.031873, 0.060859, -0.033940}
	        },
	        {
	            {0.001931, -0.002045, 0.042370, 0.021158, -0.021300},
	            {-0.038104, -0.067411, -0.037718, 0.033004, -0.100814},
	            {0.042072, -0.012662, -0.085650, 0.032533, -0.089644},
	            {-0.003611, -0.063746, 0.005514, 0.044390, 0.035542},
	            {0.018608, 0.034352, -0.028115, -0.014480, -0.002255}
	        },
	        {
	            {0.017074, -0.028376, 0.021992, -0.021756, -0.018186},
	            {0.159368, 0.040158, 0.000518, 0.037875, -0.032162},
	            {0.035705, -0.017552, 0.008934, -0.055264, 0.022707},
	            {-0.032679, -0.056912, 0.046217, -0.026592, -0.022038},
	            {-0.052053, 0.010693, -0.009818, 0.041359, 0.024501}
	        },
	        {
	            {0.016431, -0.043831, -0.028775, 0.031378, 0.020717},
	            {-0.053272, -0.018133, -0.000513, -0.140827, -0.017045},
	            {0.021451, 0.037131, 0.025544, -0.022998, 0.011756},
	            {-0.054178, -0.015083, -0.018910, -0.074212, -0.000050},
	            {0.081495, -0.037309, -0.023948, -0.025958, -0.069285}
	        },
	        {
	            {0.008610, -0.156258, 0.026319, -0.092450, 0.011513},
	            {-0.059123, -0.047049, -0.043391, -0.036200, -0.044484},
	            {0.015919, 0.026751, -0.064556, -0.076836, -0.027345},
	            {-0.118134, -0.022206, -0.044714, -0.000529, 0.064441},
	            {0.015416, 0.008619, -0.018756, 0.014062, -0.053339}
	        },
	        {
	            {0.007265, -0.058043, -0.044562, 0.015814, -0.004190},
	            {-0.043084, 0.004992, -0.027041, -0.148342, 0.062078},
	            {-0.227023, -0.045142, 0.008206, 0.003716, 0.033100},
	            {-0.013778, -0.046070, -0.010954, 0.046924, 0.015975},
	            {-0.035448, -0.004387, -0.135653, 0.040590, 0.070433}
	        }
	    },
	    {
	        {
	            {0.058450, -0.037365, -0.007596, -0.061272, -0.051995},
	            {-0.033274, -0.027958, 0.033906, 0.012033, -0.022826},
	            {-0.015748, 0.087558, -0.042186, 0.015788, 0.023869},
	            {-0.096729, 0.027023, -0.013159, -0.045855, 0.023396},
	            {-0.005952, -0.021726, -0.022965, 0.025378, 0.009349}
	        },
	        {
	            {0.059664, -0.064830, 0.014141, 0.019263, 0.013489},
	            {-0.017981, 0.005814, -0.001835, -0.095762, 0.063187},
	            {-0.051593, -0.015386, -0.026180, 0.017638, -0.041162},
	            {-0.009463, -0.080933, 0.018773, -0.038292, 0.008927},
	            {-0.046615, 0.009916, -0.038937, 0.049192, -0.134373}
	        },
	        {
	            {0.048356, 0.025908, -0.062020, -0.029163, 0.049603},
	            {-0.036719, 0.014068, 0.013673, -0.028755, 0.016174},
	            {0.011337, -0.062261, -0.008144, -0.066813, 0.016167},
	            {-0.062868, 0.028271, -0.040097, 0.030510, 0.025486},
	            {0.030915, -0.055817, -0.001925, 0.006292, -0.026438}
	        },
	        {
	            {-0.033774, -0.002573, 0.006940, -0.011580, -0.064357},
	            {0.058909, -0.093973, 0.035361, 0.052303, -0.012260},
	            {-0.052470, -0.023896, 0.004467, 0.007655, 0.060372},
	            {-0.055210, -0.010281, -0.040146, -0.047072, 0.025334},
	            {-0.034755, 0.051487, -0.038735, 0.050885, 0.030407}
	        },
	        {
	            {-0.015521, 0.033327, -0.058091, -0.037245, -0.056761},
	            {0.032338, 0.047487, -0.021465, 0.021354, 0.038103},
	            {0.043060, -0.097007, -0.054795, -0.060569, -0.025648},
	            {-0.038503, -0.024262, 0.002728, 0.000597, 0.056709},
	            {-0.015179, -0.050758, 0.026960, -0.016231, 0.000120}
	        },
	        {
	            {-0.167891, -0.009920, 0.001611, 0.022187, -0.004750},
	            {-0.046283, -0.040436, -0.040973, 0.027445, -0.031169},
	            {0.019091, -0.038270, 0.002800, 0.042141, -0.040458},
	            {-0.065699, -0.041101, 0.033999, -0.189899, 0.040104},
	            {-0.133675, 0.030242, 0.026085, 0.009310, 0.040095}
	        },
	        {
	            {0.044011, 0.015774, 0.022071, 0.053319, -0.000547},
	            {0.043918, -0.015155, -0.157201, -0.032785, 0.009161},
	            {0.063416, 0.029063, -0.049197, 0.033615, 0.024957},
	            {-0.028765, 0.016269, -0.026269, -0.045516, -0.074490},
	            {0.026923, 0.000254, -0.027134, -0.027555, 0.014003}
	        },
	        {
	            {0.023436, 0.000275, -0.032793, -0.037369, -0.029086},
	            {0.026555, -0.065727, 0.034158, -0.041954, -0.027491},
	            {-0.013399, 0.014745, -0.002608, 0.001998, 0.025447},
	            {-0.016286, -0.005880, -0.011293, -0.011128, -0.020924},
	            {-0.012165, -0.067830, -0.055964, 0.022847, 0.014559}
	        },
	        {
	            {0.041042, -0.085831, 0.047900, 0.019685, 0.013155},
	            {0.041842, 0.035296, -0.007067, 0.053112, -0.045430},
	            {-0.033308, -0.031509, -0.016778, 0.001581, 0.011740},
	            {-0.035941, -0.061649, -0.017314, -0.008535, -0.055494},
	            {-0.064001, 0.025292, -0.031727, 0.014356, -0.021812}
	        },
	        {
	            {-0.040297, 0.049110, 0.023175, -0.051790, 0.009506},
	            {-0.055422, -0.005641, -0.043403, -0.008559, -0.040447},
	            {-0.005655, -0.007798, 0.010492, 0.021684, -0.135835},
	            {-0.034917, -0.020780, -0.063039, -0.018292, -0.019180},
	            {-0.054850, -0.012186, 0.016332, -0.055587, 0.016140}
	        },
	        {
	            {0.037357, 0.042236, 0.045460, -0.129331, 0.066030},
	            {0.040089, 0.020935, -0.052849, 0.021469, -0.025013},
	            {-0.023462, 0.028715, -0.006550, -0.059377, -0.014483},
	            {0.055314, -0.039292, 0.022032, 0.051461, -0.002972},
	            {0.023124, -0.034024, 0.051313, -0.029720, 0.053765}
	        },
	        {
	            {-0.013627, 0.008360, -0.065666, -0.046865, -0.058358},
	            {0.012451, 0.025315, -0.023141, 0.017495, 0.042292},
	            {-0.174774, 0.058761, 0.024524, 0.012182, -0.022613},
	            {0.031305, 0.052212, -0.040038, 0.044762, 0.049903},
	            {-0.036211, 0.026528, 0.042231, 0.031341, -0.071894}
	        },
	        {
	            {-0.069835, 0.038610, 0.000833, -0.040795, -0.008935},
	            {0.068516, 0.019736, 0.024468, -0.037576, -0.061028},
	            {-0.051611, -0.044330, -0.048148, 0.030940, -0.066976},
	            {0.013280, -0.032130, -0.104166, 0.036757, 0.051314},
	            {-0.009216, 0.042423, 0.031398, -0.033161, 0.013448}
	        },
	        {
	            {-0.063226, 0.044285, -0.080730, 0.050491, -0.001652},
	            {-0.055771, 0.047522, -0.017247, -0.050562, -0.002638},
	            {-0.091147, -0.054676, -0.071071, 0.028555, -0.051626},
	            {-0.001958, -0.038593, 0.050918, -0.018250, 0.040308},
	            {0.018499, -0.009439, -0.029694, 0.060187, -0.048401}
	        },
	        {
	            {0.024535, -0.005410, -0.005872, -0.058967, -0.060257},
	            {0.023093, 0.047017, 0.050109, 0.035291, 0.043333},
	            {-0.026402, -0.022650, -0.066577, 0.034296, -0.067133},
	            {-0.067124, -0.004200, -0.100833, 0.020682, -0.113580},
	            {0.051086, -0.056257, 0.046472, 0.029472, -0.054757}
	        },
	        {
	            {-0.032949, -0.020423, 0.032314, 0.045975, 0.050282},
	            {0.041148, -0.112067, 0.051067, -0.015530, 0.055104},
	            {-0.031674, 0.006249, 0.007923, -0.036597, -0.035655},
	            {-0.019544, 0.017480, -0.022267, -0.067284, 0.039429},
	            {0.042173, 0.011382, -0.060355, 0.053870, -0.117243}
	        },
	        {
	            {0.019640, -0.105748, -0.010571, -0.014375, -0.027746},
	            {-0.051823, -0.031427, 0.012943, -0.040164, -0.031857},
	            {-0.000625, 0.045097, -0.034683, -0.164550, -0.001353},
	            {-0.027482, -0.028640, -0.021024, 0.036160, 0.025289},
	            {0.037113, -0.019557, 0.025781, -0.028130, -0.000886}
	        },
	        {
	            {-0.064892, -0.052023, -0.016843, -0.064722, -0.006727},
	            {0.022818, -0.136843, -0.034980, 0.028592, 0.035729},
	            {-0.023946, -0.054385, -0.039983, -0.055685, 0.014325},
	            {-0.058703, -0.028968, -0.058848, -0.022358, -0.034723},
	            {-0.134435, -0.004928, -0.063167, 0.004563, -0.002927}
	        },
	        {
	            {-0.007288, 0.052225, -0.026331, -0.042454, -0.026310},
	            {-0.066631, 0.026027, 0.018412, 0.002398, -0.026313},
	            {-0.124418, 0.006340, 0.031821, -0.079006, -0.045485},
	            {-0.032079, -0.014055, 0.025126, 0.010936, -0.032838},
	            {-0.041062, 0.031954, 0.019669, 0.003179, 0.007924}
	        },
	        {
	            {-0.066333, 0.002970, -0.142245, 0.003383, -0.028002},
	            {-0.051875, -0.043407, 0.025480, 0.028570, -0.055486},
	            {0.022868, 0.043227, -0.013019, -0.004987, -0.051674},
	            {-0.035380, 0.033765, -0.005310, -0.039475, 0.017771},
	            {-0.213996, 0.020442, 0.037325, 0.023593, -0.050667}
	        },
	        {
	            {0.032516, -0.006967, -0.049044, 0.015855, 0.022830},
	            {0.026958, -0.037762, 0.044618, 0.062488, -0.104034},
	            {0.017813, 0.028025, 0.003390, -0.052335, 0.051527},
	            {0.012138, -0.016229, -0.035075, 0.012878, -0.052271},
	            {-0.061744, -0.011066, -0.019818, -0.030210, 0.038748}
	        },
	        {
	            {0.012549, 0.012454, -0.134242, -0.019001, -0.082287},
	            {0.008691, -0.037067, -0.011440, 0.005066, -0.040508},
	            {-0.011338, -0.016646, -0.053805, 0.026542, -0.039399},
	            {-0.057339, -0.115565, 0.025382, 0.030395, -0.036210},
	            {0.006126, 0.027858, 0.003993, 0.029712, -0.057562}
	        },
	        {
	            {0.037233, -0.070904, 0.011234, 0.027976, -0.035675},
	            {0.047688, -0.053159, -0.006128, -0.034252, -0.072948},
	            {0.047917, -0.031335, -0.054536, -0.059192, -0.060642},
	            {0.052951, 0.032972, -0.022688, 0.048098, 0.021826},
	            {-0.038073, -0.050625, -0.002277, -0.046392, 0.053252}
	        },
	        {
	            {-0.012494, 0.012350, -0.014696, -0.013485, -0.021915},
	            {-0.000508, 0.052550, -0.034803, 0.040219, -0.018834},
	            {0.118977, -0.041104, -0.056010, -0.041247, -0.024337},
	            {-0.022563, -0.095851, -0.049460, -0.162805, -0.052235},
	            {0.022843, -0.049714, -0.045227, 0.024371, 0.002839}
	        },
	        {
	            {0.013813, -0.030840, -0.015727, 0.023356, 0.049338},
	            {-0.156902, 0.032752, -0.008587, 0.059826, -0.108459},
	            {0.047120, -0.028649, -0.007071, 0.040145, 0.018386},
	            {-0.066021, 0.038708, 0.017634, 0.052300, -0.005473},
	            {0.031869, -0.017581, -0.050555, -0.168843, 0.056412}
	        },
	        {
	            {0.028588, 0.033422, -0.019865, -0.025885, 0.022819},
	            {-0.034639, 0.003589, -0.044460, 0.048339, 0.027117},
	            {0.031308, 0.040208, -0.243418, -0.011065, 0.026149},
	            {-0.049965, -0.009795, 0.042229, 0.006368, -0.002071},
	            {-0.043379, 0.046833, -0.068261, 0.026594, 0.025319}
	        },
	        {
	            {-0.007300, 0.003744, 0.021929, -0.056182, -0.007287},
	            {0.031456, -0.024459, -0.093522, -0.068451, 0.042468},
	            {-0.032322, 0.022019, 0.047757, -0.005183, -0.023457},
	            {0.006276, -0.077758, -0.039522, -0.032846, -0.074643},
	            {-0.044328, -0.043101, 0.000448, 0.011078, -0.054355}
	        },
	        {
	            {-0.032418, -0.060680, -0.058685, -0.037300, 0.046983},
	            {0.017043, 0.039919, 0.037587, 0.042333, -0.113143},
	            {0.013211, -0.052522, -0.121405, -0.015253, -0.110192},
	            {-0.003618, 0.038539, 0.032539, 0.012075, -0.021416},
	            {-0.050491, 0.019489, 0.043043, -0.025804, -0.020629}
	        },
	        {
	            {0.026823, -0.031723, 0.037023, 0.050410, 0.035907},
	            {-0.005036, -0.001493, 0.021970, -0.023982, -0.008814},
	            {-0.065691, -0.013840, 0.017503, 0.017952, 0.004791},
	            {-0.041266, -0.035856, 0.039609, -0.006269, -0.048550},
	            {0.037691, -0.035249, 0.001988, 0.049432, -0.024395}
	        },
	        {
	            {0.009031, 0.023042, -0.033721, 0.042459, -0.063186},
	            {0.003402, -0.013255, 0.040330, -0.047436, -0.046581},
	            {0.028469, -0.042238, -0.084829, 0.011499, -0.044641},
	            {-0.029314, -0.049587, 0.018265, -0.017891, -0.055883},
	            {0.082270, -0.042863, -0.066284, -0.039786, -0.025289}
	        },
	        {
	            {-0.005100, -0.211137, 0.053748, -0.107781, 0.023185},
	            {-0.013284, 0.004545, -0.050583, -0.000818, -0.019796},
	            {-0.034835, 0.029604, -0.038270, -0.057375, 0.048466},
	            {-0.067820, 0.015392, -0.042308, -0.016854, -0.020072},
	            {-0.004506, 0.039597, 0.038970, -0.049219, -0.034963}
	        },
	        {
	            {0.000938, -0.061090, 0.015393, 0.017922, -0.058802},
	            {0.008056, -0.060189, 0.014702, -0.158563, 0.012624},
	            {0.116348, 0.049178, 0.033293, 0.048939, 0.007820},
	            {-0.032878, -0.010010, 0.047287, 0.051302, 0.014103},
	            {0.024657, -0.034615, -0.052997, -0.052645, -0.039980}
	        }
	    },
	    {
	        {
	            {-0.016282, -0.060809, 0.038702, 0.019435, 0.052736},
	            {-0.030324, 0.045596, -0.057747, 0.003979, 0.069859},
	            {0.018222, -0.066348, 0.001048, -0.043834, -0.015636},
	            {-0.123718, -0.058704, -0.036612, -0.035605, 0.028343},
	            {-0.033643, -0.014365, -0.027280, 0.066479, -0.035945}
	        },
	        {
	            {-0.042037, 0.025022, -0.013725, 0.004148, 0.008750},
	            {-0.010057, 0.053326, -0.016793, 0.041032, 0.008666},
	            {0.003448, -0.028375, -0.047642, -0.017164, 0.047993},
	            {-0.024463, -0.018537, -0.053375, -0.008318, 0.004863},
	            {0.017969, -0.022154, -0.064945, -0.041879, -0.001684}
	        },
	        {
	            {0.026932, 0.040779, -0.015408, -0.040632, 0.053906},
	            {0.016524, -0.030167, 0.051580, -0.052940, -0.077802},
	            {0.029724, -0.043669, 0.039720, -0.055579, -0.056780},
	            {0.022004, -0.041370, 0.039734, -0.017840, 0.045300},
	            {-0.047799, -0.033970, 0.045632, -0.133713, 0.044183}
	        },
	        {
	            {-0.017918, -0.039878, 0.023837, -0.058358, -0.218697},
	            {0.037781, -0.074624, 0.021032, 0.013520, 0.037955},
	            {-0.047584, -0.034361, -0.000590, -0.014266, 0.008391},
	            {0.020514, 0.040859, 0.056340, -0.083911, -0.026264},
	            {-0.022686, -0.013982, -0.007021, 0.022699, -0.009760}
	        },
	        {
	            {0.030656, 0.048510, -0.009880, -0.041503, 0.023624},
	            {-0.173853, -0.048316, -0.056839, 0.060481, -0.026907},
	            {0.007065, -0.036661, -0.019187, -0.137764, 0.027638},
	            {0.033391, -0.020363, -0.001560, -0.047932, -0.002590},
	            {0.005902, 0.035422, -0.040938, -0.019604, -0.006012}
	        },
	        {
	            {-0.159204, 0.043759, 0.021000, -0.004009, -0.010737},
	            {0.000389, -0.003354, -0.045296, -0.026065, 0.013642},
	            {-0.030144, 0.012958, -0.167713, -0.022456, -0.032023},
	            {-0.082197, -0.038835, -0.062122, -0.146603, -0.003181},
	            {-0.065473, 0.028936, -0.040905, 0.032717, 0.006102}
	        },
	        {
	            {-0.041252, -0.002149, -0.016250, -0.009642, -0.017302},
	            {0.035180, -0.030806, -0.076284, 0.019433, 0.025656},
	            {-0.035894, -0.009808, -0.029607, -0.055278, 0.049382},
	            {0.003395, -0.045347, 0.035445, -0.063259, 0.050067},
	            {-0.031759, 0.005764, -0.056845, -0.039715, -0.003015}
	        },
	        {
	            {-0.101131, -0.058353, -0.105282, -0.055384, 0.031700},
	            {-0.037719, 0.019586, -0.010562, -0.035971, 0.044676},
	            {0.060153, -0.023548, -0.021332, 0.038305, -0.064497},
	            {0.008357, 0.028535, 0.052538, -0.002187, -0.032128},
	            {0.004524, -0.047079, -0.026666, -0.062954, -0.041235}
	        },
	        {
	            {-0.063795, 0.035197, -0.021938, 0.042195, -0.050750},
	            {0.053361, 0.018623, -0.079039, -0.024025, -0.000854},
	            {0.018949, 0.056514, 0.018781, -0.006809, 0.037059},
	            {0.043969, 0.014170, 0.028244, -0.040755, 0.002290},
	            {0.038404, -0.081239, 0.037720, 0.034906, 0.026478}
	        },
	        {
	            {-0.090318, 0.049490, -0.014550, -0.036812, -0.013029},
	            {-0.064220, -0.004916, -0.032241, -0.051885, -0.057990},
	            {0.020130, 0.018616, -0.040441, 0.035784, -0.136503},
	            {0.049303, -0.051780, 0.014395, -0.035103, -0.058132},
	            {0.041166, 0.042735, -0.046138, 0.050095, -0.029727}
	        },
	        {
	            {-0.010628, -0.079068, -0.000356, -0.078097, -0.059073},
	            {-0.028613, 0.053374, -0.078168, -0.005681, -0.073611},
	            {0.016893, -0.045638, 0.024492, -0.006500, -0.039195},
	            {-0.133526, 0.035260, 0.006681, 0.029712, -0.026560},
	            {-0.018437, -0.099074, -0.059184, -0.079220, -0.038290}
	        },
	        {
	            {0.052019, 0.003929, 0.046333, 0.028910, -0.045088},
	            {0.007353, -0.031445, 0.042298, 0.023644, -0.066863},
	            {-0.098591, 0.044165, -0.000529, 0.016575, -0.027306},
	            {0.043423, 0.010532, 0.037877, -0.016025, 0.047771},
	            {-0.023878, 0.034423, -0.079054, -0.053760, 0.003927}
	        },
	        {
	            {-0.081706, 0.030561, 0.046130, -0.012344, 0.041827},
	            {-0.079212, -0.026962, -0.018638, 0.032763, 0.041691},
	            {-0.034981, -0.017117, -0.056902, 0.027634, -0.067281},
	            {-0.042621, -0.029482, -0.150521, -0.023644, 0.020492},
	            {-0.013385, -0.011402, -0.054590, -0.014070, 0.030993}
	        },
	        {
	            {0.026981, 0.020553, -0.058701, 0.035071, -0.074979},
	            {0.011175, -0.053596, -0.019305, -0.024102, -0.020458},
	            {-0.115334, 0.001622, -0.067131, -0.007546, 0.011058},
	            {-0.015043, 0.018353, 0.066753, -0.032161, -0.008699},
	            {0.035266, -0.037006, 0.021798, 0.031348, -0.116594}
	        },
	        {
	            {0.002647, -0.033765, -0.030138, -0.068056, 0.007507},
	            {0.025185, 0.048521, -0.036202, 0.022160, -0.032977},
	            {-0.010977, -0.068975, 0.010467, -0.037046, -0.029115},
	            {-0.005924, -0.055393, -0.082279, -0.047301, 0.001243},
	            {0.016913, -0.056016, -0.054205, -0.065396, 0.046350}
	        },
	        {
	            {0.011498, -0.000840, -0.043238, -0.046415, -0.001186},
	            {0.051883, -0.004471, 0.039638, 0.055967, -0.037583},
	            {0.007888, 0.015039, -0.008462, 0.002233, -0.029247},
	            {-0.022406, -0.074987, -0.050695, -0.111476, 0.004350},
	            {-0.039919, 0.005527, 0.007445, 0.029117, -0.155761}
	        },
	        {
	            {-0.026513, -0.016220, -0.001634, 0.042603, -0.055693},
	            {-0.054049, -0.030556, 0.034956, 0.032539, -0.044344},
	            {0.046706, -0.012984, 0.009019, -0.140036, -0.006746},
	            {-0.041913, 0.003235, -0.014823, -0.034688, -0.060699},
	            {-0.018103, 0.030214, 0.032287, -0.085176, -0.057900}
	        },
	        {
	            {0.003096, 0.033679, 0.019792, -0.051019, -0.071026},
	            {0.012832, -0.128250, -0.058487, -0.012410, 0.046081},
	            {-0.011610, -0.059209, -0.006728, -0.035619, 0.004433},
	            {-0.056812, -0.016558, -0.003428, -0.054675, 0.023747},
	            {-0.048243, 0.010115, -0.023214, -0.050827, 0.007078}
	        },
	        {
	            {0.051788, -0.054838, -0.045308, 0.007165, 0.011820},
	            {-0.063075, 0.046356, -0.082394, -0.050699, 0.011902},
	            {0.017711, 0.031362, -0.027853, 0.099618, 0.031368},
	            {-0.003288, -0.011731, 0.017980, 0.016319, 0.026071},
	            {0.013139, 0.016870, -0.056906, 0.033157, -0.062566}
	        },
	        {
	            {-0.089744, -0.011976, -0.055425, 0.008098, -0.036155},
	            {-0.029951, 0.025874, 0.059800, 0.027676, -0.043514},
	            {-0.047269, -0.064997, 0.037683, -0.007323, -0.137874},
	            {-0.052301, -0.003278, -0.008602, -0.062180, -0.006956},
	            {-0.105943, -0.025018, -0.074251, 0.005834, 0.024838}
	        },
	        {
	            {0.000358, 0.023639, -0.012131, -0.054315, 0.011505},
	            {0.045186, 0.016509, 0.005002, 0.000504, -0.068411},
	            {0.009146, -0.021492, -0.065288, -0.043700, -0.028947},
	            {-0.042105, -0.013514, 0.054625, -0.013636, -0.085858},
	            {0.009519, -0.077100, -0.017617, 0.044750, -0.039944}
	        },
	        {
	            {-0.037349, -0.041012, -0.163103, 0.006166, -0.094451},
	            {0.026583, 0.043786, 0.031744, -0.035506, 0.044106},
	            {0.044779, -0.019643, -0.047484, -0.051951, -0.036588},
	            {-0.058561, -0.023172, -0.007828, 0.047175, -0.061405},
	            {-0.078495, -0.046910, -0.015295, -0.032044, -0.017568}
	        },
	        {
	            {-0.015544, 0.028110, 0.001729, -0.122160, -0.023810},
	            {-0.004901, 0.019908, 0.014971, -0.038509, -0.065014},
	            {0.045757, -0.083274, -0.045112, 0.016224, -0.056729},
	            {-0.023024, -0.029106, -0.001286, 0.052431, -0.012725},
	            {-0.010515, -0.009432, 0.016475, -0.054455, 0.007750}
	        },
	        {
	            {0.049756, 0.025141, -0.074654, -0.050297, 0.025850},
	            {0.015735, -0.017792, -0.031034, 0.020602, -0.049069},
	            {-0.145611, 0.023876, -0.005972, -0.079978, -0.060282},
	            {-0.013919, -0.127912, -0.015884, -0.155158, -0.045447},
	            {0.014579, -0.040490, 0.018080, 0.045687, -0.003827}
	        },
	        {
	            {-0.021216, -0.046692, 0.009534, 0.009770, -0.032075},
	            {-0.121670, 0.057349, -0.022678, -0.046681, -0.073145},
	            {0.037382, -0.059817, 0.022815, 0.035604, -0.007663},
	            {-0.054178, -0.045422, -0.047581, -0.011793, -0.043797},
	            {0.004366, -0.040775, 0.012631, -0.150321, -0.067882}
	        },
	        {
	            {-0.081823, 0.028297, -0.041299, 0.051313, -0.066260},
	            {0.017251, 0.004678, -0.051215, -0.009912, -0.056898},
	            {-0.103727, 0.012197, 0.048223, 0.006826, 0.034232},
	            {-0.005019, -0.045913, -0.017310, -0.042797, -0.014869},
	            {0.031389, -0.007131, 0.042580, -0.009632, -0.014472}
	        },
	        {
	            {0.048703, -0.016333, -0.000388, 0.005320, 0.033249},
	            {-0.101158, -0.002399, -0.174070, 0.051536, 0.024882},
	            {0.017315, 0.003779, -0.061430, 0.019940, -0.036851},
	            {0.023248, -0.012730, -0.042797, 0.000177, -0.028636},
	            {-0.038761, 0.008991, 0.015033, -0.004694, -0.029200}
	        },
	        {
	            {-0.032837, 0.012675, 0.015262, 0.011164, -0.022519},
	            {-0.030244, 0.027705, -0.045573, 0.007093, -0.038060},
	            {0.051962, -0.055949, -0.134445, -0.009422, -0.067907},
	            {0.045051, 0.059483, -0.027664, -0.000341, -0.057906},
	            {-0.040109, -0.052894, 0.001621, -0.042370, -0.032920}
	        },
	        {
	            {0.042307, -0.086659, 0.045778, 0.063136, 0.016268},
	            {-0.009752, -0.014788, -0.071290, 0.018075, -0.025301},
	            {-0.035965, -0.062956, -0.021733, -0.054731, 0.009571},
	            {-0.051979, -0.095585, -0.004306, 0.045043, -0.190052},
	            {-0.033987, -0.122966, -0.007274, 0.013688, 0.049730}
	        },
	        {
	            {0.006031, -0.021939, -0.008108, 0.002144, 0.046397},
	            {-0.005958, 0.002518, 0.051768, 0.000490, -0.025716},
	            {0.019315, -0.063018, -0.023134, 0.001561, 0.031958},
	            {-0.064307, 0.039910, -0.027455, -0.082796, -0.010478},
	            {-0.106450, -0.020645, 0.035074, -0.076719, -0.014652}
	        },
	        {
	            {-0.049717, -0.141715, -0.060805, -0.081223, 0.003674},
	            {-0.042665, -0.030901, 0.052265, -0.025813, -0.031835},
	            {-0.035134, 0.043919, -0.069594, -0.030442, -0.031226},
	            {-0.186966, -0.003387, -0.039063, -0.029344, -0.033358},
	            {0.004774, -0.052219, -0.060423, -0.030679, -0.017867}
	        },
	        {
	            {-0.036985, 0.009994, 0.010984, 0.012589, -0.061359},
	            {-0.077458, -0.035088, -0.033719, -0.032855, -0.018553},
	            {-0.073496, 0.049533, 0.022616, -0.002403, -0.035653},
	            {-0.028463, -0.051432, 0.037429, 0.005809, 0.010605},
	            {-0.013861, -0.022607, -0.108782, -0.037910, -0.008316}
	        }
	    },
	    {
	        {
	            {-0.135571, -0.042545, -0.065559, 0.024448, -0.040779},
	            {0.086375, -0.053217, 0.041738, 0.004626, -0.025278},
	            {0.041183, -0.118947, -0.080422, -0.018579, 0.035738},
	            {0.052855, 0.017480, 0.011531, -0.085814, 0.048598},
	            {0.016494, 0.033645, 0.049415, 0.008638, -0.007419}
	        },
	        {
	            {-0.041645, 0.058343, 0.053727, 0.035648, 0.024622},
	            {0.010804, 0.032196, -0.078787, 0.016857, 0.038670},
	            {0.028546, -0.061284, -0.013355, -0.031833, 0.057422},
	            {0.011368, -0.067799, -0.004220, -0.081949, -0.021643},
	            {-0.026649, 0.010687, 0.031570, -0.206357, 0.044963}
	        },
	        {
	            {0.034922, -0.000298, 0.054419, -0.017902, -0.037402},
	            {0.050578, 0.002183, -0.096128, -0.024202, 0.017015},
	            {0.031626, -0.012045, 0.035459, 0.022358, -0.022564},
	            {0.049686, -0.040528, -0.042436, 0.031021, -0.023667},
	            {0.009007, -0.009068, -0.032715, -0.004895, -0.002666}
	        },
	        {
	            {-0.073372, -0.073148, 0.006515, 0.065596, -0.031083},
	            {0.060742, 0.013359, -0.028366, -0.021123, 0.036218},
	            {0.041100, 0.021279, -0.004704, -0.037958, 0.007157},
	            {-0.035537, -0.040212, 0.023221, -0.079775, 0.061450},
	            {0.060656, 0.046526, -0.067123, 0.020549, 0.048650}
	        },
	        {
	            {0.063598, -0.031762, -0.051164, -0.001826, 0.034889},
	            {0.069714, 0.103432, 0.029452, 0.100172, -0.057125},
	            {-0.049728, -0.020927, -0.036172, -0.016644, -0.008461},
	            {-0.014680, 0.031234, 0.010649, 0.079925, 0.013891},
	            {-0.003690, 0.011126, -0.046230, 0.005245, -0.012735}
	        },
	        {
	            {0.001816, 0.045535, -0.036062, -0.057886, -0.000898},
	            {0.062183, -0.007480, -0.037474, 0.043872, 0.011211},
	            {0.044372, -0.013405, 0.002545, 0.099778, -0.012193},
	            {0.123191, -0.049047, -0.107687, 0.013244, 0.011469},
	            {-0.047967, 0.024354, 0.014766, -0.088151, -0.035672}
	        },
	        {
	            {0.060504, -0.022712, 0.015958, -0.055408, -0.006578},
	            {-0.037876, -0.034601, -0.032621, 0.011408, 0.013583},
	            {0.016459, -0.075981, -0.042020, -0.005613, -0.020574},
	            {0.082059, 0.053050, 0.014453, 0.002392, -0.000734},
	            {-0.013702, -0.144304, 0.018165, 0.002874, -0.017073}
	        },
	        {
	            {-0.025270, 0.071594, -0.028275, -0.059933, -0.043921},
	            {-0.053502, -0.046998, 0.042789, -0.005265, -0.034701},
	            {-0.080927, -0.029753, -0.061519, 0.036881, -0.110458},
	            {0.079052, 0.016419, -0.068351, -0.034465, 0.008447},
	            {-0.040801, -0.101395, -0.042203, -0.067161, 0.006091}
	        },
	        {
	            {-0.013454, -0.062295, 0.022826, -0.066815, -0.098526},
	            {0.069351, -0.005438, 0.068878, 0.060159, -0.045873},
	            {0.006847, -0.000951, -0.094512, 0.014895, 0.075835},
	            {0.019762, 0.016349, -0.011167, -0.032552, 0.016916},
	            {0.014836, -0.006211, 0.017441, -0.016103, 0.011973}
	        },
	        {
	            {0.005692, 0.046992, 0.013158, -0.063346, 0.002423},
	            {0.054833, 0.070880, 0.011818, -0.113486, 0.024780},
	            {0.038525, -0.110740, 0.045878, -0.025052, 0.140025},
	            {0.081341, -0.056230, -0.032083, 0.042756, -0.002714},
	            {-0.017077, 0.025349, 0.046164, -0.028519, 0.045090}
	        },
	        {
	            {-0.024333, 0.041988, -0.056431, -0.005594, 0.022603},
	            {-0.018489, 0.001177, -0.010329, 0.053073, 0.018269},
	            {0.052251, -0.053104, -0.010946, 0.001038, -0.037895},
	            {-0.100028, 0.050756, -0.081384, -0.022634, 0.030140},
	            {0.054854, 0.100169, -0.078962, -0.006245, -0.031221}
	        },
	        {
	            {-0.026151, 0.049198, 0.018571, -0.013835, 0.024312},
	            {0.033955, -0.093431, 0.052356, -0.024836, 0.001979},
	            {-0.078438, 0.003376, -0.037600, 0.054331, -0.048318},
	            {-0.001719, -0.012392, -0.003776, -0.000189, -0.022162},
	            {-0.051605, -0.006893, 0.006154, 0.044368, -0.069577}
	        },
	        {
	            {0.215164, -0.021926, -0.089026, 0.015191, -0.013641},
	            {-0.007900, 0.007143, -0.064374, 0.056709, 0.036552},
	            {-0.019640, 0.058403, -0.062898, -0.045089, -0.002781},
	            {-0.063404, -0.075063, 0.008176, 0.045860, 0.061790},
	            {-0.054322, 0.017223, 0.052522, -0.070942, 0.132611}
	        },
	        {
	            {-0.008447, -0.058110, 0.000806, 0.012010, 0.031612},
	            {0.013208, -0.074963, 0.006006, 0.024579, 0.066224},
	            {-0.067977, -0.058823, 0.047277, -0.013669, -0.011550},
	            {-0.047697, 0.044951, 0.007432, -0.009413, -0.017255},
	            {0.025776, 0.002343, -0.034694, 0.009638, -0.008002}
	        },
	        {
	            {-0.007890, 0.028941, -0.099926, 0.002533, 0.029871},
	            {0.105469, -0.009230, 0.037830, 0.045990, -0.011340},
	            {0.026425, -0.047322, -0.039960, 0.047127, -0.073433},
	            {-0.023688, 0.039193, -0.026806, 0.001073, 0.019638},
	            {-0.024424, 0.051407, -0.016067, 0.022763, 0.017711}
	        },
	        {
	            {0.045152, -0.050087, -0.017742, -0.060061, 0.007736},
	            {-0.076285, 0.008410, 0.030601, -0.019917, -0.119491},
	            {-0.033508, 0.004572, -0.172148, -0.005257, 0.045364},
	            {-0.058859, -0.066190, 0.056907, -0.026259, -0.066460},
	            {-0.084079, -0.100834, 0.023619, 0.079849, -0.027419}
	        },
	        {
	            {-0.040749, -0.089655, -0.026129, -0.062843, -0.007986},
	            {-0.009763, 0.075396, -0.013811, 0.027933, 0.092181},
	            {-0.004637, 0.039287, 0.022645, 0.057905, 0.068374},
	            {-0.068302, -0.034567, -0.002147, 0.021296, -0.162338},
	            {0.013469, 0.111170, -0.000778, -0.026943, -0.025933}
	        },
	        {
	            {-0.101807, -0.066109, -0.017257, -0.105419, -0.031195},
	            {-0.007067, 0.084781, -0.022807, -0.040202, 0.047496},
	            {0.018655, -0.056816, -0.048041, 0.069067, -0.045239},
	            {-0.015520, -0.070950, -0.077392, 0.016683, -0.000917},
	            {0.033380, 0.004984, 0.008868, 0.035145, 0.060873}
	        },
	        {
	            {-0.049223, -0.028298, -0.123319, 0.090991, -0.009667},
	            {-0.002915, 0.050294, -0.052124, -0.019353, -0.069957},
	            {0.040974, 0.050601, -0.000587, 0.064531, -0.094410},
	            {-0.022998, 0.054299, 0.005689, -0.040330, -0.015916},
	            {0.035388, 0.035026, -0.044335, -0.033766, -0.068018}
	        },
	        {
	            {0.090500, -0.003236, 0.025467, -0.039093, 0.017538},
	            {0.041420, -0.036454, 0.012667, 0.002365, -0.019578},
	            {-0.005442, -0.043253, -0.062508, 0.006364, 0.021344},
	            {0.001420, -0.037572, -0.113240, -0.006337, 0.117601},
	            {-0.111750, 0.071159, 0.004164, -0.017296, 0.033683}
	        },
	        {
	            {0.008415, -0.054406, 0.008278, 0.050988, 0.049190},
	            {-0.047400, 0.040071, -0.017590, 0.030821, -0.042423},
	            {0.024540, 0.050739, 0.010991, 0.046483, 0.065045},
	            {0.011769, -0.046591, 0.069108, 0.012888, -0.049859},
	            {-0.009894, 0.007533, -0.003077, 0.039217, -0.051860}
	        },
	        {
	            {-0.026184, 0.090171, -0.104976, 0.070742, -0.062450},
	            {-0.039312, -0.056525, -0.018381, -0.011482, 0.004453},
	            {0.001619, 0.013931, -0.018175, -0.035087, -0.019748},
	            {-0.023791, 0.001502, -0.020945, 0.011551, 0.039247},
	            {0.041360, 0.002396, -0.086286, 0.044497, 0.053557}
	        },
	        {
	            {-0.023282, 0.019183, 0.035948, 0.039558, -0.025650},
	            {0.015183, -0.044954, 0.078065, 0.052257, -0.074559},
	            {-0.011356, -0.066104, -0.001071, -0.011921, 0.014296},
	            {-0.075827, 0.083881, -0.015701, -0.031552, 0.004735},
	            {-0.031783, -0.022539, -0.026999, 0.059442, 0.025815}
	        },
	        {
	            {-0.069319, 0.012481, 0.042444, -0.051481, -0.105926},
	            {-0.056211, 0.023263, 0.012008, -0.018953, -0.073215},
	            {0.032383, 0.020280, -0.073868, -0.014317, 0.011314},
	            {0.152458, -0.092446, -0.014931, -0.086166, -0.021785},
	            {0.043154, 0.062865, 0.016821, 0.047629, 0.031328}
	        },
	        {
	            {0.021092, 0.059123, -0.060287, 0.049925, 0.076446},
	            {0.105670, -0.048576, 0.068463, -0.072280, 0.099211},
	            {-0.002477, -0.094937, -0.082047, 0.076026, -0.036652},
	            {0.023492, -0.014468, 0.056886, -0.009405, 0.017971},
	            {0.021060, -0.012935, 0.086356, -0.020188, -0.054012}
	        },
	        {
	            {-0.059370, 0.062937, 0.015988, 0.070908, 0.011484},
	            {0.032968, 0.035275, 0.054069, 0.004839, -0.123482},
	            {0.040658, 0.031794, 0.061996, -0.043770, 0.026039},
	            {0.048215, -0.119118, -0.000046, -0.070924, 0.058957},
	            {0.048684, 0.038139, -0.017019, 0.029997, 0.061289}
	        },
	        {
	            {0.004226, -0.067712, -0.019651, 0.055074, -0.026567},
	            {0.047328, 0.060168, -0.010798, -0.018901, 0.026128},
	            {0.010744, -0.067601, -0.012768, -0.066445, -0.020273},
	            {0.046106, 0.021862, 0.000789, 0.017214, 0.006748},
	            {0.057183, 0.048762, -0.005442, -0.065861, -0.029835}
	        },
	        {
	            {-0.150988, -0.012642, 0.006259, -0.038320, -0.023925},
	            {-0.002523, 0.068780, -0.056371, 0.029474, -0.119437},
	            {0.032099, 0.056867, -0.038629, 0.066285, 0.031426},
	            {0.006480, 0.056539, 0.046243, -0.062165, -0.038219},
	            {-0.020461, -0.061784, -0.040285, 0.049440, 0.019751}
	        },
	        {
	            {-0.030207, 0.041485, 0.045975, 0.087430, 0.086563},
	            {0.021923, -0.038041, -0.040856, -0.042431, 0.044700},
	            {-0.043773, -0.018358, -0.011357, -0.009574, 0.029053},
	            {0.040101, -0.160400, 0.032727, 0.039182, -0.034824},
	            {0.024734, 0.022177, 0.009362, 0.016909, -0.014391}
	        },
	        {
	            {-0.015581, -0.004091, -0.063040, 0.031122, -0.022213},
	            {0.057107, 0.048493, -0.041347, -0.039373, -0.048572},
	            {-0.052364, -0.055387, 0.065253, 0.001886, -0.087983},
	            {-0.007399, 0.003224, -0.024267, -0.054525, -0.005847},
	            {-0.043994, 0.005849, 0.081567, 0.067493, 0.008339}
	        },
	        {
	            {0.051584, -0.028596, 0.034105, -0.026627, -0.033334},
	            {-0.068546, 0.078853, -0.043331, 0.000892, 0.058925},
	            {0.012470, 0.030037, 0.048533, -0.026313, -0.004073},
	            {-0.021290, -0.027571, 0.023231, -0.030571, 0.051107},
	            {-0.006141, -0.092334, -0.040899, 0.062489, 0.002349}
	        },
	        {
	            {-0.023074, -0.005892, -0.052497, 0.092565, -0.024236},
	            {0.083196, 0.010042, 0.072730, -0.016644, -0.084883},
	            {-0.109360, 0.047683, 0.021836, 0.125027, -0.026325},
	            {0.057766, -0.009216, -0.031889, 0.048765, 0.016765},
	            {-0.045237, 0.065831, 0.097699, 0.001009, -0.043013}
	        }
	    },
	    {
	        {
	            {0.043439, -0.028375, 0.029006, -0.040302, -0.001360},
	            {-0.033165, -0.029722, -0.037751, -0.017606, -0.115362},
	            {-0.004165, -0.003752, -0.031633, 0.026282, -0.016823},
	            {-0.012025, -0.039725, 0.111068, -0.047280, -0.033351},
	            {0.052330, 0.032462, 0.053154, -0.016047, -0.052011}
	        },
	        {
	            {-0.016826, -0.057944, -0.025421, -0.052756, -0.140553},
	            {0.032638, 0.064319, 0.049525, -0.117323, 0.046265},
	            {0.048847, -0.043753, 0.022174, -0.051015, 0.002095},
	            {-0.057747, -0.057398, -0.013123, -0.028158, -0.058624},
	            {-0.034835, 0.005042, -0.026626, 0.017483, 0.018222}
	        },
	        {
	            {0.045745, 0.024376, 0.016671, 0.046592, -0.005762},
	            {-0.036216, 0.006879, -0.022675, -0.105826, 0.027081},
	            {0.009399, -0.108691, 0.027176, -0.027398, -0.053400},
	            {-0.097971, -0.046105, 0.094454, 0.047727, 0.043564},
	            {0.016189, -0.025966, -0.028577, -0.138536, 0.005021}
	        },
	        {
	            {-0.019302, -0.005581, -0.028642, 0.012203, -0.094769},
	            {-0.025506, -0.032097, -0.051782, 0.032563, -0.007295},
	            {-0.010599, -0.030238, -0.039434, 0.031656, 0.038880},
	            {-0.018729, 0.026346, 0.003759, -0.024132, 0.004904},
	            {-0.009097, 0.041945, -0.018546, -0.025541, 0.040065}
	        },
	        {
	            {0.038290, -0.068113, -0.007532, -0.068145, -0.009441},
	            {-0.045314, 0.072327, -0.011447, 0.011795, -0.023714},
	            {0.064582, -0.217337, -0.031986, -0.142977, -0.019141},
	            {-0.002754, -0.019855, 0.060105, 0.039823, 0.037211},
	            {-0.056258, -0.012995, -0.043752, 0.043731, -0.042951}
	        },
	        {
	            {0.066183, -0.052139, -0.060779, -0.059625, -0.085633},
	            {0.028083, -0.067288, -0.038942, 0.043210, 0.048977},
	            {-0.074578, -0.025624, -0.005136, 0.024830, -0.080787},
	            {-0.077638, 0.044959, 0.002162, -0.144361, -0.015918},
	            {-0.069021, -0.066241, -0.050193, -0.011284, -0.020361}
	        },
	        {
	            {0.037531, 0.034099, 0.005909, -0.045153, -0.085621},
	            {-0.035301, -0.003005, -0.145290, 0.047758, -0.020687},
	            {-0.021203, -0.107339, -0.006642, -0.046538, 0.038656},
	            {-0.044050, -0.019158, 0.034730, 0.047985, -0.132748},
	            {0.000367, -0.020080, -0.072666, -0.001793, -0.011948}
	        },
	        {
	            {-0.125018, 0.043263, -0.095499, -0.044744, 0.049646},
	            {0.046104, 0.063798, -0.024993, -0.024935, -0.007117},
	            {0.020477, -0.046923, -0.102625, 0.056973, -0.080313},
	            {0.013959, 0.056973, 0.065369, -0.078241, 0.050034},
	            {-0.038626, 0.049025, -0.010351, -0.012716, 0.017138}
	        },
	        {
	            {0.027205, -0.179707, 0.026496, -0.006502, -0.049253},
	            {0.018109, -0.036349, -0.046598, 0.012864, 0.024016},
	            {0.055067, 0.022884, -0.020714, -0.053608, 0.021765},
	            {-0.001966, -0.015201, 0.020593, -0.004758, -0.066005},
	            {-0.001246, -0.186890, -0.053157, -0.000249, -0.042814}
	        },
	        {
	            {-0.071859, -0.001874, 0.069924, 0.024746, 0.034541},
	            {-0.040686, -0.054188, -0.023324, -0.155988, 0.026801},
	            {0.048959, 0.014730, 0.032304, 0.025483, -0.056624},
	            {-0.009187, 0.051117, -0.040180, -0.007452, -0.015525},
	            {0.011432, -0.015726, -0.028077, 0.049376, 0.037398}
	        },
	        {
	            {-0.077541, -0.026609, -0.029788, 0.084880, 0.007756},
	            {-0.030838, 0.003222, 0.008985, 0.017209, -0.057561},
	            {-0.046623, -0.040407, 0.046181, 0.003615, 0.033723},
	            {0.049944, 0.017439, -0.053130, -0.046882, 0.007805},
	            {0.012134, -0.076440, -0.059687, 0.050096, 0.035990}
	        },
	        {
	            {-0.049948, 0.005826, 0.018846, -0.019186, -0.007053},
	            {-0.021094, 0.044320, 0.005311, -0.012488, -0.016782},
	            {0.044584, -0.018788, -0.019927, -0.050701, -0.074271},
	            {0.018069, 0.032146, -0.053647, -0.057552, 0.015570},
	            {0.010288, 0.038643, 0.016156, 0.011898, -0.083592}
	        },
	        {
	            {-0.088706, -0.073643, 0.059333, -0.255452, -0.022546},
	            {-0.043542, 0.050941, 0.004080, 0.015297, 0.046998},
	            {-0.012687, -0.023050, 0.037545, 0.047461, 0.008295},
	            {-0.063478, -0.039015, 0.024748, 0.035965, 0.034523},
	            {0.066709, -0.097809, -0.043748, -0.063271, 0.015221}
	        },
	        {
	            {0.043203, 0.052854, -0.002073, -0.016308, -0.107349},
	            {0.013564, -0.035789, -0.044690, -0.027937, 0.010498},
	            {-0.027218, -0.037357, -0.121939, -0.045593, 0.035558},
	            {-0.010366, -0.022635, -0.011296, -0.043164, 0.008634},
	            {0.047570, -0.084816, -0.048274, 0.003237, -0.117819}
	        },
	        {
	            {-0.029055, -0.057422, 0.007027, -0.064921, -0.028950},
	            {-0.043883, 0.033821, -0.058550, 0.058841, -0.056332},
	            {0.040584, 0.005639, 0.041271, -0.059444, -0.025772},
	            {0.003296, 0.058536, -0.024140, 0.054365, -0.002700},
	            {0.001718, 0.043515, 0.038390, 0.004431, -0.015896}
	        },
	        {
	            {0.044993, -0.068598, -0.002421, -0.091015, -0.061230},
	            {0.057174, -0.091305, 0.039976, 0.013910, 0.015177},
	            {-0.001494, -0.030934, -0.019838, 0.040982, 0.028384},
	            {-0.055144, -0.010944, 0.021844, -0.088703, 0.019209},
	            {-0.064679, -0.087484, -0.015932, -0.010450, -0.019139}
	        },
	        {
	            {0.036563, 0.086917, 0.024389, -0.041214, -0.054908},
	            {-0.047366, -0.051327, -0.006413, 0.035364, -0.061134},
	            {0.017808, -0.061245, -0.036826, -0.040400, 0.016341},
	            {-0.009530, -0.050619, -0.029579, 0.044212, 0.025909},
	            {0.020459, -0.064431, -0.050402, 0.003343, -0.060849}
	        },
	        {
	            {-0.035720, -0.000042, 0.038661, -0.025451, -0.058382},
	            {-0.012573, -0.028018, 0.030659, -0.008501, -0.056093},
	            {0.036186, -0.007621, 0.025974, -0.030980, -0.038147},
	            {-0.026823, 0.053777, -0.068997, -0.041452, -0.043049},
	            {-0.013086, 0.040752, -0.016717, 0.050024, 0.010017}
	        },
	        {
	            {0.000237, -0.023797, -0.058872, 0.029910, -0.047558},
	            {0.008091, 0.024942, -0.024121, 0.064034, -0.041099},
	            {-0.063503, -0.035140, -0.048199, -0.145545, -0.002455},
	            {-0.032294, 0.029583, -0.045786, 0.031937, -0.048197},
	            {-0.012081, -0.047373, 0.002883, -0.060340, -0.034887}
	        },
	        {
	            {0.045108, 0.032906, -0.079885, -0.031884, -0.033348},
	            {0.026105, -0.100974, -0.016155, -0.046382, 0.027957},
	            {0.038793, 0.029624, -0.036833, 0.011822, -0.084486},
	            {0.032577, -0.047827, -0.063513, -0.046954, -0.050773},
	            {-0.045916, 0.022803, -0.016119, -0.000243, -0.036408}
	        },
	        {
	            {-0.077264, 0.046636, -0.012435, 0.048612, 0.052400},
	            {0.000619, -0.042480, -0.053668, 0.021204, -0.087180},
	            {-0.047865, 0.062091, 0.050031, -0.098131, -0.033402},
	            {-0.018791, -0.005028, -0.017655, 0.044560, -0.014248},
	            {-0.063892, -0.102364, 0.029915, -0.002141, -0.058520}
	        },
	        {
	            {-0.020545, -0.010095, -0.086547, 0.004080, -0.015263},
	            {-0.046266, -0.062300, -0.018433, -0.020676, 0.052082},
	            {-0.021172, 0.030068, -0.012109, -0.046403, -0.004575},
	            {0.030151, -0.052217, 0.053768, 0.051211, -0.000253},
	            {-0.010101, 0.057889, -0.024741, -0.002009, 0.001079}
	        },
	        {
	            {-0.001512, 0.001841, -0.047920, -0.047721, 0.056859},
	            {0.020436, 0.005220, -0.036926, -0.016629, -0.116921},
	            {0.019225, 0.068536, -0.063091, 0.036392, -0.005577},
	            {0.045313, -0.043053, -0.008398, -0.006544, 0.044886},
	            {0.005093, 0.027646, 0.001853, -0.042617, -0.000464}
	        },
	        {
	            {0.030999, 0.009800, -0.045647, -0.001741, 0.060649},
	            {-0.038480, 0.001631, -0.056852, 0.023190, -0.005377},
	            {-0.051816, 0.080888, 0.046220, -0.057240, 0.023772},
	            {0.043750, -0.081279, -0.032669, 0.051642, 0.008328},
	            {-0.009962, 0.033544, -0.044637, 0.041237, 0.019465}
	        },
	        {
	            {0.018629, 0.050991, -0.109611, 0.026969, -0.057805},
	            {0.002802, -0.024138, -0.007929, 0.008415, 0.005918},
	            {-0.022028, -0.007740, -0.047467, -0.039514, 0.049239},
	            {-0.061386, 0.038321, -0.107372, -0.015010, -0.010524},
	            {-0.094347, -0.044249, -0.039590, -0.047373, -0.004656}
	        },
	        {
	            {-0.043101, -0.013355, 0.022809, 0.017087, -0.019687},
	            {0.015096, 0.050818, 0.041044, 0.042998, -0.059276},
	            {-0.060158, 0.029001, -0.083659, -0.010208, -0.017607},
	            {0.059625, -0.171046, 0.007375, -0.026887, 0.020954},
	            {0.006082, 0.060074, -0.045029, -0.020040, -0.036782}
	        },
	        {
	            {0.078110, 0.038025, -0.100765, -0.020870, -0.008573},
	            {-0.170057, 0.027964, -0.044510, 0.010315, -0.058648},
	            {-0.073812, 0.051462, -0.000180, -0.015196, -0.061818},
	            {-0.052326, -0.017551, -0.068572, -0.026058, -0.185469},
	            {0.006947, -0.057170, 0.004443, -0.099544, 0.001492}
	        },
	        {
	            {-0.073583, -0.021254, 0.038600, -0.010325, -0.014797},
	            {-0.037307, -0.031438, 0.033820, -0.000837, -0.090757},
	            {-0.067215, 0.002159, -0.175243, 0.009168, -0.087857},
	            {0.048114, -0.002816, -0.005540, -0.013111, -0.048808},
	            {-0.051764, -0.045372, -0.014502, 0.025454, -0.037020}
	        },
	        {
	            {-0.049380, -0.087231, -0.053986, -0.025208, 0.026361},
	            {-0.064539, 0.026800, -0.080438, 0.050576, 0.043507},
	            {-0.050530, 0.024499, 0.001978, -0.043216, -0.007287},
	            {-0.032592, -0.064640, 0.040170, 0.040571, -0.084428},
	            {0.005432, -0.166455, 0.047345, -0.003535, -0.065257}
	        },
	        {
	            {-0.055555, -0.033845, -0.037575, -0.011473, -0.066205},
	            {-0.019026, 0.022877, -0.036345, 0.002626, 0.036486},
	            {0.031287, 0.031478, -0.100725, -0.022339, 0.043452},
	            {-0.006848, 0.007655, -0.047820, 0.027311, 0.021400},
	            {-0.008578, 0.051429, -0.034506, -0.037528, 0.026532}
	        },
	        {
	            {0.016635, -0.170631, -0.050566, 0.191246, 0.047565},
	            {0.005890, -0.045089, -0.039987, 0.026614, 0.043481},
	            {-0.017516, 0.036110, -0.095049, 0.000445, 0.007246},
	            {-0.015977, 0.061498, 0.062591, 0.026226, -0.082782},
	            {-0.015851, 0.023363, 0.033249, -0.071640, -0.041232}
	        },
	        {
	            {0.033160, -0.016583, -0.096122, 0.024741, -0.037472},
	            {-0.022839, -0.068390, 0.019197, -0.048768, 0.028395},
	            {0.015695, -0.044062, -0.009305, 0.014325, -0.006212},
	            {-0.054567, 0.051960, -0.063038, -0.047303, -0.034458},
	            {0.030543, 0.054767, -0.075320, 0.012279, 0.043971}
	        }
	    },
	    {
	        {
	            {-0.004690, 0.042178, 0.001181, -0.068759, 0.048292},
	            {0.035763, -0.010684, 0.049946, -0.064766, -0.033588},
	            {-0.019370, 0.002500, -0.027567, 0.007167, -0.059247},
	            {0.041892, -0.058700, -0.024036, -0.039872, -0.005501},
	            {-0.009990, -0.038131, 0.010739, -0.001955, 0.005390}
	        },
	        {
	            {-0.061885, 0.042511, 0.027012, -0.034985, -0.046590},
	            {0.013853, -0.035748, 0.048458, -0.038535, 0.026856},
	            {-0.030233, -0.059901, -0.003660, 0.044543, 0.019540},
	            {-0.024737, -0.054319, 0.048427, 0.050136, 0.027382},
	            {-0.020191, -0.009413, -0.053725, 0.046278, -0.117883}
	        },
	        {
	            {-0.035786, 0.034570, -0.037014, -0.051253, 0.039465},
	            {0.039693, 0.028064, 0.005140, -0.041603, 0.014538},
	            {-0.044728, -0.115162, -0.053868, -0.052108, 0.024052},
	            {-0.099401, 0.048439, -0.018256, -0.045126, 0.032682},
	            {0.060956, 0.045353, 0.038116, -0.047047, 0.022370}
	        },
	        {
	            {0.044791, 0.004697, 0.028748, 0.026035, 0.028743},
	            {-0.030788, -0.103772, 0.000830, -0.030724, -0.020484},
	            {0.016802, 0.005826, -0.010026, -0.020644, -0.043802},
	            {-0.058326, -0.063022, -0.029592, -0.073805, -0.047165},
	            {-0.001879, -0.039469, -0.162225, 0.064821, -0.044920}
	        },
	        {
	            {0.031973, 0.044574, 0.027205, 0.026002, -0.027277},
	            {-0.043881, 0.016750, 0.011584, -0.031386, 0.001432},
	            {0.060250, 0.003991, -0.037807, -0.026343, -0.012256},
	            {0.012050, 0.042961, -0.053202, 0.050706, 0.057536},
	            {0.008510, 0.047232, -0.001814, -0.003843, 0.010945}
	        },
	        {
	            {-0.101908, 0.052372, -0.002806, 0.055524, 0.072055},
	            {0.011724, 0.022077, 0.043246, 0.034005, -0.028708},
	            {-0.012820, -0.026906, -0.063069, 0.039547, 0.013370},
	            {-0.013297, -0.024125, 0.050932, -0.166948, -0.068002},
	            {-0.140139, -0.031442, -0.054575, -0.001077, -0.043839}
	        },
	        {
	            {-0.049132, 0.022100, -0.043305, 0.017068, -0.055624},
	            {0.011865, -0.046173, 0.147836, -0.022642, -0.045238},
	            {0.042431, -0.047509, 0.056243, -0.047877, -0.028804},
	            {-0.023502, -0.047741, -0.010082, -0.044661, -0.077596},
	            {0.027572, 0.045342, -0.110947, 0.014219, 0.027704}
	        },
	        {
	            {0.031097, -0.051291, -0.004965, 0.030199, -0.035230},
	            {0.062061, 0.053559, -0.061052, 0.024054, 0.023243},
	            {0.026304, -0.090877, 0.039583, -0.055957, -0.050264},
	            {0.022096, -0.022901, -0.055118, 0.008791, 0.057037},
	            {0.040103, 0.013854, 0.038951, -0.026531, 0.029708}
	        },
	        {
	            {0.002755, -0.058162, 0.035700, -0.002781, -0.079230},
	            {-0.061797, 0.002413, -0.065264, -0.040076, -0.145326},
	            {0.057922, -0.002890, 0.020164, -0.008727, 0.028764},
	            {-0.027898, -0.020798, -0.022948, -0.022078, 0.039445},
	            {-0.046424, -0.027094, -0.028377, -0.049034, -0.047868}
	        },
	        {
	            {-0.028961, -0.048419, 0.026760, -0.014408, -0.004368},
	            {0.037812, -0.057237, 0.015185, 0.043597, -0.028831},
	            {-0.030973, -0.086384, -0.051670, 0.072529, -0.026689},
	            {-0.026559, -0.063595, 0.006828, 0.053041, -0.045539},
	            {-0.020292, 0.048100, -0.058174, 0.013769, 0.047612}
	        },
	        {
	            {-0.034509, 0.015773, -0.042835, -0.048288, -0.009281},
	            {0.036427, 0.020817, -0.011581, -0.005846, -0.030074},
	            {0.026082, 0.026352, -0.004923, 0.036394, -0.056402},
	            {0.086717, 0.001203, -0.046257, -0.004322, -0.054681},
	            {0.054875, -0.005711, -0.006228, -0.071729, 0.006140}
	        },
	        {
	            {0.031497, 0.017694, 0.047934, -0.022619, -0.043108},
	            {0.038033, -0.030907, -0.077888, 0.017484, 0.020933},
	            {0.025444, -0.005403, 0.065402, 0.054389, 0.029123},
	            {0.014879, -0.018098, -0.042874, 0.019285, -0.037151},
	            {0.017374, 0.031341, -0.019836, -0.060594, -0.028642}
	        },
	        {
	            {0.028989, -0.013075, -0.018618, -0.111472, -0.018012},
	            {-0.073739, -0.010722, 0.030271, -0.050075, -0.031412},
	            {0.059263, 0.018602, -0.016559, -0.027135, -0.089949},
	            {-0.058805, -0.015005, -0.015765, 0.014189, 0.033096},
	            {0.046355, -0.060560, -0.034200, -0.002098, -0.020757}
	        },
	        {
	            {-0.054982, -0.044404, -0.038558, 0.040930, -0.064663},
	            {-0.058998, -0.071666, -0.062364, -0.001048, -0.014776},
	            {-0.016786, -0.026187, -0.107315, -0.040276, 0.020084},
	            {-0.057640, -0.032291, -0.034279, 0.021062, -0.020681},
	            {-0.039752, -0.000272, 0.011932, -0.062883, 0.068188}
	        },
	        {
	            {0.045485, 0.021018, 0.035823, 0.034511, 0.026034},
	            {0.025404, -0.053254, -0.034838, 0.018080, -0.038905},
	            {-0.028729, 0.014883, -0.052715, 0.012998, -0.111579},
	            {0.063493, -0.034812, -0.093715, -0.008351, -0.135338},
	            {-0.023160, 0.042925, 0.052558, 0.069495, -0.008870}
	        },
	        {
	            {0.018903, 0.052419, 0.034948, -0.042974, -0.001367},
	            {0.028932, 0.044210, -0.003950, -0.037084, -0.044294},
	            {0.067462, -0.052665, -0.045054, 0.043987, -0.055007},
	            {-0.051647, -0.018639, 0.013566, -0.044727, -0.016737},
	            {-0.036753, 0.053335, -0.029316, 0.009723, -0.106386}
	        },
	        {
	            {-0.020723, -0.084154, -0.063732, 0.001574, 0.016617},
	            {-0.029102, 0.024714, -0.002196, -0.023495, 0.053392},
	            {-0.069614, 0.009923, 0.000093, -0.220349, 0.037099},
	            {-0.032890, 0.011478, -0.025883, -0.058243, 0.033479},
	            {-0.062335, 0.047643, 0.030563, -0.032511, -0.066792}
	        },
	        {
	            {0.084594, -0.027000, 0.018970, -0.015948, 0.015996},
	            {0.026761, -0.070640, -0.036317, -0.047827, 0.053813},
	            {0.046330, -0.030045, 0.025180, -0.018139, 0.002147},
	            {0.023020, -0.007970, -0.075958, 0.016653, 0.056877},
	            {0.029217, 0.018708, 0.037052, -0.051288, -0.098353}
	        },
	        {
	            {0.006029, 0.022561, -0.001941, 0.024208, -0.002069},
	            {-0.013682, 0.005842, -0.000648, 0.042031, 0.008117},
	            {0.064968, 0.042932, 0.065226, -0.059804, -0.047065},
	            {-0.003098, 0.021975, -0.024595, -0.001056, 0.047407},
	            {0.052711, -0.010656, -0.029774, 0.004371, -0.048833}
	        },
	        {
	            {0.051798, 0.044242, -0.013343, 0.007941, -0.025059},
	            {-0.049537, -0.069274, -0.003481, -0.027086, -0.031827},
	            {-0.052109, -0.047788, -0.067645, -0.004935, -0.119921},
	            {0.010564, -0.157963, -0.114914, 0.043091, 0.048577},
	            {0.056824, -0.050588, -0.088874, -0.019849, 0.048100}
	        },
	        {
	            {0.033374, 0.051303, 0.000399, 0.049471, 0.023737},
	            {0.014571, -0.034815, -0.045258, 0.004051, 0.060171},
	            {-0.034327, -0.037994, 0.030663, 0.099916, -0.018151},
	            {-0.033831, 0.018029, -0.037043, 0.039680, 0.035744},
	            {0.019501, 0.024770, 0.020088, -0.009419, -0.175894}
	        },
	        {
	            {-0.005080, 0.072171, -0.092943, 0.035120, -0.068167},
	            {0.008595, 0.011594, -0.031733, 0.020741, -0.057368},
	            {0.012395, -0.044984, -0.050016, -0.050473, -0.039444},
	            {-0.054827, 0.012195, -0.029220, 0.004104, -0.038764},
	            {0.010274, 0.004333, 0.021264, 0.002608, -0.062626}
	        },
	        {
	            {-0.028663, -0.055478, -0.006239, 0.020516, 0.010459},
	            {-0.051472, -0.005019, -0.012378, 0.022981, -0.095012},
	            {-0.013306, 0.090476, 0.024054, -0.014107, -0.046311},
	            {-0.001320, -0.027229, -0.017773, -0.004525, -0.023043},
	            {-0.072104, -0.008153, -0.015196, -0.186295, -0.037362}
	        },
	        {
	            {-0.049788, 0.033637, -0.018284, 0.007979, 0.031467},
	            {-0.057903, -0.049700, -0.008977, -0.015236, -0.043463},
	            {0.126693, -0.008018, 0.063385, 0.046240, 0.016962},
	            {0.013320, -0.131328, 0.039987, 0.075288, -0.073397},
	            {-0.017347, 0.053367, 0.042626, -0.006426, -0.013394}
	        },
	        {
	            {-0.000279, 0.000855, 0.007848, 0.020337, -0.033782},
	            {0.049169, -0.029885, -0.006778, -0.059295, -0.053244},
	            {0.007130, 0.006673, -0.027354, 0.015283, 0.010884},
	            {-0.022277, -0.066963, 0.036410, -0.039906, 0.004435},
	            {-0.106999, 0.006912, -0.008901, -0.092335, -0.016296}
	        },
	        {
	            {-0.099423, -0.060294, -0.033610, 0.004511, 0.037783},
	            {-0.047264, 0.021179, 0.021127, 0.044459, -0.024379},
	            {0.003461, -0.008766, -0.019544, -0.023991, 0.002817},
	            {-0.027239, 0.018283, -0.038398, 0.038083, -0.033312},
	            {0.031243, -0.039864, -0.038393, 0.003189, -0.151670}
	        },
	        {
	            {0.025180, -0.068590, -0.081964, -0.008084, 0.077745},
	            {-0.011183, -0.007220, -0.056324, 0.021185, 0.027942},
	            {0.043260, 0.067248, -0.061868, 0.040886, 0.016347},
	            {-0.011949, -0.013821, 0.071901, 0.009711, 0.016224},
	            {0.052163, -0.025998, -0.010883, 0.068837, -0.055117}
	        },
	        {
	            {0.020400, 0.036947, 0.001298, -0.034666, -0.063132},
	            {0.021789, -0.054093, -0.067396, -0.117147, -0.253439},
	            {0.013270, 0.079124, -0.124644, 0.016418, -0.127061},
	            {-0.016458, 0.008317, -0.053607, 0.021464, 0.029325},
	            {0.016170, 0.037184, -0.049953, -0.007398, 0.035609}
	        },
	        {
	            {0.041734, -0.022370, -0.038168, 0.006152, -0.020185},
	            {0.013617, -0.019560, -0.078162, -0.047840, -0.059045},
	            {0.016950, 0.005322, 0.042331, 0.084034, -0.009039},
	            {-0.000154, -0.030916, -0.028022, -0.029158, -0.065804},
	            {0.049174, 0.136737, -0.004993, 0.015649, -0.049698}
	        },
	        {
	            {-0.021399, -0.040152, 0.000369, -0.043383, -0.012570},
	            {-0.063372, 0.014637, -0.005254, -0.039751, -0.024190},
	            {0.031638, -0.043967, -0.029819, -0.004825, -0.016172},
	            {-0.019601, -0.010008, 0.027899, -0.009990, -0.018182},
	            {0.006948, -0.011968, -0.064320, -0.007475, -0.059971}
	        },
	        {
	            {0.022994, -0.104868, -0.022383, 0.100376, 0.042424},
	            {-0.034365, -0.022558, -0.008720, -0.043248, -0.049128},
	            {0.033903, 0.045641, -0.075149, -0.064938, -0.021401},
	            {-0.161712, -0.033756, 0.026910, 0.029563, 0.015037},
	            {0.029945, 0.054966, 0.052444, -0.042089, 0.058175}
	        },
	        {
	            {0.040982, -0.050688, -0.133161, -0.029371, -0.017240},
	            {0.047344, -0.003191, 0.021236, -0.093411, 0.054734},
	            {-0.097281, 0.019952, 0.036981, -0.032820, 0.000171},
	            {0.055689, 0.056824, -0.070519, -0.060974, -0.058264},
	            {-0.027850, -0.053892, -0.088988, -0.038576, 0.007757}
	        }
	    },
	    {
	        {
	            {0.022216, -0.115339, -0.016301, 0.083159, -0.077074},
	            {-0.021664, -0.002373, -0.038679, -0.064022, -0.039161},
	            {0.018264, -0.107262, -0.008614, -0.046982, -0.077584},
	            {0.020524, 0.104039, 0.030025, 0.014682, 0.046060},
	            {-0.018219, -0.033977, 0.037036, 0.050001, -0.061205}
	        },
	        {
	            {0.060146, 0.028227, -0.021167, 0.028837, -0.127364},
	            {0.044522, 0.086180, -0.069411, -0.021440, -0.022597},
	            {-0.001801, -0.029827, 0.037103, 0.006781, -0.000567},
	            {-0.063506, -0.080028, 0.010051, 0.015360, -0.019504},
	            {-0.070833, 0.007982, 0.044405, 0.064923, -0.033587}
	        },
	        {
	            {-0.050947, -0.023161, 0.031235, 0.016026, -0.013608},
	            {0.010744, -0.026490, 0.024702, -0.002110, -0.035407},
	            {0.025393, -0.013574, -0.032063, -0.000384, -0.081724},
	            {-0.017786, -0.050145, -0.090552, -0.009601, 0.023302},
	            {0.036677, -0.034874, 0.026764, -0.145406, 0.010654}
	        },
	        {
	            {0.052126, -0.091588, -0.036031, -0.067114, 0.048605},
	            {-0.006021, -0.162833, -0.007547, -0.020902, -0.011036},
	            {0.024253, 0.024634, -0.002526, -0.039895, 0.010397},
	            {-0.024390, -0.030775, -0.052717, 0.066073, -0.040262},
	            {0.009032, 0.008956, 0.041290, -0.008439, -0.005823}
	        },
	        {
	            {-0.050036, 0.052323, -0.017899, 0.002653, -0.005328},
	            {-0.175203, -0.026890, -0.102694, -0.029482, -0.026437},
	            {0.031822, 0.045636, 0.030891, -0.234057, -0.073080},
	            {-0.002293, 0.002106, -0.027138, 0.095528, 0.021519},
	            {0.038146, -0.015941, 0.025739, 0.004962, 0.023012}
	        },
	        {
	            {0.031101, 0.040541, -0.000720, -0.013388, 0.028684},
	            {-0.034502, -0.047005, 0.014896, -0.029408, 0.017762},
	            {-0.007342, 0.045675, 0.004268, 0.038771, 0.053756},
	            {-0.035630, -0.060992, -0.057881, 0.039383, 0.039588},
	            {-0.102065, 0.037200, 0.048337, -0.028914, 0.037106}
	        },
	        {
	            {0.067537, -0.011127, -0.005977, 0.084185, -0.025412},
	            {-0.067159, -0.032780, 0.040812, -0.043437, -0.080531},
	            {-0.042934, -0.041279, -0.060996, -0.100987, -0.037266},
	            {0.050316, 0.023720, -0.048995, 0.012068, -0.009262},
	            {-0.012542, -0.000253, -0.136895, -0.059482, -0.037316}
	        },
	        {
	            {-0.006890, 0.047788, 0.020198, -0.002738, 0.004444},
	            {0.007887, 0.014002, 0.009452, 0.005267, 0.002476},
	            {-0.063092, -0.054671, -0.059520, 0.025544, -0.012945},
	            {-0.005941, 0.024904, 0.056961, -0.007450, -0.021750},
	            {-0.105157, 0.011104, 0.048219, -0.003067, 0.012464}
	        },
	        {
	            {-0.069098, -0.033656, 0.000490, 0.041514, 0.010372},
	            {0.053886, -0.004209, -0.055324, 0.028796, -0.030219},
	            {-0.039357, -0.046292, -0.006197, 0.053941, -0.029612},
	            {-0.044707, -0.062012, 0.000657, -0.015702, -0.044010},
	            {0.024370, -0.069592, 0.029424, -0.011825, -0.000049}
	        },
	        {
	            {-0.061388, -0.015859, 0.023377, -0.026349, 0.022880},
	            {0.043310, -0.027834, -0.066320, -0.058929, -0.006335},
	            {-0.049846, 0.039892, 0.014667, 0.010176, -0.096547},
	            {0.076979, 0.092184, 0.032874, -0.045218, -0.004047},
	            {-0.023428, 0.013969, -0.057524, -0.014821, -0.032443}
	        },
	        {
	            {-0.008846, 0.030112, 0.028169, -0.055060, -0.034142},
	            {0.046666, 0.013380, 0.075559, -0.039600, 0.016126},
	            {-0.040060, -0.051274, 0.031407, 0.034752, 0.030611},
	            {0.020045, -0.002363, 0.165102, -0.000972, -0.025377},
	            {-0.002935, 0.001201, 0.038907, -0.084503, -0.061161}
	        },
	        {
	            {-0.055488, 0.031337, -0.035739, 0.088276, 0.029470},
	            {0.025763, 0.051052, 0.040590, -0.007526, -0.048456},
	            {0.040481, 0.043195, -0.002805, -0.018329, 0.044456},
	            {0.037669, 0.022061, 0.029722, -0.024745, -0.018021},
	            {0.045831, -0.040660, 0.037106, -0.026243, 0.020332}
	        },
	        {
	            {0.079384, -0.045621, -0.040957, -0.056337, 0.103592},
	            {-0.146733, -0.006564, 0.060197, 0.019683, -0.014519},
	            {0.051196, -0.014622, -0.064828, -0.060163, -0.045733},
	            {-0.018083, -0.006773, 0.121215, 0.049315, -0.047076},
	            {0.008720, -0.009017, 0.000153, -0.102430, -0.017727}
	        },
	        {
	            {0.005405, 0.066819, -0.048518, -0.054199, 0.014350},
	            {-0.022528, -0.106809, 0.043208, -0.007080, -0.007076},
	            {0.081512, -0.126359, -0.018656, 0.039122, 0.002353},
	            {0.020835, 0.053109, -0.050786, 0.034256, -0.006354},
	            {-0.036119, -0.009845, -0.113136, 0.051621, -0.104754}
	        },
	        {
	            {-0.053427, -0.053011, -0.016984, -0.049342, -0.063466},
	            {-0.136695, 0.005701, -0.031912, -0.032206, 0.027471},
	            {-0.005052, -0.008046, 0.046918, -0.066826, -0.110310},
	            {0.010791, 0.046521, 0.018370, 0.032605, -0.129494},
	            {-0.060080, -0.031899, 0.037529, -0.034748, -0.027491}
	        },
	        {
	            {-0.042513, 0.023745, -0.000979, 0.021142, -0.020148},
	            {-0.013282, -0.043205, 0.039350, 0.033847, -0.024183},
	            {-0.080756, 0.061386, -0.081501, -0.036792, -0.104582},
	            {0.019401, 0.001265, 0.033477, -0.028623, 0.150706},
	            {-0.094255, -0.081505, 0.015895, -0.045648, -0.037022}
	        },
	        {
	            {0.005726, 0.070230, -0.037615, -0.014679, 0.051149},
	            {0.059018, 0.055695, 0.022434, 0.014167, -0.033571},
	            {0.058052, -0.048580, 0.026695, 0.049034, -0.060279},
	            {0.013409, -0.031755, -0.115374, -0.004922, -0.035936},
	            {-0.063361, -0.024810, -0.055368, 0.001006, 0.013311}
	        },
	        {
	            {0.000419, 0.099901, 0.041935, -0.081718, -0.015300},
	            {-0.015296, -0.089999, -0.035016, 0.031050, 0.014473},
	            {0.034486, -0.024076, -0.026565, 0.061893, -0.058127},
	            {-0.042586, 0.004549, -0.027854, -0.002066, -0.014104},
	            {-0.000135, 0.054656, -0.039312, -0.001108, 0.010363}
	        },
	        {
	            {0.065062, -0.079177, -0.032660, 0.042917, -0.025260},
	            {0.018104, -0.030107, 0.017025, -0.012776, -0.077918},
	            {-0.076075, 0.050174, -0.079152, -0.074493, 0.026505},
	            {-0.079005, -0.037717, 0.017211, -0.049583, -0.043667},
	            {0.024958, 0.044153, 0.010894, -0.006387, -0.019946}
	        },
	        {
	            {-0.044621, 0.048714, -0.037786, -0.016629, 0.008739},
	            {0.054206, -0.036327, 0.044398, -0.063730, -0.090399},
	            {-0.030595, 0.040640, -0.040341, -0.022218, -0.078607},
	            {0.015316, -0.093746, -0.091042, -0.012726, 0.037502},
	            {0.098389, 0.004939, -0.000275, -0.002743, -0.013276}
	        },
	        {
	            {-0.026007, -0.060427, -0.004415, 0.049239, -0.047581},
	            {0.002376, -0.103621, -0.035858, 0.018293, -0.105004},
	            {0.035926, -0.088276, 0.036569, -0.042763, -0.002790},
	            {-0.111865, 0.013055, 0.005995, -0.020218, 0.055913},
	            {-0.063910, -0.118382, 0.020281, 0.014422, -0.036650}
	        },
	        {
	            {0.019922, -0.070904, 0.123126, -0.099165, -0.030515},
	            {-0.079063, 0.052219, -0.044389, -0.047126, 0.036209},
	            {-0.013932, -0.004708, -0.078869, 0.003828, 0.045147},
	            {-0.039676, -0.064084, -0.037519, 0.030489, -0.011178},
	            {-0.019559, 0.065341, -0.009111, -0.020470, -0.089091}
	        },
	        {
	            {0.027195, 0.029967, 0.038000, -0.213049, 0.085900},
	            {0.088625, -0.040420, -0.004156, -0.070331, 0.072799},
	            {-0.015435, -0.078068, 0.033182, 0.036220, -0.032998},
	            {0.061538, 0.072538, -0.029709, -0.042606, -0.055970},
	            {-0.002692, -0.012393, 0.010834, -0.114004, -0.021812}
	        },
	        {
	            {0.064043, -0.053732, -0.004575, -0.029739, -0.086659},
	            {0.007954, -0.054203, -0.017598, -0.054144, -0.066889},
	            {-0.103409, 0.039986, -0.066179, -0.337988, 0.001058},
	            {-0.042279, -0.062041, 0.028080, -0.068084, 0.028398},
	            {0.039847, 0.009636, -0.045466, -0.013478, -0.034701}
	        },
	        {
	            {0.004106, 0.042402, 0.016929, -0.020355, 0.062995},
	            {-0.051102, -0.053264, -0.036314, -0.057648, -0.089589},
	            {-0.052534, -0.089184, -0.129239, 0.001247, 0.053793},
	            {-0.071078, 0.060658, -0.013873, -0.015765, -0.024630},
	            {-0.211495, -0.006251, -0.009637, -0.125117, -0.030568}
	        },
	        {
	            {-0.047944, -0.034803, -0.004988, 0.045760, -0.008941},
	            {0.065716, 0.017506, 0.004198, -0.033767, -0.001364},
	            {-0.033120, 0.003352, 0.030898, 0.044408, -0.043621},
	            {0.156716, -0.047737, 0.001607, -0.130275, -0.011419},
	            {-0.001437, -0.031617, -0.007079, -0.057428, 0.068390}
	        },
	        {
	            {-0.008026, -0.047799, -0.226595, -0.003848, 0.021001},
	            {-0.101295, 0.031543, -0.002392, 0.013804, -0.024136},
	            {-0.049076, -0.002453, 0.058663, 0.038600, -0.028085},
	            {-0.029871, -0.038422, -0.025258, 0.003149, 0.106206},
	            {0.032915, 0.021173, 0.025433, -0.098795, 0.004010}
	        },
	        {
	            {-0.138418, 0.021259, -0.016054, 0.006476, 0.099832},
	            {0.039745, -0.018481, 0.010644, 0.044846, -0.109081},
	            {-0.001283, -0.005508, 0.024822, -0.019367, -0.007152},
	            {-0.041679, 0.051669, 0.013714, -0.041442, 0.021274},
	            {0.053151, 0.000644, -0.005072, -0.041635, -0.038480}
	        },
	        {
	            {0.047947, 0.022839, -0.020216, 0.004318, 0.051377},
	            {0.016339, 0.024098, -0.181112, 0.027044, -0.025710},
	            {-0.063547, 0.059649, -0.013604, -0.003918, -0.063495},
	            {-0.104633, -0.029900, -0.065262, 0.026315, -0.066066},
	            {0.030025, -0.052951, -0.090917, -0.043824, -0.054494}
	        },
	        {
	            {-0.007980, 0.045729, 0.000605, 0.049495, -0.095550},
	            {-0.123592, 0.013475, 0.002921, -0.079047, 0.003782},
	            {0.050460, -0.023888, 0.090770, -0.009465, -0.089087},
	            {0.019454, -0.049972, -0.040300, 0.036710, -0.032075},
	            {0.005731, -0.041433, -0.147966, -0.075711, 0.019410}
	        },
	        {
	            {0.001986, -0.008621, -0.032959, -0.100765, -0.035089},
	            {-0.018642, 0.064037, 0.031964, 0.069367, 0.037835},
	            {-0.058450, 0.032672, 0.036852, -0.069055, -0.034361},
	            {0.014317, 0.054020, 0.018031, 0.000237, -0.063711},
	            {-0.020142, -0.099788, -0.199259, 0.021720, -0.059616}
	        },
	        {
	            {0.080767, -0.010454, 0.050952, 0.014977, -0.233293},
	            {-0.203856, -0.061547, 0.030067, -0.067007, 0.031197},
	            {-0.056217, -0.090562, -0.054188, -0.047132, 0.024700},
	            {0.078144, -0.006523, -0.015354, -0.037779, -0.034575},
	            {-0.066849, -0.044111, 0.004993, -0.031645, -0.001252}
	        }
	    },
	    {
	        {
	            {-0.046918, -0.008325, -0.050442, 0.013326, 0.008053},
	            {0.002470, -0.017075, -0.089895, 0.038661, -0.149302},
	            {-0.043470, 0.001752, -0.067266, -0.009787, 0.045284},
	            {-0.125649, 0.047328, -0.045560, -0.013867, -0.053642},
	            {-0.014907, 0.011289, 0.028951, 0.002219, -0.042868}
	        },
	        {
	            {-0.001303, 0.009793, 0.022246, 0.025331, -0.143979},
	            {0.000462, -0.032215, -0.001432, -0.087899, -0.032631},
	            {0.003252, 0.001424, -0.050807, -0.031427, -0.028703},
	            {-0.030851, -0.214027, -0.051617, 0.023096, -0.053924},
	            {-0.019134, -0.039113, -0.138148, 0.052011, -0.097111}
	        },
	        {
	            {-0.044170, -0.066492, -0.018192, 0.025762, -0.001138},
	            {0.033353, -0.036073, -0.063671, 0.022102, 0.012901},
	            {-0.008075, -0.103598, 0.044040, 0.005592, -0.048218},
	            {-0.100286, 0.001944, 0.012035, -0.052345, -0.051358},
	            {-0.032521, -0.050830, -0.020877, -0.001476, 0.004853}
	        },
	        {
	            {-0.024040, -0.042072, -0.007813, -0.022904, -0.164751},
	            {0.099653, -0.073045, 0.050094, -0.056813, 0.028574},
	            {-0.005367, -0.014693, -0.059218, -0.003869, -0.014538},
	            {0.010288, -0.024651, 0.038277, 0.007787, -0.029658},
	            {0.038548, -0.004464, -0.102573, -0.006999, 0.024556}
	        },
	        {
	            {-0.032282, -0.016802, -0.000540, -0.053183, 0.048967},
	            {-0.016693, 0.004262, -0.072221, 0.047188, -0.002618},
	            {0.045313, -0.115639, -0.003059, -0.065062, -0.049875},
	            {0.017454, -0.007769, 0.051469, 0.046363, 0.003987},
	            {-0.018022, -0.035607, -0.037654, -0.043729, -0.035945}
	        },
	        {
	            {0.078267, 0.036811, 0.056583, -0.038010, -0.083869},
	            {-0.044004, -0.033019, 0.008762, -0.047409, -0.039917},
	            {0.002442, -0.014138, -0.001751, 0.013311, 0.038118},
	            {0.044760, 0.018172, -0.037291, -0.046730, 0.040568},
	            {-0.011130, -0.006652, -0.017738, -0.055080, -0.047716}
	        },
	        {
	            {-0.020193, 0.026551, 0.029817, 0.044798, 0.022889},
	            {-0.019905, -0.085740, 0.080011, 0.046678, 0.009455},
	            {-0.026527, -0.110565, 0.007745, -0.040457, 0.000210},
	            {-0.011283, 0.053940, -0.069366, 0.024959, -0.034773},
	            {0.051976, 0.019999, -0.034161, 0.002877, 0.018281}
	        },
	        {
	            {-0.020050, 0.007079, -0.156066, -0.016657, 0.012162},
	            {-0.029908, 0.017672, -0.007699, -0.050188, -0.025959},
	            {-0.065590, -0.021055, 0.025000, -0.035886, -0.053496},
	            {0.010242, 0.049249, -0.033439, -0.088169, 0.054858},
	            {-0.011566, 0.000601, -0.038175, -0.006598, -0.018671}
	        },
	        {
	            {-0.008750, -0.004153, -0.027750, -0.019840, -0.066082},
	            {0.008481, -0.041085, -0.164706, 0.013589, -0.142086},
	            {-0.065772, 0.020869, -0.008924, -0.037134, 0.039170},
	            {0.011423, -0.014687, 0.004071, -0.043017, 0.051372},
	            {0.007861, 0.002289, 0.035509, 0.015199, -0.051321}
	        },
	        {
	            {-0.018385, -0.038045, -0.025035, 0.051313, -0.008709},
	            {0.026920, 0.028184, 0.026838, 0.042549, -0.019248},
	            {0.038600, 0.022340, 0.041599, -0.021696, -0.150717},
	            {0.023783, -0.020223, 0.017046, -0.035756, -0.049980},
	            {-0.059255, -0.010872, -0.000048, -0.015393, -0.015188}
	        },
	        {
	            {0.039064, -0.037866, 0.023707, 0.136616, 0.008006},
	            {0.015715, -0.021254, -0.026964, 0.016714, -0.060930},
	            {-0.073607, 0.031916, 0.040193, 0.046119, 0.005655},
	            {0.005945, -0.017291, 0.060117, 0.075982, 0.026528},
	            {0.037811, -0.099003, 0.044515, 0.013174, 0.004334}
	        },
	        {
	            {-0.062165, 0.047147, -0.063872, 0.010329, -0.005654},
	            {-0.058684, -0.038513, -0.013452, 0.020729, 0.013748},
	            {0.128635, -0.038231, -0.026144, -0.014605, -0.052198},
	            {-0.024912, -0.056098, -0.045121, -0.008799, 0.063128},
	            {-0.041101, -0.037020, -0.022450, -0.059169, -0.086653}
	        },
	        {
	            {0.052577, 0.006440, 0.055881, -0.019208, 0.071605},
	            {-0.064038, -0.076254, -0.033901, 0.013046, -0.035923},
	            {0.047340, -0.056210, 0.037445, -0.036219, -0.052379},
	            {0.001928, -0.056383, 0.027533, -0.049118, -0.004160},
	            {0.053354, -0.033892, 0.025378, 0.031220, -0.045934}
	        },
	        {
	            {-0.020419, 0.013299, -0.051838, -0.047004, -0.160696},
	            {-0.025696, -0.050374, 0.009948, -0.058482, -0.022982},
	            {-0.007210, 0.026276, -0.133184, 0.007038, -0.038132},
	            {0.023659, 0.049270, 0.001765, -0.026891, -0.033524},
	            {0.051975, -0.059482, 0.041957, -0.048976, -0.038021}
	        },
	        {
	            {-0.037307, -0.021036, 0.044996, -0.019480, 0.028218},
	            {0.042939, 0.021235, 0.027687, 0.025020, -0.062982},
	            {0.011447, -0.163040, -0.036379, 0.017011, -0.075122},
	            {-0.045109, -0.010876, -0.067852, -0.024608, -0.240208},
	            {-0.047703, -0.048576, -0.020412, 0.031650, -0.062005}
	        },
	        {
	            {0.037623, 0.021854, 0.003750, 0.053541, 0.002945},
	            {0.024806, -0.074333, -0.004650, 0.006273, -0.016969},
	            {-0.024113, 0.014004, -0.037711, -0.049583, -0.004959},
	            {0.034386, -0.036079, -0.053499, -0.014892, -0.051624},
	            {-0.076335, -0.022990, 0.040329, 0.005023, -0.204504}
	        },
	        {
	            {-0.005079, 0.010177, -0.061065, 0.029147, -0.051439},
	            {-0.038831, 0.009392, 0.016208, -0.045992, 0.001652},
	            {0.041659, 0.007401, -0.044696, -0.007409, 0.006402},
	            {-0.041851, -0.007511, -0.062933, -0.049279, -0.038974},
	            {-0.039469, 0.010733, -0.035979, 0.034377, -0.027694}
	        },
	        {
	            {0.058179, 0.000303, 0.059957, 0.011405, 0.029188},
	            {-0.010638, -0.200821, -0.012571, -0.002845, -0.046942},
	            {0.015980, -0.025869, -0.031947, 0.005790, 0.034258},
	            {-0.013933, 0.057763, -0.052535, 0.022348, 0.035679},
	            {0.021854, 0.038817, 0.035923, 0.032865, -0.107275}
	        },
	        {
	            {0.016144, -0.030769, -0.102541, -0.046787, -0.017444},
	            {-0.039636, 0.016703, -0.012784, 0.038623, -0.160065},
	            {-0.018011, -0.014276, 0.038780, -0.007503, -0.018346},
	            {0.049407, -0.039524, -0.037827, 0.019581, -0.025345},
	            {-0.022133, -0.040904, -0.064311, 0.030429, -0.080592}
	        },
	        {
	            {0.029593, -0.072027, 0.092726, 0.001684, -0.025912},
	            {-0.013741, -0.004749, -0.014745, 0.005317, 0.017094},
	            {0.003728, -0.058616, -0.045532, -0.051747, -0.035544},
	            {-0.029805, 0.020949, -0.101271, 0.047444, -0.036651},
	            {-0.073032, 0.038398, -0.164668, -0.014653, -0.056287}
	        },
	        {
	            {0.039987, -0.038530, 0.050832, 0.001089, 0.002012},
	            {0.021789, -0.056955, -0.028025, 0.051597, 0.088468},
	            {0.014659, -0.026551, 0.028063, -0.019587, -0.012336},
	            {0.040806, 0.048552, 0.030924, 0.026679, -0.035006},
	            {0.039480, -0.076827, -0.062543, -0.083466, -0.046024}
	        },
	        {
	            {-0.019282, 0.021667, -0.064835, -0.046391, -0.127021},
	            {-0.018665, -0.050979, 0.008950, 0.003795, -0.050452},
	            {0.023811, -0.066266, -0.058865, -0.019724, 0.031479},
	            {0.004830, -0.134086, 0.019942, -0.066016, 0.024856},
	            {-0.003607, 0.055041, -0.058880, -0.001673, -0.058618}
	        },
	        {
	            {0.053154, 0.020722, 0.033107, -0.047654, -0.051651},
	            {0.079007, 0.042244, 0.034075, 0.004410, -0.116723},
	            {-0.006448, 0.008808, -0.045452, -0.058943, -0.003969},
	            {0.019361, -0.025923, -0.050499, 0.047624, 0.004679},
	            {-0.025663, 0.019264, -0.036779, -0.074261, -0.006362}
	        },
	        {
	            {-0.005393, -0.021462, -0.048862, -0.058183, -0.053626},
	            {0.021484, 0.019106, 0.021991, 0.037428, -0.027814},
	            {-0.026816, 0.000590, 0.036677, -0.030063, 0.015049},
	            {-0.021212, -0.092746, -0.045893, -0.110843, -0.029808},
	            {-0.011528, 0.031999, -0.010108, 0.044831, -0.056586}
	        },
	        {
	            {-0.031409, -0.005357, 0.057017, 0.009586, -0.006284},
	            {-0.057715, -0.029625, 0.047895, 0.012143, -0.113392},
	            {-0.048295, 0.036498, -0.016925, -0.028768, -0.021037},
	            {-0.071631, 0.036507, -0.092562, 0.020313, -0.119504},
	            {-0.060620, -0.051638, 0.024017, -0.034594, -0.116796}
	        },
	        {
	            {0.044855, 0.012576, -0.051263, -0.025655, -0.049914},
	            {-0.024462, 0.035207, 0.008265, 0.042735, 0.001645},
	            {-0.071693, -0.057884, -0.041282, 0.011697, -0.020879},
	            {-0.059313, 0.054729, -0.010951, -0.041473, 0.004047},
	            {0.031797, 0.016237, 0.040342, -0.001647, -0.007325}
	        },
	        {
	            {0.000414, 0.017643, -0.106133, 0.003127, -0.030940},
	            {-0.081473, 0.011185, -0.199219, -0.058000, -0.037074},
	            {-0.056585, 0.036997, -0.034075, 0.058336, -0.006045},
	            {0.038009, 0.028646, -0.014661, 0.025586, 0.130093},
	            {-0.010786, 0.009891, 0.044828, 0.045865, -0.020872}
	        },
	        {
	            {0.034866, 0.009929, -0.065944, 0.039492, -0.037822},
	            {0.005560, -0.136277, -0.073825, 0.050583, -0.089655},
	            {0.017763, -0.017995, -0.115903, 0.039588, -0.140524},
	            {-0.061160, -0.019542, 0.002617, 0.022111, 0.000854},
	            {-0.037782, -0.048327, -0.035605, -0.030633, 0.010718}
	        },
	        {
	            {-0.004219, 0.026645, -0.029843, 0.046885, -0.010964},
	            {-0.094394, -0.053050, -0.036532, 0.049587, -0.045291},
	            {-0.018914, -0.048050, -0.038431, -0.151001, -0.031818},
	            {-0.029173, -0.070191, 0.041427, -0.061726, 0.011150},
	            {-0.007779, -0.093918, 0.049387, 0.019770, -0.032973}
	        },
	        {
	            {-0.051818, -0.015195, 0.037480, -0.036309, -0.022819},
	            {-0.025241, -0.048886, 0.046979, -0.070589, 0.001629},
	            {0.044296, 0.003239, -0.133009, 0.035680, 0.000304},
	            {0.018361, -0.070659, -0.030032, -0.018666, -0.049366},
	            {-0.114960, 0.044594, 0.012423, 0.065849, -0.041315}
	        },
	        {
	            {-0.035416, 0.045494, 0.022120, -0.000697, -0.038678},
	            {0.015027, -0.012656, 0.010294, -0.015739, -0.062356},
	            {0.031541, -0.022083, 0.019134, -0.027015, 0.022177},
	            {-0.124238, -0.038719, 0.009623, -0.021994, -0.127694},
	            {0.031967, -0.001194, -0.102257, 0.037117, -0.027078}
	        },
	        {
	            {-0.044191, -0.041092, -0.063788, 0.044539, -0.054118},
	            {0.046263, -0.003965, -0.033009, 0.086386, -0.090504},
	            {-0.100799, 0.026876, -0.061051, -0.022949, -0.049568},
	            {-0.001776, -0.024465, -0.003510, -0.003137, -0.050998},
	            {0.021132, 0.002440, -0.122803, 0.062088, -0.017962}
	        }
	    },
	    {
	        {
	            {0.034995, -0.050985, 0.054832, 0.008616, 0.035640},
	            {-0.064757, 0.002422, -0.035583, -0.037659, 0.015113},
	            {0.037554, -0.092598, 0.125999, 0.028213, 0.023803},
	            {-0.078978, 0.014555, 0.059420, 0.047016, -0.058968},
	            {0.008293, -0.004543, 0.070962, 0.037606, -0.066596}
	        },
	        {
	            {0.023803, -0.048857, 0.016210, -0.000959, -0.046752},
	            {-0.059129, -0.051480, -0.028844, -0.006309, 0.035668},
	            {0.005757, -0.051484, 0.041429, -0.011417, 0.000867},
	            {-0.068509, 0.007102, 0.031794, 0.030762, 0.061018},
	            {0.012822, 0.010891, -0.190631, -0.035825, 0.021789}
	        },
	        {
	            {0.042629, 0.011682, -0.006753, -0.015265, 0.077765},
	            {0.020056, 0.000108, 0.039834, 0.006090, -0.042361},
	            {-0.058577, -0.012579, 0.050358, -0.026177, 0.044871},
	            {0.009365, 0.013878, -0.052268, 0.040479, -0.064373},
	            {0.026411, 0.026697, 0.020946, 0.006760, -0.075277}
	        },
	        {
	            {0.047457, 0.045262, 0.030904, 0.004186, -0.147965},
	            {-0.006570, -0.036487, -0.026239, -0.027607, -0.037533},
	            {-0.016298, 0.090093, -0.059176, -0.041567, 0.024250},
	            {-0.040957, 0.032518, 0.057063, -0.087861, -0.019472},
	            {-0.025752, 0.030796, 0.023222, -0.002355, -0.045797}
	        },
	        {
	            {0.001383, 0.012300, -0.037975, -0.015239, -0.011522},
	            {0.040035, -0.002652, 0.016792, -0.019326, -0.046362},
	            {0.020940, -0.109658, 0.020200, -0.015385, -0.015101},
	            {-0.005001, 0.007303, 0.035708, -0.011112, -0.044929},
	            {0.046880, 0.060192, -0.000270, -0.053096, 0.009068}
	        },
	        {
	            {0.025077, 0.006416, -0.046610, 0.000324, 0.142204},
	            {0.018156, -0.029988, -0.014152, 0.009002, -0.014166},
	            {-0.027363, -0.065490, -0.003456, 0.038448, -0.009020},
	            {-0.020818, -0.022737, 0.015840, -0.178962, 0.074554},
	            {0.054561, 0.007890, -0.064905, 0.044479, 0.043296}
	        },
	        {
	            {-0.022196, 0.023131, -0.039401, 0.043627, -0.054723},
	            {-0.029579, -0.027084, 0.052207, 0.056536, 0.045229},
	            {-0.014133, -0.004202, 0.034411, 0.021562, 0.005490},
	            {-0.034386, 0.028547, -0.043870, 0.006943, -0.024967},
	            {0.009968, 0.046208, 0.047960, -0.058277, 0.085427}
	        },
	        {
	            {-0.075023, 0.026901, -0.053363, -0.046634, 0.010137},
	            {0.015471, -0.031080, 0.059907, -0.039216, -0.010584},
	            {-0.004284, 0.039000, -0.051788, -0.035795, -0.015914},
	            {0.027284, 0.024034, 0.024121, -0.094628, -0.054099},
	            {-0.040014, 0.018005, -0.001085, -0.019675, -0.004528}
	        },
	        {
	            {-0.050928, -0.067153, -0.061598, -0.004396, -0.103074},
	            {-0.065955, -0.087878, -0.008033, -0.039808, -0.073473},
	            {-0.035034, -0.047326, -0.021686, 0.018976, 0.050807},
	            {0.029408, 0.025778, -0.006056, -0.025296, 0.050649},
	            {-0.002297, 0.036838, -0.017838, -0.032674, 0.046239}
	        },
	        {
	            {0.025829, 0.040061, -0.042730, 0.040829, 0.013884},
	            {0.021653, 0.019446, 0.005369, -0.203271, 0.014401},
	            {0.022051, -0.210860, -0.032596, -0.060069, -0.028195},
	            {0.044367, -0.120157, -0.000792, -0.025466, -0.000706},
	            {-0.042279, 0.030359, 0.019356, 0.016541, 0.051372}
	        },
	        {
	            {0.009396, -0.040625, 0.010641, 0.012467, -0.017464},
	            {0.038108, -0.040497, -0.067447, -0.058618, 0.050446},
	            {0.005105, -0.052842, -0.060607, -0.003428, -0.019126},
	            {-0.063518, 0.040284, -0.064530, -0.115467, -0.068116},
	            {-0.045429, -0.078760, -0.009010, -0.066221, -0.032227}
	        },
	        {
	            {0.023693, -0.027093, -0.044009, -0.021558, 0.035830},
	            {-0.049152, 0.056189, 0.049092, -0.066546, -0.059286},
	            {-0.009622, -0.035554, -0.000325, -0.054190, -0.118012},
	            {0.057256, 0.008604, -0.040718, -0.076514, 0.021438},
	            {-0.050428, -0.031389, -0.064988, 0.004078, -0.015977}
	        },
	        {
	            {-0.084147, -0.016896, 0.037594, -0.186213, 0.086607},
	            {-0.175849, -0.056940, -0.034701, 0.006290, -0.030341},
	            {0.016286, 0.047461, 0.048727, -0.008028, -0.043958},
	            {-0.056061, -0.002168, 0.032351, -0.003392, -0.015492},
	            {-0.028662, -0.070325, 0.061758, -0.044396, 0.042351}
	        },
	        {
	            {0.024412, -0.007519, -0.060409, 0.011502, 0.069711},
	            {0.006314, 0.028797, -0.069373, 0.019318, -0.015877},
	            {-0.041460, -0.071145, -0.268182, -0.004852, 0.016246},
	            {0.046920, -0.046594, 0.015990, -0.035850, 0.021132},
	            {0.020889, 0.027583, 0.039422, 0.051120, -0.084180}
	        },
	        {
	            {0.043667, 0.035775, -0.045534, -0.080881, 0.008513},
	            {-0.055335, -0.055114, 0.015176, -0.025451, -0.059713},
	            {-0.025264, 0.050193, -0.006140, -0.014541, -0.046678},
	            {-0.002759, -0.072745, -0.093737, -0.058024, 0.035149},
	            {0.040441, 0.000713, -0.066725, 0.029459, 0.032248}
	        },
	        {
	            {0.016208, 0.004733, -0.056352, 0.057519, 0.033385},
	            {0.006523, 0.030189, 0.014089, 0.022679, -0.073001},
	            {-0.091375, 0.030178, 0.005363, 0.019863, -0.072875},
	            {0.033434, -0.017092, 0.010424, -0.041368, 0.017524},
	            {-0.049870, -0.105395, 0.019454, 0.051734, -0.069757}
	        },
	        {
	            {0.043681, -0.180973, -0.064318, -0.022822, 0.039955},
	            {0.038102, 0.047446, -0.060072, -0.047930, 0.006367},
	            {0.042160, 0.028094, -0.021248, -0.088181, -0.029320},
	            {-0.047291, -0.034714, 0.011103, -0.002989, -0.012055},
	            {-0.066616, 0.001523, -0.033743, -0.069452, -0.008634}
	        },
	        {
	            {-0.018003, 0.020560, -0.017715, -0.036152, -0.048730},
	            {-0.051554, 0.056224, -0.068741, 0.010904, -0.032004},
	            {0.040880, -0.005355, 0.024711, 0.053610, 0.009696},
	            {-0.008023, 0.044382, 0.018924, 0.020422, -0.042213},
	            {-0.177676, 0.028265, -0.029225, -0.018865, -0.047877}
	        },
	        {
	            {0.004547, 0.008043, 0.049573, -0.020682, -0.028050},
	            {0.002136, -0.052921, -0.084049, 0.035428, 0.116480},
	            {-0.031998, 0.033046, -0.053411, 0.045033, -0.037611},
	            {-0.163409, 0.050424, 0.021689, -0.057567, 0.050479},
	            {0.053117, -0.052563, -0.051109, 0.062509, -0.011081}
	        },
	        {
	            {0.030466, 0.058272, -0.110375, -0.024270, 0.005101},
	            {-0.017201, -0.080151, 0.003024, -0.028591, -0.045368},
	            {-0.004892, 0.034016, 0.038955, 0.010996, -0.044099},
	            {0.002871, 0.050216, -0.054128, -0.048009, -0.004879},
	            {-0.175760, 0.017014, -0.286746, 0.025037, 0.006056}
	        },
	        {
