#include "cnn.h"

float conv3_weights[CONV3_FILTERS][CONV2_FILTERS][KERNEL_SIZE_3x3][KERNEL_SIZE_3x3] = {
	    {
	        {
	            {-0.053559, 0.092705, -0.033703},
	            {-0.037778, 0.068404, -0.093448},
	            {-0.165830, 0.027811, -0.027635}
	        },
	        {
	            {-0.118142, -0.044687, 0.036114},
	            {-0.071826, 0.009817, 0.130347},
	            {0.096418, 0.104987, -0.011622}
	        },
	        {
	            {-0.011708, -0.057913, -0.162715},
	            {-0.091900, 0.051904, -0.110810},
	            {-0.067144, 0.081162, 0.015450}
	        },
	        {
	            {-0.088223, 0.014889, -0.081309},
	            {-0.126365, 0.119414, -0.068489},
	            {-0.065618, 0.004712, -0.120770}
	        },
	        {
	            {-0.121683, 0.043628, -0.001617},
	            {0.089288, 0.076662, -0.105225},
	            {0.067959, -0.078314, 0.059163}
	        },
	        {
	            {-0.103155, -0.108817, 0.033477},
	            {0.022707, -0.128881, 0.136911},
	            {0.032867, -0.086254, -0.045210}
	        },
	        {
	            {-0.058889, -0.037832, -0.059412},
	            {0.055338, -0.026872, -0.033617},
	            {-0.007691, -0.004717, -0.146825}
	        },
	        {
	            {-0.125878, 0.082892, -0.048413},
	            {0.014338, -0.094073, -0.118904},
	            {-0.026496, -0.056695, 0.051600}
	        },
	        {
	            {0.069217, -0.113645, 0.038516},
	            {0.138103, 0.070809, 0.056758},
	            {-0.101828, -0.040860, -0.031680}
	        },
	        {
	            {-0.000174, 0.158416, 0.015215},
	            {-0.052699, -0.117157, -0.105670},
	            {-0.152435, 0.071501, -0.013080}
	        },
	        {
	            {-0.080646, -0.042713, -0.038356},
	            {-0.064016, -0.117664, -0.056274},
	            {0.098183, 0.134679, -0.092935}
	        },
	        {
	            {0.040385, -0.128429, -0.060174},
	            {-0.119608, -0.057374, 0.061282},
	            {-0.080765, -0.103369, -0.029453}
	        },
	        {
	            {-0.050700, -0.136958, 0.071688},
	            {0.035989, -0.110792, -0.112746},
	            {0.002889, -0.075591, -0.079855}
	        },
	        {
	            {-0.023903, 0.003635, -0.005528},
	            {-0.034855, 0.214104, 0.028875},
	            {-0.058061, -0.286436, 0.094599}
	        },
	        {
	            {-0.131753, 0.058545, -0.064211},
	            {-0.048242, -0.052533, -0.068096},
	            {0.018305, -0.077141, -0.122627}
	        },
	        {
	            {0.040626, -0.128877, -0.147143},
	            {-0.037009, -0.036201, -0.046280},
	            {0.000352, -0.038316, -0.085997}
	        },
	        {
	            {-0.094251, -0.096299, 0.042330},
	            {-0.151942, -0.135745, -0.007026},
	            {-0.043391, 0.078229, 0.032241}
	        },
	        {
	            {0.058068, 0.033618, 0.087995},
	            {-0.071824, 0.058462, -0.002678},
	            {-0.028655, -0.049867, -0.046275}
	        },
	        {
	            {-0.037095, -0.153124, -0.095718},
	            {-0.063979, -0.024112, -0.064724},
	            {0.008670, -0.040465, 0.157844}
	        },
	        {
	            {-0.011463, 0.035539, -0.059692},
	            {-0.076215, -0.162999, -0.022546},
	            {-0.053914, 0.024067, 0.115383}
	        },
	        {
	            {-0.006850, 0.010077, -0.056031},
	            {-0.014290, -0.001486, -0.014898},
	            {-0.059127, 0.080260, 0.000925}
	        },
	        {
	            {-0.075055, 0.001917, -0.031441},
	            {0.047494, -0.046832, -0.074043},
	            {-0.095192, 0.020481, -0.062670}
	        },
	        {
	            {-0.067642, -0.017609, 0.057614},
	            {0.047063, 0.013149, -0.017776},
	            {0.017290, -0.026628, -0.065032}
	        },
	        {
	            {0.008909, 0.066315, -0.027049},
	            {-0.019158, -0.124616, -0.013023},
	            {-0.005742, 0.073997, 0.018384}
	        },
	        {
	            {-0.210742, 0.096990, -0.036498},
	            {-0.089763, 0.014139, 0.010714},
	            {0.074421, 0.081365, -0.109088}
	        },
	        {
	            {-0.031502, -0.101305, -0.141997},
	            {0.079547, -0.102140, -0.081981},
	            {0.017997, -0.033957, -0.120436}
	        },
	        {
	            {-0.038514, -0.108096, -0.131185},
	            {-0.052332, -0.014738, 0.042906},
	            {-0.104024, -0.097432, 0.012426}
	        },
	        {
	            {-0.226978, -0.012078, 0.018926},
	            {0.048599, -0.185162, -0.007853},
	            {-0.162543, -0.050762, -0.008413}
	        },
	        {
	            {0.289944, 0.085965, -0.126755},
	            {0.047586, 0.006407, 0.047191},
	            {-0.077726, -0.095359, -0.036712}
	        },
	        {
	            {-0.040372, 0.068795, -0.071686},
	            {-0.057557, -0.134144, -0.030430},
	            {-0.016883, -0.028156, 0.000517}
	        },
	        {
	            {-0.083259, -0.144918, -0.095328},
	            {-0.060808, -0.043326, 0.020577},
	            {-0.043642, -0.113387, 0.092372}
	        },
	        {
	            {0.002190, -0.096958, -0.035863},
	            {0.056820, 0.052017, 0.027674},
	            {0.043512, -0.026733, -0.036686}
	        }
	    },
	    {
	        {
	            {0.095129, -0.024120, -0.024150},
	            {-0.010846, 0.092826, -0.088557},
	            {0.110794, 0.020208, -0.120730}
	        },
	        {
	            {0.004824, -0.050684, -0.112587},
	            {0.063397, 0.054055, -0.118604},
	            {-0.139646, -0.096907, 0.058417}
	        },
	        {
	            {0.011104, 0.114921, 0.009541},
	            {0.118424, 0.029670, -0.027387},
	            {-0.016465, 0.045918, -0.084896}
	        },
	        {
	            {-0.022321, -0.218574, 0.020357},
	            {-0.029909, 0.007469, 0.049104},
	            {-0.114634, -0.010553, 0.050001}
	        },
	        {
	            {-0.133987, -0.004276, -0.000963},
	            {-0.009527, 0.038109, -0.076298},
	            {0.035679, -0.054403, 0.038956}
	        },
	        {
	            {0.007927, 0.026594, -0.106479},
	            {-0.025224, 0.098669, 0.003089},
	            {-0.104171, 0.068875, 0.161939}
	        },
	        {
	            {0.024258, 0.013899, -0.016353},
	            {-0.096412, 0.075940, -0.086077},
	            {-0.112753, -0.024653, 0.000903}
	        },
	        {
	            {0.134577, 0.114330, -0.140053},
	            {-0.012996, 0.017053, -0.036590},
	            {-0.004944, -0.048740, -0.072336}
	        },
	        {
	            {-0.089215, 0.057994, -0.001314},
	            {-0.042161, -0.001817, -0.074430},
	            {-0.147185, 0.022960, 0.060160}
	        },
	        {
	            {-0.073742, -0.058419, -0.104711},
	            {0.067506, -0.083261, 0.018610},
	            {-0.019556, 0.007499, -0.275722}
	        },
	        {
	            {0.022800, -0.152831, -0.046682},
	            {-0.125908, -0.108133, 0.018801},
	            {0.027489, -0.150306, 0.089788}
	        },
	        {
	            {0.020097, 0.106666, 0.076565},
	            {-0.021097, -0.033610, 0.020611},
	            {0.046843, -0.086779, 0.060968}
	        },
	        {
	            {0.046317, -0.091024, 0.010642},
	            {0.051772, -0.039849, -0.126917},
	            {0.044541, 0.104362, -0.087326}
	        },
	        {
	            {0.188529, -0.003995, 0.042635},
	            {0.033387, 0.044933, 0.103814},
	            {-0.034799, -0.085796, -0.005262}
	        },
	        {
	            {0.003649, -0.082811, 0.032949},
	            {0.093371, 0.109664, 0.004213},
	            {-0.089780, -0.102603, 0.051703}
	        },
	        {
	            {0.161324, 0.068735, 0.116915},
	            {-0.025059, 0.082959, -0.064123},
	            {-0.102864, -0.027202, -0.003399}
	        },
	        {
	            {-0.105751, -0.000736, 0.014908},
	            {-0.150859, 0.034204, -0.000181},
	            {0.095733, 0.084033, 0.038340}
	        },
	        {
	            {-0.061298, 0.098148, 0.032136},
	            {-0.070464, 0.122203, 0.059561},
	            {0.011770, 0.071900, 0.027765}
	        },
	        {
	            {-0.108363, 0.011874, 0.112168},
	            {0.092563, 0.044352, 0.060085},
	            {-0.059836, -0.002587, -0.028197}
	        },
	        {
	            {-0.144062, -0.026022, 0.020704},
	            {-0.049101, 0.069391, 0.199956},
	            {0.041751, -0.010610, -0.010266}
	        },
	        {
	            {0.143432, -0.090573, -0.002297},
	            {-0.193150, 0.039837, 0.054558},
	            {-0.021026, -0.008500, 0.123379}
	        },
	        {
	            {0.074713, -0.050482, -0.133563},
	            {0.033676, -0.012965, -0.027614},
	            {0.054473, 0.098059, 0.189501}
	        },
	        {
	            {0.009376, 0.049298, 0.173695},
	            {-0.001404, -0.047840, -0.070775},
	            {0.093986, -0.012560, 0.151999}
	        },
	        {
	            {0.109765, -0.029319, 0.015538},
	            {-0.125779, 0.147928, 0.107807},
	            {-0.013633, 0.034051, 0.022378}
	        },
	        {
	            {0.144352, -0.077260, 0.002130},
	            {-0.005919, 0.168015, 0.046151},
	            {0.110824, -0.067366, 0.002541}
	        },
	        {
	            {-0.058545, 0.054502, 0.039826},
	            {-0.013270, 0.120266, -0.098489},
	            {0.079264, 0.155462, -0.001565}
	        },
	        {
	            {-0.017769, 0.112714, -0.040115},
	            {0.051583, 0.087071, -0.150082},
	            {-0.031793, -0.068118, -0.130172}
	        },
	        {
	            {-0.078408, 0.015439, 0.061955},
	            {0.002702, 0.030578, 0.011369},
	            {-0.136527, 0.115165, -0.087569}
	        },
	        {
	            {0.082686, 0.062169, -0.080445},
	            {0.102408, 0.087768, 0.048788},
	            {-0.064988, -0.073809, 0.064207}
	        },
	        {
	            {-0.043670, -0.053713, -0.036523},
	            {0.097600, -0.016264, -0.196012},
	            {-0.178628, 0.041685, -0.013877}
	        },
	        {
	            {-0.169621, -0.000515, 0.110999},
	            {0.134998, -0.014585, -0.069017},
	            {0.017917, 0.081360, -0.184341}
	        },
	        {
	            {-0.199084, -0.033149, -0.344110},
	            {0.027263, 0.220493, 0.029731},
	            {0.127324, 0.074297, -0.046518}
	        }
	    },
	    {
	        {
	            {-0.054909, 0.040972, 0.077407},
	            {-0.065296, 0.059651, -0.054541},
	            {0.050192, 0.048847, 0.024022}
	        },
	        {
	            {-0.287362, 0.057611, -0.065720},
	            {-0.135526, 0.050118, 0.183278},
	            {-0.037529, -0.072169, 0.007323}
	        },
	        {
	            {-0.058799, -0.088795, -0.019371},
	            {-0.050966, -0.023130, -0.103282},
	            {-0.008128, 0.051248, -0.002038}
	        },
	        {
	            {-0.060620, -0.034928, -0.023949},
	            {0.088094, 0.054842, 0.035541},
	            {-0.046734, -0.021610, -0.062084}
	        },
	        {
	            {0.038553, -0.104298, -0.110589},
	            {-0.030063, 0.178387, -0.185583},
	            {0.101546, -0.079396, 0.006225}
	        },
	        {
	            {0.086243, 0.272880, -0.088871},
	            {-0.013084, 0.062451, 0.006394},
	            {0.084514, -0.026412, -0.120074}
	        },
	        {
	            {-0.146784, -0.092841, -0.030001},
	            {-0.002102, 0.037184, -0.142727},
	            {-0.085503, -0.014876, -0.068928}
	        },
	        {
	            {-0.020143, -0.081467, -0.059538},
	            {0.102270, -0.049792, 0.013639},
	            {0.029509, -0.062232, -0.034194}
	        },
	        {
	            {-0.071504, -0.090806, -0.009947},
	            {-0.011394, 0.036657, -0.107717},
	            {-0.008236, -0.043739, -0.001416}
	        },
	        {
	            {-0.089478, -0.017388, -0.156539},
	            {-0.021022, 0.029786, -0.101021},
	            {-0.110868, -0.045838, 0.028093}
	        },
	        {
	            {0.016567, -0.090402, -0.117456},
	            {0.064910, 0.009852, 0.001236},
	            {0.039079, -0.099469, 0.001666}
	        },
	        {
	            {-0.088984, -0.011553, 0.018585},
	            {-0.041542, 0.009097, -0.094036},
	            {-0.080622, 0.051379, -0.062767}
	        },
	        {
	            {0.074815, -0.110448, -0.083651},
	            {-0.042049, -0.037641, 0.034560},
	            {0.052751, -0.029259, -0.088295}
	        },
	        {
	            {0.009647, -0.016791, -0.026134},
	            {-0.125201, 0.002425, -0.021839},
	            {-0.070357, -0.110111, 0.076617}
	        },
	        {
	            {-0.006530, -0.034494, -0.082357},
	            {-0.101023, 0.049763, -0.065326},
	            {-0.064290, -0.139449, 0.052215}
	        },
	        {
	            {-0.158865, 0.020935, 0.101301},
	            {0.047037, 0.047705, 0.034136},
	            {0.172353, -0.187280, 0.004950}
	        },
	        {
	            {-0.132415, -0.165865, 0.091893},
	            {-0.134789, -0.058363, 0.013909},
	            {-0.208283, -0.094369, 0.052810}
	        },
	        {
	            {-0.079087, 0.063866, -0.039675},
	            {0.000301, -0.076288, -0.081079},
	            {-0.005185, -0.076607, -0.019711}
	        },
	        {
	            {0.077236, -0.012545, 0.029925},
	            {-0.005594, -0.036762, -0.088832},
	            {-0.256590, -0.044523, -0.074468}
	        },
	        {
	            {0.045496, -0.029389, 0.113080},
	            {0.165314, -0.112606, 0.029850},
	            {-0.033168, 0.099557, -0.034343}
	        },
	        {
	            {-0.046299, 0.035411, 0.023032},
	            {-0.060259, -0.017311, 0.041681},
	            {-0.089112, -0.106972, 0.050471}
	        },
	        {
	            {-0.124816, -0.023368, -0.086056},
	            {-0.002752, 0.102208, 0.051903},
	            {0.030201, 0.002176, -0.114743}
	        },
	        {
	            {-0.080036, -0.039167, 0.127069},
	            {-0.046155, -0.018683, 0.034941},
	            {-0.132560, 0.127522, 0.012320}
	        },
	        {
	            {0.095800, -0.288901, -0.052769},
	            {-0.084523, -0.048385, 0.070563},
	            {0.029417, 0.003085, -0.165921}
	        },
	        {
	            {0.035852, -0.034096, 0.033181},
	            {-0.080346, -0.050674, -0.080090},
	            {-0.108765, -0.015238, -0.071229}
	        },
	        {
	            {0.080096, 0.043618, -0.120583},
	            {0.027662, 0.009715, -0.067814},
	            {0.010117, -0.014843, -0.230154}
	        },
	        {
	            {0.005505, -0.004180, -0.073914},
	            {-0.007164, 0.020376, 0.050199},
	            {-0.007546, 0.146683, -0.092342}
	        },
	        {
	            {-0.102022, 0.000186, 0.074755},
	            {-0.131462, -0.204846, 0.123048},
	            {0.016978, 0.026336, 0.024516}
	        },
	        {
	            {0.049830, 0.118558, -0.072343},
	            {0.077038, 0.003206, -0.091485},
	            {0.066671, -0.142669, -0.232638}
	        },
	        {
	            {-0.081113, -0.023784, -0.134403},
	            {0.059133, 0.149834, -0.149682},
	            {0.039228, -0.070892, -0.060870}
	        },
	        {
	            {-0.087541, 0.035560, 0.097924},
	            {0.015583, -0.031347, 0.155223},
	            {0.148846, 0.006190, 0.038764}
	        },
	        {
	            {-0.002382, -0.071672, -0.044750},
	            {0.060707, 0.028698, -0.003894},
	            {-0.046237, -0.107512, -0.080823}
	        }
	    },
	    {
	        {
	            {0.064406, -0.036737, -0.050036},
	            {-0.112163, -0.029895, 0.106605},
	            {-0.119065, -0.032573, 0.087707}
	        },
	        {
	            {-0.030488, 0.058583, 0.019712},
	            {0.024847, -0.051245, 0.024325},
	            {-0.047340, 0.066584, -0.030429}
	        },
	        {
	            {-0.133111, 0.093342, 0.097896},
	            {0.013353, -0.109535, -0.056216},
	            {-0.088364, 0.198239, 0.034500}
	        },
	        {
	            {0.028207, 0.090607, -0.078495},
	            {-0.012236, 0.054505, 0.006494},
	            {0.177486, -0.134674, 0.077743}
	        },
	        {
	            {0.029649, -0.126709, -0.063652},
	            {0.002519, 0.006312, 0.013071},
	            {0.021676, 0.070043, 0.018512}
	        },
	        {
	            {-0.021401, -0.013586, -0.018341},
	            {0.001643, 0.058016, -0.120471},
	            {-0.066584, 0.045326, -0.064996}
	        },
	        {
	            {-0.063832, -0.207561, -0.071599},
	            {-0.022671, 0.006940, 0.074927},
	            {0.100156, 0.077877, 0.041605}
	        },
	        {
	            {-0.063797, -0.012580, -0.007061},
	            {0.014419, -0.202965, 0.020911},
	            {0.038298, 0.000461, 0.097743}
	        },
	        {
	            {0.024954, -0.046325, 0.086253},
	            {-0.032332, 0.034907, -0.025451},
	            {-0.211067, 0.094352, -0.072171}
	        },
	        {
	            {-0.012694, -0.230252, -0.045187},
	            {-0.047165, -0.056164, 0.033853},
	            {-0.121875, 0.022160, -0.033391}
	        },
	        {
	            {0.115183, -0.136721, 0.065521},
	            {-0.066250, -0.081717, -0.033868},
	            {0.085209, -0.048395, -0.037423}
	        },
	        {
	            {-0.025465, -0.083411, -0.164178},
	            {-0.188779, 0.020139, -0.028378},
	            {-0.238384, 0.175756, 0.066623}
	        },
	        {
	            {0.064517, -0.046783, 0.094237},
	            {-0.076091, 0.163090, 0.063105},
	            {0.047496, 0.089331, 0.086108}
	        },
	        {
	            {-0.038064, 0.093916, -0.101306},
	            {0.017056, -0.042809, -0.044751},
	            {-0.000664, -0.065229, -0.029998}
	        },
	        {
	            {0.166248, 0.054830, -0.006137},
	            {0.096811, 0.063634, -0.068120},
	            {0.065352, -0.200850, 0.019058}
	        },
	        {
	            {-0.087663, -0.043552, -0.156277},
	            {0.044072, -0.091963, 0.030135},
	            {-0.014375, -0.150898, -0.049166}
	        },
	        {
	            {0.081428, 0.050938, 0.060424},
	            {-0.127711, -0.076036, 0.006224},
	            {0.087767, -0.096513, -0.121571}
	        },
	        {
	            {-0.010858, 0.062296, 0.018184},
	            {0.039060, 0.030431, -0.212863},
	            {-0.118543, -0.019641, -0.020513}
	        },
	        {
	            {0.100435, -0.024524, -0.088468},
	            {-0.201848, -0.054517, -0.092217},
	            {-0.009426, -0.007036, 0.154451}
	        },
	        {
	            {-0.089416, -0.122519, 0.027256},
	            {-0.074121, 0.019366, 0.180697},
	            {-0.062997, 0.010393, 0.116085}
	        },
	        {
	            {-0.059726, 0.117044, -0.066986},
	            {-0.058130, -0.145406, -0.095157},
	            {-0.032909, 0.052182, -0.072573}
	        },
	        {
	            {-0.027797, -0.071056, -0.053147},
	            {-0.036867, -0.116452, -0.040337},
	            {-0.069258, -0.030089, -0.098138}
	        },
	        {
	            {-0.022420, -0.007647, 0.007210},
	            {-0.166972, 0.170674, 0.068246},
	            {-0.061029, 0.027442, -0.121026}
	        },
	        {
	            {0.034405, 0.190762, 0.086443},
	            {0.021685, 0.143080, 0.014941},
	            {0.165374, -0.190243, -0.025310}
	        },
	        {
	            {-0.160757, -0.063543, -0.042622},
	            {-0.163076, -0.036237, -0.086772},
	            {0.176411, -0.002979, 0.189812}
	        },
	        {
	            {-0.030630, 0.026643, -0.069886},
	            {0.013080, -0.058579, -0.021374},
	            {-0.023460, -0.070942, -0.127698}
	        },
	        {
	            {0.054663, 0.018861, 0.225633},
	            {0.029375, -0.052017, -0.010727},
	            {0.104103, 0.094313, -0.001273}
	        },
	        {
	            {0.221869, -0.004394, -0.091268},
	            {-0.158857, 0.034599, 0.045266},
	            {-0.116310, 0.095893, 0.016587}
	        },
	        {
	            {0.030265, 0.028223, -0.103000},
	            {0.001123, 0.145084, 0.035768},
	            {-0.001235, -0.019150, -0.074460}
	        },
	        {
	            {-0.026822, -0.003378, -0.080739},
	            {-0.113098, -0.181133, -0.107946},
	            {-0.010439, 0.019507, -0.122487}
	        },
	        {
	            {0.053404, -0.166856, -0.019088},
	            {-0.006016, -0.096647, 0.003978},
	            {-0.006184, -0.188243, -0.115202}
	        },
	        {
	            {-0.188213, -0.024276, 0.027769},
	            {0.076425, -0.069919, 0.042722},
	            {-0.000537, 0.048456, -0.038092}
	        }
	    },
	    {
	        {
	            {-0.054741, 0.141966, -0.059295},
	            {0.026454, -0.121520, -0.022566},
	            {0.006967, 0.030050, -0.033288}
	        },
	        {
	            {0.026153, 0.048878, 0.063556},
	            {-0.055698, -0.007908, -0.073188},
	            {0.174913, -0.044953, -0.031767}
	        },
	        {
	            {0.038819, 0.019349, -0.106061},
	            {-0.021616, -0.091466, -0.124577},
	            {-0.060320, -0.274208, -0.086430}
	        },
	        {
	            {-0.045794, 0.112156, 0.075373},
	            {-0.103958, -0.058057, -0.077153},
	            {-0.076408, 0.143116, -0.092809}
	        },
	        {
	            {-0.068298, -0.000428, 0.061785},
	            {0.148390, -0.131799, -0.017155},
	            {0.024367, -0.122626, -0.067420}
	        },
	        {
	            {-0.063234, 0.005431, -0.063087},
	            {0.055999, -0.059484, -0.006786},
	            {-0.087176, -0.084456, -0.031036}
	        },
	        {
	            {-0.222988, -0.018161, -0.218253},
	            {0.084629, -0.103463, -0.041389},
	            {0.209001, 0.046036, 0.089639}
	        },
	        {
	            {-0.094426, -0.174201, -0.025096},
	            {0.158913, 0.005620, -0.040701},
	            {-0.005491, -0.022600, 0.051247}
	        },
	        {
	            {-0.255876, -0.158521, -0.085825},
	            {-0.079045, 0.231558, 0.036925},
	            {0.069862, -0.029717, 0.064121}
	        },
	        {
	            {-0.155279, -0.028335, 0.053285},
	            {-0.172428, 0.051788, -0.359639},
	            {0.029240, -0.033583, 0.210203}
	        },
	        {
	            {0.060543, 0.185831, 0.128086},
	            {0.151902, 0.020591, -0.036578},
	            {0.037978, 0.118106, 0.108222}
	        },
	        {
	            {0.116997, -0.054570, -0.174222},
	            {-0.075524, -0.100745, 0.111172},
	            {0.006361, 0.023730, -0.097063}
	        },
	        {
	            {0.013256, -0.038466, -0.192032},
	            {-0.087857, -0.086967, -0.013160},
	            {0.019597, 0.031463, 0.064415}
	        },
	        {
	            {0.029916, 0.044669, -0.002701},
	            {0.041240, -0.051941, -0.087476},
	            {-0.041913, -0.008094, 0.059457}
	        },
	        {
	            {-0.129009, -0.101384, -0.119279},
	            {-0.028289, -0.081692, -0.039660},
	            {0.004681, 0.063898, -0.122487}
	        },
	        {
	            {-0.031868, -0.000763, 0.076326},
	            {-0.127742, -0.137878, 0.072740},
	            {-0.027304, -0.047313, -0.065114}
	        },
	        {
	            {-0.156140, -0.095853, -0.046520},
	            {0.013654, -0.058496, 0.007564},
	            {-0.057968, -0.203725, 0.044422}
	        },
	        {
	            {0.047089, -0.179410, 0.012662},
	            {-0.257809, 0.089489, 0.060031},
	            {0.052251, 0.030490, -0.000804}
	        },
	        {
	            {0.015850, 0.020899, -0.093019},
	            {-0.099918, -0.143132, 0.008351},
	            {-0.189111, -0.079362, -0.076076}
	        },
	        {
	            {-0.111386, -0.002598, 0.113620},
	            {0.035019, 0.094234, 0.059638},
	            {0.048558, 0.081915, 0.011333}
	        },
	        {
	            {-0.021993, -0.107592, -0.143335},
	            {-0.057172, -0.293590, -0.061912},
	            {0.040813, 0.120941, -0.171255}
	        },
	        {
	            {0.102810, 0.025923, 0.070283},
	            {0.083203, 0.058699, -0.018568},
	            {0.056169, 0.109140, -0.057822}
	        },
	        {
	            {-0.096097, 0.031956, 0.113922},
	            {0.074827, -0.046671, -0.080096},
	            {0.023976, 0.014305, 0.050691}
	        },
	        {
	            {0.046914, -0.111751, -0.009054},
	            {-0.084078, -0.092651, 0.066140},
	            {0.042792, 0.098971, 0.018906}
	        },
	        {
	            {0.023015, 0.092877, 0.097137},
	            {-0.025992, 0.104831, 0.042899},
	            {0.025806, -0.159658, -0.070065}
	        },
	        {
	            {-0.099641, -0.082555, 0.021732},
	            {0.023326, 0.010684, -0.563048},
	            {-0.028241, -0.096577, -0.043141}
	        },
	        {
	            {-0.029031, -0.021970, -0.069017},
	            {-0.016745, 0.152687, -0.093984},
	            {-0.129202, 0.221180, -0.071555}
	        },
	        {
	            {0.030461, 0.107904, 0.020980},
	            {-0.224850, 0.139421, -0.061690},
	            {0.140267, -0.150355, -0.000516}
	        },
	        {
	            {-0.140157, 0.143813, -0.250831},
	            {0.181252, 0.062627, -0.147967},
	            {0.055342, -0.227173, 0.172921}
	        },
	        {
	            {-0.019625, -0.066460, -0.072859},
	            {-0.112337, -0.134957, -0.052797},
	            {0.036477, -0.210062, -0.010756}
	        },
	        {
	            {-0.101500, 0.008190, -0.175487},
	            {-0.047799, -0.223023, 0.021344},
	            {0.050118, -0.085766, 0.105757}
	        },
	        {
	            {-0.282533, -0.107652, 0.198628},
	            {-0.073168, 0.004194, 0.242943},
	            {0.019372, -0.149766, -0.187370}
	        }
	    },
	    {
	        {
	            {0.009568, -0.043738, 0.024043},
	            {0.012697, -0.086691, -0.154794},
	            {-0.059129, -0.041525, -0.038677}
	        },
	        {
	            {-0.072208, -0.076356, -0.139189},
	            {-0.109106, 0.012438, -0.013091},
	            {-0.121405, -0.204099, -0.067382}
	        },
	        {
	            {0.095184, 0.173528, -0.068594},
	            {-0.158194, 0.003233, -0.013990},
	            {-0.041901, -0.016574, 0.027006}
	        },
	        {
	            {-0.100737, -0.003930, 0.105942},
	            {-0.176380, -0.000412, -0.123365},
	            {0.007114, 0.070702, -0.041980}
	        },
	        {
	            {0.023448, -0.211221, -0.009903},
	            {0.030667, -0.017719, -0.102514},
	            {-0.084684, -0.069214, -0.007314}
	        },
	        {
	            {-0.062878, 0.029771, -0.039848},
	            {-0.060013, -0.014379, 0.073026},
	            {-0.116840, -0.020280, -0.160568}
	        },
	        {
	            {0.017108, -0.064942, -0.206805},
	            {-0.016641, -0.061444, -0.060546},
	            {-0.000259, -0.106042, -0.054619}
	        },
	        {
	            {0.169726, -0.130358, -0.127759},
	            {0.080757, -0.065935, -0.082600},
	            {0.105009, -0.056087, -0.082528}
	        },
	        {
	            {0.004148, 0.002187, 0.072383},
	            {0.066702, -0.143310, 0.024756},
	            {0.090705, -0.066708, 0.132555}
	        },
	        {
	            {-0.045830, -0.064929, -0.018623},
	            {0.015569, -0.089316, 0.017736},
	            {-0.010834, -0.005594, -0.106062}
	        },
	        {
	            {0.057932, -0.018946, 0.184970},
	            {-0.130274, -0.067716, -0.059990},
	            {-0.154517, 0.140030, 0.134837}
	        },
	        {
	            {0.051927, -0.100844, 0.000675},
	            {-0.105293, -0.031715, -0.045482},
	            {-0.040840, 0.041048, 0.122042}
	        },
	        {
	            {-0.019149, -0.006583, -0.012946},
	            {-0.136332, -0.013798, -0.168034},
	            {-0.088591, 0.079410, 0.076552}
	        },
	        {
	            {-0.019626, 0.040022, -0.013391},
	            {-0.042777, -0.031958, -0.150741},
	            {0.085805, -0.098562, -0.026349}
	        },
	        {
	            {-0.063331, -0.102766, -0.136547},
	            {0.130567, 0.109761, 0.037494},
	            {-0.091128, -0.189798, -0.050416}
	        },
	        {
	            {-0.082621, -0.085969, 0.029626},
	            {0.129648, -0.057209, 0.046099},
	            {0.012552, 0.009202, -0.321317}
	        },
	        {
	            {0.046638, 0.031775, -0.119089},
	            {-0.012670, -0.009559, 0.073007},
	            {0.005592, 0.021062, -0.013635}
	        },
	        {
	            {-0.182062, -0.049463, 0.036751},
	            {0.049264, 0.101263, -0.178570},
	            {-0.049580, -0.048789, 0.014149}
	        },
	        {
	            {-0.119104, -0.093685, 0.003749},
	            {0.020038, 0.131657, 0.039027},
	            {-0.111128, -0.021952, -0.007135}
	        },
	        {
	            {-0.076065, -0.069557, -0.062171},
	            {0.022333, -0.173769, 0.093028},
	            {0.037376, -0.186158, -0.080839}
	        },
	        {
	            {0.031919, 0.090898, -0.022855},
	            {-0.114088, -0.070197, -0.070320},
	            {-0.212722, -0.031731, 0.107475}
	        },
	        {
	            {-0.027986, 0.004837, -0.169340},
	            {-0.173207, -0.022455, -0.089513},
	            {0.096359, 0.137057, -0.019085}
	        },
	        {
	            {0.061974, -0.030079, -0.132210},
	            {-0.045413, 0.031945, 0.082962},
	            {-0.017588, 0.066571, -0.073528}
	        },
	        {
	            {0.100063, -0.222418, 0.085839},
	            {0.037070, 0.000255, -0.047845},
	            {-0.068640, 0.063289, -0.035123}
	        },
	        {
	            {-0.091024, -0.035911, -0.159086},
	            {-0.039383, 0.124427, 0.102910},
	            {-0.023872, -0.042534, -0.093268}
	        },
	        {
	            {-0.026281, -0.012641, -0.844061},
	            {-0.028776, 0.033703, -0.022411},
	            {-0.200856, 0.155095, 0.034002}
	        },
	        {
	            {-0.071259, 0.114936, -0.015934},
	            {-0.032560, -0.086094, 0.178095},
	            {-0.206997, -0.141454, 0.003959}
	        },
	        {
	            {-0.000764, 0.065661, 0.031412},
	            {-0.068917, 0.067643, -0.187923},
	            {-0.063423, -0.044940, -0.008111}
	        },
	        {
	            {-0.002209, 0.075691, -0.133025},
	            {-0.038900, 0.100958, 0.003173},
	            {-0.058239, 0.091840, -0.182204}
	        },
	        {
	            {0.046625, 0.003078, -0.068045},
	            {0.036122, 0.078009, 0.002577},
	            {-0.014542, 0.098066, -0.005762}
	        },
	        {
	            {0.082893, 0.054470, -0.082988},
	            {0.150516, -0.039479, 0.094408},
	            {0.063959, 0.053013, -0.045655}
	        },
	        {
	            {-0.003487, -0.104574, 0.016503},
	            {-0.082944, -0.102009, 0.045818},
	            {0.076892, -0.023197, 0.036115}
	        }
	    },
	    {
	        {
	            {-0.054327, -0.044145, -0.110299},
	            {-0.079193, -0.070890, -0.124993},
	            {-0.079558, 0.009822, -0.040862}
	        },
	        {
	            {-0.104542, -0.131092, 0.024850},
	            {0.019841, -0.050310, -0.056318},
	            {0.046255, 0.011644, -0.164064}
	        },
	        {
	            {0.083162, -0.013429, -0.051004},
	            {0.061597, -0.143733, -0.114749},
	            {-0.225229, 0.018846, 0.058755}
	        },
	        {
	            {0.085559, -0.123741, 0.013113},
	            {0.002884, 0.056786, -0.180276},
	            {0.039629, -0.050441, 0.035139}
	        },
	        {
	            {-0.329640, -0.082712, 0.026166},
	            {-0.063599, -0.008143, -0.090695},
	            {0.033477, -0.013411, -0.097922}
	        },
	        {
	            {0.019831, 0.121053, -0.050739},
	            {-0.066497, 0.134239, 0.010015},
	            {0.006062, -0.081638, -0.121004}
	        },
	        {
	            {-0.183798, -0.139179, -0.008651},
	            {-0.012802, 0.027850, -0.097627},
	            {0.016054, -0.050535, 0.092611}
	        },
	        {
	            {-0.145287, -0.024991, 0.033323},
	            {-0.040963, 0.049019, -0.296907},
	            {0.012036, -0.147967, -0.011871}
	        },
	        {
	            {-0.026520, -0.019538, -0.057830},
	            {-0.055302, 0.052239, -0.027412},
	            {0.042559, -0.089070, 0.045231}
	        },
	        {
	            {-0.002553, -0.182469, -0.019589},
	            {-0.082677, 0.030105, -0.212599},
	            {-0.064445, -0.097569, -0.060553}
	        },
	        {
	            {-0.016969, 0.064292, -0.234964},
	            {-0.071650, -0.026910, -0.068382},
	            {-0.103634, -0.061117, -0.095055}
	        },
	        {
	            {-0.026208, -0.136298, -0.061171},
	            {-0.261394, -0.029154, -0.021450},
	            {0.054135, -0.058827, -0.070244}
	        },
	        {
	            {-0.042867, 0.026262, 0.179097},
	            {-0.013503, -0.099114, 0.076043},
	            {-0.034142, -0.008533, -0.156784}
	        },
	        {
	            {-0.004938, -0.023950, 0.039275},
	            {-0.046572, 0.024329, -0.059917},
	            {0.049942, 0.109729, 0.039032}
	        },
	        {
	            {-0.043692, -0.026187, -0.039174},
	            {0.117000, -0.009235, -0.058064},
	            {-0.089659, -0.006162, -0.068183}
	        },
	        {
	            {-0.105681, -0.088560, -0.153830},
	            {0.016608, -0.107051, -0.021927},
	            {-0.093903, -0.035739, -0.079543}
	        },
	        {
	            {-0.122013, 0.046457, -0.116468},
	            {0.055732, 0.024284, -0.066964},
	            {0.095358, 0.167016, -0.068515}
	        },
	        {
	            {-0.119063, 0.006178, -0.061013},
	            {-0.138323, -0.023946, -0.132679},
	            {-0.057926, 0.070397, 0.068066}
	        },
	        {
	            {-0.008759, -0.039809, -0.081138},
	            {-0.078161, -0.030158, -0.072918},
	            {-0.012678, -0.056469, -0.062542}
	        },
	        {
	            {0.013217, -0.030836, -0.014609},
	            {-0.052672, -0.175137, 0.148159},
	            {-0.167357, -0.084443, 0.013067}
	        },
	        {
	            {-0.100618, -0.049146, -0.089458},
	            {0.054697, 0.128564, -0.072914},
	            {0.086459, -0.062444, 0.020662}
	        },
	        {
	            {-0.054117, 0.042021, -0.000325},
	            {-0.082892, 0.096043, -0.013822},
	            {-0.170864, 0.011327, -0.197646}
	        },
	        {
	            {-0.044844, 0.088046, 0.079817},
	            {-0.051138, 0.091281, -0.020640},
	            {-0.094685, 0.017285, -0.112537}
	        },
	        {
	            {0.209101, 0.178840, 0.085864},
	            {0.051648, -0.079468, 0.071172},
	            {-0.022333, -0.008768, -0.030273}
	        },
	        {
	            {0.038147, -0.174345, 0.011302},
	            {0.096808, -0.110930, -0.101590},
	            {-0.343782, 0.058542, -0.010244}
	        },
	        {
	            {0.157541, 0.082541, -0.122612},
	            {0.036475, 0.017641, 0.008159},
	            {0.086335, -0.188965, -0.056592}
	        },
	        {
	            {-0.120622, 0.043683, -0.075111},
	            {0.154453, -0.119342, -0.023995},
	            {0.077345, -0.052541, -0.229142}
	        },
	        {
	            {0.107402, 0.079979, 0.113754},
	            {-0.006952, 0.012530, 0.025826},
	            {0.008305, -0.030947, -0.012098}
	        },
	        {
	            {0.176162, -0.066685, -0.010094},
	            {-0.037520, 0.026175, 0.113851},
	            {0.186229, 0.174556, 0.062595}
	        },
	        {
	            {0.026515, -0.022524, 0.088482},
	            {-0.036119, -0.041715, -0.028888},
	            {-0.000292, -0.192897, 0.035316}
	        },
	        {
	            {-0.078104, -0.110332, 0.129410},
	            {0.016443, 0.053714, -0.000612},
	            {0.050880, 0.023615, 0.017416}
	        },
	        {
	            {-0.025141, 0.200176, 0.196415},
	            {0.057640, -0.069662, -0.055771},
	            {0.019657, -0.096837, 0.063526}
	        }
	    },
	    {
	        {
	            {-0.066604, 0.075228, 0.058014},
	            {-0.144023, 0.127924, 0.061281},
	            {-0.159541, -0.070476, 0.039364}
	        },
	        {
	            {-0.015491, -0.075169, -0.043923},
	            {0.077474, 0.014694, -0.055012},
	            {-0.085089, 0.110445, -0.004818}
	        },
	        {
	            {0.028070, -0.079388, -0.069886},
	            {-0.091879, -0.181266, -0.165140},
	            {-0.000226, 0.027129, -0.065628}
	        },
	        {
	            {-0.057582, -0.014862, -0.019637},
	            {-0.181943, 0.049816, 0.022886},
	            {-0.034511, -0.012677, -0.213608}
	        },
	        {
	            {0.006098, -0.143248, -0.097416},
	            {-0.025852, 0.004340, -0.097756},
	            {-0.122745, -0.038313, 0.079566}
	        },
	        {
	            {0.161663, -0.055553, 0.022318},
	            {0.021708, -0.044482, 0.120563},
	            {0.077555, 0.025426, -0.043793}
	        },
	        {
	            {0.090610, -0.081586, -0.028574},
	            {0.055274, -0.037326, -0.008599},
	            {-0.085029, 0.001753, 0.031086}
	        },
	        {
	            {-0.009981, -0.147436, -0.061189},
	            {-0.008683, -0.140853, -0.090875},
	            {-0.106175, -0.195877, -0.084608}
	        },
	        {
	            {0.007563, -0.099706, -0.145707},
	            {0.017403, 0.096214, -0.006405},
	            {-0.036624, -0.072540, 0.051098}
	        },
	        {
	            {-0.000807, 0.162675, 0.097775},
	            {0.008174, -0.021724, -0.106106},
	            {-0.132849, -0.045073, -0.118796}
	        },
	        {
	            {-0.053078, -0.071472, -0.041130},
	            {-0.141855, -0.241871, -0.047858},
	            {-0.056213, 0.043630, -0.107848}
	        },
	        {
	            {-0.018128, -0.053891, -0.061670},
	            {0.074733, -0.220997, 0.053712},
	            {-0.083531, -0.070963, 0.094446}
	        },
	        {
	            {0.029356, -0.055565, -0.076894},
	            {0.004017, 0.057387, 0.001466},
	            {-0.070526, 0.006764, -0.011144}
	        },
	        {
	            {-0.008606, -0.063817, 0.011590},
	            {-0.109880, -0.094015, 0.030233},
	            {-0.020836, 0.084350, 0.043991}
	        },
	        {
	            {-0.012596, 0.104562, -0.038876},
	            {0.040334, -0.104585, -0.174100},
	            {-0.015432, -0.059801, -0.069497}
	        },
	        {
	            {-0.004376, -0.142054, -0.201796},
	            {0.015033, 0.035885, -0.051841},
	            {0.055766, 0.111342, -0.034995}
	        },
	        {
	            {0.076509, -0.143304, 0.142966},
	            {0.136543, 0.005517, 0.007092},
	            {-0.006693, -0.009037, -0.037215}
	        },
	        {
	            {-0.046810, 0.003904, 0.102227},
	            {0.024213, -0.041844, -0.115907},
	            {-0.026346, -0.030956, -0.033709}
	        },
	        {
	            {0.000345, -0.029056, 0.010110},
	            {0.011662, -0.014097, -0.048572},
	            {-0.026371, 0.068236, -0.010803}
	        },
	        {
	            {0.036097, -0.096158, 0.029114},
	            {-0.065275, -0.087385, -0.126266},
	            {-0.040017, 0.010654, 0.188450}
	        },
	        {
	            {0.143680, -0.102062, -0.115063},
	            {-0.069772, -0.049145, -0.007361},
	            {-0.080437, 0.059839, 0.013598}
	        },
	        {
	            {0.096653, -0.151579, -0.045401},
	            {0.091296, -0.026271, 0.110923},
	            {-0.048322, -0.058358, -0.003170}
	        },
	        {
	            {-0.007124, -0.161472, -0.062663},
	            {0.106248, 0.094940, -0.093127},
	            {-0.067643, 0.004959, 0.016747}
	        },
	        {
	            {-0.037747, 0.014159, -0.032035},
	            {-0.073533, 0.011510, 0.127063},
	            {-0.049901, -0.149137, -0.112510}
	        },
	        {
	            {0.110511, -0.003513, -0.064037},
	            {-0.165041, 0.138773, 0.011985},
	            {0.171009, 0.086439, 0.012499}
	        },
	        {
	            {0.137239, 0.178074, -0.127496},
	            {0.152207, -0.012724, 0.034858},
	            {0.008736, 0.020408, -0.061072}
	        },
	        {
	            {-0.043557, 0.046784, 0.033980},
	            {-0.043769, 0.052064, -0.041944},
	            {0.015231, -0.084406, -0.005646}
	        },
	        {
	            {0.058729, 0.102318, -0.045588},
	            {-0.056779, -0.001826, -0.065825},
	            {-0.089224, 0.024197, -0.016309}
	        },
	        {
	            {0.236955, -0.078871, -0.049880},
	            {-0.028316, -0.067671, 0.136315},
	            {-0.086937, 0.011447, -0.021239}
	        },
	        {
	            {-0.218081, -0.018680, -0.120148},
	            {0.024290, -0.000838, -0.016925},
	            {0.043262, 0.012864, 0.096882}
	        },
	        {
	            {-0.026685, -0.013954, -0.065719},
	            {-0.010958, 0.085436, 0.142543},
	            {-0.088243, -0.098838, 0.081961}
	        },
	        {
	            {0.016213, -0.104369, 0.034390},
	            {-0.036662, 0.003633, 0.208041},
	            {-0.098247, 0.001994, 0.084506}
	        }
	    },
	    {
	        {
	            {-0.020604, 0.005175, 0.153061},
	            {0.009548, -0.160893, -0.048499},
	            {-0.050612, 0.053950, -0.027390}
	        },
	        {
	            {-0.183265, 0.098921, -0.015067},
	            {0.034304, -0.144004, 0.050766},
	            {-0.107308, 0.007554, 0.062062}
	        },
	        {
	            {-0.016953, 0.100298, 0.108091},
	            {-0.068395, 0.087218, 0.006761},
	            {-0.175684, -0.120914, -0.110704}
	        },
	        {
	            {-0.060537, -0.048963, 0.007250},
	            {0.128331, 0.120750, -0.156775},
	            {0.020785, 0.003223, -0.006646}
	        },
	        {
	            {-0.003315, 0.004259, -0.101053},
	            {0.080824, -0.103735, -0.210631},
	            {0.156432, 0.143699, -0.018363}
	        },
	        {
	            {0.134597, 0.181791, -0.054141},
	            {0.001402, -0.071653, -0.023143},
	            {0.011919, -0.026531, -0.110240}
	        },
	        {
	            {-0.071081, 0.049457, -0.090873},
	            {0.030508, -0.003055, 0.013688},
	            {0.031985, 0.055975, -0.063367}
	        },
	        {
	            {-0.130246, 0.004128, -0.065628},
	            {0.000849, -0.035448, 0.088173},
	            {-0.043997, -0.112563, -0.133421}
	        },
	        {
	            {-0.026615, -0.027314, 0.128348},
	            {0.034855, 0.070329, 0.008786},
	            {-0.092326, 0.007737, 0.071959}
	        },
	        {
	            {-0.108027, 0.000067, 0.113697},
	            {0.047293, -0.073254, -0.086450},
	            {-0.018581, 0.051644, -0.108420}
	        },
	        {
	            {-0.064455, 0.077420, -0.020709},
	            {-0.043060, -0.013038, 0.046933},
	            {-0.001639, 0.064734, -0.026700}
	        },
	        {
	            {-0.114560, 0.025377, -0.006518},
	            {-0.010237, 0.044637, 0.001757},
	            {0.010952, -0.011170, 0.073293}
	        },
	        {
	            {0.068929, 0.011746, 0.048019},
	            {-0.037175, 0.020365, -0.113410},
	            {0.024625, -0.152735, -0.030716}
	        },
	        {
	            {-0.206047, -0.045757, -0.028600},
	            {0.166924, 0.095445, 0.052665},
	            {0.075247, -0.176190, -0.010686}
	        },
	        {
	            {0.217484, -0.067410, -0.034280},
	            {0.184994, 0.034600, -0.034414},
	            {-0.101613, -0.114783, 0.021633}
	        },
	        {
	            {-0.124398, -0.095316, -0.055313},
	            {0.024920, -0.073664, -0.047000},
	            {0.022290, 0.105190, -0.220401}
	        },
	        {
	            {0.079878, -0.078333, 0.052598},
	            {0.122043, 0.069012, 0.021096},
	            {-0.021031, -0.019177, 0.008409}
	        },
	        {
	            {-0.097047, 0.032716, 0.093569},
	            {-0.146848, 0.018279, 0.002005},
	            {-0.029931, 0.035324, -0.126198}
	        },
	        {
	            {0.038717, -0.045366, 0.087437},
	            {0.049247, -0.015033, 0.048191},
	            {-0.085682, 0.007575, -0.064155}
	        },
	        {
	            {0.060640, 0.096558, 0.036082},
	            {-0.043590, 0.008235, 0.061401},
	            {0.033959, 0.006307, 0.071411}
	        },
	        {
	            {-0.115702, 0.088356, 0.031439},
	            {-0.143428, 0.106757, 0.073377},
	            {-0.015569, 0.178702, 0.019618}
	        },
	        {
	            {0.050019, 0.055477, 0.102004},
	            {-0.103900, 0.022778, 0.100519},
	            {0.017038, -0.050251, -0.112885}
	        },
	        {
	            {0.022310, -0.232458, 0.008227},
	            {0.116783, -0.037021, 0.057602},
	            {0.081825, -0.004303, 0.133504}
	        },
	        {
	            {-0.148088, -0.048497, -0.030497},
	            {-0.077893, -0.009913, -0.077319},
	            {0.020671, -0.042060, -0.214251}
	        },
	        {
	            {-0.165218, -0.154042, 0.049071},
	            {-0.101592, 0.025729, -0.059439},
	            {0.176359, 0.086036, -0.028461}
	        },
	        {
	            {0.027451, -0.037272, 0.046799},
	            {-0.059596, -0.040281, -0.056370},
	            {-0.047869, 0.238923, -0.106034}
	        },
	        {
	            {0.027916, 0.098337, -0.058275},
	            {-0.006998, 0.132137, -0.150616},
	            {0.004117, -0.135536, 0.106562}
	        },
	        {
	            {-0.090934, 0.135766, 0.187537},
	            {-0.016425, -0.086492, -0.056449},
	            {0.034847, 0.027631, -0.024176}
	        },
	        {
	            {0.107672, 0.041090, 0.040534},
	            {0.117199, 0.046132, 0.190794},
	            {-0.010406, -0.015343, 0.022981}
	        },
	        {
	            {0.061750, -0.045445, -0.159723},
	            {0.061687, 0.052171, 0.029021},
	            {0.188455, -0.130072, 0.091868}
	        },
	        {
	            {0.031676, 0.057994, -0.191609},
	            {-0.025310, -0.084790, 0.186882},
	            {0.069291, 0.063328, 0.065376}
	        },
	        {
	            {-0.020423, 0.149443, 0.125015},
	            {0.057620, -0.042286, -0.279343},
	            {-0.072758, -0.054318, 0.033344}
	        }
	    },
	    {
	        {
	            {-0.047674, 0.059141, 0.140117},
	            {-0.070033, 0.036606, -0.054085},
	            {-0.022510, -0.049387, -0.044657}
	        },
	        {
	            {0.005792, -0.075393, 0.013135},
	            {-0.042013, 0.112272, 0.018352},
	            {-0.104456, -0.093501, -0.011094}
	        },
	        {
	            {-0.131828, 0.087144, 0.086804},
	            {-0.107824, 0.126167, -0.089399},
	            {0.159193, 0.107953, 0.241442}
	        },
	        {
	            {0.089611, 0.069621, -0.066444},
	            {0.009175, 0.056071, 0.105450},
	            {-0.004084, -0.108574, -0.078381}
	        },
	        {
	            {-0.024019, -0.165524, -0.166255},
	            {-0.105939, -0.086492, 0.016596},
	            {-0.076687, 0.101871, 0.024819}
	        },
	        {
	            {0.066713, -0.021990, -0.030330},
	            {-0.060805, -0.072017, -0.199827},
	            {-0.006053, 0.054653, 0.091144}
	        },
	        {
	            {0.049884, -0.070706, 0.146599},
	            {0.080934, 0.011519, -0.011558},
	            {-0.048252, -0.079251, -0.061171}
	        },
	        {
	            {-0.016793, -0.093387, -0.081408},
	            {0.109153, -0.031494, -0.076513},
	            {-0.019222, -0.030876, -0.085653}
	        },
	        {
	            {-0.073044, 0.066614, -0.101454},
	            {0.046417, -0.084238, 0.035498},
	            {-0.090487, 0.041843, 0.044290}
	        },
	        {
	            {-0.055314, -0.070762, 0.019391},
	            {-0.054544, 0.108117, -0.228806},
	            {-0.030949, -0.028002, 0.037842}
	        },
	        {
	            {0.081647, -0.145564, -0.022465},
	            {-0.086524, -0.088753, -0.136373},
	            {-0.084803, 0.095065, 0.039288}
	        },
	        {
	            {0.010436, -0.080836, 0.038451},
	            {-0.246996, 0.019311, 0.082495},
	            {0.063368, -0.021567, 0.047415}
	        },
	        {
	            {0.007527, -0.076546, -0.045242},
	            {0.024161, 0.052708, -0.119938},
	            {0.083468, -0.035342, 0.025041}
	        },
	        {
	            {0.032615, -0.044205, -0.072487},
	            {0.145013, -0.092183, -0.161580},
	            {-0.148430, 0.137733, 0.057072}
	        },
	        {
	            {-0.050959, -0.030843, 0.092544},
	            {-0.105218, -0.054789, -0.055243},
	            {-0.041925, -0.080236, -0.063299}
	        },
	        {
	            {-0.111792, -0.097855, -0.058971},
	            {-0.089442, -0.047946, -0.010953},
	            {0.087910, 0.103044, -0.158002}
	        },
	        {
	            {0.121317, -0.083594, -0.083738},
	            {0.073033, -0.085959, -0.019285},
	            {-0.134764, -0.023142, -0.095196}
	        },
	        {
	            {-0.109779, 0.094295, -0.083494},
	            {-0.117544, 0.004550, -0.097368},
	            {0.008696, 0.063820, -0.065957}
	        },
	        {
	            {0.125025, 0.043828, -0.016447},
	            {0.100055, -0.002434, 0.109629},
	            {-0.010143, -0.340525, 0.018843}
	        },
	        {
	            {0.013713, -0.143435, 0.134276},
	            {0.099778, -0.111582, 0.068583},
	            {-0.056491, -0.079784, 0.005984}
	        },
	        {
	            {-0.002989, 0.048384, -0.228482},
	            {-0.077196, -0.160513, 0.071055},
	            {-0.076725, -0.076488, 0.035943}
	        },
	        {
	            {-0.029449, -0.039332, 0.018564},
	            {-0.027706, -0.041078, -0.096444},
	            {0.026930, 0.101093, -0.043797}
	        },
	        {
	            {-0.011283, -0.077114, 0.078899},
	            {-0.064874, 0.087646, 0.029487},
	            {0.004659, -0.052195, -0.068529}
	        },
	        {
	            {-0.042967, -0.064764, 0.056979},
	            {-0.004322, 0.120783, 0.030551},
	            {-0.036607, -0.236758, -0.016112}
	        },
	        {
	            {0.043389, -0.089625, -0.065564},
	            {0.026315, 0.120433, 0.063771},
	            {0.232636, -0.018843, 0.071718}
	        },
	        {
	            {-0.047385, -0.071835, 0.099840},
	            {-0.080337, -0.008139, -0.124025},
	            {-0.051575, -0.026211, -0.009316}
	        },
	        {
	            {-0.123817, 0.044764, -0.068314},
	            {0.023369, 0.162971, 0.031841},
	            {-0.122725, -0.081269, 0.142495}
	        },
	        {
	            {0.118766, 0.146873, 0.040290},
	            {-0.084149, 0.072709, 0.078278},
	            {-0.081325, 0.006002, -0.013712}
	        },
	        {
	            {-0.065916, 0.015466, -0.087452},
	            {-0.018999, -0.074696, -0.120711},
	            {-0.127434, 0.009193, -0.004419}
	        },
	        {
	            {-0.024533, -0.039531, 0.076244},
	            {0.024969, -0.085543, 0.025904},
	            {0.203875, -0.011334, 0.119396}
	        },
	        {
	            {0.244261, -0.036845, 0.085399},
	            {-0.101931, -0.116552, -0.013659},
	            {0.012209, -0.038611, -0.078271}
	        },
	        {
	            {-0.152727, 0.048164, -0.097117},
	            {0.090291, 0.152212, -0.042909},
	            {0.004666, 0.141005, 0.117714}
	        }
	    },
	    {
	        {
	            {0.039073, -0.025771, -0.069015},
	            {-0.107690, -0.049990, -0.022676},
	            {-0.001601, -0.036301, 0.022091}
	        },
	        {
	            {0.070897, 0.031912, 0.110835},
	            {0.126184, 0.068751, -0.056796},
	            {-0.049273, -0.008442, -0.189711}
	        },
	        {
	            {0.068987, 0.012460, -0.031478},
	            {-0.116047, 0.027019, -0.129176},
	            {-0.067435, 0.025841, 0.128181}
	        },
	        {
	            {-0.083885, 0.076455, 0.083107},
	            {-0.024165, -0.170013, -0.033186},
	            {0.094703, -0.012677, 0.086308}
	        },
	        {
	            {0.006033, -0.092919, -0.055224},
	            {0.012370, -0.030503, -0.092195},
	            {-0.018814, 0.017583, 0.040866}
	        },
	        {
	            {0.037921, -0.030224, 0.119250},
	            {-0.003058, -0.195089, 0.008631},
	            {0.099952, -0.057480, 0.036017}
	        },
	        {
	            {-0.037303, -0.009109, -0.072298},
	            {-0.063890, 0.025994, -0.018804},
	            {0.098531, -0.059039, -0.084055}
	        },
	        {
	            {-0.130636, 0.019354, 0.077728},
	            {-0.013060, -0.019262, 0.067698},
	            {-0.022819, 0.025785, 0.123598}
	        },
	        {
	            {0.033641, -0.056515, 0.043870},
	            {0.052528, -0.024580, 0.037081},
	            {-0.056196, -0.088658, 0.257753}
	        },
	        {
	            {-0.084199, 0.077144, 0.143158},
	            {-0.081479, -0.078061, 0.039567},
	            {-0.083894, 0.191379, -0.119529}
	        },
	        {
	            {0.124124, -0.087285, -0.017428},
	            {0.051387, -0.058391, 0.013522},
	            {0.082109, -0.129257, 0.012661}
	        },
	        {
	            {-0.236939, -0.084310, 0.081442},
	            {-0.070870, 0.058913, 0.014983},
	            {-0.090427, -0.008659, 0.090203}
	        },
	        {
	            {0.100761, 0.041182, 0.142747},
	            {-0.015179, 0.020042, -0.123380},
	            {0.167147, 0.052876, 0.095338}
	        },
	        {
	            {-0.038335, -0.004560, -0.135302},
	            {0.056859, -0.017387, -0.064720},
	            {-0.139796, -0.089896, -0.030425}
	        },
	        {
	            {0.003154, 0.033750, -0.024972},
	            {0.079974, 0.134805, -0.008276},
	            {0.040372, 0.075395, -0.239845}
	        },
	        {
	            {-0.025079, 0.036660, -0.299909},
	            {0.032524, 0.141774, 0.124990},
	            {-0.037381, -0.026336, 0.071642}
	        },
	        {
	            {-0.105780, -0.154793, 0.118400},
	            {0.081987, 0.106858, -0.077406},
	            {0.062219, 0.120031, 0.039844}
	        },
	        {
	            {0.084838, -0.019817, -0.048830},
	            {-0.158433, 0.055050, -0.205726},
	            {-0.050867, -0.023499, -0.014568}
	        },
	        {
	            {-0.131075, -0.018809, 0.084447},
	            {-0.091198, -0.091929, 0.133497},
	            {0.177708, -0.058103, -0.088438}
	        },
	        {
	            {0.022630, -0.143373, -0.117198},
	            {-0.203596, -0.087716, 0.095740},
	            {-0.049989, -0.103742, 0.179906}
	        },
	        {
	            {0.024923, 0.086053, 0.112677},
	            {-0.020432, 0.077336, -0.186291},
	            {0.008518, -0.036197, -0.046261}
	        },
	        {
	            {0.159694, -0.238426, -0.066280},
	            {0.021517, 0.064328, 0.069249},
	            {-0.151352, -0.117002, -0.039988}
	        },
	        {
	            {-0.224154, 0.007774, -0.066655},
	            {-0.252461, -0.061864, -0.012942},
	            {-0.176040, 0.069016, 0.069422}
	        },
	        {
	            {-0.206271, -0.021365, 0.010215},
	            {0.189351, 0.074780, -0.031996},
	            {-0.044218, -0.191921, 0.035353}
	        },
	        {
	            {0.086520, -0.014796, -0.037030},
	            {-0.036032, -0.074082, -0.061506},
	            {-0.151222, -0.006105, -0.000731}
	        },
	        {
	            {-0.065940, -0.164989, -0.049671},
	            {-0.061587, -0.095227, 0.026717},
	            {0.108146, 0.032737, -0.092736}
	        },
	        {
	            {0.143205, -0.182863, -0.016228},
	            {-0.047822, -0.087004, -0.002031},
	            {-0.112286, 0.034067, 0.135992}
	        },
	        {
	            {-0.167684, 0.089263, -0.057200},
	            {-0.135354, -0.113329, -0.044740},
	            {0.152585, -0.097428, 0.061446}
	        },
	        {
	            {-0.031621, 0.089736, -0.161651},
	            {-0.116721, 0.007191, -0.019300},
	            {-0.083252, 0.111786, -0.002458}
	        },
	        {
	            {0.007265, -0.068911, 0.060609},
	            {-0.084930, 0.068788, 0.053203},
	            {-0.068509, 0.022858, 0.033614}
	        },
	        {
	            {-0.007102, 0.018281, 0.016538},
	            {-0.117982, -0.021581, -0.033594},
	            {0.020670, -0.106483, -0.032358}
	        },
	        {
	            {0.065666, 0.184690, -0.010572},
	            {-0.144938, -0.019071, 0.037920},
	            {0.035072, -0.036453, 0.027422}
	        }
	    },
	    {
	        {
	            {-0.050295, -0.030299, -0.080306},
	            {-0.113146, 0.049960, -0.072923},
	            {0.008697, 0.060369, -0.037696}
	        },
	        {
	            {-0.160083, 0.082006, 0.034591},
	            {-0.049957, -0.069518, 0.166922},
	            {0.264359, -0.030125, -0.036118}
	        },
	        {
	            {-0.063472, 0.105704, -0.151807},
	            {0.136167, -0.092489, -0.010259},
	            {-0.058338, -0.118180, 0.053757}
	        },
	        {
	            {-0.035316, -0.104585, 0.032804},
	            {-0.049990, 0.095675, 0.098598},
	            {-0.164989, -0.061911, -0.019183}
	        },
	        {
	            {-0.035902, -0.111163, -0.037651},
	            {-0.088333, -0.113568, -0.173061},
	            {-0.057472, 0.170292, -0.019001}
	        },
	        {
	            {0.087265, 0.001752, 0.014164},
	            {0.024765, -0.011399, -0.072338},
	            {0.156650, -0.115920, 0.009196}
	        },
	        {
	            {-0.053099, -0.021243, -0.074222},
	            {-0.167543, 0.060239, -0.050885},
	            {-0.215067, -0.020387, 0.018831}
	        },
	        {
	            {-0.034275, -0.106692, -0.020806},
	            {0.061506, -0.005989, -0.213529},
	            {-0.042888, -0.103503, -0.078876}
	        },
	        {
	            {0.072763, -0.016604, -0.058333},
	            {-0.087834, 0.155978, 0.067561},
	            {0.021123, -0.146143, -0.148637}
	        },
	        {
	            {-0.071116, -0.056178, -0.075024},
	            {-0.054567, 0.001085, -0.061667},
	            {-0.016796, -0.094375, -0.074613}
	        },
	        {
	            {-0.068051, -0.115065, 0.073512},
	            {-0.075580, -0.105674, -0.203809},
	            {-0.030406, -0.104110, 0.120582}
	        },
	        {
	            {-0.025908, 0.003496, -0.021908},
	            {-0.103723, -0.064758, -0.029208},
	            {0.034991, -0.099672, 0.039398}
	        },
	        {
	            {0.132811, 0.080341, 0.074448},
	            {0.187257, -0.148413, -0.003326},
	            {0.020062, -0.044630, -0.318158}
	        },
	        {
	            {0.149328, -0.045189, -0.040900},
	            {-0.110601, -0.084865, -0.070986},
	            {0.049092, -0.181957, -0.055597}
	        },
	        {
	            {0.006063, 0.033957, 0.109372},
	            {0.026131, -0.129560, -0.034362},
	            {-0.014269, 0.078939, -0.006167}
	        },
	        {
	            {0.079561, -0.073125, 0.027372},
	            {0.132497, 0.015319, 0.097235},
	            {0.003367, 0.109479, 0.068883}
	        },
	        {
	            {-0.149453, -0.097163, 0.196612},
	            {0.112098, 0.062001, -0.020593},
	            {0.049183, 0.059201, 0.054208}
	        },
	        {
	            {-0.097187, -0.055245, -0.051323},
	            {-0.322352, -0.067237, 0.098977},
	            {-0.019202, -0.063853, 0.006296}
	        },
	        {
	            {-0.196204, -0.029270, -0.066365},
	            {-0.162558, 0.026507, 0.178883},
	            {-0.140458, 0.087350, 0.042211}
	        },
	        {
	            {0.019586, 0.019378, 0.001235},
	            {-0.024067, -0.001612, 0.059604},
	            {0.039043, 0.181038, 0.166522}
	        },
	        {
	            {0.103449, 0.054449, -0.002947},
	            {0.126315, 0.042924, 0.126808},
	            {-0.056190, -0.071394, -0.018768}
	        },
	        {
	            {-0.129190, 0.025694, -0.200524},
	            {0.059227, 0.073635, -0.031760},
	            {-0.019369, 0.015989, 0.099275}
	        },
	        {
	            {-0.069502, 0.047687, 0.002944},
	            {-0.090688, -0.075278, 0.004403},
	            {-0.060098, 0.072903, 0.086342}
	        },
	        {
	            {0.062268, -0.106805, -0.058297},
	            {0.105114, 0.022379, 0.023606},
	            {-0.029202, -0.102874, -0.052838}
	        },
	        {
	            {-0.160662, -0.053007, 0.131212},
	            {0.177241, 0.130844, 0.008256},
	            {-0.033720, -0.129805, -0.030794}
	        },
	        {
	            {0.081731, -0.019540, 0.131477},
	            {0.173278, -0.007197, -0.049469},
	            {-0.030774, 0.061380, 0.026204}
	        },
	        {
	            {0.048210, 0.227080, -0.117997},
	            {0.100876, 0.196575, 0.136352},
	            {0.068815, -0.025346, -0.034659}
	        },
	        {
	            {-0.031920, 0.107209, -0.064080},
	            {0.003588, -0.093905, 0.119615},
	            {-0.097994, -0.003998, -0.146201}
	        },
	        {
	            {0.111311, 0.056838, -0.149558},
	            {0.144501, 0.056887, 0.024835},
	            {-0.064204, 0.041278, 0.113419}
	        },
	        {
	            {-0.014329, -0.080099, 0.038766},
	            {-0.043047, 0.004383, -0.057689},
	            {-0.035721, -0.006462, -0.012077}
	        },
	        {
	            {-0.095745, 0.262071, 0.080619},
	            {0.146916, 0.031744, -0.032699},
	            {0.240768, 0.057481, -0.004989}
	        },
	        {
	            {0.128171, 0.013470, -0.003368},
	            {-0.013251, -0.018891, -0.036430},
	            {0.028325, -0.088386, -0.010383}
	        }
	    },
	    {
	        {
	            {-0.069852, -0.030278, -0.101008},
	            {-0.017448, -0.050641, -0.117424},
	            {-0.143084, -0.079365, -0.087718}
	        },
	        {
	            {-0.119009, -0.038962, -0.051165},
	            {-0.016194, -0.017025, 0.010536},
	            {-0.032290, -0.043915, -0.022685}
	        },
	        {
	            {-0.021183, 0.035772, 0.021975},
	            {0.024111, -0.128085, -0.107690},
	            {-0.006560, -0.103239, -0.046348}
	        },
	        {
	            {0.029895, 0.104875, 0.060430},
	            {-0.060626, -0.057265, -0.011702},
	            {-0.116657, 0.009834, -0.187358}
	        },
	        {
	            {0.017562, -0.178033, 0.068870},
	            {-0.010187, -0.119915, -0.125560},
	            {-0.057349, -0.035237, 0.077235}
	        },
	        {
	            {-0.083787, -0.121571, -0.031970},
	            {-0.025145, -0.053665, -0.058514},
	            {0.043314, -0.121713, 0.009524}
	        },
	        {
	            {-0.052988, -0.136814, -0.057978},
	            {-0.058409, 0.095931, 0.085486},
	            {-0.112973, -0.025113, 0.056389}
	        },
	        {
	            {-0.101165, -0.001111, -0.152061},
	            {-0.007767, -0.098045, 0.237725},
	            {-0.131336, -0.087341, 0.021413}
	        },
	        {
	            {-0.066757, -0.217931, -0.192100},
	            {-0.140999, 0.034896, 0.000832},
	            {-0.044068, -0.048273, 0.069671}
	        },
	        {
	            {-0.128130, -0.066533, 0.075050},
	            {0.101228, -0.150296, -0.141061},
	            {-0.146006, -0.034797, -0.100003}
	        },
	        {
	            {0.053128, -0.079089, 0.033534},
	            {-0.104609, -0.203307, 0.030831},
	            {0.016330, -0.013119, -0.087828}
	        },
	        {
	            {-0.106216, 0.008479, -0.035329},
	            {-0.051199, -0.063105, -0.090197},
	            {0.055327, -0.065010, -0.002783}
	        },
	        {
	            {-0.075610, 0.027702, -0.001897},
	            {-0.128205, -0.019399, -0.077871},
	            {-0.075375, -0.028951, -0.007667}
	        },
	        {
	            {0.025992, -0.174119, -0.155075},
	            {-0.035250, -0.026140, -0.001228},
	            {0.115653, -0.049430, 0.089742}
	        },
	        {
	            {-0.095519, -0.135912, 0.028580},
	            {-0.015130, -0.039813, 0.120655},
	            {-0.034118, -0.174042, -0.092702}
	        },
	        {
	            {0.063928, -0.127839, -0.091445},
	            {-0.088812, 0.036493, 0.084578},
	            {0.065118, -0.211169, -0.124602}
	        },
	        {
	            {-0.014552, -0.027138, -0.022312},
	            {0.056959, -0.126409, -0.074251},
	            {-0.140510, 0.002912, -0.044118}
	        },
	        {
	            {-0.125626, -0.003634, -0.041896},
	            {-0.143641, -0.057578, -0.128537},
	            {-0.071661, -0.053512, -0.073330}
	        },
	        {
	            {0.072791, -0.124184, 0.037410},
	            {-0.091512, -0.085409, -0.036519},
	            {-0.037201, -0.199783, -0.001393}
	        },
	        {
	            {-0.088569, -0.092255, -0.111340},
	            {-0.052154, -0.160434, -0.108470},
	            {0.151437, -0.045426, -0.176407}
	        },
	        {
	            {-0.105167, -0.108888, -0.010089},
	            {0.009642, -0.119824, -0.162073},
	            {0.015020, -0.094117, -0.128772}
	        },
	        {
	            {0.090886, -0.038138, -0.054405},
	            {0.024322, -0.145508, 0.027330},
	            {0.113485, 0.015860, 0.024204}
	        },
	        {
	            {-0.066884, 0.008173, -0.028358},
	            {-0.090584, -0.013658, -0.114918},
	            {-0.077213, -0.073748, 0.039818}
	        },
	        {
	            {-0.042767, -0.154443, 0.013766},
	            {-0.047582, 0.074648, -0.074662},
	            {0.035445, -0.006534, -0.178075}
	        },
	        {
	            {-0.016316, -0.143897, -0.028601},
	            {-0.074077, 0.072773, 0.082382},
	            {0.061002, -0.064412, -0.051716}
	        },
	        {
	            {-0.035420, 0.008274, -0.123320},
	            {0.097626, -0.019774, -0.322352},
	            {-0.142786, -0.044834, -0.126057}
	        },
	        {
	            {0.020599, -0.082595, 0.024503},
	            {-0.111516, -0.097929, -0.044996},
	            {-0.077221, 0.041321, 0.065592}
	        },
	        {
	            {0.063437, -0.058838, -0.102416},
	            {0.091546, -0.180185, -0.023458},
	            {-0.005101, -0.037653, 0.044779}
	        },
	        {
	            {-0.063674, 0.088819, -0.026859},
	            {-0.097875, -0.064170, -0.012762},
	            {-0.070949, -0.032019, -0.121201}
	        },
	        {
	            {-0.251536, 0.037071, -0.094208},
	            {-0.003794, -0.001100, -0.103350},
	            {-0.080403, 0.018712, 0.007270}
	        },
	        {
	            {0.003328, 0.040692, 0.074359},
	            {-0.039167, -0.037455, 0.034064},
	            {0.063687, 0.015757, -0.178591}
	        },
	        {
	            {0.045759, -0.170545, -0.132780},
	            {0.031016, -0.076693, 0.095932},
	            {-0.075545, -0.212100, -0.104295}
	        }
	    },
	    {
	        {
	            {0.003778, -0.014288, 0.060546},
	            {-0.131306, 0.008841, -0.230066},
	            {-0.049611, 0.208065, -0.181858}
	        },
	        {
	            {-0.133192, 0.041643, 0.061776},
	            {-0.066721, -0.096263, 0.089997},
	            {0.002706, -0.038641, 0.111545}
	        },
	        {
	            {0.091174, -0.083730, 0.018526},
	            {0.177711, -0.037536, -0.040531},
	            {0.148964, 0.051426, 0.023785}
	        },
	        {
	            {0.056217, -0.049474, -0.029553},
	            {-0.165700, -0.056445, 0.011106},
	            {0.093182, 0.236168, -0.129894}
	        },
	        {
	            {-0.106734, -0.099495, -0.130542},
	            {-0.082400, -0.037103, -0.048416},
	            {-0.006443, 0.047006, 0.021617}
	        },
	        {
	            {-0.046587, -0.003191, 0.142706},
	            {0.062136, 0.012880, -0.018784},
	            {0.124329, 0.034287, -0.028198}
	        },
	        {
	            {-0.098470, 0.055911, 0.066274},
	            {-0.159721, -0.100528, -0.009655},
	            {0.136207, 0.003550, -0.053883}
	        },
	        {
	            {-0.075823, 0.070133, 0.067449},
	            {-0.053618, -0.178533, -0.004430},
	            {-0.034802, -0.164306, -0.043517}
	        },
	        {
	            {-0.160446, -0.248704, -0.044589},
	            {-0.119232, -0.097399, 0.028753},
	            {-0.004948, 0.052328, 0.035007}
	        },
	        {
	            {-0.056911, -0.068025, 0.001618},
	            {-0.058712, 0.043422, -0.091413},
	            {-0.226882, 0.060681, -0.144303}
	        },
	        {
	            {-0.047136, -0.138114, -0.122141},
	            {-0.066989, -0.205583, 0.056769},
	            {0.019626, 0.056532, 0.118321}
	        },
	        {
	            {-0.098174, 0.032525, 0.063326},
	            {0.042227, 0.054079, 0.057952},
	            {-0.077122, 0.113016, -0.010865}
	        },
	        {
	            {-0.198386, -0.003913, -0.115323},
	            {0.177507, -0.122919, 0.085478},
	            {0.130037, -0.026392, -0.027346}
	        },
	        {
	            {-0.204024, 0.002519, -0.083561},
	            {0.002534, -0.125263, 0.024418},
	            {-0.006032, -0.004637, 0.019693}
	        },
	        {
	            {0.107797, 0.070073, -0.010886},
	            {0.018716, -0.102570, -0.105112},
	            {0.047381, -0.067227, 0.081178}
	        },
	        {
	            {0.026525, 0.146232, 0.057585},
	            {-0.195760, 0.105481, 0.040151},
	            {-0.015956, -0.036025, -0.104212}
	        },
	        {
	            {0.064192, 0.034738, 0.080522},
	            {-0.053501, -0.038459, -0.011880},
	            {-0.101720, 0.130575, -0.064462}
	        },
	        {
	            {0.124939, 0.051120, -0.002485},
	            {0.113086, -0.026831, 0.096870},
	            {-0.107992, 0.027740, 0.062206}
	        },
	        {
	            {0.167373, 0.009443, -0.171829},
	            {-0.008093, -0.217483, 0.096274},
	            {0.096371, -0.003863, -0.081083}
	        },
	        {
	            {0.077990, 0.083614, 0.116849},
	            {-0.009290, -0.074373, 0.071759},
	            {0.001027, 0.067511, 0.111893}
	        },
	        {
	            {0.106981, 0.039198, 0.102143},
	            {-0.137641, 0.139656, 0.234785},
	            {0.019929, -0.002209, -0.323134}
	        },
	        {
	            {0.078069, -0.156264, -0.048880},
	            {-0.027799, 0.128406, -0.218933},
	            {-0.102599, -0.024940, 0.096369}
	        },
	        {
	            {0.094381, -0.032840, 0.039135},
	            {-0.072378, 0.018239, 0.111958},
	            {0.011141, -0.049113, 0.010885}
	        },
	        {
	            {0.002539, -0.046136, 0.083008},
	            {0.006628, -0.045605, 0.131827},
	            {0.079905, 0.046931, -0.115085}
	        },
	        {
	            {-0.172066, -0.099209, 0.015146},
	            {-0.000890, -0.054615, 0.016273},
	            {0.084640, -0.076269, -0.002896}
	        },
	        {
	            {-0.091092, -0.143625, 0.044254},
	            {0.146362, -0.004451, 0.033902},
	            {-0.124634, 0.029016, -0.008075}
	        },
	        {
	            {-0.058474, 0.035819, -0.102673},
	            {-0.070940, 0.040953, 0.056782},
	            {-0.034174, -0.081047, 0.168640}
	        },
	        {
	            {0.107022, 0.049881, 0.199782},
	            {0.031694, 0.074897, -0.026619},
	            {0.096002, -0.004651, -0.005212}
	        },
	        {
	            {0.169043, 0.000485, 0.094254},
	            {-0.074330, -0.013034, 0.066881},
	            {0.033130, -0.025805, -0.094021}
	        },
	        {
	            {-0.068871, -0.285315, -0.026077},
	            {-0.079301, -0.012478, 0.082699},
	            {-0.091437, -0.008073, -0.093324}
	        },
	        {
	            {-0.031770, -0.025928, -0.072895},
	            {0.093914, 0.071816, 0.010256},
	            {0.076928, 0.092841, -0.065190}
	        },
	        {
	            {-0.071297, -0.087551, 0.164196},
	            {0.053734, 0.166557, -0.001774},
	            {-0.010959, -0.089474, 0.130484}
	        }
	    },
	    {
	        {
	            {-0.045664, 0.111851, 0.068790},
	            {-0.084080, -0.002392, -0.010440},
	            {-0.035778, -0.012701, -0.003979}
	        },
	        {
	            {-0.175838, -0.047265, -0.027894},
	            {-0.100320, 0.003240, 0.134309},
	            {-0.233493, 0.002933, 0.097077}
	        },
	        {
	            {-0.038179, -0.077547, -0.184547},
	            {-0.019217, -0.093809, 0.085206},
	            {0.013934, -0.141448, 0.001166}
	        },
	        {
	            {-0.138535, -0.158714, 0.019806},
	            {0.008779, -0.056615, -0.030245},
	            {-0.065244, 0.031278, -0.049865}
	        },
	        {
	            {0.038118, -0.105866, -0.026235},
	            {-0.146031, 0.052139, -0.146171},
	            {-0.067667, -0.010207, 0.077992}
	        },
	        {
	            {-0.045367, -0.031157, 0.006806},
	            {0.012288, -0.140861, 0.126076},
	            {0.095200, -0.120298, -0.178231}
	        },
	        {
	            {-0.142646, 0.007946, -0.209926},
	            {0.060285, 0.121313, -0.115732},
	            {-0.169291, -0.127402, -0.036365}
	        },
	        {
	            {-0.073219, -0.076293, -0.172206},
	            {0.047183, 0.015724, 0.040659},
	            {-0.116604, 0.023496, -0.027422}
	        },
	        {
	            {-0.068733, -0.024651, -0.023225},
	            {-0.182873, 0.096257, -0.040387},
	            {-0.126109, 0.211086, -0.050869}
	        },
	        {
	            {-0.015994, -0.114183, -0.170482},
	            {-0.037848, -0.124064, -0.142399},
	            {-0.040678, -0.003658, 0.107579}
	        },
	        {
	            {0.018196, 0.045668, 0.070276},
	            {-0.101522, 0.042391, -0.048545},
	            {0.101694, -0.011736, -0.176967}
	        },
	        {
	            {-0.153374, 0.029149, -0.125073},
	            {-0.069734, 0.087562, 0.042016},
	            {-0.223424, 0.000866, 0.045852}
	        },
	        {
	            {-0.018975, 0.069975, -0.018069},
	            {-0.062775, -0.172487, -0.057333},
	            {-0.127412, -0.112960, -0.039898}
	        },
	        {
	            {-0.069400, -0.134574, -0.245069},
	            {-0.121531, -0.184195, 0.093246},
	            {-0.141399, -0.265831, -0.145190}
	        },
	        {
	            {-0.093398, 0.087614, -0.174126},
	            {-0.129537, 0.074869, -0.032667},
	            {0.143779, -0.141302, -0.039000}
	        },
	        {
	            {-0.143507, -0.011691, -0.061796},
	            {0.012543, 0.009422, -0.178653},
	            {0.007369, -0.140979, -0.068659}
	        },
	        {
	            {0.053580, -0.115688, -0.101729},
	            {-0.097628, -0.032876, -0.097370},
	            {-0.005434, -0.026134, -0.066975}
	        },
	        {
	            {0.168631, -0.071936, -0.152474},
	            {-0.036433, 0.032368, -0.062495},
	            {-0.184053, -0.104219, -0.025172}
	        },
	        {
	            {-0.066337, 0.104130, 0.012031},
	            {-0.031686, -0.003064, -0.046482},
	            {0.070255, 0.085315, 0.010873}
	        },
	        {
	            {-0.033972, 0.053548, -0.026679},
	            {-0.073173, -0.022890, 0.013196},
	            {-0.055039, -0.111873, 0.019383}
	        },
	        {
	            {-0.067405, -0.094289, 0.083341},
	            {0.085259, 0.131121, 0.054326},
	            {0.081309, -0.016090, 0.077507}
	        },
	        {
	            {0.028605, -0.035926, 0.022813},
	            {-0.001557, -0.073150, -0.017012},
	            {-0.085920, -0.041670, 0.008614}
	        },
	        {
	            {0.078212, -0.050620, -0.164457},
	            {-0.011096, 0.076711, -0.053501},
	            {0.002862, -0.083421, 0.114311}
	        },
	        {
	            {-0.033728, -0.233026, -0.156108},
	            {0.071079, 0.035099, -0.080621},
	            {-0.003933, -0.046225, -0.141049}
	        },
	        {
	            {-0.119684, -0.093893, -0.009758},
	            {0.117615, 0.078543, -0.165080},
	            {0.030257, -0.032894, 0.021385}
	        },
	        {
	            {0.058805, -0.058241, -0.064002},
	            {-0.044029, 0.161754, -0.069331},
	            {-0.053631, 0.052079, -0.013465}
	        },
	        {
	            {0.073160, 0.105125, 0.120831},
	            {-0.018868, 0.104906, -0.019617},
	            {-0.091212, -0.034512, -0.083555}
	        },
	        {
	            {0.072885, 0.054068, -0.074847},
	            {0.006337, -0.155011, 0.069827},
	            {0.254162, -0.112225, -0.187093}
	        },
	        {
	            {0.185840, 0.025339, 0.030182},
	            {0.096401, -0.129743, -0.067820},
	            {0.164266, 0.026395, 0.145545}
	        },
	        {
	            {-0.014238, 0.058497, -0.133929},
	            {-0.125956, -0.000343, -0.033352},
	            {0.096824, 0.009407, -0.015217}
	        },
	        {
	            {-0.018395, 0.027695, 0.007516},
	            {-0.034982, 0.101777, 0.169241},
	            {0.108315, -0.005632, 0.145849}
	        },
	        {
	            {0.013358, -0.038076, 0.140985},
	            {0.115064, -0.061323, 0.180871},
	            {-0.024635, -0.021143, 0.049062}
	        }
	    },
	    {
	        {
	            {0.065512, -0.116015, 0.047621},
	            {-0.196195, -0.134625, 0.066413},
	            {-0.032875, -0.037503, 0.014449}
	        },
	        {
	            {-0.007057, -0.027416, -0.009613},
	            {-0.107320, -0.012975, -0.093590},
	            {0.001971, -0.001086, 0.040150}
	        },
	        {
	            {-0.025449, 0.007648, -0.187776},
	            {-0.083113, -0.086792, 0.064388},
	            {-0.200910, -0.015635, -0.000970}
	        },
	        {
	            {0.016888, 0.053360, -0.011008},
	            {0.089708, 0.038932, 0.032797},
	            {0.097631, 0.016774, -0.584027}
	        },
	        {
	            {0.030737, 0.005729, 0.028590},
	            {0.035683, -0.065136, -0.422597},
	            {0.012731, -0.131248, 0.016659}
	        },
	        {
	            {-0.111476, -0.110729, 0.051638},
	            {-0.032524, 0.167956, 0.116220},
	            {-0.037017, -0.075967, -0.017555}
	        },
	        {
	            {-0.209910, -0.010258, -0.155305},
	            {0.108750, 0.044620, 0.044265},
	            {-0.010118, 0.057767, 0.103051}
	        },
	        {
	            {-0.121863, -0.067324, 0.047728},
	            {0.096249, -0.196560, -0.112581},
	            {0.134375, 0.017842, -0.143899}
	        },
	        {
	            {-0.021309, -0.517086, 0.116501},
	            {0.148778, -0.080067, 0.094368},
	            {0.202954, -0.007145, 0.056985}
	        },
	        {
	            {-0.062264, 0.074334, 0.020439},
	            {-0.033601, -0.158514, -0.258838},
	            {-0.034736, -0.032604, 0.009077}
	        },
	        {
	            {0.000870, 0.009480, -0.114286},
	            {-0.045094, -0.137636, -0.045432},
	            {0.070755, -0.134426, 0.019123}
	        },
	        {
	            {0.011217, -0.006337, -0.072482},
	            {-0.219116, 0.110422, 0.100732},
	            {-0.197053, 0.002786, -0.052317}
	        },
	        {
	            {-0.067691, -0.043524, -0.115376},
	            {-0.048261, 0.046370, 0.045082},
	            {-0.059723, 0.044531, -0.116654}
	        },
	        {
	            {0.083340, -0.103686, 0.003265},
	            {-0.062924, 0.016527, 0.048523},
	            {-0.059200, 0.120439, -0.065217}
	        },
	        {
	            {-0.191838, 0.145302, -0.057924},
	            {-0.031689, 0.013620, 0.023185},
	            {0.133188, 0.114139, -0.098627}
	        },
	        {
	            {-0.081814, -0.098341, -0.023369},
	            {0.021961, -0.005408, 0.034423},
	            {-0.135243, -0.172483, -0.022573}
	        },
	        {
	            {-0.117469, 0.101709, -0.118901},
	            {0.000009, -0.043990, 0.043076},
	            {-0.218199, -0.029931, 0.009426}
	        },
	        {
	            {0.251448, -0.003205, 0.080232},
	            {0.176195, 0.014187, -0.030866},
	            {-0.050109, -0.086004, -0.028830}
	        },
	        {
	            {-0.064417, 0.037145, -0.184163},
	            {0.047906, -0.177631, -0.068089},
	            {-0.008831, 0.009592, 0.063002}
	        },
	        {
	            {-0.023722, 0.007704, 0.059248},
	            {-0.048196, -0.133302, 0.022006},
	            {-0.038084, -0.125664, 0.044931}
	        },
	        {
	            {-0.131144, -0.066648, -0.085029},
	            {-0.010578, 0.074061, 0.028159},
	            {-0.071754, -0.081013, -0.276377}
	        },
	        {
	            {-0.066233, -0.114938, 0.083600},
	            {0.013795, -0.006273, 0.111451},
	            {-0.036184, 0.018442, -0.076411}
	        },
	        {
	            {-0.084748, -0.070341, -0.096020},
	            {-0.134823, -0.048805, 0.011351},
	            {-0.023306, -0.010634, -0.156255}
	        },
	        {
	            {-0.140443, -0.114821, 0.019496},
	            {-0.052613, 0.088870, 0.080832},
	            {0.097029, -0.154307, -0.173975}
	        },
	        {
	            {-0.065456, 0.079835, -0.021429},
	            {-0.097329, -0.095693, -0.073382},
	            {-0.164821, 0.013312, -0.067862}
	        },
	        {
	            {0.091505, 0.099248, -0.007428},
	            {0.010328, 0.007164, -0.108789},
	            {0.082895, -0.149807, -0.029690}
	        },
	        {
	            {0.073828, -0.053968, -0.008235},
	            {-0.122561, 0.090972, 0.007074},
	            {-0.078814, 0.168226, -0.033548}
	        },
	        {
	            {0.063843, -0.038314, -0.141161},
	            {-0.116521, -0.097183, -0.044967},
	            {-0.004093, -0.102341, -0.099532}
	        },
	        {
	            {0.027172, 0.070685, -0.201543},
	            {-0.018335, -0.001662, 0.067877},
	            {-0.029970, -0.006788, -0.067987}
	        },
	        {
	            {-0.059976, -0.110564, -0.102575},
	            {-0.082333, 0.036631, 0.014381},
	            {0.000505, -0.027580, -0.064935}
	        },
	        {
	            {-0.079469, 0.024753, -0.074964},
	            {0.062134, -0.127430, 0.049486},
	            {-0.098563, -0.073796, 0.053115}
	        },
	        {
	            {-0.018304, -0.137596, -0.171740},
	            {-0.006235, 0.045206, 0.006043},
	            {-0.087101, -0.212806, 0.076705}
	        }
	    },
	    {
	        {
	            {0.072351, 0.078457, 0.020918},
	            {0.075189, -0.078500, 0.003482},
	            {-0.027463, -0.089799, -0.137670}
	        },
	        {
	            {0.056634, 0.008562, 0.089531},
	            {0.012139, -0.064518, -0.074704},
	            {-0.047710, -0.014120, -0.017510}
	        },
	        {
	            {0.031700, 0.086910, -0.279806},
	            {0.045219, -0.002185, 0.010496},
	            {-0.096516, -0.118582, 0.018499}
	        },
	        {
	            {-0.045202, -0.047476, -0.011138},
	            {-0.042712, -0.126093, 0.012297},
	            {0.050406, -0.089603, 0.024502}
	        },
	        {
	            {0.083871, 0.036877, 0.015050},
	            {-0.096079, 0.057861, 0.001356},
	            {-0.121540, -0.093150, 0.114500}
	        },
	        {
	            {0.049873, -0.063379, -0.008452},
	            {0.050549, -0.013289, -0.094198},
	            {0.095119, -0.138069, 0.033669}
	        },
	        {
	            {0.092470, 0.064401, 0.045304},
	            {0.002785, -0.001681, -0.154504},
	            {-0.003614, -0.015747, -0.009334}
	        },
	        {
	            {0.025404, -0.013241, 0.043437},
	            {-0.036499, -0.031816, 0.157736},
	            {-0.129681, 0.072506, -0.083714}
	        },
	        {
	            {0.194416, 0.051766, -0.006743},
	            {-0.191469, -0.053808, -0.113186},
	            {-0.056983, 0.023743, -0.069300}
	        },
	        {
	            {-0.009353, -0.112174, 0.043569},
	            {0.085847, 0.090711, 0.047260},
	            {-0.029714, 0.056196, 0.033899}
	        },
	        {
	            {0.014375, 0.055905, -0.126671},
	            {-0.084635, 0.008332, -0.008322},
	            {0.171623, -0.044899, -0.119214}
	        },
	        {
	            {-0.071312, -0.086381, 0.071310},
	            {-0.074836, 0.118336, 0.057830},
	            {-0.064345, -0.017120, 0.015713}
	        },
	        {
	            {0.060992, 0.069203, 0.111850},
	            {-0.114942, 0.035046, -0.102858},
	            {0.145699, -0.154071, 0.092935}
	        },
	        {
	            {0.163358, -0.058548, -0.031657},
	            {-0.016502, -0.070008, -0.017850},
	            {0.079278, -0.093267, -0.075760}
	        },
	        {
	            {-0.087706, -0.006365, 0.034565},
	            {-0.131671, -0.053619, -0.008047},
	            {-0.144521, -0.058012, -0.072087}
	        },
	        {
	            {0.013909, 0.028235, -0.466906},
	            {-0.001131, 0.004289, -0.062110},
	            {-0.041722, 0.038059, 0.042460}
	        },
	        {
	            {0.095325, 0.093491, 0.063926},
	            {-0.030715, 0.114532, 0.115474},
	            {-0.161247, -0.174472, -0.040302}
	        },
	        {
	            {-0.208853, 0.007151, -0.000752},
	            {0.016688, -0.029185, -0.339341},
	            {0.078878, -0.155474, -0.122987}
	        },
	        {
	            {-0.114005, -0.049561, -0.164010},
	            {-0.013562, -0.110558, -0.037639},
	            {0.084825, -0.295275, 0.079717}
	        },
	        {
	            {-0.158581, -0.102537, -0.082581},
	            {0.124016, -0.088949, 0.107974},
	            {0.063667, 0.017738, 0.016838}
	        },
	        {
	            {-0.006135, -0.048305, -0.094708},
	            {-0.088117, -0.138444, -0.140800},
	            {0.202049, -0.096843, 0.196473}
	        },
	        {
	            {-0.039710, -0.074947, 0.009154},
	            {-0.016636, -0.027276, -0.133493},
	            {0.003285, -0.039465, 0.156945}
	        },
	        {
	            {-0.103576, -0.039873, 0.021921},
	            {0.029118, 0.014139, -0.061449},
	            {-0.048539, 0.124485, -0.174235}
	        },
	        {
	            {-0.056660, 0.107249, -0.080703},
	            {-0.144219, -0.082194, -0.133228},
	            {0.041050, -0.175443, -0.044001}
	        },
	        {
	            {0.021856, -0.101329, -0.064081},
	            {-0.016427, -0.121794, 0.071063},
	            {-0.015786, 0.111105, 0.031782}
	        },
	        {
	            {0.026770, -0.105612, -0.014041},
	            {-0.133775, -0.085893, -0.026710},
	            {-0.017773, 0.018951, -0.019897}
	        },
	        {
	            {-0.015064, -0.152592, 0.024627},
	            {-0.096531, -0.076638, -0.117824},
	            {-0.107734, -0.108431, -0.030260}
	        },
	        {
	            {-0.083627, -0.019757, 0.087106},
	            {-0.204358, -0.213822, -0.022429},
	            {-0.042829, -0.054707, 0.025188}
	        },
	        {
	            {-0.134433, -0.065478, -0.099049},
	            {-0.059085, 0.106063, 0.042633},
	            {0.054155, -0.083076, 0.083293}
	        },
	        {
	            {0.001903, 0.049907, -0.038828},
	            {0.153090, 0.061484, 0.065827},
	            {0.018728, 0.165417, -0.153309}
	        },
	        {
	            {-0.087723, -0.133000, -0.086905},
	            {-0.113106, -0.069984, -0.039324},
	            {0.067369, -0.008185, -0.120090}
	        },
	        {
	            {-0.393534, 0.195979, 0.073837},
	            {0.027514, -0.000237, -0.017686},
	            {0.020603, 0.060430, -0.112590}
	        }
	    },
	    {
	        {
	            {0.061450, -0.060768, 0.127934},
	            {-0.034416, 0.033907, 0.083347},
	            {-0.002393, 0.006760, 0.022834}
	        },
	        {
	            {-0.105869, -0.023188, 0.020731},
	            {0.074240, -0.031518, 0.149910},
	            {-0.113348, 0.111635, 0.041112}
	        },
	        {
	            {-0.013525, 0.064975, -0.091659},
	            {0.142570, -0.055691, -0.039058},
	            {-0.096921, -0.013017, 0.131519}
	        },
	        {
	            {-0.051059, 0.177942, -0.008545},
	            {-0.100625, 0.138879, 0.027258},
	            {-0.116736, -0.002813, 0.013596}
	        },
	        {
	            {-0.196981, -0.071243, 0.046031},
	            {-0.115369, 0.053788, -0.038915},
	            {0.089296, 0.083763, -0.017489}
	        },
	        {
	            {0.060725, 0.028391, -0.032851},
	            {-0.169142, -0.055122, -0.048452},
	            {-0.036982, -0.032387, 0.000561}
	        },
	        {
	            {-0.157005, 0.070584, -0.396877},
	            {-0.126625, 0.055365, -0.037992},
	            {-0.039962, -0.058758, -0.037088}
	        },
	        {
	            {0.106256, 0.016336, -0.169734},
	            {-0.002304, 0.012564, -0.261253},
	            {0.019137, -0.090078, 0.032841}
	        },
	        {
	            {-0.062884, 0.067071, 0.006876},
	            {0.172728, 0.149025, 0.006140},
	            {-0.095534, 0.034691, -0.071286}
	        },
	        {
	            {-0.028994, -0.043845, 0.067943},
	            {0.018704, 0.054236, -0.084678},
	            {0.090826, -0.076969, 0.075589}
	        },
	        {
	            {0.046765, 0.112273, 0.032410},
	            {0.032948, -0.126699, -0.032966},
	            {-0.043611, 0.002788, -0.018447}
	        },
	        {
	            {0.009572, -0.082262, -0.190308},
	            {0.003881, 0.005807, -0.048333},
	            {-0.020517, 0.053713, -0.221821}
	        },
	        {
	            {-0.088731, -0.012486, 0.056474},
	            {0.062111, 0.015586, 0.063023},
	            {0.019272, 0.086953, 0.181181}
	        },
	        {
	            {-0.106671, -0.091420, -0.097098},
	            {-0.041237, 0.153507, 0.027267},
	            {-0.014312, -0.159151, -0.024401}
	        },
	        {
	            {-0.050005, 0.067917, 0.049384},
	            {-0.004418, 0.015730, -0.152770},
	            {-0.206318, -0.080950, 0.108990}
	        },
	        {
	            {0.048021, -0.022946, -0.030254},
	            {-0.009560, 0.089867, -0.105525},
	            {-0.043016, 0.016757, -0.034067}
	        },
	        {
	            {-0.090377, -0.130299, 0.042439},
	            {-0.096991, 0.195574, -0.022479},
	            {0.032406, -0.154654, -0.041157}
	        },
	        {
	            {-0.037073, 0.126184, -0.033051},
	            {-0.254133, -0.090617, 0.138713},
	            {0.023435, -0.111873, 0.020219}
	        },
	        {
	            {0.035723, 0.001163, -0.031893},
	            {-0.139418, 0.033730, 0.001571},
	            {-0.168203, -0.161728, 0.077513}
	        },
	        {
	            {0.209171, -0.084652, -0.059512},
	            {0.035164, -0.272525, -0.090758},
	            {0.096678, 0.032349, 0.003238}
	        },
	        {
	            {-0.037809, 0.013733, -0.076633},
	            {0.065309, -0.210553, -0.104541},
	            {0.060048, 0.041574, -0.065408}
	        },
	        {
	            {-0.002603, 0.104961, 0.059998},
	            {-0.109079, -0.033206, -0.013222},
	            {0.055232, -0.124679, -0.109861}
	        },
	        {
	            {-0.079611, -0.173941, 0.074128},
	            {0.008881, 0.029022, -0.046165},
	            {0.141220, -0.051151, -0.051688}
	        },
	        {
	            {-0.052972, -0.167820, 0.029884},
	            {-0.116987, -0.033015, 0.033668},
	            {-0.074172, -0.160711, 0.001996}
	        },
	        {
	            {-0.165444, -0.113292, -0.026795},
	            {0.129487, 0.138660, -0.076116},
	            {-0.163428, 0.000356, 0.022282}
	        },
	        {
	            {-0.057951, 0.071818, 0.035741},
	            {-0.030381, -0.227351, 0.040865},
	            {-0.080170, 0.130520, 0.049674}
	        },
	        {
	            {0.042755, -0.107419, -0.000440},
	            {-0.010715, 0.053719, 0.000410},
	            {0.022582, 0.086479, -0.032658}
	        },
	        {
	            {-0.052043, 0.135586, -0.036276},
	            {0.003922, -0.209170, 0.036650},
	            {-0.152733, 0.009321, 0.031982}
	        },
	        {
	            {-0.151034, 0.078406, 0.096894},
	            {-0.013810, -0.009407, 0.000640},
	            {0.031770, -0.050584, -0.152687}
	        },
	        {
	            {-0.027019, 0.004038, 0.020588},
	            {-0.152400, 0.015172, 0.004884},
	            {0.040080, -0.110344, -0.104554}
	        },
	        {
	            {0.175999, -0.119911, -0.034071},
	            {-0.015299, 0.127222, -0.055029},
	            {0.029550, 0.010856, 0.038835}
	        },
	        {
	            {-0.204496, 0.095819, -0.253495},
	            {-0.029627, -0.024720, -0.103205},
	            {0.039085, 0.184913, 0.004191}
	        }
	    },
	    {
	        {
	            {0.019773, -0.146477, -0.078668},
	            {0.024835, -0.007746, 0.051637},
	            {0.137779, 0.012211, 0.121398}
	        },
	        {
	            {0.056628, 0.114757, -0.149108},
	            {0.011318, 0.007706, 0.089438},
	            {-0.167530, 0.205641, -0.023684}
	        },
	        {
	            {-0.147475, -0.076348, 0.241514},
	            {-0.060163, 0.039442, -0.065353},
	            {-0.099894, 0.104193, 0.007425}
	        },
	        {
	            {-0.054316, 0.120444, 0.055074},
	            {-0.006126, -0.068379, -0.017542},
	            {-0.066845, 0.031536, -0.051381}
	        },
	        {
	            {-0.133945, 0.022292, -0.091731},
	            {0.099520, 0.103258, 0.027215},
	            {-0.031782, 0.043136, 0.072042}
	        },
	        {
	            {0.057266, -0.209031, -0.137266},
	            {-0.018973, 0.024450, -0.114356},
	            {0.071387, 0.129296, -0.164687}
	        },
	        {
	            {-0.022510, -0.087029, 0.098434},
	            {-0.168343, 0.008613, 0.084403},
	            {-0.040774, 0.030607, -0.027445}
	        },
	        {
	            {0.164808, 0.006270, 0.046657},
	            {-0.039754, -0.082929, 0.105151},
	            {0.018433, -0.044210, -0.038198}
	        },
	        {
	            {-0.052009, -0.066338, -0.076692},
	            {-0.121128, 0.032454, -0.067227},
	            {0.076254, -0.024322, 0.027675}
	        },
	        {
	            {0.041959, -0.124611, 0.001895},
	            {0.026567, -0.080141, -0.080067},
	            {-0.035017, -0.079307, -0.324081}
	        },
	        {
	            {0.020648, -0.128916, -0.072303},
	            {0.010304, 0.043257, -0.011838},
	            {0.140936, 0.027523, 0.099905}
	        },
	        {
	            {-0.060980, 0.003177, -0.044236},
	            {0.000257, -0.063002, -0.036930},
	            {0.030125, 0.111996, 0.044224}
	        },
	        {
	            {0.062356, -0.095048, 0.024783},
	            {0.006862, -0.043104, -0.137031},
	            {-0.088855, 0.006307, -0.063775}
	        },
	        {
	            {-0.003969, -0.091123, -0.165463},
	            {-0.078768, -0.117667, -0.023414},
	            {0.013616, -0.049843, -0.058861}
	        },
	        {
	            {0.060843, -0.035656, 0.038796},
	            {-0.113079, -0.002163, -0.111369},
	            {0.116758, 0.042478, -0.100818}
	        },
	        {
	            {-0.009764, -0.073294, -0.099663},
	            {0.147148, -0.092176, 0.077641},
	            {-0.079113, -0.049584, -0.038518}
	        },
	        {
	            {-0.098082, -0.176907, -0.123071},
	            {-0.043014, -0.010103, -0.085770},
	            {-0.192667, -0.157672, 0.107471}
	        },
	        {
	            {-0.203792, -0.019178, 0.007620},
	            {-0.031757, -0.007610, -0.088935},
	            {0.072864, -0.052507, -0.024476}
	        },
	        {
	            {0.169180, -0.186603, -0.136878},
	            {-0.144787, 0.073826, -0.237618},
	            {0.108907, -0.135877, 0.077786}
	        },
	        {
	            {0.084822, 0.000216, 0.020089},
	            {0.089765, -0.062098, 0.007017},
	            {0.018636, -0.158048, -0.078083}
	        },
	        {
	            {-0.047970, -0.124435, -0.135047},
	            {-0.117476, 0.104244, 0.063358},
	            {-0.083122, 0.220294, -0.033235}
	        },
	        {
	            {-0.009436, 0.046433, 0.032280},
	            {0.075560, 0.071885, 0.019596},
	            {-0.141638, -0.059142, 0.075974}
	        },
	        {
	            {-0.325401, -0.121267, -0.115564},
	            {-0.128524, 0.037905, -0.123051},
	            {-0.067644, -0.084441, -0.125418}
	        },
	        {
	            {-0.133789, 0.131336, -0.018903},
	            {0.029189, 0.022394, -0.031954},
	            {-0.088304, -0.255384, -0.125083}
	        },
	        {
	            {-0.147644, -0.162970, -0.021502},
	            {-0.093065, -0.032187, -0.108137},
	            {-0.132827, -0.027800, -0.109126}
	        },
	        {
	            {-0.164544, 0.071987, -0.361585},
	            {-0.084887, -0.065654, -0.163412},
	            {-0.058007, -0.175059, -0.142753}
	        },
	        {
	            {0.080942, -0.105824, 0.025130},
	            {0.048480, -0.058089, -0.098249},
	            {-0.084540, -0.080643, -0.083220}
	        },
	        {
	            {-0.002229, -0.113733, -0.105417},
	            {-0.228259, -0.136067, -0.024769},
	            {-0.142365, -0.038004, 0.014925}
	        },
	        {
	            {0.053834, -0.095622, 0.017184},
	            {0.067890, -0.002056, 0.014407},
	            {-0.026197, -0.283941, 0.083684}
	        },
	        {
	            {-0.006279, 0.030971, -0.053832},
	            {-0.020963, -0.260649, -0.002776},
	            {-0.202600, -0.065796, -0.066432}
	        },
	        {
	            {0.008555, -0.057182, -0.193750},
	            {-0.044333, -0.049620, -0.056132},
	            {-0.104872, 0.004792, -0.143416}
	        },
	        {
	            {-0.164088, -0.047795, 0.056258},
	            {-0.041322, 0.069303, -0.230942},
	            {0.048899, 0.036597, -0.113451}
	        }
	    },
	    {
	        {
	            {-0.031100, -0.111850, 0.105941},
	            {0.044061, -0.111140, 0.015788},
	            {0.076422, -0.013512, -0.004247}
	        },
	        {
	            {0.034822, 0.083441, 0.238814},
	            {-0.031590, 0.046241, 0.248571},
	            {-0.056511, -0.112948, 0.000947}
	        },
	        {
	            {0.057794, 0.141102, -0.052394},
	            {-0.059284, 0.046754, 0.042928},
	            {-0.050876, 0.126669, -0.149739}
	        },
	        {
	            {0.005194, -0.066399, -0.018953},
	            {0.072282, 0.145906, -0.136267},
	            {-0.025575, 0.020492, 0.027001}
	        },
	        {
	            {0.152915, -0.038846, -0.038237},
	            {0.060933, -0.183513, -0.018488},
	            {-0.014165, 0.026360, 0.107330}
	        },
	        {
	            {0.007316, 0.126505, 0.058075},
	            {0.110436, -0.039281, 0.058380},
	            {0.064060, -0.134974, 0.075992}
	        },
	        {
