#ifndef DENSE2_H
#define DENSE2_H
#include "cnn.h"

float fc2_weights[FC2_OUTPUT][FC1_OUTPUT] = {
	    {0.158940, -0.123509, -0.355577, 0.000529, 0.000052, -0.096640, -0.056396, -0.123308, -0.362343, -0.194996, 0.103698, 0.020349, -0.234616, -0.015958, 0.017562, -0.160820, -0.158458, -0.318307, -0.225002, -0.327543, 0.077145, -0.431251, -0.126933, -0.385724, -0.031804, 0.051205, 0.133278, -0.227904, -0.046382, -0.221647, -0.082949, -0.060234, -0.161465, 0.082665, -0.129227, 0.008716, 0.067581, -0.376911, -0.125460, 0.026425, -0.123064, 0.007700, 0.061522, -0.022652, -0.214521, -0.027620, 0.197179, -0.053343, -0.022896, 0.038694, -0.203493, 0.133848, -0.041897, 0.041734, -0.064109, -0.045332, -0.218775, -0.156505, 0.005910, -0.001378, -0.048324, -0.141225, -0.191940, -0.289797, -0.226385, -0.003479, -0.253127, -0.104206, -0.281005, -0.091902, -0.163361, -0.093414, -0.192557, -0.009219, 0.010048, 0.089549, 0.107496, 0.097535, -0.211522, -0.226947, -0.088732, -0.150784, -0.005885, 0.096798, -0.137887, -0.252607, -0.029262, -0.106553, 0.087212, -0.267283, -0.251583, -0.033160, 0.055989, 0.040716, -0.076118, -0.317452, -0.019728, -0.067591, -0.297474, 0.082001, -0.093925, -0.129043, 0.047586, 0.033288, -0.067474, -0.140836, -0.089403, -0.338498, -0.051078, 0.056107, -0.083295, 0.174068, 0.071261, 0.021541, 0.105007, 0.042182, 0.072495, -0.220714, -0.160962, -0.168043, -0.130734, -0.532974, 0.045913, 0.077577, 0.088191, -0.037435, 0.068183, -0.215965, -0.285303, 0.014566, 0.125944, 0.030597, 0.147163, -0.090424, 0.051251, -0.006660, -0.064772, -0.222006, 0.006454, -0.041040, 0.009855, -0.144124, -0.342006, -0.170911, -0.063107, 0.128587, -0.019442, -0.401633, 0.052713, -0.098167, 0.073436, -0.060348, -0.130683, 0.041543, -0.157225, -0.153487, -0.237388, -0.004884, 0.139737, -0.266860, -0.277508, -0.497270, -0.054593, -0.045682, -0.120077, -0.079109, 0.153604, -0.151723, -0.108608, -0.103087, 0.075889, -0.199436, -0.155486, -0.122059, -0.039392, 0.068756, -0.247543, 0.003615, -0.209603, -0.042415, 0.169157, -0.288213, -0.306783, 0.107405, 0.057854, 0.017016, -0.137502, -0.052609, 0.043855, -0.292784, -0.215377, -0.132111, 0.105454, 0.073204, -0.215487, 0.119159, -0.213376, -0.328283, 0.004330, -0.109501, 0.045522, 0.107000, -0.171245, -0.013093, -0.097452, -0.021556, -0.019571, -0.294573, -0.131482, 0.092465, -0.268993, -0.086160, 0.018831, -0.242999, -0.314636, -0.252306, -0.177023, -0.393858, -0.167514, 0.105448, 0.046780, -0.374514, -0.105126, -0.116353, 0.010140, 0.026973, -0.021860, 0.060287, -0.277211, -0.225785, -0.285499, -0.012711, 0.117997, -0.082279, 0.137221, -0.073538, -0.296852, -0.027360, -0.174514, -0.356230, -0.209677, -0.259260, -0.067901, 0.001956, -0.090296, -0.190658, -0.064831, 0.141073, -0.031141, 0.063805, -0.022288, -0.026839, -0.173024, -0.191839, 0.033911, 0.034389},
	    {0.071521, -0.114459, -0.024818, 0.077867, -0.081121, -0.069271, -0.126064, 0.039488, 0.002837, -0.243619, 0.079116, 0.020225, -0.224031, 0.059320, -0.032967, 0.068636, -0.087864, -0.129902, -0.092081, -0.278160, 0.144581, -0.341012, -0.225829, 0.030706, -0.041686, -0.075136, 0.149047, -0.057383, 0.056083, -0.029915, 0.096490, 0.058442, 0.078336, 0.026893, 0.010210, 0.041237, 0.033380, -0.173606, 0.144275, 0.048316, -0.206948, -0.108389, 0.104203, 0.079352, -0.051724, -0.032762, 0.073575, -0.139049, 0.021174, -0.003690, -0.179170, 0.040773, -0.080592, 0.059473, -0.051480, 0.051846, 0.021943, -0.121341, 0.092065, 0.085212, -0.033788, -0.044191, -0.144389, -0.072707, 0.077197, 0.060673, -0.005964, -0.027998, -0.001838, -0.024872, -0.063158, -0.110840, 0.003531, 0.032706, -0.132869, 0.086327, 0.115340, 0.096712, -0.245562, -0.103724, -0.080600, 0.018160, 0.047448, 0.030774, -0.049508, -0.026359, 0.071550, -0.222379, 0.081395, -0.096555, -0.138191, -0.191640, 0.034268, -0.097331, 0.113041, -0.173761, -0.202517, -0.043486, -0.106436, 0.093636, -0.033706, -0.085697, -0.012854, 0.011160, 0.063074, -0.051982, 0.049111, 0.005316, -0.092430, 0.055242, -0.148752, 0.076427, 0.044487, 0.133488, -0.001656, 0.025448, 0.076926, 0.015958, -0.147732, 0.074851, -0.093180, -0.091053, 0.038676, 0.084397, 0.062122, -0.074364, -0.015915, -0.134634, 0.020304, -0.036870, 0.140618, 0.002784, -0.011598, -0.121298, -0.008803, -0.018156, -0.173657, -0.048965, 0.033116, 0.073267, -0.157077, -0.078550, -0.000523, -0.024327, -0.156350, 0.019856, 0.051162, -0.416441, 0.098998, 0.062343, 0.076218, -0.146336, 0.092896, -0.096372, -0.024567, -0.140213, -0.002383, -0.025826, -0.062657, -0.135258, -0.070856, -0.002794, -0.329708, -0.088628, 0.004398, -0.202736, -0.074795, -0.113126, -0.118766, -0.188738, -0.139869, -0.055579, -0.053910, -0.215826, 0.010041, 0.105907, -0.248186, 0.089313, -0.139876, 0.036174, 0.125177, -0.113393, -0.125554, -0.004860, -0.118771, 0.103237, 0.009700, -0.052352, 0.091203, -0.097092, -0.170153, -0.118072, 0.060854, 0.044404, -0.185303, 0.084132, -0.070951, -0.080250, -0.079612, -0.014647, 0.048084, 0.056699, -0.086647, -0.145296, -0.011829, 0.078787, 0.057050, -0.130423, -0.077064, 0.098515, -0.120210, -0.056994, -0.185146, -0.108746, -0.216650, -0.068792, -0.200494, -0.105591, 0.054528, 0.120530, 0.156537, -0.206377, 0.038895, 0.052563, -0.094580, 0.020875, -0.077932, 0.048245, -0.092079, -0.133884, -0.159559, -0.149291, 0.010967, 0.060324, 0.050792, -0.090899, -0.304987, -0.062187, -0.053020, -0.125280, -0.195974, -0.023800, -0.059905, 0.081217, -0.125782, -0.053809, -0.073944, 0.108266, -0.148178, -0.085329, 0.102695, -0.047074, -0.041783, -0.017264, -0.035814, 0.163878},
	    {0.078165, -0.142149, -0.017310, 0.062476, -0.043079, -0.171573, -0.227257, -0.070913, -0.044805, -0.018212, -0.085319, 0.105014, -0.244736, -0.078934, -0.149377, 0.055091, 0.038258, -0.077428, -0.111551, -0.192783, 0.132813, -0.222436, -0.134143, -0.012549, -0.219906, -0.118358, 0.099573, -0.097716, 0.049440, 0.007567, 0.052576, 0.024427, 0.096540, -0.021347, 0.002404, 0.046845, -0.007661, 0.022609, 0.094598, -0.036265, -0.288841, 0.040866, 0.082823, 0.089303, -0.085519, 0.001578, 0.065562, 0.130336, -0.115523, -0.024262, 0.028493, -0.017856, -0.096540, -0.032653, -0.134974, 0.016541, -0.200200, -0.066468, -0.030838, -0.035567, 0.045375, -0.043244, -0.196065, 0.128619, 0.157774, -0.203270, -0.091059, 0.036294, -0.044256, 0.012099, -0.414879, -0.080934, 0.061444, 0.038294, 0.084464, 0.126163, 0.080842, -0.016625, -0.173509, -0.049555, -0.187457, -0.006636, -0.104981, -0.037194, -0.240320, -0.205120, 0.018384, -0.136555, -0.060985, 0.004186, -0.131093, -0.055083, -0.102213, -0.066494, 0.142533, -0.086085, -0.383350, -0.059292, -0.131007, -0.048772, 0.105217, -0.024197, 0.111798, 0.114786, -0.035602, -0.039198, 0.115087, -0.040547, -0.045484, 0.084294, -0.151816, -0.116363, -0.014600, -0.016108, -0.094078, 0.012229, -0.131282, -0.128025, -0.238914, 0.012421, -0.049720, -0.087446, 0.065147, 0.021601, -0.145192, 0.085189, -0.047912, 0.000730, 0.112559, 0.085302, 0.143712, 0.038878, -0.074245, 0.062489, -0.164695, 0.105337, -0.113789, -0.089709, -0.125460, 0.110841, -0.006933, 0.062557, 0.000609, -0.122334, -0.209661, 0.045118, 0.067795, -0.375943, 0.099611, 0.060399, 0.007973, 0.070968, 0.034835, 0.015960, -0.031020, 0.126265, -0.013929, -0.255961, -0.123709, 0.023523, -0.101405, -0.011093, -0.202049, -0.160720, 0.095926, -0.317448, -0.027587, -0.108634, -0.210310, -0.137428, -0.020643, -0.254814, -0.084811, -0.219965, 0.046313, 0.063263, -0.385034, 0.088912, -0.007326, -0.008233, 0.085427, -0.061732, 0.077683, 0.056978, -0.164564, 0.029118, -0.136181, -0.105986, -0.057911, -0.040189, -0.374366, -0.119758, 0.074212, -0.045223, -0.059463, 0.094201, -0.219601, 0.016459, -0.110631, 0.059644, 0.082477, 0.122228, 0.043082, -0.318783, -0.009083, -0.016868, -0.068010, -0.110659, -0.058704, 0.089644, -0.280741, -0.105350, -0.034144, -0.122719, -0.214669, -0.132125, 0.046309, -0.098578, 0.003715, 0.141469, 0.094945, -0.146723, -0.102112, -0.111273, -0.309489, -0.061026, 0.115027, -0.133704, 0.130095, -0.016223, -0.207804, -0.201322, 0.043618, 0.128442, -0.042329, -0.027927, -0.165285, -0.105664, 0.001217, -0.084921, -0.241746, 0.022861, 0.123345, 0.091866, -0.161445, 0.060312, 0.158421, -0.045192, -0.065438, 0.054610, 0.117178, -0.124768, 0.051600, -0.100990, -0.081516, -0.026814},
	    {-0.220372, -0.248769, -0.091402, 0.061359, 0.016356, -0.072324, -0.084604, -0.108778, -0.135436, -0.041333, -0.062386, 0.136084, -0.267734, 0.091897, -0.185715, -0.219162, -0.138468, 0.046282, 0.040191, -0.294628, 0.128374, -0.248781, -0.155268, 0.015037, 0.080821, 0.052048, -0.022095, -0.373617, 0.041442, 0.064847, -0.167177, -0.103703, 0.116275, 0.080770, -0.047236, -0.030831, -0.031475, -0.089805, 0.034086, -0.245568, -0.271590, 0.035902, 0.029322, -0.177126, -0.208278, -0.022573, 0.098763, -0.061368, -0.097743, -0.086182, 0.017154, 0.071673, -0.152774, -0.265371, -0.270619, -0.036402, -0.234262, 0.123178, -0.103799, -0.026045, -0.294783, 0.091907, -0.277585, -0.007985, -0.157522, -0.185909, -0.152142, 0.007108, -0.244005, 0.121224, -0.007218, -0.081128, -0.194710, -0.212480, 0.126469, -0.140104, -0.062069, -0.127350, -0.035778, 0.153799, -0.148093, -0.077227, -0.132961, -0.208934, 0.007217, -0.130344, 0.077963, 0.123423, 0.031834, -0.093404, -0.054116, -0.220883, 0.007392, 0.111280, 0.101166, -0.099875, -0.239944, -0.090414, 0.102328, 0.032623, 0.116626, -0.170680, 0.089988, 0.075265, -0.140177, 0.117330, -0.061435, 0.135644, -0.003729, -0.057045, -0.208645, 0.021406, -0.228819, -0.133454, -0.019866, -0.062949, 0.068793, -0.248108, -0.143048, -0.261020, 0.016907, -0.068095, 0.006289, -0.280266, -0.048997, 0.046232, -0.011600, 0.156829, -0.111105, -0.019680, 0.080790, 0.146175, -0.124028, -0.080561, -0.119499, 0.103124, 0.099762, -0.168198, -0.101633, -0.040099, -0.033267, 0.043642, 0.118522, -0.105499, -0.052174, 0.034192, -0.141481, -0.140703, 0.133404, -0.183717, -0.036992, 0.044320, 0.011234, -0.252218, -0.108453, -0.075745, 0.102503, -0.346252, -0.013785, -0.103494, -0.015852, -0.080173, -0.232210, -0.100949, 0.087437, -0.187465, -0.043183, -0.076018, -0.202159, 0.072934, -0.016241, -0.094201, -0.253407, -0.147451, -0.088120, -0.087836, -0.274117, -0.098014, -0.047447, -0.083894, -0.142093, 0.086718, 0.003588, -0.062244, 0.059787, -0.201172, 0.006738, -0.140136, -0.259048, -0.117940, -0.279887, -0.227174, -0.087743, -0.127854, -0.082125, 0.046453, -0.059546, -0.042466, 0.120713, 0.081308, 0.086140, 0.106682, 0.046971, -0.151241, -0.139849, -0.186378, -0.100863, 0.033595, 0.124827, -0.200288, -0.266523, 0.069676, -0.088530, -0.138609, -0.106042, 0.076790, -0.172272, -0.272967, -0.181892, 0.093719, -0.070622, -0.064224, -0.158637, -0.097645, -0.018116, 0.076676, 0.126059, -0.304440, 0.099376, -0.182256, -0.457364, 0.064222, -0.131020, -0.065305, 0.065093, -0.247271, 0.047734, -0.137554, 0.074745, -0.074780, 0.000417, 0.088952, 0.135763, 0.033861, -0.017701, 0.091722, -0.004770, -0.131908, 0.139309, 0.060458, 0.096293, -0.252119, -0.062051, -0.220846, -0.091437, 0.109804},
	    {0.156587, 0.066029, -0.099786, -0.069580, -0.223555, -0.151271, 0.028386, -0.025633, -0.373340, -0.229737, -0.173971, 0.091827, -0.308786, -0.014246, -0.026441, -0.000916, -0.057829, -0.077042, -0.103298, -0.548853, 0.110379, -0.312741, -0.023513, -0.182620, -0.184085, 0.087292, 0.120108, 0.049361, 0.045867, 0.007103, 0.018245, 0.052797, -0.155630, 0.130603, 0.034994, -0.032878, -0.228795, -0.194233, -0.043893, -0.160536, -0.250719, -0.025259, 0.099456, -0.004047, -0.100421, -0.065235, -0.137119, -0.013975, -0.121705, 0.098591, -0.211927, 0.120339, -0.348871, 0.034379, -0.136813, 0.013261, -0.088156, -0.090389, 0.093178, -0.057445, 0.004024, -0.084360, -0.169063, -0.098418, -0.174867, -0.154711, -0.049523, -0.119135, 0.034260, -0.117440, -0.116602, 0.118604, -0.041269, 0.023669, -0.070529, 0.146612, 0.058233, 0.111984, -0.299170, -0.322704, -0.041007, -0.106083, 0.075131, 0.071159, -0.084394, -0.272512, 0.115156, -0.326427, 0.045307, -0.189542, -0.195762, -0.168471, -0.238980, -0.046651, 0.032641, -0.304331, -0.066845, -0.010484, -0.156694, -0.094209, -0.127157, -0.149242, -0.037177, -0.287346, -0.237437, 0.128684, 0.131991, -0.101170, 0.005330, 0.123933, -0.242816, -0.143658, 0.076833, -0.179255, 0.115692, -0.056062, 0.013141, -0.216663, -0.188521, 0.028233, -0.039286, -0.148593, 0.064813, -0.212444, -0.090984, 0.012827, 0.124559, -0.161479, 0.053018, 0.109388, 0.163561, -0.082078, 0.069562, 0.063076, -0.186432, -0.130148, -0.045185, -0.127679, 0.031627, 0.037353, 0.014125, -0.121642, -0.064245, -0.113365, 0.075617, 0.131610, 0.056054, -0.158773, -0.083492, 0.006413, 0.176370, 0.043003, -0.142022, -0.112839, -0.046025, -0.175118, -0.215661, -0.030072, -0.145630, -0.075905, -0.262816, -0.031066, -0.068441, -0.227695, 0.064329, -0.129650, 0.050531, -0.041431, 0.113832, -0.187323, 0.066707, -0.191199, 0.005419, -0.241371, -0.130328, 0.076985, -0.422965, 0.070589, -0.055747, 0.035015, 0.134034, -0.010184, -0.106739, 0.136174, -0.202677, -0.049834, -0.164405, -0.082954, 0.068859, -0.127108, 0.055807, -0.233756, 0.069905, -0.114792, -0.189349, -0.207431, -0.202363, -0.073163, -0.065919, 0.065562, 0.058064, -0.148066, -0.195850, -0.072104, 0.115024, 0.122904, -0.160749, 0.085150, 0.144103, -0.139793, -0.246007, -0.048795, -0.039133, -0.066095, -0.159147, -0.179514, -0.066389, -0.274920, 0.056126, 0.159439, -0.059395, -0.267466, -0.182983, -0.096222, 0.091439, -0.114735, -0.250353, 0.054725, 0.007587, 0.054003, -0.323083, -0.228742, 0.084396, -0.066248, -0.120913, -0.067350, -0.075978, -0.097382, -0.065247, -0.110528, -0.116442, -0.150754, -0.220235, -0.046910, -0.043442, -0.155680, 0.037492, -0.089896, -0.116825, -0.088261, -0.104122, -0.037758, -0.135336, 0.045661, -0.069608, 0.016917},
	    {-0.037037, 0.021871, 0.099123, 0.061437, -0.153231, -0.087621, -0.236516, -0.012378, -0.115907, -0.015419, 0.075375, 0.104270, -0.071142, -0.056591, -0.142347, 0.079288, 0.030493, 0.007217, 0.081013, -0.257797, 0.096503, -0.072875, -0.360059, -0.115380, 0.109463, -0.081375, 0.102277, -0.024256, -0.024685, 0.073011, 0.028173, 0.088343, 0.157337, -0.178108, -0.044104, -0.127553, 0.084426, -0.296549, 0.066144, -0.029022, -0.356026, -0.166825, 0.057659, -0.021392, -0.067095, 0.077702, 0.048674, 0.009219, -0.254399, -0.107944, -0.040648, 0.060130, -0.192074, -0.103091, -0.197227, 0.073863, -0.083754, 0.025556, 0.080412, 0.037598, -0.114721, -0.021885, -0.123975, -0.056578, -0.076800, -0.133210, -0.080082, -0.136973, 0.018155, 0.095540, -0.183846, -0.017205, 0.106000, -0.137556, -0.067987, -0.041908, 0.002883, -0.048903, -0.023905, 0.101578, -0.170767, 0.075283, 0.046875, -0.052730, -0.028890, -0.029429, 0.075767, -0.187348, -0.029352, -0.146044, -0.092797, -0.013492, 0.043955, 0.034686, 0.124373, -0.186344, -0.209478, -0.131758, -0.004834, -0.124046, 0.112859, -0.071995, -0.152631, 0.039550, -0.100118, 0.136534, -0.102428, -0.091459, -0.157509, 0.069279, -0.027175, -0.069501, 0.118282, -0.102909, -0.066562, -0.167992, 0.039822, -0.337145, -0.045579, 0.014570, -0.140341, 0.028427, 0.099271, -0.205109, -0.167187, 0.076605, -0.041881, 0.131706, -0.119879, -0.033023, 0.155851, -0.120389, -0.031111, 0.073811, -0.077452, 0.052811, -0.000573, -0.124483, -0.155500, 0.099861, -0.023631, 0.127436, 0.042934, 0.016523, -0.040517, 0.073535, 0.000940, -0.023321, 0.078663, -0.046835, -0.029345, 0.104077, 0.073511, -0.019855, -0.163246, -0.047719, -0.119988, -0.204950, -0.124100, 0.002136, -0.306566, -0.099257, -0.296584, 0.006672, 0.093814, -0.085656, -0.071965, -0.111358, -0.025978, -0.036613, -0.252748, -0.214491, -0.045744, -0.055692, -0.056658, 0.073913, -0.216773, 0.077316, -0.034966, 0.045035, 0.035260, -0.076210, 0.084150, -0.077515, -0.078873, -0.033336, -0.157290, -0.107417, -0.025763, -0.090039, -0.115966, -0.157982, -0.021522, 0.217175, -0.000467, 0.066684, -0.015681, -0.067085, 0.036387, 0.066335, 0.071407, 0.064588, 0.017085, -0.213355, -0.074342, -0.090156, -0.149465, -0.116242, 0.170622, 0.088630, -0.180660, -0.084797, -0.118222, -0.094857, -0.103219, -0.024202, -0.031089, 0.014244, 0.082746, 0.113210, 0.085984, -0.159113, -0.223635, 0.054374, 0.064852, 0.141988, 0.158853, -0.020115, 0.113845, 0.014248, -0.187852, -0.100670, -0.044140, -0.068936, -0.144483, -0.011852, -0.243128, 0.041638, 0.132872, -0.184338, 0.005796, 0.179908, 0.141130, 0.033407, -0.235079, -0.050041, 0.109187, 0.014434, -0.044767, -0.130116, 0.037520, 0.008025, -0.091406, 0.058705, -0.132103, -0.008583},
	    {-0.198028, -0.136166, 0.168732, -0.340558, 0.018573, -0.022701, -0.133013, -0.112722, -0.147536, -0.119042, -0.021637, -0.233962, -0.283653, -0.107727, -0.034982, 0.162148, -0.138233, -0.040438, -0.235694, -0.228073, 0.065513, -0.315565, -0.250497, -0.271293, -0.122571, 0.220204, 0.164190, 0.047420, -0.286140, 0.093162, -0.056914, 0.139692, 0.081033, -0.080985, -0.078739, -0.106824, -0.108486, -0.143022, -0.213604, 0.043395, 0.070327, -0.025576, -0.140010, -0.286493, -0.299875, -0.160935, -0.310253, -0.302154, -0.310393, 0.108577, -0.135682, -0.048536, -0.050477, -0.289755, -0.064848, 0.130015, -0.074893, -0.118885, -0.089249, -0.296050, -0.171507, -0.196241, 0.041297, -0.165662, 0.005470, 0.059459, -0.017614, -0.191638, 0.069110, -0.004817, -0.140051, -0.009723, -0.268034, 0.090789, 0.011877, -0.149021, -0.064117, -0.164505, -0.121735, 0.204737, 0.027332, -0.023343, 0.041323, -0.014079, -0.041536, 0.030043, -0.092012, -0.087015, -0.224498, -0.299976, -0.191950, -0.136982, 0.102202, -0.082089, -0.250618, -0.237990, -0.207563, -0.092021, -0.166748, -0.166562, 0.119126, -0.223609, -0.232281, -0.268590, -0.135274, 0.180360, -0.014301, -0.700507, -0.166239, -0.262513, -0.275410, -0.075089, -0.097355, 0.094183, -0.092321, 0.081984, -0.124638, -0.003306, -0.136803, -0.111431, 0.004716, -0.161095, -0.307136, -0.071337, -0.402139, -0.249533, -0.108298, -0.200452, -0.205765, -0.146281, -0.154181, 0.103482, -0.166671, -0.415637, -0.406380, 0.147357, -0.195641, 0.042553, -0.410833, 0.154244, 0.096602, 0.164825, 0.196243, -0.216428, -0.259387, -0.064732, -0.101077, -0.369843, -0.132493, 0.087462, -0.236027, 0.114593, -0.041608, -0.219643, -0.144310, 0.097186, -0.134275, 0.106939, -0.135717, -0.278350, -0.324652, -0.620994, -0.344529, -0.366768, -0.193600, -0.098012, 0.099460, 0.059376, -0.085055, -0.293104, -0.195417, 0.072735, -0.334699, -0.083627, -0.034502, -0.057452, -0.079182, -0.227592, -0.305933, 0.067481, -0.300625, 0.206981, 0.006184, 0.038260, -0.213628, -0.280544, -0.173200, -0.217505, -0.058031, -0.181659, -0.110259, -0.164998, -0.073834, -0.019672, 0.072440, -0.134821, 0.177128, 0.158479, 0.072337, -0.285074, 0.066906, -0.253045, 0.086979, -0.092511, -0.063484, 0.099601, -0.034490, -0.160446, 0.158240, 0.173987, -0.094222, -0.010518, -0.265674, -0.086626, -0.284288, -0.161630, -0.093571, -0.163964, -0.287462, -0.227328, 0.139553, -0.208685, 0.219043, 0.126818, -0.132262, -0.297229, -0.226118, -0.182408, -0.197847, 0.041963, -0.539806, -0.248265, -0.009448, -0.039544, 0.116597, -0.144489, -0.521700, -0.323301, 0.094545, -0.138502, -0.212755, 0.094489, -0.067161, -0.183243, -0.418653, -0.142708, 0.054308, 0.068016, -0.295164, 0.115649, 0.033342, -0.064461, -0.000935, 0.175516, 0.084030, -0.115367},
	    {0.104292, 0.089666, 0.028235, -0.098929, -0.126728, -0.059306, -0.022438, -0.031625, -0.057688, -0.080368, -0.078961, 0.104150, -0.158778, -0.138126, -0.062873, -0.037957, -0.045711, 0.036371, 0.057806, -0.317725, 0.099464, -0.183566, -0.131546, -0.049999, -0.130303, -0.126916, 0.126964, -0.018116, -0.141169, -0.047287, -0.006465, 0.106724, -0.104944, 0.016285, -0.179551, -0.055159, -0.265444, -0.123914, 0.091143, -0.091127, -0.205759, -0.135339, -0.072330, -0.098373, -0.032049, 0.128655, -0.054669, -0.223734, -0.189510, -0.050115, -0.146948, 0.058907, -0.226798, 0.041299, -0.111226, 0.099071, -0.022272, -0.036758, 0.127980, 0.109830, 0.038485, -0.129154, 0.126515, -0.075224, -0.055029, -0.161458, 0.076785, -0.259826, -0.177896, -0.213884, -0.193907, 0.105672, -0.085766, -0.000396, -0.150893, -0.040230, 0.127530, -0.045403, 0.036911, -0.012765, -0.291876, -0.079944, -0.012845, 0.101637, -0.051803, -0.167879, 0.085170, -0.172983, -0.061673, -0.202381, -0.186571, -0.093546, -0.001135, -0.121610, 0.032188, -0.311589, -0.116811, -0.165357, -0.161460, -0.141121, -0.123325, -0.261550, -0.104727, -0.127286, -0.072889, 0.165938, -0.147802, -0.231360, -0.037839, 0.063914, -0.333668, -0.025138, 0.084566, 0.132851, 0.140155, -0.156373, -0.099171, -0.182467, 0.096429, -0.060154, -0.379378, -0.207096, -0.152779, 0.102926, -0.145701, -0.137589, 0.151930, 0.142741, -0.037579, -0.003373, 0.110463, -0.071670, 0.115975, -0.189594, -0.236249, 0.030804, -0.138987, -0.294826, 0.118492, -0.025551, -0.085729, 0.130549, -0.102450, -0.009772, -0.147475, -0.050589, -0.033248, -0.481357, 0.048862, 0.084235, 0.033656, -0.060619, 0.023806, -0.210429, -0.134677, -0.129174, -0.239338, -0.250601, -0.221220, -0.100897, -0.286150, -0.229543, -0.126946, -0.104333, 0.085626, -0.191802, 0.036421, -0.100602, 0.127784, -0.129546, -0.126937, -0.053048, -0.090508, -0.184454, -0.115450, 0.015593, -0.500051, 0.074823, 0.089451, 0.062157, -0.070818, -0.127440, -0.005020, -0.026226, -0.334766, -0.048950, -0.004419, -0.044178, 0.067260, -0.109920, 0.003063, -0.158175, 0.032959, 0.064443, 0.128347, -0.250852, -0.085606, -0.019937, -0.128558, 0.107689, 0.086764, 0.045974, -0.159989, 0.046917, 0.047066, -0.097101, -0.211396, -0.097069, 0.124584, -0.121437, -0.238919, -0.095810, -0.075891, 0.025142, -0.134473, -0.315678, 0.067470, 0.021030, 0.130967, -0.103177, 0.058851, -0.331302, -0.000005, -0.200043, -0.192371, 0.182681, -0.123511, 0.120597, 0.116378, 0.074219, -0.353594, -0.173662, 0.116192, 0.142661, -0.248217, -0.079170, -0.319258, -0.155797, 0.131422, -0.097648, -0.309065, 0.115954, 0.098446, -0.062534, -0.086128, -0.073779, -0.017810, 0.109171, -0.130965, 0.070741, -0.209145, -0.094550, -0.065554, -0.010041, -0.157033, -0.047672},
	    {0.141295, 0.097666, -0.276942, -0.040367, -0.259834, 0.170264, -0.152355, -0.333055, -0.063462, -0.146547, -0.102903, 0.099217, -0.239338, -0.102036, -0.247708, -0.040119, 0.063825, 0.052627, -0.069289, -0.331011, 0.088950, -0.158428, -0.144069, -0.004273, 0.085542, -0.085711, 0.083264, -0.083118, -0.001543, -0.298768, -0.203297, 0.120947, -0.122529, 0.072161, -0.021839, 0.096944, -0.133789, -0.232220, -0.249960, -0.093096, -0.102300, 0.029933, 0.025095, -0.099363, -0.112004, 0.160280, 0.017723, -0.036567, -0.043892, -0.031050, -0.187053, -0.135983, -0.055641, -0.091915, -0.082030, 0.011163, -0.156422, -0.121367, -0.149473, 0.022374, -0.102502, 0.062708, 0.174743, -0.104654, -0.091346, -0.216896, 0.037503, -0.249864, -0.186802, -0.192268, -0.122551, 0.037021, -0.085263, 0.061779, -0.023192, -0.099357, -0.091602, 0.025487, 0.077536, -0.077712, -0.114882, -0.100817, -0.195917, 0.072505, 0.082449, -0.157586, 0.090964, -0.333351, 0.123083, -0.079614, -0.146662, -0.089764, -0.113331, -0.092573, -0.108309, -0.140181, -0.194928, -0.074793, -0.100495, 0.145041, -0.182348, 0.002148, -0.021328, -0.151186, -0.232566, -0.013979, -0.070142, -0.256869, -0.148394, 0.055962, -0.198660, 0.100819, -0.003407, -0.117517, 0.145543, 0.055834, -0.069505, -0.211490, -0.052177, -0.095792, -0.147693, -0.219873, -0.109915, 0.134639, -0.230040, -0.063973, 0.135026, -0.035823, -0.101366, 0.143852, 0.123196, -0.157253, 0.156038, 0.002956, -0.208694, 0.041054, -0.106481, -0.079674, 0.131019, -0.152132, 0.059928, 0.145981, -0.134914, -0.115349, 0.118175, -0.129017, -0.200118, -0.158524, -0.121584, -0.224412, 0.017166, 0.004037, -0.200707, -0.000551, -0.096489, -0.095733, -0.034595, -0.151689, -0.029176, -0.033460, -0.297722, -0.166669, -0.207606, -0.031329, 0.114524, -0.154138, 0.130475, -0.173966, 0.091003, 0.009952, -0.065632, -0.073603, -0.100709, -0.146424, -0.066619, -0.102551, -0.384480, 0.035697, 0.113965, -0.052359, 0.039514, -0.119754, -0.007520, -0.139493, -0.237248, 0.097006, 0.034601, -0.164344, -0.053849, -0.126740, -0.088574, -0.163135, 0.075907, -0.079040, 0.011225, -0.089393, -0.096688, -0.072011, -0.110755, -0.013907, -0.212117, 0.060776, -0.230386, 0.081638, 0.055898, -0.022989, -0.265466, 0.006493, 0.176341, -0.087659, -0.181087, 0.129220, 0.082983, -0.055279, -0.270911, 0.060124, 0.129857, 0.010978, 0.055888, -0.023845, -0.356195, -0.138205, -0.071880, -0.054714, 0.121845, 0.137043, -0.093661, 0.142175, 0.064381, 0.017291, -0.380055, -0.162182, 0.065027, 0.119199, -0.021317, -0.293240, -0.095197, -0.254934, -0.122962, -0.291656, 0.013929, 0.091958, 0.030418, -0.166949, 0.044241, -0.227693, -0.034830, 0.123343, -0.029084, 0.044262, -0.321359, -0.134497, -0.145846, -0.266608, -0.129110, 0.142079},
	    {-0.059470, -0.138239, 0.015469, -0.041677, 0.145687, 0.056876, 0.145866, -0.366405, -0.005086, -0.132081, -0.141968, 0.111927, 0.014728, -0.109660, -0.124588, -0.259310, -0.172568, 0.029336, 0.166799, -0.145635, -0.187749, -0.381948, -0.040544, 0.191005, -0.041508, -0.110010, -0.305322, -0.141044, -0.239255, 0.122795, -0.038530, -0.199018, -0.103408, -0.116126, -0.152285, 0.148888, -0.130938, -0.090971, -0.261966, -0.256863, -0.185596, -0.119064, -0.073318, -0.067873, 0.007633, -0.136685, 0.008924, -0.178724, 0.063001, -0.292035, 0.096097, -0.074610, -0.022424, -0.110444, -0.376838, -0.174449, -0.152265, -0.040068, 0.087783, -0.100643, 0.160493, -0.086087, -0.078107, -0.227375, -0.284297, -0.243585, 0.019843, -0.131360, -0.098608, -0.024911, -0.069728, -0.040600, -0.257766, -0.217310, 0.172308, 0.121589, 0.147674, -0.037753, 0.091282, -0.144297, -0.156665, -0.173773, 0.065902, -0.183849, 0.095308, -0.131653, -0.324780, -0.058339, -0.244400, 0.088724, -0.208831, -0.301319, -0.126711, -0.107685, -0.149057, 0.037216, -0.104991, -0.195757, -0.032073, 0.165505, 0.114907, 0.034612, -0.119492, -0.194450, -0.232995, -0.082974, -0.028525, -0.086450, -0.179581, -0.215135, -0.145211, 0.081690, -0.371593, 0.165254, 0.060818, -0.024624, 0.132327, -0.039881, -0.115199, -0.181292, -0.035439, -0.376902, 0.035374, -0.160303, -0.006332, 0.087258, -0.181133, 0.173236, 0.128937, -0.102693, -0.230045, -0.180273, -0.053265, -0.028599, 0.062442, 0.042105, 0.155872, -0.192944, -0.210343, -0.270081, -0.079796, 0.067018, -0.218691, -0.287259, 0.004787, -0.104146, -0.108695, -0.262794, -0.096680, -0.346933, -0.069803, -0.155893, -0.208010, 0.083767, -0.131758, -0.019784, 0.113023, -0.346678, 0.060195, -0.071150, 0.089223, -0.159025, -0.075915, 0.023758, -0.229144, -0.085127, -0.095469, -0.099117, -0.148964, -0.030904, 0.067954, 0.008522, 0.043174, -0.227537, -0.149225, -0.210276, -0.209723, -0.066728, -0.365179, 0.106966, -0.205074, 0.029858, -0.136907, -0.140359, -0.021263, -0.040658, 0.067580, 0.012124, -0.081122, -0.264095, 0.073766, 0.028740, -0.169548, -0.132063, -0.056581, -0.096914, -0.104425, -0.104784, -0.106631, 0.069498, -0.331047, -0.210566, -0.235503, 0.201320, 0.016033, -0.162422, 0.035012, 0.134078, -0.121509, -0.217744, -0.217519, -0.043539, 0.090274, -0.104114, -0.225284, -0.165685, 0.016948, -0.076114, -0.233842, 0.094337, -0.126889, -0.265136, -0.114883, 0.065562, -0.046273, -0.191076, 0.121561, 0.140008, 0.102748, -0.093737, -0.070037, 0.036682, -0.039061, -0.092875, 0.007584, -0.208174, -0.145097, 0.017923, -0.096196, 0.114985, 0.029380, -0.194329, -0.081820, 0.070089, 0.153317, 0.041683, -0.124944, -0.115655, 0.124286, 0.154370, -0.235586, -0.035023, -0.111247, -0.150776, -0.071884, -0.161012},
	    {0.044116, 0.172355, 0.165296, -0.239198, -0.265000, -0.322931, 0.134384, -0.066049, -0.019523, 0.187375, -0.230626, 0.057633, 0.110347, 0.008780, 0.047295, 0.008676, 0.089893, 0.077550, 0.157261, -0.227557, -0.240486, -0.250130, -0.040587, -0.122367, -0.261510, -0.048903, -0.158211, -0.040157, -0.274062, 0.012006, -0.010040, 0.107504, -0.094276, -0.284231, -0.012031, 0.079992, -0.011245, -0.210158, 0.068599, -0.084129, -0.313331, -0.186663, -0.025900, -0.178509, 0.185814, -0.162937, -0.042935, 0.022793, -0.068247, -0.209518, -0.015946, -0.295044, -0.138341, -0.315291, -0.210780, 0.045289, -0.016783, 0.152297, 0.083884, 0.123204, 0.076963, -0.216283, -0.168674, -0.176972, -0.003294, -0.016933, -0.028504, 0.008589, 0.104680, 0.108379, -0.031364, -0.197414, -0.165707, -0.058686, 0.133369, -0.168536, -0.099028, -0.161616, 0.105240, 0.055468, -0.211178, -0.035307, 0.087431, -0.269888, -0.021478, 0.002698, -0.172915, 0.135516, -0.259341, 0.017916, 0.005985, -0.239562, -0.046106, -0.310550, -0.159928, -0.032818, -0.095635, -0.122904, 0.116845, 0.087402, -0.077606, -0.196872, -0.138076, 0.054937, -0.033467, 0.077369, -0.085377, -0.312010, -0.114533, -0.209058, -0.034848, 0.168951, -0.316742, 0.046593, -0.085221, -0.295741, 0.085190, -0.281088, 0.060421, -0.057902, -0.026503, -0.083917, -0.041422, -0.244527, -0.188874, -0.010914, -0.159098, 0.174525, -0.177101, -0.006688, 0.024458, -0.106336, -0.144255, 0.087467, -0.035860, 0.073599, 0.100617, 0.027696, -0.229719, 0.106312, 0.202880, 0.073985, -0.193394, -0.008001, 0.194549, -0.353540, -0.057345, -0.213184, -0.230519, -0.375016, 0.156126, 0.007116, -0.105158, -0.089156, -0.269815, -0.241256, -0.164504, -0.173921, -0.181585, -0.088942, -0.291858, -0.256158, 0.000887, -0.237333, -0.197295, -0.094885, -0.027201, 0.145163, -0.025921, 0.016479, -0.057349, 0.136792, 0.170945, -0.173942, -0.202673, -0.145753, -0.128087, 0.064686, -0.320992, 0.116452, -0.217753, -0.196955, 0.108653, -0.182092, -0.124038, 0.120041, -0.117802, -0.232502, -0.121463, -0.143047, 0.165600, -0.148325, -0.408737, -0.124293, 0.227143, -0.067498, -0.077431, -0.048553, -0.229478, 0.129448, -0.106551, -0.143526, -0.030015, 0.115442, -0.354208, -0.121664, 0.066934, -0.027449, -0.094406, -0.140039, -0.134621, -0.309757, 0.113822, -0.083664, -0.183364, 0.015415, 0.015477, -0.049084, -0.061914, -0.086180, 0.147969, -0.357665, -0.090845, 0.136581, 0.069950, -0.133511, 0.172281, 0.080115, 0.086023, 0.042973, -0.066433, -0.196925, -0.015190, 0.058534, -0.192808, 0.136272, -0.084137, -0.094685, -0.122371, -0.086080, -0.011843, 0.114393, 0.149576, 0.165838, -0.060422, 0.069493, 0.076412, -0.176156, -0.082930, -0.191177, -0.130930, 0.147409, -0.247797, 0.137875, -0.004484, -0.257900},
	    {-0.276737, -0.140159, -0.080823, -0.140754, -0.221340, 0.159828, 0.014002, 0.030600, -0.069374, 0.182974, -0.143621, -0.162694, 0.007805, 0.058195, -0.176817, 0.105468, 0.080533, -0.272621, -0.136959, 0.129811, 0.076653, 0.085781, 0.072877, -0.187892, -0.078353, -0.103655, -0.223931, 0.004634, -0.375584, -0.273229, 0.092384, -0.068961, -0.172747, -0.170983, -0.100445, 0.025267, -0.080544, -0.051878, -0.079465, 0.131025, -0.028735, -0.206734, -0.209753, -0.189871, -0.003978, -0.059657, 0.120104, -0.136845, -0.080750, -0.166630, 0.115466, -0.300618, 0.109892, -0.140146, -0.009068, -0.255130, -0.103545, -0.219828, -0.108093, -0.098526, -0.167059, -0.074352, 0.113485, -0.219773, 0.121729, 0.037088, 0.109111, -0.100422, -0.186112, -0.123793, 0.002119, -0.095401, 0.123319, -0.096649, -0.104956, -0.073769, -0.179771, -0.046115, 0.014124, 0.181370, 0.148212, 0.080718, 0.033295, -0.192041, -0.073657, 0.146613, -0.215364, -0.013030, -0.294327, -0.113235, -0.089500, -0.021250, -0.163601, -0.044568, -0.415633, 0.108967, -0.161975, 0.122085, 0.013889, 0.064271, 0.029179, -0.195857, 0.132903, 0.114286, -0.211225, -0.229541, -0.123881, -0.073185, 0.089771, 0.063176, 0.062795, -0.093701, 0.066297, 0.034616, -0.187021, 0.088012, -0.240014, -0.189055, 0.040540, -0.043818, -0.012271, -0.359169, -0.092349, -0.045044, -0.177335, -0.119334, -0.322955, -0.222283, -0.058485, -0.070392, -0.394461, 0.043045, -0.038171, -0.018244, 0.007688, 0.011596, -0.282283, -0.049700, -0.049395, 0.015873, -0.119156, 0.036946, -0.096928, -0.054315, 0.085833, -0.293020, 0.089197, -0.216125, 0.021208, 0.070271, -0.105758, -0.225955, 0.070194, -0.154565, 0.116752, -0.156537, -0.206201, -0.102262, -0.120556, 0.073250, -0.206604, -0.210281, 0.069163, -0.201148, -0.351969, -0.066121, -0.044289, -0.163335, -0.069406, -0.004795, -0.131380, 0.112860, -0.301723, 0.104822, 0.129127, -0.277706, 0.131837, -0.086690, 0.040428, -0.222082, -0.082375, -0.172698, 0.095178, -0.108413, 0.100791, -0.109112, -0.064633, 0.160213, 0.022373, 0.126972, -0.211393, -0.037593, -0.204081, -0.073095, -0.228750, -0.215142, 0.091392, 0.017401, -0.011737, 0.054480, 0.084409, -0.115526, 0.058082, -0.208175, 0.057199, 0.022602, -0.105776, 0.122062, -0.426974, 0.049602, 0.116698, 0.045841, -0.199556, 0.052678, -0.087675, 0.122612, -0.127391, 0.066794, 0.070384, -0.112803, -0.063506, 0.089005, -0.156274, -0.020589, -0.030898, -0.030884, -0.181782, -0.116044, -0.139778, -0.042512, 0.038665, -0.096249, -0.106582, 0.010361, -0.049466, -0.001504, -0.099235, -0.108996, 0.042836, -0.042561, -0.168326, 0.148328, -0.040333, -0.140272, 0.023561, -0.150661, -0.075950, 0.141533, 0.029757, -0.094891, -0.066593, -0.198517, -0.102872, -0.024243, -0.065104, -0.016228},
	    {-0.084428, 0.064091, 0.107129, 0.007692, 0.059075, -0.052128, 0.096186, -0.204760, -0.050498, -0.039703, 0.158674, -0.183040, -0.133495, -0.024377, -0.087204, 0.041957, 0.163288, -0.135623, -0.108712, 0.073547, -0.153165, -0.015470, -0.065817, -0.205742, 0.096504, -0.259462, -0.228158, 0.116174, -0.048300, -0.026737, -0.158149, -0.000720, -0.051388, 0.017870, -0.066140, 0.065487, -0.113040, -0.198000, -0.097465, 0.040376, 0.210587, 0.084087, -0.384366, 0.075875, 0.035449, -0.457072, -0.186224, 0.073454, 0.081553, -0.153123, -0.066081, -0.258209, -0.001444, -0.099183, 0.062855, -0.045302, 0.056632, 0.100189, -0.115523, -0.117667, 0.009328, -0.148784, -0.057203, 0.010524, -0.120470, 0.083445, 0.051101, -0.231206, -0.133991, -0.138399, 0.099359, 0.092766, -0.045962, 0.149852, 0.048143, 0.093399, 0.118158, -0.145318, 0.016880, 0.001569, -0.005982, 0.029832, 0.064072, -0.149241, -0.131080, -0.069094, 0.023845, -0.275321, -0.190043, -0.066686, -0.105060, 0.073226, 0.019860, 0.141990, -0.256827, 0.032188, 0.000464, 0.062150, 0.161583, -0.251804, 0.105421, -0.179358, -0.068275, -0.020155, 0.025745, 0.007554, 0.131347, -0.098186, -0.000792, -0.151474, 0.029522, 0.038912, -0.077189, 0.055520, 0.079680, 0.066778, -0.153220, 0.125035, -0.117641, 0.047822, -0.076812, -0.350299, -0.045962, 0.034803, 0.020407, -0.064741, -0.130786, -0.101708, -0.045153, 0.124316, -0.272570, -0.110805, 0.117121, -0.126806, 0.017903, -0.172460, -0.317408, -0.115844, -0.030593, 0.003884, -0.137865, -0.007991, -0.140890, -0.071238, 0.077812, -0.115107, 0.126906, 0.128045, -0.006312, -0.040265, -0.072971, 0.013637, 0.076202, -0.152289, 0.083896, 0.075340, -0.072088, -0.157277, 0.079286, -0.076017, -0.115035, 0.155243, 0.098664, 0.185264, -0.219368, -0.060380, -0.216885, -0.020200, 0.116138, 0.031055, -0.308103, -0.097057, -0.227377, 0.007061, 0.161120, 0.146528, 0.015572, -0.228799, -0.035545, -0.141578, -0.176550, -0.062983, 0.008817, 0.090034, -0.079372, 0.028894, 0.138966, 0.105262, 0.003548, -0.204166, 0.082617, -0.114663, -0.124763, -0.225557, -0.247740, -0.191223, -0.039240, -0.073669, -0.046009, -0.122466, -0.007164, -0.295608, -0.078232, 0.039196, 0.020701, 0.167465, 0.032326, 0.066700, -0.041654, 0.101706, -0.132623, -0.045202, -0.284939, 0.171355, -0.188582, -0.170084, 0.085302, 0.072642, 0.070377, -0.155007, 0.119704, -0.005560, 0.024328, -0.035762, -0.039499, -0.024578, -0.159856, -0.172339, -0.164327, 0.028304, -0.208267, 0.116267, -0.116662, -0.105187, 0.192737, 0.212349, -0.243831, -0.041123, 0.027041, -0.192168, -0.183307, -0.030197, -0.360690, -0.098635, -0.037811, -0.233177, -0.107934, -0.152042, -0.015953, -0.048375, -0.136749, -0.064444, 0.090775, 0.013446, -0.273936, 0.131674},
	    {-0.064611, -0.116585, 0.138424, -0.036098, -0.014939, 0.046260, 0.026685, -0.066527, 0.038110, -0.033320, 0.001909, 0.102389, -0.088215, 0.035386, 0.040890, -0.098351, -0.221469, -0.181079, -0.114745, -0.050929, 0.002980, -0.081699, -0.080703, -0.028504, -0.031377, -0.052809, -0.138662, -0.091591, -0.027021, -0.256150, -0.043770, -0.136501, -0.143576, 0.066630, 0.027767, -0.080341, 0.180907, -0.145277, 0.056871, -0.120741, 0.034550, -0.039010, -0.177353, -0.074446, 0.030807, -0.140055, -0.108621, -0.066509, 0.008620, 0.013481, 0.105316, 0.084027, -0.102165, -0.075228, -0.027344, -0.294351, -0.192148, -0.190916, -0.072223, -0.123697, -0.131094, -0.021916, -0.025638, 0.130729, 0.089660, -0.156438, 0.193191, -0.169893, -0.178294, -0.383849, -0.083594, -0.131398, -0.058234, -0.223206, 0.088969, 0.030749, 0.038255, -0.228418, 0.055597, -0.033553, 0.082864, -0.225277, -0.186862, -0.096944, -0.024663, -0.085130, -0.070806, -0.190526, 0.118139, -0.083111, 0.116780, -0.106650, 0.094795, -0.167812, 0.117395, 0.066694, -0.201153, 0.139514, 0.086942, -0.098008, 0.056920, -0.076664, 0.041213, -0.205319, -0.179311, -0.008328, 0.188086, 0.077497, -0.079273, -0.010204, -0.115285, -0.092612, -0.210465, 0.028056, -0.093469, -0.126527, 0.003852, 0.016504, 0.219055, -0.136687, -0.223301, -0.071595, 0.049932, 0.081605, 0.117705, 0.253214, 0.004715, -0.085825, -0.022644, 0.127433, -0.131773, -0.037536, -0.066317, -0.005640, -0.084726, -0.351095, 0.026343, -0.081115, 0.050127, -0.006352, 0.010178, -0.164421, -0.030875, 0.086592, 0.058344, 0.037223, -0.033762, 0.068519, -0.171519, -0.104039, -0.019232, -0.112683, 0.119346, -0.024695, 0.118212, -0.157877, -0.077686, -0.016206, 0.082524, 0.149880, 0.035329, 0.173676, -0.215680, -0.187886, 0.015689, -0.106902, -0.026383, 0.193498, -0.009588, 0.045802, -0.081152, 0.096834, 0.019839, -0.200014, 0.030193, 0.024664, -0.087809, 0.035148, -0.037581, -0.232951, 0.110154, -0.023731, -0.182501, -0.000324, -0.025296, -0.028007, -0.054628, -0.032863, 0.016196, -0.048290, -0.121950, -0.047530, -0.094396, 0.108362, 0.212450, -0.077709, -0.001541, 0.055128, 0.032763, 0.017419, -0.107526, -0.259626, -0.293554, 0.094298, -0.034714, -0.096582, -0.044433, 0.091730, 0.126028, -0.002145, -0.029923, -0.121508, -0.052072, -0.128602, -0.205587, -0.135945, -0.061858, 0.009504, -0.227207, 0.122975, -0.009457, -0.009451, -0.023738, -0.176673, 0.065153, 0.010179, -0.071960, -0.022730, -0.007894, -0.198307, -0.419119, -0.000032, -0.068967, 0.053692, -0.195403, -0.102291, -0.017507, 0.019738, -0.057413, -0.192730, 0.012603, -0.161909, -0.150280, -0.014096, 0.061346, 0.027424, -0.152729, -0.127900, 0.103843, -0.077936, 0.056344, 0.019360, 0.106938, -0.153018, 0.063699, -0.043886},
	    {0.024743, -0.345100, 0.015545, -0.252186, -0.064110, -0.084949, 0.104459, 0.063567, -0.325921, 0.030664, -0.127858, 0.083064, 0.128966, -0.086518, -0.193362, -0.131685, -0.127671, -0.125539, -0.216343, -0.242327, -0.054280, -0.137987, 0.045501, -0.158974, 0.139512, -0.081365, -0.166735, -0.256652, -0.211462, -0.379631, 0.164383, 0.068415, 0.033296, -0.194699, -0.037811, -0.178017, 0.150526, -0.027443, -0.193426, -0.174870, -0.068190, -0.220361, -0.135417, -0.036857, 0.062867, -0.118401, 0.219107, -0.011914, -0.500763, -0.396241, 0.051229, 0.010597, -0.072734, -0.186783, -0.475296, 0.000362, 0.140908, -0.137128, 0.082309, 0.133332, -0.444526, -0.373029, -0.254773, 0.039208, -0.069725, -0.255448, -0.025324, -0.199975, -0.268160, -0.244960, 0.106799, -0.358279, -0.258951, 0.079156, -0.153518, -0.084614, -0.156682, 0.065132, -0.079073, -0.253767, -0.016599, 0.111361, -0.337508, 0.095831, 0.182848, 0.169082, 0.141096, 0.097038, -0.247522, -0.008761, 0.237963, -0.012476, 0.133955, -0.010914, -0.196773, -0.066631, -0.095816, -0.101867, -0.111239, 0.003461, -0.146795, -0.194509, -0.134004, -0.115998, -0.093849, -0.190640, 0.025561, -0.085068, 0.040445, -0.081320, 0.036791, -0.074019, -0.137297, -0.120189, 0.149498, -0.313911, -0.329751, -0.115819, -0.082446, -0.217738, -0.190098, -0.017965, 0.113946, -0.066611, 0.132761, -0.069400, -0.141971, 0.015131, -0.169426, -0.168329, -0.134972, -0.400474, 0.005362, -0.173382, -0.116764, 0.085549, -0.057086, -0.105007, 0.097397, -0.239135, -0.078073, -0.050254, -0.257640, 0.168646, -0.273908, -0.393652, -0.178465, -0.343617, 0.037559, -0.161704, -0.081805, -0.012311, 0.133352, -0.120689, 0.012089, -0.272423, -0.023707, -0.217956, 0.182102, -0.322350, -0.188497, -0.153776, -0.417922, -0.010525, 0.027359, -0.198342, -0.254545, 0.039627, -0.173855, -0.031075, -0.231518, 0.208430, -0.345107, -0.244139, -0.008310, 0.131372, -0.187362, -0.185331, -0.221860, -0.100292, -0.090208, -0.047170, -0.092207, 0.037775, 0.026715, -0.051144, 0.183102, 0.104645, -0.153945, -0.391088, -0.163801, -0.174102, -0.152727, -0.037560, -0.177466, -0.140574, 0.074360, -0.130492, 0.059487, 0.039293, -0.238689, 0.168573, -0.169347, -0.392101, -0.311324, 0.075484, -0.001120, -0.028089, -0.159732, -0.031452, -0.140839, -0.075640, -0.002954, -0.150412, -0.271422, -0.032826, 0.154941, -0.200010, 0.214996, 0.038952, -0.015998, -0.105664, -0.151947, -0.083867, -0.127852, -0.188810, -0.071794, -0.173578, -0.112116, -0.167121, -0.314738, 0.090095, -0.319688, 0.007075, -0.087717, -0.095898, -0.586809, -0.071291, -0.073881, -0.439443, -0.096501, -0.116196, 0.208561, 0.078509, 0.212613, -0.157576, -0.067361, -0.214196, -0.034221, 0.067139, -0.166368, 0.038653, -0.504359, -0.140826, -0.149606, -0.139935},
	    {-0.072427, -0.175744, 0.107887, 0.009939, 0.045809, -0.048081, -0.038604, -0.143002, -0.302134, -0.202809, -0.129664, 0.080579, -0.285320, -0.059646, -0.240322, -0.003058, -0.328122, -0.089893, 0.183735, 0.015475, 0.092701, -0.167785, -0.201672, 0.009471, -0.046572, -0.086187, 0.001414, -0.317177, 0.068716, 0.092666, -0.133018, -0.246223, -0.122560, -0.154205, -0.379041, -0.291743, -0.161816, -0.324135, -0.022537, 0.075310, -0.017049, -0.458687, -0.302451, -0.080727, 0.067052, -0.070598, 0.041354, -0.309482, -0.114247, -0.523696, 0.056241, -0.053512, -0.048013, -0.105074, -0.017207, -0.003659, -0.100891, 0.112947, -0.058966, -0.176787, 0.047513, 0.048853, -0.256436, 0.053963, -0.347682, -0.323354, -0.089825, 0.011239, 0.026193, -0.409061, 0.099797, -0.084380, -0.163573, -0.131323, -0.009166, 0.047956, 0.003822, -0.233086, -0.099248, -0.022529, -0.122458, -0.476352, -0.169035, -0.145000, 0.075153, -0.179615, 0.112128, -0.116802, 0.087655, 0.110064, -0.129467, -0.268692, -0.065337, -0.007973, -0.054651, -0.018000, -0.120679, 0.203365, 0.042087, -0.311040, -0.021735, -0.162610, 0.002081, -0.211897, -0.161961, -0.269825, 0.220246, 0.067918, -0.047787, 0.094898, -0.230201, -0.265430, 0.069151, -0.404807, 0.181149, -0.252621, 0.149683, 0.140809, -0.102833, -0.166917, -0.297286, -0.036338, -0.013320, -0.143444, 0.148631, -0.089354, 0.024253, -0.080774, 0.072950, -0.194768, 0.040389, -0.224320, -0.021656, -0.154938, 0.061901, -0.341257, -0.234751, -0.063867, 0.106277, -0.285566, -0.194727, 0.051082, -0.189043, 0.062515, -0.094765, 0.160970, -0.160437, -0.233816, -0.039975, -0.024359, -0.170610, -0.185781, -0.105147, -0.261072, 0.157976, -0.346086, 0.127413, -0.150408, 0.029308, 0.099079, -0.043378, 0.164393, -0.150934, -0.147239, 0.092072, -0.348218, -0.375078, 0.068855, -0.294354, 0.046589, -0.217332, -0.172351, 0.071444, -0.494752, 0.036622, 0.067993, -0.210359, -0.091962, -0.018406, -0.027263, -0.033163, -0.150539, -0.156309, 0.137405, -0.038394, -0.041844, 0.140210, 0.051086, -0.108255, -0.289436, 0.118196, -0.324926, -0.064032, -0.433751, -0.209112, -0.107010, 0.168391, -0.071701, -0.074163, 0.043103, -0.176134, -0.165193, -0.114824, -0.100346, -0.218800, -0.060293, -0.178488, 0.129238, -0.147673, -0.162110, -0.114056, 0.073785, -0.218258, -0.303226, -0.188878, -0.311514, -0.036950, -0.055718, 0.127941, -0.115568, 0.091083, -0.062431, 0.088419, 0.043663, -0.064857, -0.224713, -0.108257, -0.069590, 0.029414, -0.085172, -0.210765, -0.021337, -0.277357, 0.090554, -0.082522, -0.279883, -0.143853, -0.005170, -0.172935, -0.029748, -0.127439, 0.038387, -0.176708, -0.135993, 0.132258, 0.074425, -0.235138, -0.327845, 0.106398, 0.076224, -0.063220, -0.100887, -0.262081, -0.046718, -0.270397, -0.011833},
	    {-0.152901, -0.046984, -0.014942, -0.149342, -0.046705, 0.131227, -0.029354, -0.500636, 0.115053, -0.037300, -0.337977, 0.077720, -0.172627, -0.083220, -0.238301, -0.102678, 0.078837, -0.140754, -0.168984, -0.030122, 0.115564, -0.483610, -0.137399, 0.069832, -0.166113, -0.006901, -0.313384, 0.239861, -0.207304, 0.132008, 0.046227, 0.008429, -0.179625, -0.296136, 0.033684, 0.123291, -0.323065, -0.243641, -0.154305, -0.156190, -0.107643, -0.068092, -0.197197, -0.020798, -0.303599, -0.158892, -0.144009, 0.061954, 0.145915, -0.210190, -0.034552, -0.277448, 0.104286, -0.236465, -0.540684, -0.032138, -0.128663, -0.045015, -0.010177, 0.123466, -0.065727, -0.280714, -0.383497, -0.369410, -0.052540, -0.101161, -0.275420, -0.107903, -0.080162, 0.126999, 0.092058, -0.150693, -0.372369, -0.085571, 0.142476, -0.035707, 0.113404, 0.017729, 0.081859, 0.086556, 0.065757, 0.227579, 0.051972, -0.164676, 0.111601, -0.031134, 0.071123, -0.265591, -0.424513, -0.005521, -0.116665, 0.069538, -0.189544, -0.193288, -0.165375, 0.034519, -0.089504, 0.131631, -0.410515, 0.238412, 0.189539, -0.290793, -0.184662, -0.157636, -0.001944, 0.034146, -0.110418, -0.225976, -0.027113, 0.087121, 0.062890, -0.049055, -0.195739, -0.162731, -0.152595, 0.048191, 0.039500, 0.035056, -0.225080, -0.108217, 0.025869, -0.252843, -0.151546, -0.101803, -0.081175, -0.056059, -0.389576, 0.062633, -0.048767, -0.168308, -0.113133, 0.114293, -0.096017, -0.113930, -0.239908, 0.088228, 0.037484, -0.039162, -0.260867, -0.303810, -0.021201, 0.159558, -0.192612, -0.313659, 0.168235, -0.310131, 0.012841, -0.303279, -0.126990, -0.224862, 0.037314, 0.021599, 0.004365, -0.134837, -0.154704, -0.143837, -0.088999, -0.146304, 0.062271, -0.012044, 0.081290, -0.097237, -0.258178, 0.003564, -0.150806, -0.299401, -0.155623, -0.223264, 0.169258, 0.056496, -0.133480, -0.200743, -0.360219, 0.004535, 0.135026, -0.267295, -0.156614, -0.328463, -0.296591, 0.086032, -0.300038, -0.188770, -0.141618, -0.208957, -0.132620, -0.138451, -0.010480, 0.076854, 0.176447, -0.397274, 0.142400, -0.047821, -0.187859, -0.063769, -0.174037, -0.294143, 0.016556, -0.017837, -0.009108, -0.314832, -0.206791, -0.155978, -0.220585, 0.159656, -0.057979, 0.047050, -0.057213, -0.219357, 0.013046, -0.042600, -0.079528, -0.142188, -0.041910, -0.001191, -0.440001, -0.154607, -0.203305, -0.038162, -0.166569, -0.238856, 0.008011, -0.241745, -0.163073, -0.231361, -0.147679, -0.242560, -0.013219, 0.148908, -0.020520, -0.316471, -0.692802, -0.257141, -0.383968, -0.031655, 0.136065, -0.160760, -0.357104, -0.288454, 0.230705, -0.218480, -0.053625, -0.033223, -0.093135, 0.126643, -0.175166, -0.263253, -0.096493, 0.175963, -0.125322, 0.125272, 0.001055, -0.154554, 0.117509, 0.179791, 0.035440, -0.190609},
	    {-0.213441, -0.466663, -0.010920, -0.230866, 0.018738, -0.222222, 0.178806, -0.169446, -0.035209, -0.030510, 0.110999, 0.022575, -0.278818, -0.067371, 0.061787, -0.393910, -0.133766, 0.218957, -0.203538, -0.139617, -0.235858, -0.161703, -0.126160, -0.049787, -0.184763, -0.055990, -0.256815, 0.020140, -0.428509, -0.251517, -0.150377, -0.035760, 0.071714, -0.097148, 0.095679, 0.084349, 0.234051, 0.169095, -0.146445, -0.098586, -0.091497, -0.104672, -0.056297, -0.189344, -0.173517, -0.224133, 0.185093, 0.158581, -0.227669, -0.160736, -0.130903, -0.099449, -0.147984, -0.165305, -0.003504, 0.067914, -0.176989, 0.008412, -0.162229, -0.181098, -0.184683, -0.144452, -0.235460, -0.160420, -0.251369, -0.151127, -0.044496, -0.216428, -0.388596, -0.215078, 0.138789, -0.339110, -0.246454, 0.119954, 0.099866, -0.258121, 0.141098, 0.108515, -0.055468, -0.109866, -0.276275, 0.034977, -0.105363, -0.018341, 0.043206, 0.051959, -0.095224, 0.095950, -0.220956, -0.113589, 0.076233, -0.076851, 0.061563, -0.182274, -0.253546, -0.008466, -0.033488, -0.031489, -0.179203, 0.061578, 0.035561, -0.180301, -0.103010, -0.206562, -0.228351, -0.098939, -0.250566, -0.319269, 0.032587, -0.244726, -0.091757, 0.063554, -0.219298, -0.033503, 0.165587, 0.130549, 0.115791, -0.179581, -0.053315, -0.088971, -0.106769, -0.408313, -0.181953, -0.123310, 0.227072, -0.104569, 0.042875, -0.065318, -0.291961, 0.029482, -0.300076, -0.310893, 0.200397, 0.009338, -0.118090, 0.197598, -0.106835, -0.030597, 0.143319, -0.125987, -0.356505, -0.331318, -0.111157, -0.224724, -0.198912, -0.223025, -0.305437, 0.039548, 0.005405, -0.281689, -0.125872, -0.113348, -0.339013, -0.112990, -0.154592, 0.019901, 0.137951, -0.011442, 0.131490, -0.098412, 0.100650, -0.119080, 0.061002, 0.240996, -0.390448, 0.021629, -0.130655, -0.201195, -0.077119, -0.104004, 0.219292, 0.201946, -0.411834, -0.000607, -0.240558, 0.025989, -0.045591, -0.310878, -0.298642, -0.124387, -0.036743, 0.071793, -0.186097, 0.108988, 0.065324, -0.203688, 0.197698, -0.092217, -0.183455, -0.284641, -0.228525, 0.076175, 0.068583, 0.150183, 0.016143, 0.055758, -0.079323, -0.055900, 0.048618, -0.120703, -0.252996, 0.095207, -0.186776, -0.173151, -0.146605, -0.038566, -0.145856, 0.071871, -0.069591, -0.231530, -0.325771, -0.080781, -0.225077, 0.052895, 0.163343, -0.167570, 0.097176, -0.201803, -0.082092, -0.010076, 0.034064, -0.422975, -0.184340, 0.083578, -0.067475, 0.010061, 0.193059, -0.021034, -0.201510, -0.136147, -0.042946, 0.173190, -0.062472, 0.092957, 0.115132, -0.003168, -0.410551, -0.244495, -0.143251, -0.025864, 0.085800, -0.314953, 0.026209, -0.286995, 0.185306, -0.044002, -0.078140, -0.042173, 0.045753, -0.111813, -0.275891, -0.152062, -0.511793, -0.163723, 0.038956, -0.017517},
	    {-0.240619, -0.171103, 0.028526, -0.037221, -0.228012, 0.155059, -0.226539, -0.071138, 0.013598, 0.010539, -0.150909, -0.227139, -0.033402, -0.037898, -0.065534, 0.163313, -0.013280, -0.010780, -0.150549, 0.130978, -0.060880, 0.119089, -0.086131, 0.100471, 0.126042, -0.051797, 0.038382, 0.182494, -0.014610, -0.389475, 0.133409, -0.306961, -0.083540, -0.041927, -0.060111, -0.202850, -0.059150, -0.053623, -0.089084, 0.126930, 0.021725, -0.214315, -0.251701, -0.154382, 0.140388, -0.107832, -0.257715, 0.004688, -0.137490, -0.134600, -0.132720, -0.270815, -0.093436, -0.130692, 0.007986, -0.320291, 0.188334, -0.117518, -0.019073, -0.092467, 0.137706, 0.001890, 0.017605, -0.400311, -0.110402, -0.035327, -0.264486, -0.036001, 0.157149, 0.049186, 0.189800, -0.111997, 0.105124, -0.371267, -0.188417, -0.038619, -0.212746, -0.092732, -0.182079, -0.040286, 0.060006, 0.037964, -0.123561, -0.214635, 0.092604, 0.149961, -0.109136, -0.092167, 0.038207, 0.035944, -0.268382, -0.131002, -0.239170, -0.116678, -0.354192, -0.122913, -0.165673, 0.103003, -0.034029, 0.170856, -0.131062, -0.222298, 0.125126, -0.103473, -0.001537, -0.203582, 0.154425, -0.076011, 0.062242, 0.055015, -0.038208, 0.008923, 0.100475, -0.072086, 0.141528, -0.064782, 0.076466, -0.133265, 0.004232, -0.065509, 0.059599, -0.316450, -0.226437, -0.134066, 0.138146, -0.151568, 0.056228, -0.064849, -0.189974, -0.045393, -0.488218, 0.009418, -0.278424, -0.067926, -0.099592, -0.318617, -0.174632, -0.084780, 0.170182, 0.042965, -0.217408, -0.191804, -0.054863, 0.091740, -0.084523, -0.196140, -0.084896, -0.041049, -0.248029, 0.093267, -0.135211, 0.005894, -0.063526, -0.195316, 0.110999, 0.022553, -0.123334, 0.209112, 0.030407, 0.158551, -0.183557, 0.004130, -0.038717, -0.173599, -0.078998, -0.047756, -0.128990, -0.062095, -0.158351, -0.329431, 0.001315, -0.161692, 0.132512, -0.038024, 0.076701, -0.492123, 0.062246, -0.156366, 0.147173, -0.251474, -0.057156, 0.015250, -0.219957, 0.196389, -0.107111, 0.038396, -0.052167, 0.055311, -0.088661, -0.149720, 0.152215, -0.086144, 0.072957, -0.060127, -0.067743, -0.120020, -0.117949, 0.017939, -0.008034, -0.138200, -0.178506, -0.187966, -0.256915, -0.124242, 0.084205, -0.040944, 0.057754, 0.007737, -0.089269, -0.052310, 0.092223, 0.015194, -0.172422, 0.079602, 0.020988, -0.224400, -0.260161, 0.112721, 0.068998, -0.110219, -0.207624, -0.017207, -0.356157, 0.102230, 0.117558, -0.034441, -0.304151, 0.047400, -0.140991, -0.015766, 0.089883, -0.187355, -0.173002, -0.088343, -0.055660, 0.005441, -0.092472, -0.126021, -0.152216, 0.052117, -0.081800, 0.004596, -0.129340, -0.151899, -0.120842, -0.277203, -0.198754, -0.036996, -0.118969, -0.087111, -0.074018, -0.043800, -0.544868, 0.003354, 0.168889, -0.063106},
	    {-0.079298, -0.041252, -0.364504, -0.100162, -0.103412, 0.095361, 0.178052, -0.343629, 0.001555, -0.154232, -0.348899, -0.170092, -0.051473, 0.111402, 0.112521, -0.015708, 0.183962, -0.012059, -0.290882, 0.027620, -0.409842, -0.056593, 0.165069, -0.244339, -0.143730, -0.037397, -0.259245, -0.119568, -0.338655, -0.219849, -0.233060, 0.106530, 0.042572, -0.171687, -0.080879, 0.070808, -0.427352, -0.258536, -0.077840, -0.066293, -0.199351, 0.010342, 0.080720, -0.145162, -0.372529, -0.211932, -0.023994, -0.110114, -0.098887, -0.000357, 0.095382, -0.183530, -0.008597, -0.006454, -0.694514, -0.463750, -0.202316, -0.252663, -0.337962, -0.372275, 0.018518, -0.042110, -0.212101, 0.015636, 0.139891, 0.006948, -0.265752, 0.067549, -0.101529, 0.109722, -0.132988, -0.112704, -0.246856, 0.226575, 0.075183, -0.104210, -0.156806, 0.111925, -0.116491, -0.231943, -0.146604, -0.001078, 0.003752, -0.142705, -0.242851, -0.441175, -0.167187, 0.058806, -0.271931, -0.054627, -0.020554, -0.108699, -0.116409, -0.166466, -0.231685, 0.154839, 0.027592, -0.116423, -0.465440, 0.058092, -0.048894, -0.164772, 0.000066, -0.025633, -0.232146, -0.361914, -0.022534, -0.035660, -0.335176, -0.021996, -0.129013, -0.172408, -0.241974, 0.023058, -0.385338, 0.165192, -0.052655, -0.181256, -0.286709, -0.162534, 0.163369, -0.476826, -0.344283, -0.216122, -0.023457, -0.169714, -0.244497, -0.176941, -0.029405, -0.101980, -0.433478, -0.132162, -0.215381, 0.078457, 0.152494, 0.122835, 0.012922, 0.053139, -0.303334, -0.225206, -0.105868, -0.099102, -0.073687, -0.058292, 0.101682, -0.003564, -0.024267, -0.412487, -0.008510, -0.028814, -0.005717, -0.157260, -0.370572, -0.106274, -0.030479, -0.068944, -0.130186, -0.199116, -0.097913, -0.212843, -0.088324, -0.195810, 0.196855, -0.145968, -0.391757, -0.061385, -0.145143, -0.120766, 0.178335, -0.216733, 0.189898, -0.059228, -0.184151, 0.089387, -0.145098, -0.245196, 0.165839, -0.094386, -0.174666, -0.094953, -0.250082, 0.021853, 0.122137, -0.138003, -0.088961, -0.101343, -0.296356, -0.246339, -0.103505, -0.016285, 0.052482, 0.123534, -0.119315, -0.180668, 0.011298, 0.122441, -0.122162, -0.013696, 0.040317, 0.102062, 0.078300, -0.103029, 0.105336, 0.035714, 0.049165, -0.190936, 0.157881, 0.171115, -0.530518, -0.264425, 0.024507, -0.252021, 0.111958, -0.180124, -0.074126, 0.152139, -0.208056, -0.228614, -0.292572, -0.045242, -0.148300, -0.179863, -0.032681, -0.150192, 0.085727, -0.182208, -0.040370, -0.408937, -0.252965, 0.021853, 0.084804, -0.112806, 0.000636, 0.111361, -0.295291, -0.235376, 0.081229, -0.277079, -0.372369, 0.118139, -0.274858, -0.109893, -0.391779, -0.195685, -0.151682, -0.062394, -0.232744, 0.002332, 0.157603, 0.050910, -0.264502, 0.179704, -0.191270, -0.253965, -0.061347, -0.221274},
	    {0.026374, -0.216882, -0.156055, -0.112127, 0.090083, -0.020825, -0.139350, -0.193907, 0.164646, -0.192868, -0.019165, -0.157015, 0.150622, 0.026114, 0.146382, -0.071200, -0.081844, 0.176710, 0.080280, 0.066830, -0.255250, 0.017611, 0.086293, 0.045856, 0.082236, -0.083873, -0.129549, 0.062132, -0.110290, -0.095941, -0.031591, 0.008210, 0.003148, 0.020443, 0.182876, 0.105470, -0.003591, -0.090407, -0.054795, 0.072716, 0.032531, -0.303978, -0.045940, -0.151260, 0.065242, 0.064640, -0.161658, -0.099117, -0.165505, -0.021500, -0.086947, -0.097264, 0.077313, -0.254981, -0.048200, -0.216993, -0.064838, -0.183602, -0.057656, -0.023053, 0.165755, 0.045284, 0.159351, -0.342251, -0.202508, 0.149369, -0.003395, 0.066290, -0.225257, 0.138190, -0.019588, -0.183958, 0.064015, 0.020713, -0.058127, -0.249863, -0.175680, -0.006756, 0.046829, 0.086100, -0.071874, -0.006394, 0.000957, -0.051906, 0.158688, 0.039504, -0.432298, 0.127494, -0.050471, -0.275758, -0.132487, -0.204328, -0.050858, -0.063302, -0.379546, 0.039434, 0.143217, -0.126961, -0.066810, 0.108232, 0.101002, 0.009219, -0.078586, -0.140456, -0.066432, 0.075525, -0.328125, -0.244766, 0.100637, -0.262246, -0.098758, 0.124873, -0.134322, -0.023734, 0.038856, -0.108613, -0.321189, -0.277441, -0.130522, -0.151670, 0.150962, -0.197701, -0.137666, -0.054501, -0.131513, -0.178788, -0.309326, -0.032386, -0.094575, -0.084551, -0.314833, -0.005737, -0.031047, 0.130140, -0.094425, -0.081703, 0.124951, -0.216252, -0.188746, -0.017037, -0.124952, 0.078572, -0.350864, -0.131405, -0.089589, 0.008973, -0.086200, -0.112864, -0.269683, -0.326878, -0.169634, 0.092941, 0.045495, 0.069565, -0.141119, -0.023112, 0.030008, 0.020608, 0.154724, -0.133890, -0.247523, -0.116603, 0.083716, -0.141504, -0.315317, 0.182584, 0.030275, -0.168054, -0.026951, -0.308487, -0.165601, -0.080253, -0.271856, 0.054677, -0.062418, -0.545239, 0.111082, -0.113511, -0.083380, -0.084564, -0.047207, 0.112463, -0.075646, -0.253495, -0.300417, -0.086783, -0.216797, -0.091896, 0.101431, -0.077966, 0.106997, 0.029145, 0.086121, -0.100415, -0.207265, -0.177467, 0.190931, -0.065388, -0.198215, -0.230849, -0.049754, -0.236503, -0.044721, -0.029282, 0.101007, -0.245669, 0.049481, 0.108005, 0.073020, 0.062927, 0.134627, -0.223128, 0.020157, 0.024296, 0.017101, -0.002727, -0.192190, 0.037890, -0.166805, -0.059058, -0.050454, -0.150812, -0.057367, 0.008490, -0.048453, -0.084976, -0.181151, -0.090945, -0.175556, -0.011865, 0.088592, 0.140847, -0.075756, 0.037300, 0.038952, -0.192354, 0.034832, -0.159991, -0.046691, -0.040337, -0.091242, 0.047075, 0.024260, -0.117289, -0.216672, -0.018078, -0.433972, 0.122193, -0.244631, 0.124983, 0.019141, -0.119979, -0.168138, -0.091335, 0.028355, -0.114218},
	    {-0.334046, -0.174937, -0.054909, 0.079423, -0.107673, -0.312295, -0.120587, -0.003893, -0.090126, 0.068059, -0.203714, -0.234834, -0.047257, -0.052178, 0.107061, 0.118326, 0.130030, -0.056774, 0.083904, 0.141658, -0.178677, 0.122150, -0.096721, -0.263395, 0.053960, -0.017540, -0.114628, -0.297447, -0.332402, -0.306942, -0.031088, 0.156780, 0.023884, -0.261642, 0.070783, 0.013565, -0.090827, -0.346800, 0.084677, -0.020563, 0.035482, -0.180155, -0.005072, 0.077001, -0.076152, 0.047126, -0.316016, -0.181583, -0.141773, -0.133613, 0.107104, -0.238052, 0.036487, 0.057468, -0.015143, -0.465321, -0.105674, -0.278690, -0.326268, -0.021448, -0.116572, -0.098995, 0.058788, 0.071223, 0.115256, 0.099971, 0.105702, 0.020494, -0.098314, -0.050705, 0.108602, -0.205317, 0.091309, 0.070793, -0.217449, -0.180482, -0.055285, -0.026689, -0.019864, -0.211148, 0.019958, -0.031197, -0.139045, -0.135200, -0.172654, -0.090980, -0.369800, -0.026047, -0.661691, 0.005738, 0.025731, -0.064955, -0.052054, -0.082619, -0.295133, 0.112834, -0.157491, 0.138270, -0.065022, -0.007832, -0.508065, -0.092476, -0.161916, 0.151374, -0.280491, -0.031753, 0.147437, 0.083516, -0.252289, 0.078360, -0.091249, -0.230930, -0.038244, -0.055952, -0.299904, 0.030154, -0.244198, -0.139637, -0.020989, -0.181329, -0.028669, -0.300989, -0.278840, -0.033769, -0.093082, -0.148047, -0.306294, -0.237740, 0.116875, -0.142336, -0.270675, -0.011965, -0.212443, -0.064269, 0.066218, -0.119360, -0.290900, -0.127500, -0.016925, -0.154116, -0.289563, -0.237663, -0.347913, 0.035396, -0.267396, -0.192025, -0.178244, -0.517915, -0.134011, 0.122452, -0.119524, -0.122730, -0.033188, -0.061372, 0.119537, -0.086269, -0.135343, -0.066033, -0.053358, -0.125208, -0.248191, -0.153813, 0.051889, -0.209725, -0.053015, -0.052328, -0.171273, -0.106434, -0.114276, -0.135760, -0.159858, 0.024752, -0.208367, 0.099876, -0.034393, -0.248200, -0.007768, 0.082902, 0.088098, -0.514948, -0.276036, -0.292374, 0.146646, -0.207829, -0.105341, -0.335736, -0.340311, -0.024229, -0.023501, 0.051741, -0.469761, 0.086554, -0.150785, -0.128460, -0.017941, 0.065303, 0.004529, -0.098426, -0.042519, 0.137988, 0.074523, -0.188497, 0.075384, -0.278490, 0.150351, 0.151878, 0.118826, -0.099966, -0.046024, -0.235403, 0.170331, -0.259319, -0.112296, -0.111700, 0.105757, 0.129482, -0.080122, -0.078015, -0.099620, -0.096847, -0.061507, -0.244685, -0.242284, 0.000353, -0.168538, 0.123509, -0.133556, -0.129004, -0.086175, 0.056109, 0.108785, -0.195871, 0.072047, -0.115072, -0.322754, 0.022210, -0.012520, -0.152356, -0.259949, -0.157100, -0.260418, 0.179999, -0.119694, -0.226498, -0.061756, -0.243607, -0.194015, -0.060207, -0.045714, -0.202141, -0.129090, -0.003666, -0.213194, -0.137354, -0.160111, -0.179456},
	    {-0.302543, -0.069244, -0.046084, -0.001348, -0.013909, -0.234731, -0.259785, -0.337256, -0.180457, -0.291265, 0.017979, -0.232077, 0.188942, 0.103346, -0.124886, -0.107982, -0.254258, -0.089835, -0.214642, -0.186423, -0.198755, 0.150548, -0.170128, -0.113300, 0.138014, 0.073749, -0.129348, 0.114597, 0.090362, -0.223492, 0.107613, -0.265613, -0.081964, -0.064409, 0.027560, -0.216078, -0.239243, -0.176860, -0.364075, -0.006112, -0.098391, -0.086301, 0.043544, -0.113719, 0.011412, 0.161739, 0.018056, -0.255263, -0.267303, -0.011877, 0.108394, 0.096283, -0.226681, -0.405581, 0.108323, -0.318875, -0.112848, 0.098596, -0.231652, -0.111724, 0.155369, -0.111533, 0.164400, -0.540663, -0.327005, -0.236854, -0.241365, 0.186730, 0.044935, -0.008465, 0.220673, -0.201174, -0.023234, -0.309242, -0.251733, -0.193733, -0.052342, -0.108159, -0.349489, -0.322139, -0.131508, -0.147712, -0.497802, -0.011436, 0.181954, 0.054457, 0.000420, 0.157513, 0.126199, 0.165228, 0.025164, -0.257561, -0.167433, 0.027703, -0.320650, -0.347935, -0.177383, -0.186933, -0.158159, -0.050358, -0.208947, 0.166569, 0.046976, -0.197429, -0.152980, -0.090320, -0.060145, 0.035195, 0.085116, -0.236837, -0.191248, 0.078725, 0.090538, -0.333310, 0.101502, -0.246445, -0.003722, -0.202398, -0.143714, -0.114324, -0.509613, -0.228747, -0.132826, -0.237389, -0.074228, -0.122634, -0.365161, -0.242381, -0.180310, -0.198459, -0.300013, 0.019079, -0.335872, -0.120007, 0.169723, -0.219791, -0.071369, -0.059950, 0.008816, -0.275571, -0.107583, -0.215976, -0.253539, 0.114582, -0.396599, -0.054198, -0.024798, -0.514170, -0.405757, -0.084988, -0.188180, 0.107289, -0.304235, -0.385613, -0.112672, -0.132415, -0.036258, 0.129764, 0.052938, -0.201752, -0.018229, -0.052715, -0.305726, -0.023773, 0.093853, 0.177077, -0.201572, -0.240928, -0.026734, -0.192632, -0.149611, -0.110095, -0.172375, 0.045233, -0.170570, -0.315999, -0.100046, -0.354447, 0.052614, -0.439788, -0.145437, -0.303166, -0.227184, 0.148695, -0.141985, -0.252945, -0.046922, -0.205235, -0.139774, -0.334635, -0.115123, -0.259161, 0.099453, 0.084329, -0.146515, 0.030099, -0.075867, 0.069287, -0.016325, -0.112156, -0.132299, -0.172404, -0.132115, -0.064038, -0.203110, -0.200109, -0.263802, -0.317299, -0.029377, -0.196484, -0.072732, 0.014838, -0.010647, -0.028310, 0.210525, 0.009212, -0.203641, -0.117504, -0.118763, -0.009750, -0.051420, -0.297367, -0.430481, 0.121885, -0.070078, -0.040666, 0.036605, -0.101421, -0.001303, -0.406144, 0.116421, 0.193944, -0.254794, 0.031602, -0.259013, -0.001399, 0.104309, 0.210844, -0.134639, -0.171429, -0.312456, -0.195098, -0.073638, -0.265441, -0.068382, -0.309917, -0.121057, -0.256756, -0.201058, -0.094249, -0.080245, 0.128657, -0.659101, 0.076315, 0.180325, -0.104006},
	    {-0.141877, -0.111629, -0.132388, 0.057574, -0.115753, -0.137660, -0.098128, -0.308417, 0.129223, 0.031761, -0.133569, -0.228786, 0.086359, -0.092313, 0.038769, -0.184786, -0.031771, -0.057700, 0.030372, 0.144922, -0.364387, -0.101747, 0.135495, -0.024567, 0.135104, 0.017847, -0.527933, -0.021319, -0.569329, -0.334207, -0.005798, -0.026341, 0.038560, -0.192051, -0.131435, 0.122920, -0.079937, 0.062434, -0.036272, -0.099527, -0.147205, -0.003189, 0.004724, 0.012814, -0.033372, -0.045134, 0.086744, -0.157832, 0.011787, -0.262315, 0.099526, -0.272676, 0.088145, -0.024167, -0.282622, -0.559782, -0.157301, -0.310413, 0.082876, 0.051148, 0.086034, -0.072669, -0.167809, -0.063654, 0.099421, 0.052760, -0.146012, 0.092730, -0.392727, 0.087063, -0.042998, -0.446056, -0.178497, -0.024143, 0.168335, -0.066781, -0.094740, 0.025483, -0.013158, -0.004969, 0.023340, 0.144177, -0.093832, -0.108475, -0.153081, -0.118333, -0.403921, 0.122359, -0.125793, -0.107680, -0.032982, -0.025709, -0.188554, -0.125828, -0.192224, 0.082742, 0.144355, -0.220310, -0.146613, 0.135889, -0.054367, -0.024518, -0.099813, 0.016922, 0.068553, -0.126418, -0.192554, -0.107615, -0.055287, -0.035957, -0.197995, 0.139082, -0.296553, -0.018183, -0.148354, 0.050760, -0.166698, -0.035154, 0.052592, -0.158420, 0.145763, -0.239155, -0.195581, -0.242061, -0.099060, -0.106917, -0.232623, -0.187280, -0.055762, -0.166268, -0.351292, -0.088430, -0.377834, 0.121197, 0.123299, -0.040249, -0.061081, 0.111418, -0.261967, -0.112182, -0.164014, -0.172680, -0.291720, -0.188186, 0.085794, -0.266515, -0.020943, -0.440340, -0.074996, -0.167079, -0.040216, -0.064758, -0.297476, -0.056890, -0.162114, -0.054707, -0.168362, -0.194150, -0.055962, -0.172251, -0.144246, -0.122090, 0.040588, -0.203154, -0.406661, 0.148391, -0.096251, -0.540316, -0.344830, -0.232080, 0.109176, -0.264785, -0.169868, 0.122762, -0.223380, -0.283313, 0.138664, -0.031229, -0.177234, -0.165224, -0.388150, -0.016559, 0.173294, -0.285379, -0.147663, -0.023125, -0.123032, -0.094031, -0.112230, -0.145268, -0.151500, 0.155305, -0.349115, -0.237117, -0.141746, 0.127081, -0.133651, -0.021587, -0.031188, 0.077787, -0.035278, -0.214226, 0.057731, -0.007535, 0.008559, -0.024376, 0.119449, 0.111835, -0.148924, 0.033019, 0.117549, -0.191618, 0.106297, -0.166304, 0.063955, 0.168999, 0.013805, -0.174448, -0.244912, -0.006579, 0.147138, -0.298763, -0.235717, 0.043753, 0.014246, -0.091223, 0.021400, -0.128725, -0.193581, -0.022145, 0.119641, -0.096553, -0.035852, 0.034341, 0.078489, 0.032802, 0.102202, -0.108942, -0.260672, 0.054189, -0.195374, 0.043398, -0.098762, -0.061242, -0.092082, 0.015477, -0.179571, 0.061540, 0.008208, -0.023901, -0.276870, -0.058992, -0.291338, -0.025933, 0.078361, -0.152021},
	    {-0.036002, 0.197967, -0.201403, -0.114846, -0.158197, -0.120616, -0.200068, -0.128763, -0.106005, -0.156566, -0.056952, -0.195312, -0.033058, -0.110051, -0.202866, 0.157788, -0.002734, 0.064395, 0.171709, 0.160270, -0.199826, 0.106397, 0.067431, -0.119305, -0.091415, -0.000592, -0.041571, 0.077902, -0.178639, -0.186705, 0.191770, -0.139023, -0.247974, -0.322801, -0.099117, -0.031884, -0.660378, -0.261382, -0.058346, 0.141115, -0.066466, -0.092106, -0.102711, -0.178134, -0.094593, -0.098257, -0.165854, -0.276418, -0.116483, -0.274636, -0.122801, -0.251870, 0.142372, 0.152901, 0.089338, -0.547888, 0.072564, -0.526651, -0.165188, -0.206358, 0.129710, -0.180399, -0.071125, -0.215019, -0.025063, 0.019659, -0.035875, 0.134539, 0.019290, 0.050565, -0.025494, -0.220240, -0.113340, -0.131423, -0.310469, -0.095041, -0.137487, 0.089141, -0.182215, -0.126503, -0.181796, -0.130497, -0.199507, -0.289577, -0.008942, 0.040777, -0.353034, -0.002629, -0.066751, -0.067754, -0.273585, -0.202021, -0.188951, 0.006725, -0.421026, -0.131394, 0.047231, 0.036138, 0.072987, -0.151976, -0.236133, 0.026657, 0.182205, -0.026811, -0.508829, -0.371708, 0.005077, 0.117187, -0.021060, 0.093709, -0.172494, -0.109963, 0.112032, -0.074973, -0.203065, -0.138351, -0.152585, -0.064279, -0.019706, -0.161657, -0.032677, -0.461364, -0.444075, -0.443080, 0.038087, -0.199678, -0.045435, -0.442541, -0.093467, -0.060108, -0.421126, 0.123458, 0.017998, 0.208901, 0.050425, -0.371195, -0.551445, -0.328193, -0.218754, -0.572450, -0.154963, -0.234623, -0.474984, -0.111472, -0.272397, 0.200630, -0.215602, -0.258573, -0.266167, 0.146350, -0.011528, -0.361822, -0.314151, -0.080305, -0.124455, -0.354708, -0.259109, -0.063390, -0.386875, 0.027645, -0.395617, 0.009135, 0.164951, -0.116273, -0.219735, -0.067543, -0.210430, -0.166461, -0.165329, -0.349262, -0.033872, -0.093400, -0.051195, 0.069041, -0.254038, -0.527798, 0.021183, -0.267026, -0.037899, -0.385344, -0.360822, -0.430825, 0.145590, -0.147143, -0.084378, 0.161846, -0.238826, -0.067630, 0.103795, -0.050626, 0.068134, -0.171664, -0.138687, 0.041817, -0.123716, -0.247881, 0.052581, -0.121839, -0.175488, 0.015481, -0.165055, -0.228777, 0.006281, -0.211032, 0.066859, -0.166542, 0.039837, -0.153491, -0.230200, -0.192758, 0.103035, -0.029680, -0.205160, -0.265924, 0.001451, -0.060806, -0.029489, 0.085607, 0.040413, -0.171715, -0.159912, -0.227099, -0.287853, -0.319666, -0.066909, -0.102325, -0.097753, -0.114561, -0.284877, 0.139887, 0.129465, -0.109693, -0.099043, 0.016646, -0.466347, -0.106055, -0.065498, -0.368898, -0.092997, 0.114007, -0.319373, 0.002815, -0.215735, -0.233493, -0.333600, -0.313459, -0.219078, 0.148286, -0.235658, -0.062026, -0.064107, 0.070355, -0.545632, -0.083632, 0.016335, 0.039892},
	    {-0.194195, -0.094714, 0.051444, 0.037409, -0.005146, -0.161184, -0.064315, 0.048916, -0.245762, -0.106164, -0.075353, -0.123473, -0.027714, -0.046668, 0.088824, -0.107495, 0.092261, -0.224224, -0.076772, 0.052185, -0.145549, -0.037207, -0.093950, -0.246220, 0.087464, 0.015126, -0.233559, -0.001280, -0.205305, -0.296180, 0.135197, -0.111434, -0.221321, -0.077866, -0.064367, -0.269507, -0.107253, -0.071812, -0.045386, 0.113451, -0.142788, -0.136358, -0.001010, -0.163724, -0.093434, 0.103489, -0.108665, -0.185596, -0.315511, 0.172762, -0.038187, -0.019650, -0.164301, -0.002733, -0.087791, -0.368271, 0.063790, -0.027961, 0.123638, -0.235566, 0.053851, 0.274041, 0.053882, -0.033298, 0.205472, 0.127465, 0.197595, 0.019419, -0.054870, -0.087279, 0.008926, 0.149227, 0.139813, -0.131648, -0.183705, -0.032699, -0.172875, 0.002522, -0.202856, 0.058641, -0.094771, -0.030972, -0.195360, -0.028470, -0.022639, 0.100633, -0.118189, 0.047813, 0.046216, 0.028499, -0.099626, -0.045492, -0.088583, -0.020800, -0.180734, -0.013545, -0.002950, 0.063261, 0.053913, -0.051252, -0.097071, 0.037289, 0.009360, 0.160089, -0.162036, -0.050420, 0.156241, 0.069027, -0.145335, -0.131235, -0.260987, 0.155102, -0.096392, -0.068835, -0.102953, -0.254754, -0.039157, 0.078375, -0.067839, -0.086975, -0.067718, -0.305990, 0.063132, -0.329561, -0.041858, -0.037579, -0.232990, 0.130071, -0.145910, 0.194738, -0.136580, 0.122749, -0.245288, -0.083595, -0.175769, -0.341445, 0.065608, -0.127995, -0.275911, 0.046936, 0.037086, -0.457277, -0.035053, 0.144379, -0.219258, -0.070382, -0.105841, -0.328653, -0.339430, -0.104366, -0.033314, 0.137375, 0.007972, -0.083535, 0.087947, -0.037363, -0.080120, 0.132159, -0.177226, -0.118708, -0.241772, -0.143178, -0.111767, -0.172831, -0.019478, 0.194363, -0.179715, 0.035424, -0.210848, -0.294196, 0.036771, 0.003120, 0.019901, -0.153975, 0.048425, -0.106366, 0.152079, 0.099947, 0.049272, -0.165242, -0.156749, -0.232707, 0.069630, 0.131577, -0.284708, -0.120885, -0.055346, -0.121619, 0.082610, 0.099057, -0.164512, -0.150808, 0.003076, 0.108857, -0.044549, -0.016569, -0.026206, -0.039960, -0.203076, 0.149025, 0.040354, -0.143506, 0.077905, -0.392867, 0.101081, -0.060160, 0.102910, 0.195737, -0.032476, -0.031763, 0.148913, -0.086283, 0.003782, 0.038122, 0.008020, -0.001375, -0.119458, -0.215264, -0.129282, 0.191225, -0.074489, -0.035841, -0.477236, 0.080656, -0.296156, 0.016323, -0.197109, -0.152062, -0.209110, 0.078806, 0.081370, -0.006253, -0.167468, 0.124161, 0.012473, -0.232569, -0.045750, 0.246651, -0.142642, 0.155677, -0.159466, 0.018985, 0.072184, -0.204083, 0.104733, 0.198946, -0.130634, -0.306982, 0.007458, -0.199734, 0.146737, -0.230040, -0.203027, -0.042982, 0.014672, -0.119971},
	    {-0.166388, -0.047017, -0.145693, 0.125271, -0.134238, 0.081552, -0.050596, 0.008208, -0.291987, -0.141508, -0.164220, -0.167843, -0.064097, -0.102277, 0.092261, -0.013129, -0.190225, 0.127948, -0.151790, 0.107622, -0.134977, 0.101776, 0.080803, -0.023670, -0.228265, -0.080092, 0.097850, 0.146596, 0.158030, -0.318368, 0.042588, -0.114334, -0.140723, 0.014823, -0.119195, -0.052831, -0.259474, -0.075007, -0.201766, 0.108660, 0.036764, -0.058699, -0.075676, -0.141432, -0.033632, -0.085524, -0.326432, 0.118428, 0.029292, -0.105253, -0.202708, -0.162088, -0.182783, -0.071284, -0.057062, -0.362916, 0.140561, -0.303668, 0.003828, -0.129696, 0.106143, -0.265724, 0.095599, -0.089154, -0.060644, -0.011361, 0.011210, -0.215576, 0.089798, -0.169125, 0.073554, -0.120256, 0.078283, -0.191696, -0.180217, -0.068566, -0.098690, 0.096422, -0.182101, -0.241244, -0.032991, -0.109356, -0.309884, -0.359182, 0.105956, -0.105746, -0.050962, -0.166539, -0.077708, 0.066939, 0.149068, -0.061470, -0.178300, 0.131988, -0.286779, -0.318222, 0.053941, -0.054850, -0.086234, 0.159947, -0.398417, -0.157270, -0.055942, -0.181913, -0.018453, -0.134564, 0.038017, -0.009192, -0.145362, 0.047376, 0.174583, 0.074306, 0.115063, 0.046347, 0.137595, 0.025031, 0.107827, 0.048915, -0.008118, 0.008661, -0.111680, -0.450963, -0.307561, -0.107931, 0.091391, -0.112305, 0.021938, -0.305894, -0.085780, 0.009143, -0.284848, -0.164749, -0.198099, 0.070605, -0.118978, -0.114528, -0.091551, -0.157207, 0.145212, -0.089979, -0.078524, -0.187110, -0.146650, -0.048606, -0.078760, -0.162948, -0.217811, 0.097611, -0.187912, -0.055856, -0.192935, 0.116701, -0.118255, -0.026314, 0.040765, 0.130966, -0.057993, 0.057824, 0.055728, -0.026683, -0.341446, -0.167764, 0.039903, -0.346071, -0.054596, -0.003353, -0.103482, 0.107514, 0.110215, -0.022454, -0.113743, 0.030882, 0.193663, -0.363982, 0.110409, -0.290235, 0.030413, -0.170447, 0.101178, -0.429931, -0.123578, -0.203093, -0.036165, 0.196001, -0.236065, -0.086358, -0.314141, -0.118787, -0.229038, -0.243160, 0.086508, -0.238345, 0.100025, -0.040779, 0.052151, 0.092530, -0.187742, -0.143151, -0.284466, -0.006584, -0.135030, -0.385515, -0.324267, 0.147791, 0.135491, -0.270499, 0.061807, 0.025685, -0.241781, -0.057189, -0.181950, 0.085596, 0.109573, 0.085085, 0.149286, -0.186172, -0.093898, 0.093624, -0.140788, -0.099316, -0.134860, -0.219892, -0.032469, -0.077020, 0.121519, -0.143150, -0.292807, 0.126793, -0.035965, 0.082705, 0.088973, -0.122879, 0.010372, 0.121511, -0.024444, -0.067610, -0.239822, -0.049724, 0.138018, -0.035182, -0.004839, -0.131343, -0.126197, -0.283642, 0.143398, -0.300090, -0.204050, 0.075432, 0.015327, -0.185221, -0.234301, 0.022221, -0.265015, -0.034875, 0.062324, 0.070039},
	    {-0.407494, -0.436066, -0.480422, -0.162893, -0.235084, -0.007039, -0.172197, 0.005989, -0.109706, -0.026584, -0.359494, -0.242205, -0.087705, -0.057093, -0.146927, 0.181308, -0.219105, 0.065135, -0.011116, 0.091856, 0.054069, 0.100613, 0.085587, -0.009851, -0.358735, -0.268202, 0.087905, 0.050818, -0.214286, -0.359512, 0.144788, -0.132872, -0.156362, -0.227898, -0.047819, -0.219493, -0.384793, -0.021775, -0.126089, 0.146265, -0.034955, -0.345395, -0.363954, -0.303099, -0.188894, -0.045940, -0.388107, -0.179646, -0.192882, -0.287424, -0.066288, -0.346066, 0.053013, -0.231178, -0.122721, -0.471991, 0.180428, -0.338895, -0.254692, -0.327782, 0.239282, -0.099425, -0.021014, -0.039194, 0.166704, -0.035235, -0.220227, -0.134364, 0.094880, -0.091838, -0.031242, -0.208571, 0.082476, -0.040616, -0.269374, 0.061959, -0.180539, 0.093934, -0.363607, 0.105924, 0.095109, -0.224054, -0.446635, -0.281038, 0.120988, 0.013611, -0.352806, -0.167696, -0.203467, 0.004760, -0.352466, -0.157874, -0.642340, -0.143885, -0.614615, 0.074416, -0.005459, 0.066836, -0.101082, -0.007112, -0.215873, 0.014248, 0.054717, -0.164058, -0.255251, -0.438788, 0.053510, 0.071506, 0.010165, 0.123249, -0.384342, -0.110299, 0.103018, -0.221280, -0.328665, -0.053075, -0.159192, -0.328046, -0.095852, -0.139453, 0.016092, -0.427085, -0.280831, -0.295237, -0.128900, -0.155560, -0.196504, -0.298014, 0.072382, 0.045156, -0.289909, -0.016567, -0.184761, -0.105361, -0.028013, -0.184218, -0.323686, -0.275492, -0.098826, 0.052010, -0.205833, -0.118552, 0.006101, -0.024883, -0.126297, -0.087274, -0.128924, -0.380645, -0.286057, 0.111634, -0.300728, -0.143761, 0.067655, -0.242040, 0.092669, -0.140454, -0.343732, -0.103447, -0.232374, -0.002940, -0.419929, 0.031945, 0.113029, -0.182292, -0.162529, 0.091390, -0.389657, -0.217644, -0.187195, -0.471602, -0.171396, -0.127229, -0.027132, -0.123987, 0.123738, -0.353016, 0.042815, -0.208099, 0.171022, -0.167026, -0.125825, -0.565773, 0.016928, -0.113986, -0.278026, -0.281549, -0.108199, -0.100400, -0.009265, 0.033831, -0.172186, -0.242693, -0.001658, -0.214186, -0.259561, -0.388353, -0.323357, 0.015476, -0.334679, -0.140541, -0.001994, -0.375581, 0.112651, -0.334162, 0.188625, -0.209051, -0.141831, 0.041243, -0.351258, -0.242156, 0.132600, -0.301225, -0.020764, -0.003979, -0.151273, 0.004867, -0.176859, 0.091420, -0.075570, -0.155859, -0.285249, -0.250275, -0.285111, 0.007201, -0.294286, -0.121848, -0.472785, -0.264374, -0.130757, 0.014449, 0.151008, -0.212563, -0.117454, -0.042912, -0.323187, -0.143341, -0.047494, -0.153136, -0.146543, 0.134447, -0.292280, 0.048400, -0.226328, -0.211074, -0.210006, -0.169958, -0.274898, -0.013736, -0.235539, 0.030624, 0.117527, -0.216706, -0.363849, -0.054117, -0.107786, -0.082456},
	    {-0.284676, -0.383117, -0.092179, 0.081776, -0.088477, 0.143796, -0.146301, 0.069214, 0.057468, 0.067057, 0.174754, -0.033720, -0.147409, -0.054614, -0.180734, -0.241414, -0.290183, 0.121056, 0.051708, 0.144955, 0.131025, 0.111421, -0.100275, -0.015964, -0.122152, -0.122256, -0.081934, 0.041437, -0.107662, -0.190619, -0.076069, -0.383921, 0.042953, 0.079282, 0.048652, -0.178763, -0.289088, -0.161780, -0.121719, 0.114908, 0.134319, -0.331548, -0.277722, -0.083637, -0.150917, 0.126978, 0.069889, -0.037503, -0.185047, -0.037013, 0.143491, 0.021717, 0.052790, -0.163964, 0.159628, -0.391415, -0.213948, 0.017814, -0.194190, -0.002699, 0.120120, -0.158340, 0.087726, -0.003111, -0.192570, -0.066345, -0.024665, 0.058739, -0.262008, -0.009160, 0.113923, -0.013834, -0.092387, -0.385581, -0.200925, -0.202934, -0.140883, -0.102005, 0.033143, 0.137258, 0.059605, -0.157875, -0.131237, -0.270302, 0.125872, -0.037401, -0.038999, 0.067094, 0.097871, -0.128061, 0.125678, -0.082864, -0.247848, -0.175047, -0.216189, 0.086072, 0.038894, -0.305989, 0.081082, 0.120843, 0.046734, 0.087791, 0.155045, 0.101691, -0.245850, -0.307954, -0.064573, -0.074478, 0.035322, 0.104541, -0.113386, 0.128858, -0.052480, 0.068958, -0.129743, -0.136129, -0.302184, -0.114199, -0.108695, -0.245393, -0.135801, -0.277329, -0.183408, -0.157755, -0.132619, -0.262803, -0.192632, -0.139761, -0.208759, -0.085536, -0.414607, 0.045799, 0.065961, -0.078420, 0.046922, -0.159021, -0.089384, -0.156188, -0.004008, -0.296112, -0.364936, 0.040572, -0.084560, -0.268380, -0.304201, -0.509172, 0.005135, -0.018589, -0.122062, -0.124917, -0.287353, -0.093643, -0.015575, -0.078572, 0.091489, -0.102738, -0.063005, -0.170539, 0.067160, -0.043925, -0.179702, -0.084190, -0.087597, -0.177446, -0.226536, 0.142495, -0.419420, -0.193350, -0.133150, -0.123997, -0.199967, -0.157320, -0.393702, 0.047144, 0.008721, -0.400257, 0.090195, -0.245730, -0.078976, -0.485223, -0.354942, -0.062234, -0.182118, -0.126397, 0.036475, -0.099165, -0.159937, 0.106726, 0.045089, -0.373285, -0.071317, -0.153315, 0.015134, -0.093797, -0.137138, -0.234014, -0.156347, -0.122483, -0.068927, -0.323735, -0.102976, -0.027811, -0.218090, -0.416613, -0.080978, -0.353129, -0.236893, 0.039106, -0.118284, -0.050705, 0.086277, 0.043368, -0.302905, -0.135278, 0.013358, -0.050526, -0.197589, -0.191043, -0.173032, -0.233976, -0.245585, -0.005723, -0.121672, -0.068531, -0.276165, 0.009935, -0.091822, -0.174295, -0.133302, -0.368821, 0.013329, 0.188814, -0.218184, 0.079045, 0.010749, -0.112948, 0.076650, 0.018750, 0.171710, 0.025558, -0.085930, -0.011179, -0.111723, -0.347380, 0.010487, -0.113860, -0.184010, 0.108304, -0.158487, 0.086836, 0.166998, -0.067078, -0.208412, -0.105638, 0.067789, -0.090915},
	    {-0.282089, -0.078837, -0.084234, 0.161143, -0.150753, -0.127171, 0.092400, -0.208080, -0.097750, 0.122369, 0.034415, -0.165283, -0.218441, 0.092030, -0.162246, -0.203800, 0.152068, -0.024695, -0.061014, 0.099643, 0.010779, 0.134289, -0.212950, -0.276396, 0.027641, 0.036321, -0.237112, -0.267109, -0.145154, -0.220344, 0.061162, -0.347993, -0.206262, -0.228571, -0.151794, -0.144205, 0.037054, -0.058499, -0.362004, -0.134056, 0.062025, -0.401976, -0.458486, -0.163299, -0.086661, 0.149225, 0.166410, -0.151341, 0.065865, -0.047170, 0.042343, -0.138006, 0.008409, 0.062307, 0.121445, -0.362846, -0.152712, 0.036236, -0.073668, -0.031907, -0.065251, -0.154237, 0.130743, -0.366340, -0.121390, -0.116693, -0.127680, 0.069908, -0.256299, 0.070910, -0.002121, 0.065316, -0.090382, 0.105127, -0.177945, -0.333711, 0.025215, -0.063878, -0.010405, -0.066733, 0.018544, -0.079300, -0.201364, -0.198474, 0.173921, 0.093447, -0.244120, 0.097160, 0.086601, -0.126493, -0.107689, -0.251464, 0.186454, -0.237391, -0.466630, -0.149078, -0.040575, -0.011719, -0.155804, -0.107583, 0.075148, -0.066741, 0.034752, 0.082014, 0.015807, -0.348911, 0.118657, 0.145876, -0.155585, -0.003207, -0.219427, -0.146949, 0.050270, -0.253790, 0.091017, -0.140815, -0.054255, 0.125810, -0.261702, 0.016081, -0.165209, -0.353351, -0.049875, -0.261905, 0.003559, 0.009360, -0.132627, -0.190420, -0.084813, 0.052164, -0.256006, 0.003436, 0.086097, 0.068926, 0.127964, -0.217844, -0.238650, -0.093517, -0.100191, -0.106775, -0.050428, -0.175568, -0.404510, -0.010662, -0.231898, -0.273575, -0.240481, -0.211730, -0.098334, -0.001187, -0.125698, -0.220427, 0.056163, -0.144464, 0.094648, -0.268512, -0.239562, -0.114259, -0.145172, -0.111945, -0.350898, -0.156748, -0.155856, 0.163142, 0.052213, -0.020082, -0.095936, 0.039241, -0.088583, -0.169621, -0.268135, 0.000528, -0.264839, 0.060019, -0.111523, -0.153427, -0.009243, -0.188549, 0.115998, -0.220906, 0.028126, -0.074137, 0.088517, -0.150378, -0.002967, -0.160347, 0.046388, 0.084172, 0.157912, -0.078539, -0.165246, -0.221544, -0.047795, -0.084911, -0.070399, 0.001457, -0.114518, -0.106097, 0.045073, 0.158761, -0.166529, 0.092447, 0.064669, -0.002326, -0.175149, 0.024694, -0.103925, -0.201032, -0.234486, 0.084492, 0.157736, 0.107505, 0.014458, -0.095206, 0.160495, 0.034667, -0.151780, -0.061904, 0.070496, -0.224914, -0.156233, -0.017267, -0.429141, -0.269193, -0.238183, 0.143795, -0.288838, -0.009219, -0.095090, 0.034709, 0.018605, -0.037514, -0.100201, 0.097848, 0.006697, -0.249996, 0.104275, 0.098404, 0.042287, -0.178165, -0.015542, 0.207870, 0.098470, -0.156843, -0.136857, -0.109492, -0.446390, 0.169046, 0.065886, 0.060041, -0.004430, -0.120656, -0.439306, -0.117734, -0.019728, -0.247206},
	    {-0.422689, -0.355897, -0.314663, -0.107620, -0.039236, -0.062931, -0.267180, -0.016496, 0.190065, 0.191113, -0.191930, -0.373101, -0.213381, 0.002825, -0.226294, -0.175666, -0.051463, -0.130140, 0.078733, 0.124843, -0.151436, 0.088643, -0.028932, -0.192794, 0.079876, -0.288752, -0.189965, 0.066651, -0.234491, -0.359569, -0.043417, -0.282972, -0.155017, 0.054946, -0.169015, -0.080655, -0.056042, -0.201009, -0.028872, 0.098893, -0.094680, -0.207506, -0.271727, 0.018341, -0.117548, 0.107748, 0.110331, -0.025678, -0.107358, -0.158982, 0.120802, -0.099088, 0.072150, -0.191247, 0.155010, -0.628153, -0.143468, -0.119457, -0.025062, -0.004037, -0.208668, -0.026808, 0.178766, -0.197334, 0.122899, 0.074733, 0.093225, 0.107529, -0.207119, -0.064793, -0.123778, -0.186838, 0.054302, -0.006748, -0.133124, -0.063510, -0.167307, -0.158687, 0.086731, 0.140196, -0.079828, -0.047717, -0.338164, -0.095423, -0.138265, 0.139379, -0.309601, 0.076962, -0.068206, -0.253320, -0.329807, 0.012388, -0.222217, -0.090057, -0.352075, 0.050240, -0.064026, -0.025235, -0.029649, -0.031427, -0.202358, -0.217198, 0.139613, 0.137182, -0.206840, -0.163929, -0.063661, -0.181069, -0.011727, 0.095927, -0.087793, -0.031651, 0.006664, 0.017880, -0.146189, 0.021822, -0.497456, -0.334363, -0.087707, -0.182223, -0.214008, -0.460392, -0.119521, -0.127829, -0.153761, 0.021490, -0.149584, -0.095543, -0.163464, -0.216903, -0.314546, 0.082874, -0.135102, -0.164788, 0.060837, -0.119603, -0.247537, -0.095030, -0.050598, -0.144354, -0.105414, 0.019763, -0.169100, -0.092464, -0.310862, -0.367564, -0.218086, -0.189239, -0.157957, 0.047910, 0.025625, -0.280525, -0.041094, -0.238281, -0.133697, -0.135949, -0.353889, -0.030238, -0.175816, -0.119634, -0.250638, -0.157873, 0.108338, -0.166380, -0.357075, 0.020822, -0.121319, -0.101512, 0.168465, -0.226154, -0.042662, -0.041533, -0.401046, 0.082728, 0.058741, -0.368285, 0.132504, -0.240546, -0.017158, -0.481149, -0.075357, -0.199214, 0.106419, -0.213288, -0.137568, 0.021927, 0.025859, -0.051207, -0.116764, -0.116074, -0.256507, -0.102179, 0.033369, -0.140477, 0.028945, -0.125228, -0.156870, 0.069161, -0.176054, -0.061882, 0.026513, -0.099903, -0.057858, -0.208266, 0.086023, -0.164165, -0.173005, -0.004587, -0.207764, -0.187146, 0.181162, 0.039864, -0.229800, -0.094517, -0.044083, 0.161238, -0.130347, -0.051978, -0.163251, -0.216595, -0.235104, -0.066852, -0.332365, -0.088711, 0.072506, 0.198287, -0.101503, -0.110663, -0.145988, -0.071089, 0.054303, -0.044956, -0.032636, 0.009171, -0.152150, -0.039499, -0.103562, 0.032176, -0.068836, 0.096465, -0.226020, -0.035099, 0.167104, -0.244859, 0.025106, -0.229106, -0.131545, 0.137786, -0.087991, -0.107535, -0.085334, -0.225929, -0.323530, -0.038319, -0.050399, 0.209961},
	    {-0.169022, 0.023207, -0.231225, -0.065698, -0.146651, -0.106285, -0.175318, 0.042418, -0.074527, -0.076575, -0.082399, -0.154996, 0.141372, -0.076156, 0.171446, -0.071639, 0.135608, 0.224081, -0.020306, -0.143409, -0.280388, 0.096979, 0.068796, -0.242435, 0.109133, 0.157729, -0.060149, -0.137704, -0.183481, -0.231790, 0.071183, 0.118988, 0.060977, 0.038692, -0.015595, 0.130825, -0.431507, -0.198515, -0.065452, -0.198641, -0.244419, -0.022606, 0.168456, -0.059592, -0.054712, 0.120048, -0.133168, -0.210902, -0.255879, 0.067671, 0.017093, -0.186127, -0.245855, -0.005963, -0.184039, -0.307019, -0.054100, -0.148498, -0.082727, -0.146562, -0.149643, -0.077892, -0.011758, -0.060485, 0.092268, 0.139574, -0.103528, 0.069894, -0.080443, 0.104890, -0.189834, -0.211081, 0.065400, 0.027086, -0.119134, -0.473910, -0.132073, -0.081975, -0.278603, -0.160798, -0.154794, 0.139561, -0.122576, -0.044323, 0.013077, -0.103326, -0.315740, 0.133078, -0.150285, -0.079030, 0.132714, -0.156075, -0.226587, -0.097326, -0.198481, 0.020711, -0.101515, -0.121217, -0.219252, -0.129609, -0.329180, -0.173243, -0.025010, 0.016759, 0.143894, 0.097933, -0.064866, 0.019573, -0.033566, -0.180196, 0.005369, -0.257926, -0.335675, -0.078328, -0.118165, 0.091576, -0.061011, -0.361941, -0.275154, -0.137110, -0.093877, -0.118632, -0.176869, 0.090186, -0.252390, -0.279602, -0.429341, -0.069959, -0.099763, -0.031702, -0.184163, -0.142450, -0.239963, 0.140514, 0.005763, 0.004169, 0.043647, -0.115648, -0.301635, -0.056897, -0.266351, -0.133239, -0.165752, 0.123399, -0.158911, -0.155460, -0.051232, -0.125102, -0.104423, -0.167028, -0.074528, -0.186727, -0.171674, -0.185239, 0.026232, -0.229448, -0.198746, 0.071858, -0.259574, -0.209798, -0.380870, -0.276940, -0.048361, -0.165640, 0.053662, 0.042008, -0.045512, -0.130454, -0.269577, -0.351144, -0.003386, -0.156470, -0.088709, 0.113661, -0.342465, -0.273483, -0.131618, 0.102885, 0.032753, -0.314392, -0.169368, -0.118420, 0.111094, -0.034037, -0.190255, -0.133441, -0.209043, -0.313853, -0.020833, 0.055321, -0.322811, 0.114041, -0.166727, 0.014803, -0.102238, 0.125567, -0.076291, -0.097781, -0.127978, 0.117725, 0.085174, 0.130766, 0.116325, -0.203272, -0.054703, -0.056219, 0.135010, -0.165807, 0.122567, -0.089406, 0.086819, -0.223493, -0.091256, -0.179645, 0.145090, 0.139944, -0.012737, -0.315810, -0.147812, -0.020667, -0.021300, -0.137185, -0.198031, 0.005057, -0.078512, 0.043684, 0.080981, -0.199602, -0.026746, -0.018164, 0.088227, -0.149526, -0.012964, 0.088719, -0.158859, -0.204376, 0.065968, -0.051056, -0.044704, -0.208766, -0.220458, 0.162660, 0.051369, -0.147615, -0.226938, -0.093236, -0.172683, -0.004564, -0.212732, -0.073212, -0.161296, 0.098233, -0.240278, -0.140910, -0.083288, -0.068735},
	    {-0.135065, -0.225558, 0.268768, -0.214139, 0.120155, 0.165239, 0.014597, -0.175393, 0.067712, -0.179842, -0.167483, -0.082185, -0.358434, 0.022925, -0.432498, 0.056661, -0.294190, -0.012090, -0.158660, -0.048301, 0.038858, -0.245276, 0.000561, 0.185864, 0.172094, 0.138329, -0.141089, 0.134083, -0.165893, 0.093274, -0.438003, -0.345217, -0.119964, 0.107067, -0.073700, -0.028535, 0.178259, -0.052697, -0.292786, -0.199391, 0.107871, -0.133596, -0.407339, -0.141046, -0.201064, -0.411726, -0.196706, -0.130070, -0.053409, -0.353448, -0.149059, 0.026635, -0.092765, -0.395329, -0.222243, -0.149749, 0.039846, -0.046019, -0.200139, -0.356341, -0.156979, 0.227196, -0.301191, -0.082354, -0.278661, -0.323887, -0.050172, -0.117962, -0.227484, -0.260092, -0.072419, -0.276346, -0.243651, 0.131877, 0.117941, 0.016391, -0.115554, -0.366031, -0.040986, 0.113317, -0.054622, -0.167899, -0.172174, -0.044574, -0.036026, -0.163029, 0.063199, -0.028540, -0.120920, -0.135521, -0.065817, -0.091364, 0.079192, -0.118118, -0.314623, -0.117557, -0.185869, 0.068608, -0.191268, -0.159375, 0.069989, -0.036821, 0.009325, -0.254248, -0.314487, -0.109405, 0.124160, -0.161010, -0.265548, -0.060817, -0.113135, -0.119397, -0.033374, -0.266620, -0.070937, 0.089492, 0.060547, 0.196096, -0.259454, -0.119908, 0.000819, -0.025856, -0.130598, 0.094375, -0.023368, -0.221063, -0.090312, -0.209592, -0.127732, -0.341194, -0.270248, 0.075755, -0.298994, -0.474013, -0.357748, -0.011561, -0.032271, -0.136731, -0.014364, -0.021257, 0.056830, 0.101657, 0.112628, 0.085375, -0.281534, -0.077350, -0.162420, -0.171454, -0.213407, 0.059404, -0.238789, -0.019298, -0.027551, -0.254053, 0.126603, -0.051621, 0.140708, -0.192379, 0.129868, 0.024911, 0.077590, 0.000046, -0.130791, -0.085217, -0.114197, 0.020954, -0.212483, -0.018226, -0.118544, 0.125072, -0.335771, 0.170002, -0.411470, -0.026856, 0.191847, 0.086962, 0.028888, -0.390067, -0.196521, -0.241841, -0.146781, 0.188732, -0.423093, -0.003004, -0.056949, -0.158358, 0.155271, 0.131059, -0.327636, -0.317456, -0.059973, -0.054790, -0.069298, -0.178676, -0.150185, -0.596942, 0.030630, -0.256825, 0.123309, -0.156698, -0.245445, -0.131300, -0.293589, 0.058014, -0.285814, 0.186757, 0.013065, 0.095771, 0.153121, 0.175668, -0.216000, 0.044513, -0.192053, -0.206713, -0.308485, -0.100945, -0.310877, -0.203704, -0.149421, -0.421138, -0.145355, 0.063653, 0.159824, -0.175480, -0.221020, -0.241758, -0.250734, -0.387210, -0.544078, -0.077366, -0.418093, 0.136122, -0.412804, -0.033223, 0.149792, -0.393031, -0.215350, -0.442055, -0.086077, -0.353651, -0.097713, -0.090698, -0.140178, -0.263244, -0.077241, -0.123850, -0.215732, -0.046096, 0.009522, 0.184425, -0.002617, -0.137463, 0.028278, 0.031926, -0.191225, 0.032761},
	    {-0.184082, -0.095381, 0.094802, -0.089250, 0.012621, -0.131596, -0.202828, -0.039952, -0.229136, 0.248489, -0.139660, -0.437609, -0.113610, 0.043909, 0.125064, -0.032978, -0.074255, -0.125571, -0.136943, 0.165067, 0.064293, -0.031346, -0.113899, -0.115130, -0.342243, -0.075448, -0.027141, -0.242315, 0.094595, 0.092579, -0.190919, 0.047201, 0.147542, -0.116477, -0.136390, -0.099134, 0.058398, -0.326056, 0.172754, -0.008552, -0.170653, 0.116560, 0.103807, -0.221422, -0.090818, -0.182460, -0.147308, -0.144935, -0.311265, -0.047183, -0.184653, -0.013031, -0.259637, -0.096962, -0.159313, -0.259436, -0.116037, -0.034292, 0.001476, -0.046777, -0.252833, -0.156194, 0.031782, -0.236567, 0.015607, 0.027876, -0.185113, -0.271104, 0.048166, -0.044642, -0.121319, 0.120189, 0.002321, 0.058402, -0.193973, 0.025906, -0.230861, -0.103352, 0.164948, -0.109253, -0.153780, -0.181196, -0.029958, -0.190518, -0.209685, -0.130450, -0.078105, -0.370293, -0.095176, 0.058522, -0.041445, 0.074597, -0.261340, -0.132565, 0.132460, 0.092563, -0.094653, 0.051180, -0.039806, -0.007806, -0.163803, -0.056138, -0.299704, -0.198900, -0.082879, -0.044154, -0.008665, 0.073708, -0.150762, -0.093167, 0.130987, -0.205477, -0.009814, -0.183279, -0.166584, 0.026062, 0.117733, -0.194294, -0.123273, 0.175384, -0.189098, -0.175468, -0.140274, 0.074260, -0.213931, 0.000739, -0.181147, -0.241018, -0.256704, -0.185658, -0.053907, -0.139509, 0.135349, -0.262673, 0.011281, -0.074409, -0.206218, 0.062323, -0.071593, -0.234989, 0.189522, -0.026031, 0.107754, -0.024324, -0.044226, 0.120263, -0.057165, 0.006515, 0.173728, -0.022403, -0.283689, -0.265076, 0.065542, 0.119991, 0.019269, -0.177422, 0.117186, -0.042658, -0.061671, 0.119975, -0.105814, 0.005987, -0.022788, -0.310094, -0.157530, -0.271610, 0.048774, -0.116817, -0.206690, 0.180199, 0.005502, -0.244989, -0.066915, -0.092499, 0.163713, -0.100019, -0.299663, -0.137957, 0.040766, -0.334121, -0.330557, 0.089334, -0.263597, -0.134561, -0.178337, 0.134391, 0.043159, 0.018074, 0.096778, 0.116275, -0.189678, -0.024201, -0.170967, -0.014942, -0.071222, 0.011335, 0.184000, -0.101581, 0.198165, -0.077999, 0.125683, -0.105569, -0.443870, 0.022611, 0.147640, 0.100029, 0.103752, 0.036417, -0.008990, 0.029746, -0.418828, 0.127599, -0.151532, -0.157782, 0.160161, -0.039521, 0.110615, 0.136406, -0.092443, 0.007593, -0.162798, 0.000261, -0.157868, -0.077853, -0.110672, 0.139826, -0.191323, -0.228299, 0.045871, -0.356923, -0.347494, -0.021878, 0.028958, 0.091987, -0.076428, -0.200754, -0.252711, -0.142422, -0.212809, -0.122385, -0.074432, 0.174081, -0.145925, -0.226044, -0.098561, -0.118725, -0.081158, -0.162242, -0.085528, -0.195359, -0.147504, -0.185336, 0.088552, -0.015454, -0.080861, -0.148615},
	    {-0.126029, -0.131866, -0.001028, 0.083548, -0.020981, -0.193369, -0.160832, -0.278736, 0.185909, 0.117150, -0.093361, -0.286350, -0.102095, -0.167165, -0.198086, -0.158256, -0.256466, -0.202289, -0.226428, 0.110115, -0.123810, -0.102270, 0.122026, -0.074499, -0.051528, -0.092824, -0.317483, -0.068720, 0.162393, -0.065699, -0.117684, -0.345075, -0.225290, -0.212960, 0.093273, 0.054410, -0.098465, -0.126428, -0.106570, -0.129310, 0.047306, -0.138939, -0.242693, -0.199117, -0.155885, -0.107211, 0.079677, -0.096698, -0.039253, 0.074813, 0.038760, -0.342587, -0.098123, -0.127627, 0.026605, -0.638344, -0.252561, 0.078333, -0.192902, -0.122214, -0.004012, 0.143694, 0.002957, 0.032765, 0.020679, -0.023490, 0.019589, -0.035690, -0.230893, -0.198889, -0.078302, 0.061899, 0.103282, -0.352748, -0.236856, -0.101647, -0.200731, -0.067465, -0.039341, 0.071274, -0.015593, -0.300929, -0.167028, -0.189938, -0.211688, 0.127508, -0.004999, -0.022953, 0.084682, -0.070543, -0.090234, 0.189626, -0.172939, -0.083797, -0.032886, -0.230763, 0.078154, -0.203600, 0.184613, -0.058844, 0.046413, -0.053898, 0.079726, -0.021315, 0.028091, -0.211888, -0.068115, 0.090263, 0.128387, -0.003431, 0.125046, 0.102204, 0.043366, -0.023920, -0.330008, 0.046958, -0.100928, -0.079401, -0.165061, 0.073427, -0.179958, -0.384070, 0.000926, -0.205500, -0.148179, -0.078652, 0.109287, -0.246644, 0.021732, -0.120114, -0.257990, -0.035950, -0.040015, -0.064712, 0.113949, -0.673645, -0.116562, 0.030316, 0.147580, -0.443105, 0.130576, -0.230486, -0.235662, -0.248528, 0.054121, 0.058378, -0.031678, 0.151925, -0.114859, -0.160068, 0.061480, -0.137871, -0.246920, 0.065320, -0.137390, -0.045501, -0.044855, -0.094809, 0.104961, 0.193202, 0.002160, 0.200828, -0.303182, -0.205880, -0.275279, -0.109838, 0.041145, 0.027767, 0.059317, 0.155280, -0.009154, -0.360134, 0.112678, -0.060232, 0.021633, -0.302856, 0.053926, -0.313227, -0.285064, -0.277096, -0.004241, 0.081177, -0.269754, -0.174719, 0.074282, 0.180864, 0.131245, 0.147216, 0.055514, -0.138487, -0.029057, 0.047075, -0.095987, -0.017710, 0.049971, 0.011329, -0.149293, 0.054164, -0.063780, -0.252028, -0.282661, -0.281924, -0.354314, 0.105600, -0.205016, 0.178122, -0.222628, -0.119591, 0.052600, -0.052070, -0.234629, 0.147380, -0.140361, -0.097316, -0.012785, 0.057223, -0.232144, -0.000703, -0.024721, 0.026380, -0.161770, 0.145655, -0.143109, 0.012450, 0.036285, 0.009192, -0.042273, -0.102863, 0.128752, 0.040566, -0.403549, -0.121630, -0.003258, -0.032000, 0.108500, -0.038586, -0.304522, 0.077344, -0.062719, 0.088058, 0.165099, -0.321942, 0.091309, -0.340756, 0.032841, -0.297067, -0.024432, -0.224225, 0.042910, 0.152076, -0.081397, -0.119777, 0.164452, -0.210464, 0.033168, -0.036497},
	    {-0.071621, -0.058118, 0.144527, 0.085454, -0.121661, -0.125721, -0.066577, -0.626989, -0.101962, -0.115870, 0.091805, -0.296130, -0.099091, -0.035986, 0.000765, -0.238938, -0.050460, -0.236844, -0.235963, 0.042712, -0.137806, -0.074354, -0.001129, -0.020131, -0.176876, 0.104541, -0.385402, -0.263664, 0.037391, 0.124499, -0.177658, -0.470385, -0.113804, -0.247558, -0.055003, -0.094831, -0.179936, -0.129539, -0.009932, -0.103308, 0.104471, 0.101843, -0.323659, -0.182794, -0.207947, -0.164145, -0.151509, 0.016633, 0.044233, 0.079151, -0.130961, 0.098929, -0.148114, -0.154917, -0.068080, -0.400160, -0.266901, 0.066988, -0.050573, 0.106234, -0.074822, -0.086789, -0.126796, 0.148630, -0.324233, -0.095576, 0.010584, -0.111963, -0.090930, -0.057519, -0.051480, 0.173288, -0.084020, -0.137403, -0.199436, -0.156736, -0.157317, -0.052107, 0.078025, -0.121093, -0.078367, -0.336057, 0.049908, -0.184818, 0.068003, -0.233379, 0.052953, -0.284004, 0.072398, 0.162454, -0.131479, -0.203797, -0.254220, -0.110381, 0.011245, 0.091392, 0.018621, 0.003623, 0.089604, -0.247435, 0.070301, 0.087637, -0.139586, -0.120264, -0.127715, -0.231089, -0.049427, 0.083717, -0.266185, -0.101799, -0.043955, -0.071594, -0.262275, 0.072500, 0.070025, -0.056822, -0.176685, 0.066209, 0.098437, 0.179661, -0.409965, -0.287803, 0.024969, -0.101286, -0.131467, -0.139486, -0.018743, 0.175097, -0.064998, -0.129658, -0.232453, 0.169287, 0.171943, 0.022922, 0.100661, -0.510377, 0.058944, 0.074530, -0.192933, -0.437087, -0.024980, -0.051545, -0.036572, -0.087443, 0.059782, -0.000349, 0.144928, -0.100054, -0.280545, -0.064020, -0.109410, -0.089910, -0.189072, 0.119754, -0.083836, 0.016589, -0.016543, -0.198519, -0.070876, 0.135421, -0.185472, 0.189508, -0.143105, -0.063135, -0.154028, -0.159103, -0.171262, 0.056076, 0.143121, 0.145809, 0.128945, -0.092824, -0.133375, 0.080595, 0.012592, -0.138298, -0.129168, -0.183109, -0.129055, -0.403756, -0.185495, 0.203169, -0.382746, 0.007784, 0.109142, 0.128757, -0.047623, 0.104631, 0.173588, -0.031889, -0.110480, -0.004704, 0.003270, 0.020220, -0.218615, 0.017691, -0.156281, -0.000838, 0.058049, -0.177372, 0.119154, -0.253325, -0.460266, -0.152021, -0.056472, 0.197429, -0.135186, 0.039947, 0.061100, 0.059323, -0.152052, -0.035162, -0.166760, 0.105767, 0.099120, -0.243108, -0.203811, -0.023903, -0.180175, -0.029938, -0.439232, 0.046438, -0.106281, -0.094219, -0.278235, -0.140807, -0.205730, -0.254779, -0.066234, -0.005520, -0.396363, -0.035487, -0.053522, -0.106130, -0.147554, -0.123435, -0.056155, 0.160157, -0.177974, 0.156317, 0.044961, -0.159981, -0.242409, -0.243441, 0.182062, -0.074627, -0.203140, -0.114233, 0.157766, -0.025027, 0.043078, -0.112579, 0.146240, 0.012538, -0.155164, -0.150845},
